10324 10
thisisanumber -0.482421 -0.312087 -0.0675581 0.469353 0.0755076 0.00388582 -0.0575096 -0.503859 -0.268807 0.00185459
ana -0.286036 -0.581749 0.0272461 -0.0598692 0.213937 0.481246 -0.27987 0.307123 -0.0075595 0.0107013
ša -0.0877081 -0.630738 -0.0591991 0.116663 -0.555512 -0.0468473 0.30009 -0.00613875 0.253047 0.00265936
kùbabbar -0.41476 -0.376468 -0.212137 0.0256394 -0.0206338 -0.300832 -0.411619 -0.516364 0.0446374 0.00120238
mana -0.535596 -0.467044 -0.144982 0.255462 -0.0644611 -0.200591 -0.20138 -0.411695 -0.225423 0.00518324
gap -0.0479024 0.600521 -0.177668 0.311874 0.101578 -0.101695 0.50437 -0.278568 -0.198674 -0.00794653
gín -0.640554 -0.202592 0.069229 0.415722 -0.0847861 -0.0764795 -0.265669 -0.422275 -0.094691 -0.000808383
dumu -0.795234 -0.130113 0.212309 -0.208 -0.106641 0.0698771 0.310621 0.135409 -0.203413 -0.00221197
ina 0.461937 -0.35192 0.0400158 0.331537 0.117431 -0.426186 -0.118375 0.365872 0.312444 0.00142644
umma 0.296747 -0.481631 0.0613089 -0.234298 0.159532 0.550403 0.11544 -0.0507898 -0.405954 0.00908326
lá 0.50252 0.272046 -0.102351 -0.137501 0.560096 -0.190424 -0.307386 -0.157219 0.258853 -0.00813022
igi -0.748412 -0.0398482 0.340785 -0.146525 -0.0206853 -0.0805444 0.378862 0.230249 0.0557618 -0.0103019
šuma 0.174833 0.181092 -0.328527 -0.264979 0.511435 -0.303125 -0.479179 0.0540942 0.238154 -0.00184964
lu 0.606532 0.0622732 0.10176 0.19834 -0.629915 -0.190015 0.0264766 -0.143865 0.157778 0.00187505
kišib -0.659548 0.188316 0.32047 -0.237923 -0.20112 -0.0427322 0.326572 0.097685 -0.335378 -0.00163178
kima 0.504036 -0.252813 -0.502883 -0.406393 0.0854282 -0.0676471 0.219339 0.127813 0.289643 0.0014061
anna -0.148386 -0.376598 -0.567576 0.632408 -0.0293834 0.00530421 -0.0798368 0.000119343 -0.044257 0.0102498
urudu -0.0596555 -0.468164 -0.0222059 0.368102 -0.275381 -0.0771891 -0.448393 0.00484703 -0.492139 0.0204977
ma 0.0516594 0.00696046 -0.395415 -0.0364383 0.286746 0.623624 0.160207 -0.331531 -0.336404 0.00420402
qíbima 0.0627109 -0.249681 -0.0241789 -0.175649 -0.254362 0.465405 0.227229 0.0227278 -0.66708 0.0160141
ištù -0.278014 -0.341017 0.107756 0.0580103 0.664125 -0.148484 -0.158936 0.323486 -0.291463 0.00269437
puzur -0.288695 -0.321744 0.575566 -0.028094 0.194392 0.298076 0.15636 -0.43707 -0.134295 -0.0118324
il -0.353912 -0.332113 -0.102912 0.216133 0.521298 0.216063 -0.398106 0.0992408 0.320555 -0.00626307
ata 0.541117 0.12059 -0.30914 -0.275393 0.218514 0.277696 0.0660624 -0.525012 0.0943964 -0.00488518
iští -0.258042 0.152795 -0.365796 -0.236918 -0.422902 -0.0621872 -0.490488 0.00803793 -0.420958 0.0200491
gú -0.130628 -0.58395 -0.258404 0.321231 -0.191546 -0.0122608 -0.109022 -0.119865 -0.540555 0.0189817
mìma 0.0587359 0.014795 -0.0247442 0.242878 -0.109529 -0.0725164 -0.241949 -0.0286041 0.844865 -0.0142569
alimki 0.302349 -0.495466 0.0503571 -0.27569 -0.0462276 -0.321157 0.0971203 0.538885 0.255152 0.00231228
ki -0.68253 0.0234295 -0.00903703 0.0351224 -0.134752 -0.282426 0.0537023 -0.247601 -0.515726 0.00465962
túg -0.143609 -0.256007 0.000210843 0.692655 -0.260952 0.287058 0.399663 -0.0534473 -0.0983341 0.00138378
malá 0.601939 -0.386786 -0.554539 -0.176718 -0.230494 -0.0324743 -0.0565729 0.0310585 -0.017367 0.0141445
gínta -0.284026 -0.170627 -0.280107 0.406229 0.525468 -0.463817 -0.0360953 -0.138195 -0.153176 -0.00141935
adí 0.502548 0.00523773 -0.30441 0.208648 0.298465 0.115419 -0.204616 0.583455 -0.136595 0.0133485
libi 0.216335 0.0443865 0.0141366 0.0438143 -0.423715 -0.332376 0.197175 -0.630455 -0.314641 0.00154992
šíim -0.0921 -0.164919 -0.0585644 0.451455 -0.441733 0.0298364 -0.542443 -0.325066 -0.21793 0.0126817
sig -0.0586663 -0.147689 -0.240171 0.313126 -0.499554 0.27788 -0.227163 -0.28912 -0.490302 0.0180405
qíbi 0.0753258 0.00391061 0.0121524 -0.142104 -0.250579 0.388849 0.248398 -0.168868 -0.737293 0.0128262
ṭuppáam 0.141979 -0.374391 -0.202787 -0.528821 -0.270426 -0.140015 0.264064 -0.00987422 0.485419 -0.00658417
kàriim 0.0907788 -0.272031 -0.116351 0.309583 0.317907 -0.322118 0.238744 0.412188 0.497227 -0.00977028
abi 0.393171 0.173743 0.0454888 -0.231971 0.0527077 0.00821735 0.525968 -0.588648 0.0918851 -0.0149868
itukam -0.276584 -0.173395 0.0146819 -0.0316194 0.610928 -0.473615 0.301561 0.164468 -0.243817 -0.00478564
iṣéer -0.437675 -0.0527522 0.217878 -0.227375 -0.207467 -0.262924 -0.0185984 -0.156369 -0.672474 0.00879093
úlá 0.494652 -0.169333 0.334595 -0.164071 0.419888 -0.0279121 -0.393747 -0.190038 0.328715 -0.00966372
amakam 0.439129 0.226912 -0.498458 -0.347072 -0.0389579 0.258906 -0.266065 -0.0339818 0.372241 0.00111566
túgḫia 0.288147 -0.151558 -0.507568 0.645403 -0.312365 0.0552082 0.111449 0.0403961 0.016402 0.0101891
ašur -0.353478 -0.0584586 -0.614273 -0.0839456 0.269527 -0.00508732 0.502995 0.0350655 0.209651 -0.00847122
anakam 0.70928 -0.239381 -0.179508 -0.208181 0.127295 0.423558 -0.187276 0.189779 0.0675187 0.00830528
išaqal -0.414167 -0.0695973 0.0817477 -0.156667 0.326607 -0.562192 -0.166547 0.173779 -0.445082 0.00507742
ṣarupáam -0.735803 -0.281578 -0.152135 -0.154496 0.0464398 -0.103359 -0.152225 -0.344703 -0.287284 0.00300861
anaku 0.686417 -0.199734 0.142171 -0.304226 0.488202 0.0279357 0.0605828 -0.193398 -0.0161993 -0.00511176
kùgi -0.266696 -0.57418 -0.101095 0.0115421 -0.0947977 -0.0876073 -0.199433 -0.640487 0.083463 -0.00207777
išu -0.36998 0.0110029 0.405441 -0.310776 0.244372 -0.156652 -0.0273873 0.123769 -0.618735 0.00415244
šuištar -0.630917 -0.461351 -0.074323 -0.187574 0.26584 0.366866 -0.053597 0.155702 0.139914 -0.00264497
anim -0.114547 -0.144424 0.265188 0.243046 -0.537605 0.436982 -0.246919 -0.0493236 0.414381 -0.00368669
qé 0.00757418 -0.308746 0.589213 0.0990227 -0.411678 -0.179975 0.217811 -0.35231 -0.238221 -0.00358489
adíin -0.490094 -0.132896 0.34603 0.54826 -0.270372 0.26201 -0.197887 0.178176 -0.0871268 0.00354478
ašumì 0.0600316 -0.616176 -0.103952 -0.249587 0.109373 0.466446 -0.187432 0.390582 0.0994899 0.00941885
limuum -0.397159 -0.0522255 0.134363 -0.108107 0.35731 -0.353342 0.558767 0.187918 -0.303237 -0.00627185
šuutma 0.368428 -0.490938 0.267937 -0.0853122 0.45783 0.43593 -0.142891 -0.0345158 0.122627 -0.00464393
im -0.136714 -0.32858 0.646889 -0.0963162 0.220504 0.107785 0.128415 -0.486733 -0.021255 -0.0157605
aṣéer 0.3006 -0.207929 -0.526418 -0.0702904 -0.435179 0.307694 0.280346 0.208044 0.262363 0.00628842
anše -0.291199 0.0195566 -0.455928 0.697646 -0.183525 0.11431 -0.0497724 0.177041 0.183061 0.0040098
ašùr -0.275346 0.0313233 -0.486937 -0.0301958 0.185897 -0.0151388 0.67031 0.0337998 0.275461 -0.0120959
anakuma 0.643828 -0.388716 0.119631 0.0370488 0.218826 0.515451 0.0418717 -0.0435503 -0.0915013 0.00262651
atùnu 0.212473 0.291874 -0.48989 -0.292471 -0.230763 -0.331275 0.203999 0.125158 -0.462709 0.0135446
atama 0.491589 -0.316238 -0.175008 0.145818 0.435637 0.504294 -0.0743053 -0.131045 -0.194803 0.00535448
úṣaáb -0.549943 -0.180454 0.113475 0.0707336 0.194134 -0.583632 0.394986 -0.00479836 -0.0810604 -0.00876728
ṣíibtám -0.282493 -0.0253678 -0.0364165 0.105275 0.488753 -0.705695 0.137769 -0.128705 0.133601 -0.0126716
iatí 0.21306 -0.29972 -0.684896 -0.347013 0.115912 0.126126 0.196324 -0.0910994 0.298704 -0.000691094
itu 0.083172 -0.174981 0.310583 -0.154001 0.188781 -0.475584 0.27598 -0.168885 -0.591827 0.00118087
šébi 0.356041 0.0821577 -0.0242245 -0.0599535 -0.579572 0.00555661 -0.0166926 -0.547083 -0.340152 0.00725502
pušukeen -0.35613 -0.512457 -0.226444 -0.18954 0.381053 0.407613 0.252964 -0.163409 -0.121753 -0.00131786
kàniiš 0.19386 -0.10611 0.141658 0.120034 0.35369 -0.102271 -0.013117 0.782062 0.206919 -0.000289484
enumašur -0.609407 -0.450527 -0.26849 -0.344338 0.0154251 0.277387 -0.215664 0.107828 0.070406 0.00476818
šàba -0.279962 -0.602081 0.0076579 0.570388 -0.17752 -0.00882863 -0.0609388 -0.300882 -0.0559067 0.00319014
kam -0.283231 0.168062 -0.395147 0.123536 0.68117 -0.115779 0.146887 0.317431 0.055319 -0.00627767
meat -0.103927 -0.144077 0.126862 0.69665 -0.223433 0.115451 0.130538 -0.0860693 -0.509576 0.0101131
awatim 0.287056 -0.0154074 0.292713 -0.384096 0.520402 -0.00223519 0.238233 0.430822 0.225821 -0.0110808
amurištar -0.742345 -0.430728 -0.200707 -0.106382 0.234618 0.1698 -0.125021 0.124273 -0.0881262 0.00394609
damgàr -0.088457 -0.509964 -0.637457 -0.246484 0.15436 -0.223131 -0.053075 -0.10516 0.262773 0.00142359
ni 0.230111 0.341754 -0.0537618 0.095993 -0.0443883 -0.0733935 0.642975 -0.498733 0.156444 -0.0157937
kunukia -0.199679 -0.195399 -0.332317 0.0418436 -0.616722 0.479342 -0.0804692 -0.270876 0.0939341 0.00655109
šu -0.177472 0.30632 -0.153353 0.0267563 0.33369 -0.162911 0.116508 -0.657415 0.371377 -0.0202291
aláḫiim -0.531502 -0.196888 -0.427662 -0.369455 0.15363 0.374695 -0.0494347 0.219411 -0.205178 0.00919218
ašurmalik -0.738645 -0.285051 -0.0255478 -0.254701 0.390837 0.210135 0.0522226 0.104869 0.0727127 -0.00640113
šítí 0.0132003 -0.472167 -0.45154 0.449971 0.050066 -0.0197139 -0.296512 -0.370928 0.176309 0.00323313
qátí -0.0842322 -0.216773 -0.18976 0.304509 -0.116175 -0.519511 0.549914 0.298796 0.155492 -0.0025089
inumì 0.0766672 -0.143064 0.275718 0.425843 0.242781 0.329253 -0.198972 0.621431 0.0621174 0.00298279
aḫi 0.404079 0.0329806 -0.351638 -0.239684 0.272437 0.40354 -0.138578 -0.505418 0.170152 -0.00407202
la 0.452841 0.0676866 -0.202698 -0.0931635 0.690718 -0.260365 -0.274836 -0.061764 0.0918507 -0.00357434
kàruum 0.0982374 -0.0683642 0.237321 0.0412351 0.448717 0.142714 0.282846 0.602792 0.367336 -0.0108617
dingir -0.322019 -0.145162 -0.627542 0.00144485 0.339593 0.0161111 -0.0355704 0.463777 0.202782 0.00155473
ḫaamšatim -0.494077 -0.0545034 -0.245362 -0.0564342 0.483725 -0.324582 -0.160865 0.216062 -0.409172 0.00732063
diri -0.276838 -0.343071 -0.408257 0.0549786 -0.436073 0.212554 0.133364 -0.518513 -0.00133422 0.00366896
ašar 0.550814 0.114537 -0.334352 -0.168898 -0.317775 -0.0935263 -0.111838 -0.155245 0.534097 -0.00338696
nidíin -0.533366 -0.234934 0.378308 0.485861 -0.259386 0.00532698 0.27188 -0.126827 0.142382 -0.00975731
aḫama -0.505482 -0.284587 -0.0784971 0.344775 -0.454984 -0.104987 -0.213146 -0.38649 0.140802 0.000229627
ášqúl -0.444101 -0.0887749 0.436766 0.585277 0.12601 -0.0988098 -0.301619 -0.0074976 -0.20054 -0.000187553
ḫamuuštim -0.459655 -0.147078 0.174417 -0.0134918 0.0344385 -0.406172 0.202672 0.336163 -0.548653 0.00727241
kà 0.167505 0.00540982 -0.187675 0.0742182 0.268029 0.0692493 0.33709 -0.736093 0.254832 -0.0166377
manaim -0.360704 -0.101548 -0.211705 0.169683 0.509324 -0.597871 0.209375 -0.122036 -0.0183625 -0.00775631
ašùrmalik -0.732203 -0.320047 0.0414654 -0.190879 0.300263 0.239209 0.138151 0.140728 0.210704 -0.00904831
šunígin -0.393744 -0.453722 -0.0517561 0.467489 -0.310554 -0.249351 -0.0123897 -0.310316 -0.234863 0.00658963
mamaan 0.257306 0.471799 0.236673 -0.415536 0.133823 -0.302342 -0.318435 0.146011 0.366267 -0.00978675
ṭuppuum -0.345455 -0.311338 0.0612245 -0.37697 -0.496313 -0.41174 0.254081 -0.0225293 0.212758 -0.0045453
ištar -0.504984 0.0417296 -0.628778 -0.18733 0.204939 -0.0273659 0.39474 0.0474302 -0.0992633 -0.00101229
inaa -0.328395 -0.298654 -0.398854 -0.203069 0.5532 0.327879 0.241808 0.139279 -0.0503818 -0.00108176
šabu -0.404191 -0.509593 -0.125077 -0.0873396 -0.46383 0.183337 0.181759 -0.312539 0.258029 -0.00251304
lam -0.166289 0.0759857 -0.597287 0.275969 0.539554 0.170527 -0.260272 -0.0908287 0.157666 -0.0024931
ibaší 0.573474 -0.264029 -0.348588 0.032201 -0.338148 -0.409165 -0.276097 -0.0351018 0.139376 0.010533
manata 0.0974736 -0.337126 -0.050605 0.514404 0.340895 -0.548029 0.0417287 -0.163725 -0.226173 0.000991584
gal -0.11657 0.509564 0.328434 0.124682 0.0204639 -0.156873 0.227079 0.628794 0.102734 -0.00693942
ašurimìtí -0.756975 -0.373955 -0.156143 -0.0189912 0.311139 0.12079 0.242109 0.0513149 0.0305661 -0.00521513
šaduasú -0.447905 -0.442817 -0.329609 -0.0396342 -0.282887 0.0669056 0.138242 -0.463239 0.258496 -0.00380367
kutani -0.00415301 -0.345201 -0.424611 0.694119 -0.183849 0.1077 0.233663 0.0171302 -0.101101 0.00888531
enumašùr -0.553206 -0.294386 -0.251254 -0.370679 -0.0672704 0.339166 -0.178066 0.390353 0.0254825 0.0082333
ḫamuštim -0.442886 -0.147795 0.16366 -0.015748 0.0643451 -0.37979 0.246691 0.346318 -0.555765 0.00708889
ašursipa -0.598967 -0.529604 -0.202555 -0.109207 0.438151 -0.118472 0.0764704 0.00129739 -0.0217317 -0.00282866
kunuki -0.0154552 -0.481017 -0.144273 0.128569 -0.682128 0.244793 0.299292 -0.0550252 -0.0687616 0.00878393
naruuq -0.337505 0.216628 0.458921 0.135569 -0.118338 -0.192498 -0.325725 -0.358445 -0.455045 0.00218195
ennanim -0.820991 -0.28807 -0.107988 -0.220707 0.248096 0.0615566 0.179244 0.0240252 0.0122759 -0.00522653
lilikam 0.452056 0.0770532 -0.306343 -0.283102 -0.301023 0.204137 -0.545174 -0.0807632 -0.284426 0.0180538
ennamašur -0.543883 -0.397913 -0.219243 -0.269905 0.22417 0.328548 -0.30318 -0.055442 -0.266145 0.00842195
ṣíbasú -0.323723 -0.139894 -0.292737 -0.436394 0.0335762 -0.429847 -0.062943 -0.530981 -0.11241 -0.00148547
ḫubuul -0.384493 -0.233038 0.205463 -0.356712 -0.438063 -0.370531 0.358846 -0.131379 -0.207375 -0.000968658
qátim -0.191151 -0.217452 -0.411595 0.684232 -0.123628 -0.151839 0.293112 -0.195 0.0806715 1.55637e-05
itur -0.0495996 -0.348459 0.722934 -0.114942 -0.0200873 0.092267 0.0667702 -0.378173 -0.252562 -0.00712374
aputum 0.30323 0.615167 -0.509902 -0.329099 0.074682 0.0404035 0.00123798 0.0262312 0.222106 -0.00283636
aniatim 0.0987747 0.0209208 0.475618 -0.244744 0.54343 0.172591 0.171026 0.450171 0.167451 -0.0113104
niisḫasú -0.331162 -0.37404 -0.228108 -0.0353756 -0.236031 0.185907 0.0557229 -0.694631 -0.0634534 -0.000287743
gír -0.0792716 -0.183284 0.582083 0.158404 0.0924119 0.124447 0.404124 0.0894597 0.523974 -0.0208687
na -0.0262205 0.51923 -0.0183995 0.201524 -0.00347853 -0.0890012 0.480956 -0.325112 -0.47124 -0.00219938
še -0.47518 -0.0493065 0.366511 0.505347 0.227239 -0.0108459 -0.202834 -0.372142 -0.20693 -0.00516975
láqéep -0.736726 -0.239285 -0.332033 -0.0638667 0.288218 0.198368 -0.0288252 0.218197 0.150653 -0.00177281
šuanim -0.723296 -0.312567 -0.0104322 -0.0397474 0.394298 0.287028 0.206327 0.0401093 -0.0591906 -0.0054281
téertakà 0.152627 0.160119 -0.66883 0.0669862 0.371063 0.130711 0.0299738 0.0613029 0.468383 -0.00679522
kuatí 0.582217 -0.330021 -0.329715 -0.363489 0.200008 0.200339 -0.0508614 -0.0579919 0.351959 -0.000770234
šubelim -0.801673 -0.369264 0.0455035 -0.212934 0.20996 -0.0101058 0.0437683 0.0511742 0.191633 -0.00842037
išaqúlu -0.392023 0.136519 0.115659 -0.0483775 0.209762 -0.616848 -0.221527 0.167934 -0.442991 0.00507128
šéep -0.0361405 -0.444516 -0.447405 0.310336 -0.31802 0.142484 0.513106 0.108915 0.0240489 0.00506437
díin 0.637651 -0.279832 0.166332 -0.0387023 -0.592968 -0.0987264 0.12433 0.106085 0.00549361 0.00830824
aláhiim -0.298271 -0.222833 -0.42997 -0.435919 -0.0587542 0.491593 -0.180146 0.182652 -0.255421 0.0146756
ašùrimìtí -0.589447 -0.520734 0.0882398 -0.136693 0.300541 0.230075 0.234165 0.0153871 0.243122 -0.0104932
ašurnada -0.803835 -0.242986 -0.290794 -0.0579143 0.311998 0.0647282 0.126627 0.0498598 0.0276408 -0.00355811
anšeḫia -0.0639099 0.0619035 -0.570736 0.673335 -0.262533 0.0326246 -0.0628004 0.14927 0.098262 0.00850284
kù -0.516947 -0.345116 -0.251356 0.211207 0.261849 -0.285273 -0.0908575 -0.473749 -0.12974 -0.00179865
išqúul -0.0948524 0.0888199 -0.0602483 -0.0859141 0.444394 -0.726988 -0.292343 0.178738 -0.106243 0.000910079
ili -0.418527 -0.215199 -0.195408 0.143987 0.342579 0.413661 -0.38946 0.304595 0.273407 -0.00120205
mìim 0.312609 0.151486 -0.315543 0.233375 0.189859 -0.37943 0.0967697 0.520301 0.37956 -0.00331904
kurubištar -0.687825 -0.38282 -0.157991 0.10107 0.472137 0.0852704 0.0593113 0.127846 -0.0433676 -0.00246979
tim 0.0954315 0.337139 0.295141 0.589722 -0.388132 0.217739 0.142441 -0.318948 -0.0953313 -0.00339602
waaḫšušana 0.332314 -0.30279 -0.0442006 0.343362 0.337595 -0.00327726 -0.25826 0.617033 -0.0712034 0.0103663
égallim 0.340156 9.74047e-06 -0.243174 0.645462 0.0682783 -0.149052 0.239016 0.415106 0.201959 0.000390271
alqé -0.000208517 -0.539995 0.363946 0.129308 0.108106 -0.189148 -0.343653 -0.45023 -0.274476 0.00268876
ṣéer -0.0256232 -0.0292709 -0.101014 -0.33335 -0.542195 0.227706 0.0478011 0.46894 -0.432894 0.0193156
lilikamma 0.600739 0.111908 -0.116265 -0.314672 -0.367597 0.257827 -0.441992 -0.101564 -0.110304 0.0124821
kutanu -0.187883 -0.240942 -0.306108 0.526364 -0.437429 0.109437 0.405753 -0.0846025 -0.216499 0.00835375
bani -0.210676 -0.293125 0.568845 -0.128314 -0.254527 -0.162605 0.409466 -0.367112 -0.113626 -0.010825
ta 0.202418 0.64829 -0.170077 0.331555 0.0380251 -0.0648953 0.395068 -0.247698 -0.259121 -0.0028899
kùki -0.0200055 -0.427593 -0.0323173 0.107301 -0.282148 0.0784034 -0.210271 -0.742418 -0.0174845 0.00112363
ikunim -0.737287 -0.300238 0.0165122 -0.142335 0.430537 -0.200785 0.114114 0.073259 0.0954144 -0.00925706
taášpurani 0.594208 -0.353619 -0.0604521 0.0889783 0.0401426 0.439655 0.124215 0.11713 -0.427055 0.0143545
ibašíú 0.458326 -0.0821814 -0.0518757 -0.00492483 -0.773624 -0.154683 0.183258 -0.0867432 0.109266 0.00494228
šunuma 0.536625 -0.464292 0.348536 -0.306871 0.331603 0.202087 0.142967 0.0945903 0.0291258 -0.00418185
eláma -0.6045 -0.603217 0.00341987 -0.0316809 0.106252 0.218949 -0.155249 0.24341 -0.179712 0.00775361
eziib 0.173213 -0.207112 0.308809 0.198822 -0.760752 0.0925376 -0.0249469 0.00376486 -0.304606 0.0126495
du -0.193016 0.141802 0.438888 -0.231772 -0.299833 0.340195 0.14781 -0.576844 -0.0951893 -0.0101284
šalimašur -0.436631 -0.554605 0.0559177 -0.428573 0.126086 -0.168641 -0.124268 0.389043 -0.0303836 0.00437242
ennasúin -0.605565 -0.389432 -0.0506577 -0.474735 0.336341 -0.00221928 -0.0174977 0.20165 0.0567828 -0.0026171
túgkutani -0.167631 -0.374962 -0.101398 0.734371 -0.0887957 0.140547 0.255261 0.121792 -0.253974 0.0077123
mìšu 0.437306 -0.234382 -0.343536 -0.0726902 0.472501 0.154616 -0.176397 0.102989 -0.477808 0.0153772
ṭuppìim 0.00799131 -0.110538 -0.154539 -0.366052 -0.0657894 -0.450031 0.614596 0.0470544 0.343804 -0.0119755
šalimašùr -0.414691 -0.645794 0.07883 -0.285052 0.0671484 -0.0316983 -0.106208 0.401351 0.202939 0.000939708
abini 0.508964 -0.285148 0.000481396 -0.184374 -0.356473 -0.322211 0.519552 -0.00580453 0.139891 -0.00183564
amurdingir -0.461438 -0.356094 -0.343592 0.0408054 0.407666 0.449374 0.152677 0.116321 0.173947 -0.00378918
túgkutanu -0.207803 -0.277752 -0.123065 0.506652 -0.315807 0.0107619 0.562356 -0.0650864 -0.26991 0.00435388
šímìim -0.0254892 0.312074 0.0460627 0.54117 -0.0892086 -0.00807898 -0.480166 0.0682985 0.489829 -0.00615847
ikupía -0.567146 -0.527454 -0.0721766 -0.222671 0.0833424 0.46857 -0.111912 0.0664011 0.0695826 0.00168179
ašùrnada -0.616358 -0.245569 -0.429232 -0.262255 0.327648 0.162407 0.20518 0.0744624 -0.168828 0.00178585
qéú 0.1003 -0.293477 0.614427 0.0625345 -0.351771 -0.287822 0.215484 -0.355707 -0.155474 -0.00605468
bi 0.26865 0.294488 0.367111 0.281466 -0.23137 -0.137953 0.361855 -0.467848 -0.290536 -0.00608298
naášakum -0.0958096 -0.331942 -0.0970179 0.0589874 -0.56486 0.521565 -0.0221391 -0.377452 -0.149701 0.00775988
awaat 0.150654 -0.0619144 -0.175198 -0.225213 0.503202 -0.644533 0.167869 0.17625 0.213002 -0.00827389
ennasúen -0.659089 -0.223153 -0.00541471 -0.261917 0.392113 0.246314 0.341983 -0.130183 -0.0603421 -0.00880789
abušalim -0.756549 -0.225497 -0.208327 -0.234686 0.19001 0.215918 -0.0626409 0.0425731 0.312368 -0.00669898
ṣíibtim 0.0339095 -0.48064 -0.154993 -0.166752 0.37725 -0.535825 -0.100252 -0.365808 0.159474 -0.00652417
ṣarupuum -0.752874 -0.0884263 -0.120257 0.0417374 0.0792744 -0.314905 -0.137102 -0.201269 -0.385101 0.0041903
šumì -0.0319893 -0.649898 -0.210064 -0.411541 -0.100089 -0.397637 0.284363 -0.0721575 0.0430321 0.00103572
išqúl -0.0820069 -0.0399469 -0.135584 0.0173109 0.468501 -0.709628 -0.238788 0.0395964 -0.268339 0.0042166
ikupìa -0.618446 -0.161222 -0.185909 -0.245406 -0.0659605 0.422277 0.208592 -0.0925911 0.400549 -0.00954188
ašurdu -0.765825 -0.37271 -0.146693 -0.164745 -0.0555187 0.149693 -0.258327 0.153879 0.144794 0.00257156
dug -0.379891 0.354506 0.369136 0.297068 -0.0639347 0.11035 -0.374285 -0.330256 -0.357128 0.00170691
amurašur -0.802667 -0.212982 -0.234192 -0.324305 0.232839 -0.0862987 -0.0224796 -0.0181775 0.0378477 -0.00352463
šálmaašur -0.486678 -0.288372 0.0550057 -0.630712 0.0164972 0.229313 -0.295815 0.145437 0.122383 0.00108295
úšébi 0.388702 -0.148995 0.413076 0.0444166 -0.541778 0.113013 0.0813141 -0.411689 -0.253637 0.00182336
ṭuppušu -0.133806 -0.494526 -0.257555 -0.516484 -0.0366623 -0.461341 -0.148508 -0.236881 0.0595298 0.00155693
úkàal 0.264847 -0.480379 0.281009 -0.507831 -0.140538 -0.420786 -0.00631485 -0.200445 0.131396 -0.00352142
ama 0.493842 0.00237284 -0.263596 -0.296708 0.204314 0.397843 0.529738 -0.0131602 0.096762 -0.00542038
iḫiidma 0.381596 0.330991 -0.668148 -0.225312 0.0392139 0.178899 -0.0792884 -0.290504 0.137109 0.00173259
idísúen -0.665699 -0.252686 -0.188608 -0.0626939 0.438798 0.268742 0.228777 -0.195499 -0.0124365 -0.00796118
me 0.323165 0.25678 -0.316687 0.103715 0.37094 -0.34795 -0.0909592 0.186803 -0.548167 0.0126678
baáb 0.225464 -0.292941 0.74864 -0.0635969 -0.192735 -0.0889008 0.237082 -0.277919 0.00818032 -0.0113795
súen -0.483224 0.111523 -0.656544 -0.095062 0.0149365 0.0113552 0.359878 0.130445 -0.259968 0.00530583
šuatí 0.0704925 -0.150859 -0.115988 -0.662363 -0.0090561 -0.228639 -0.132497 -0.130879 0.557966 -0.00941315
belí 0.389448 0.192482 -0.257436 -0.22723 0.413243 0.263482 0.0634371 -0.547781 0.192787 -0.0100309
nikàsí 0.0588413 -0.605233 0.129735 0.372851 0.451889 -0.241215 0.278372 0.134871 0.0705886 -0.00611256
šíbutíni -0.482654 -0.201732 0.29613 0.143623 -0.0546335 0.170673 0.5891 0.145859 0.339283 -0.0143038
idíniatíma -0.000746826 -0.096617 0.355279 0.233529 0.286172 0.120598 0.483739 0.343308 0.493666 -0.0170209
idíin -0.146567 -0.418686 0.622633 -0.0641708 -0.375469 0.0233816 -0.261959 0.0707317 -0.296934 0.00779125
elálí -0.770836 -0.228249 -0.165041 -0.281704 0.091429 -0.0763274 0.30769 0.183279 -0.123211 -0.000147379
dínama 0.0420314 0.18459 -0.539539 -0.104193 -0.632948 -0.0356839 -0.340239 0.0449226 -0.19039 0.0185381
luqútim 0.203495 -0.584796 -0.484087 0.171266 -0.264046 -0.077677 0.153587 0.330665 0.192619 0.00982162
niil -0.264194 -0.457387 -0.234182 0.101132 0.417469 -0.0637548 -0.48184 0.00632811 0.35962 -0.00374284
šímaam 0.283947 -0.13525 -0.765888 0.159081 -0.0803486 -0.161637 -0.283156 -0.092567 0.250111 0.00759379
ninda -0.35112 0.089653 0.454798 0.288038 0.126802 0.200174 0.0677566 0.176551 -0.606232 0.00517702
amurdutu -0.759927 -0.144325 -0.00262333 -0.350172 0.331199 0.0479245 -0.0563214 -0.264703 0.0383276 -0.00909618
šusúen -0.594995 -0.0821463 -0.0657204 -0.135182 0.460139 0.261534 0.429331 -0.0543277 -0.215826 -0.00652792
agap -0.0553484 0.570637 -0.332185 0.169301 0.252598 0.109121 0.569097 -0.060107 -0.115596 -0.00795736
idíabiim -0.572213 -0.502491 0.140508 -0.532392 -0.0104895 0.0207981 0.0734861 0.118478 -0.0436947 0.000183195
rabi 0.0199993 0.289907 -0.0703377 -0.100466 -0.243702 -0.299401 0.239798 0.686718 -0.325274 0.00997379
buzazu -0.319456 -0.43174 0.251565 -0.337015 0.211072 0.425062 -0.258415 -0.212465 0.287825 -0.00913467
ṭuppí 0.268664 -0.107245 -0.432171 -0.354229 -0.330469 0.172059 0.370106 0.205709 0.411201 -0.000941498
kunuku -0.177026 -0.486874 -0.281367 0.329725 -0.440989 -0.0429436 0.368697 -0.124931 -0.286714 0.0106922
išuú -0.257111 -0.0379085 0.479614 -0.569098 0.0908303 -0.296092 -0.199806 0.0496237 -0.35717 0.00116842
idíašur -0.720585 -0.266093 -0.290449 0.0212103 0.389926 0.0261544 0.267801 0.0876063 0.0350869 -0.00513741
ašuridí -0.709429 -0.288546 -0.186802 -0.448 0.125632 -0.0194886 0.0437684 0.251296 -0.0667101 0.00250938
ìlíalim -0.648017 -0.421525 -0.270268 0.0129946 0.287029 0.0767752 0.303311 0.224645 -0.0562336 -0.00036735
ṭuppíim 0.154923 -0.18815 -0.147399 -0.468237 -0.0945497 -0.472032 0.539181 0.14672 0.194766 -0.00583299
luqútám 0.259704 -0.270937 -0.488062 -0.142908 0.0123703 0.16077 0.205549 0.332968 0.547469 -0.00249553
abia 0.160113 -0.388043 0.176192 -0.552753 0.0515307 -0.216711 0.395887 -0.29249 0.275461 -0.0137115
ublam -0.208329 -0.478055 0.0730379 0.249607 -0.327083 0.344677 0.0433643 -0.468896 -0.313313 0.00604587
lášu 0.460594 0.271352 -0.496833 -0.0185692 0.146486 0.0310367 -0.539666 0.0909422 0.197511 0.00725023
denlílbani -0.753383 -0.354204 -0.221391 -0.0622744 0.280763 0.196634 -0.125062 0.175274 0.0332244 0.00112538
qáqáad -0.264526 0.155961 0.177498 -0.177049 -0.119975 -0.826222 0.122699 -0.0499677 -0.114797 -0.0045728
ašurbani -0.797547 -0.334994 -0.0828121 -0.142043 0.260694 0.214849 -7.39133e-05 0.0976281 0.115094 -0.00480077
mee 0.407707 0.203484 -0.357752 0.0184718 0.484674 -0.17301 -0.00760729 0.246139 -0.476978 0.0109729
ṭuppì 0.232138 0.0370432 -0.432917 -0.342916 -0.316885 -0.0388755 0.520847 -0.206011 0.325503 -0.00652027
idíabi -0.46426 0.261391 -0.613358 -0.121908 0.058305 -0.0703374 0.219733 0.407263 -0.0356244 0.00286253
mìnam 0.577298 0.0106142 0.202194 -0.227018 0.347598 0.444729 0.240694 -0.282135 0.105064 -0.0108418
aḫšalim -0.505807 -0.562363 -0.179217 0.0148613 0.340684 0.343506 0.0401203 0.10475 0.219899 -0.00357745
atata -0.871676 -0.0259153 0.186599 -0.125624 0.121887 0.220103 0.114363 0.106534 0.148645 -0.00930315
taášpuraam 0.4248 -0.465233 -0.243783 0.174499 0.212082 0.320683 0.299122 -0.191812 -0.360585 0.00827289
úzua -0.818028 -0.259776 0.00603524 -0.0363535 0.229354 0.240724 0.0513201 -0.0709083 0.23121 -0.0105324
šébilam 0.370401 0.103211 -0.648617 -0.00988735 -0.127302 0.192937 -0.362836 -0.361819 0.0955962 0.00768854
ašùrdu -0.714856 -0.24667 -0.220968 -0.231128 0.0788427 0.412845 0.0704746 -0.226336 0.0109154 -0.00277279
šudenlíl -0.64253 -0.355696 -0.36294 -0.411021 0.11435 0.11363 -0.185637 0.0641274 -0.0453505 0.00551982
današur -0.53498 -0.340633 -0.507927 0.0487082 0.260694 0.371668 0.041952 -0.0625263 0.160086 -0.00134848
rakiis -0.452809 0.346029 0.135246 -0.253487 -0.0618422 -0.616238 0.304721 -0.000840478 0.0773137 -0.0119546
ašùrbani -0.699545 -0.24183 0.111407 -0.137279 0.109703 0.470805 0.0636598 0.158725 0.248867 -0.00749559
iṣbaatniatíma -0.0613034 -0.289512 0.331332 -0.333793 -0.116171 0.340142 0.341086 0.119439 -0.55675 0.007616
mala 0.567434 -0.270641 -0.638275 -0.107643 0.203974 -0.102549 -0.077718 0.0457475 -0.166845 0.0136465
kura -0.775308 -0.349628 0.0596896 -0.0682802 0.318318 0.0833121 -0.10958 -0.0473192 0.24484 -0.00875675
imdídingir -0.377908 -0.466627 -0.276087 -0.0372976 0.527214 0.2716 0.287532 0.139202 0.0427199 -0.00355529
ápqíid -0.550273 -0.118371 0.0843906 0.14491 -0.531327 0.344854 0.358735 0.0905794 0.113407 -0.00237492
láma 0.0219708 0.0706148 -0.654417 0.189167 0.450689 0.187044 -0.374155 0.183948 0.109594 0.00471851
mu 0.281856 -0.0744006 0.313476 -0.0897596 0.211315 -0.379437 0.0845593 -0.206842 -0.668468 0.00487637
šukubiim -0.809159 -0.225261 -0.0846119 -0.203873 0.200958 0.0509662 -0.129099 0.270554 0.157192 -0.00254401
idíištar -0.726144 -0.383122 0.153562 -0.130365 0.426231 0.027772 -0.0372979 0.0446029 0.1069 -0.00787652
ištéen 0.506923 0.468359 -0.309548 0.193567 0.110172 -0.493109 0.173194 0.0681148 0.015837 -0.00097128
lánim -0.302378 0.161255 -0.782427 0.0643194 0.30401 0.0742992 -0.215569 0.136721 0.0536761 0.00417782
meere -0.155952 -0.116584 0.356598 -0.671206 -0.280365 -0.0500133 0.141479 0.305243 -0.277481 0.00484768
dam -0.140651 0.442853 0.152341 -0.250071 -0.404668 0.531481 -0.202742 0.0268485 -0.315744 0.00781821
aḫuúa 0.0569147 0.361493 -0.691034 -0.30806 -0.0926081 -0.180925 0.233012 0.25431 -0.156467 0.0088287
šuut 0.138212 -0.178848 0.192994 -0.472256 0.315557 -0.465124 -0.323536 -0.0393841 0.384166 -0.00958402
sígḫia 0.0272005 -0.321856 0.0162425 0.510444 -0.493629 0.0613428 -0.491835 0.0117398 -0.182158 0.0164169
idíašùr -0.801028 -0.243726 -0.189308 0.0133931 0.251673 0.140736 0.254247 0.0855464 0.135059 -0.00748448
awilim 0.703473 0.0198019 -0.0764616 -0.0536646 0.363553 0.152802 -0.0218461 -0.0738606 0.481396 -0.0100099
kùbabbarápkà 0.32101 -0.343209 -0.403322 0.125186 0.409909 0.0954053 -0.252889 -0.453302 0.202795 -0.00195925
dínam 0.150828 -0.390728 0.501226 -0.297667 0.360474 0.144946 -0.194888 0.217908 0.361601 -0.00977508
téertíkà 0.547507 -0.443662 -0.543048 0.239806 0.157327 0.131229 0.0568444 -0.0257983 0.0960225 0.0070873
tí 0.232827 0.604001 -0.0283411 0.155893 -0.10168 -0.0256813 0.582553 -0.254781 -0.17399 -0.00642023
téertí 0.523462 -0.000522021 -0.593511 -0.018367 0.229158 0.12412 0.0834713 0.432111 -0.089765 0.0118567
išqúlu -0.002947 0.194641 -0.00360204 0.10896 0.34842 -0.795183 -0.234395 0.0106732 -0.155766 -0.000193113
dadaa -0.603523 -0.175822 -0.240436 0.137058 -0.0630205 0.52725 0.0910065 0.146725 0.337102 -0.00352806
qádum -0.334141 -0.428057 0.0998839 0.496302 -0.254844 -0.407061 0.173358 -0.150056 -0.238021 0.00399451
šeam -0.0519323 0.416348 0.327449 0.17698 0.0401159 -0.183281 -0.578178 -0.21618 -0.388041 0.00504451
ennamašùr -0.575882 -0.434927 -0.179814 -0.317149 0.216154 0.3932 -0.210711 0.0554287 -0.0204672 0.00329302
ašítíšu -0.524452 0.440356 0.415564 -0.215741 -0.0601751 -0.139638 -0.299055 -0.255604 -0.18005 -0.00508343
gapma 0.155576 0.518551 -0.256823 0.186238 0.269691 0.213499 0.53894 -0.185538 -0.219552 -0.00570797
iḫdama 0.0623671 0.432148 -0.724686 -0.194808 -0.159241 -0.278458 0.0125899 0.161972 -0.101168 0.00986548
túghia 0.189987 -0.152009 -0.362797 0.490746 -0.639117 0.150902 -0.0711498 0.125913 -0.0786747 0.0163549
imdílim -0.313914 -0.543661 -0.344826 -0.0311035 0.462997 0.329643 0.237468 -0.031849 -0.000852782 -0.00152758
šaášqíil 0.105251 0.210563 -0.151936 -0.413696 -0.243019 -0.0269905 -0.0967552 -0.688289 -0.289727 0.00236304
belúmbani -0.638233 -0.171815 -0.567604 0.00550666 -0.0796442 0.282098 0.0618376 0.0428798 0.230466 0.000519411
šíbi 0.299735 -0.299502 0.0513679 -0.571502 -0.0255059 -0.386825 0.36356 0.0598325 0.304088 -0.0080651
tùšébi 0.422214 -0.0813412 0.221997 0.0328352 -0.520135 0.142788 0.0805944 -0.543031 -0.250468 0.00224343
awatám 0.717864 0.0481509 0.216866 -0.3852 0.385876 0.0253834 0.0809772 0.171924 0.0856695 -0.00506485
naášakunutí -0.206151 -0.0124292 -0.343981 -0.122841 -0.794248 0.171802 0.100162 -0.0630226 -0.203547 0.0127435
mìšuum 0.740956 0.0148609 0.110225 -0.243134 0.259064 0.268764 -0.21853 -0.195931 -0.246159 0.00488434
ahama -0.505536 -0.263468 -0.0854181 0.183564 -0.546388 -0.164985 -0.337186 -0.298655 0.0388453 0.00508592
ašurtaakláku -0.715685 -0.189871 -0.436666 -0.151962 0.275963 0.129551 -0.0756143 0.130585 0.172462 -0.00172181
šíamatim -0.130578 -0.697677 0.0128592 0.0910233 0.0281344 0.343657 -0.239968 0.127575 0.426397 -0.00146083
današùr -0.592306 -0.281135 -0.354254 0.0467197 0.04592 0.491516 -0.0490104 0.15365 0.267639 -0.000267343
li 0.121462 0.756888 0.0342691 0.272407 -0.0758591 -0.172828 0.387648 -0.200471 -0.050621 -0.00940028
ku 0.116809 0.604704 -0.108755 0.402853 0.217163 0.141084 0.448097 -0.135986 -0.221778 -0.00546737
buruušḫadum 0.324234 -0.263794 -0.268567 0.322163 0.274454 0.0121134 -0.025819 0.664205 -0.13674 0.0126246
limìim -0.267169 -0.514458 -0.0172827 -0.0618054 0.251229 -0.543487 0.382934 0.0989786 -0.182763 -0.00200901
iláqé -0.222255 -0.253873 0.46753 0.00309888 -0.1295 -0.599156 -0.375313 -0.00191833 0.189109 -0.00497991
šukubi -0.495862 0.310414 -0.583624 -0.025284 0.00920222 -0.103767 0.175396 0.416882 -0.0375238 0.00325227
ṣalámu -0.346737 0.00591944 -0.281231 0.631262 -0.529823 0.00614259 0.100541 -0.0337535 0.0240728 0.00620528
itbulu -0.462198 0.0498916 -0.202033 0.568911 -0.300398 -0.364783 0.0916264 -0.279253 -0.0641656 0.000484587
buzutaa -0.578318 -0.421749 -0.122362 0.0215802 0.510072 0.154774 0.19316 0.223386 -0.033072 -0.00317825
libakà 0.613279 0.18127 -0.0749896 0.308768 0.297011 0.0428944 -0.178227 -0.294972 0.416756 -0.00997839
dutubani -0.752492 0.0169054 -0.0934333 -0.0522688 0.337639 0.3993 -0.160558 0.0132534 0.17824 -0.00655991
šuḫubur -0.477973 -0.554939 -0.0504975 -0.135558 0.400734 0.240356 0.233619 -0.257512 0.0391518 -0.00783463
kuunkàma -0.00390894 0.296358 -0.65129 -0.176195 -0.535077 -0.133258 -0.21046 -0.0147405 -0.0213835 0.0126113
qátíšu -0.478891 -0.142395 -0.205075 0.611479 -0.0347365 -0.0577888 -0.194143 0.0831416 0.418637 -0.00459267
ani 0.511526 0.176791 -0.0690032 0.541924 0.507294 0.202981 -0.0793612 -0.0400645 -0.00498638 -0.00227339
ṭur -0.0782657 0.611814 -0.32825 -0.0605165 -0.0900834 0.40031 -0.414833 0.182299 -0.16866 0.010102
aláḫuum -0.404815 -0.322465 0.0994211 -0.511382 -0.247266 -0.0218112 -0.0481355 0.515536 -0.101516 0.0108776
idínam -0.0332796 -0.524675 0.432705 0.0590931 0.132875 0.167662 -0.398545 -0.45639 0.061072 -0.00504134
adíi 0.547223 -0.209445 -0.0626664 0.443923 0.421544 0.350108 0.209748 -0.0352861 0.0942584 -0.00339871
ašurgal -0.600333 -0.27292 -0.287028 -0.24757 0.0589221 0.43221 0.164208 0.182271 0.265151 -0.00323873
šálmìšunu -0.460334 0.27071 0.08668 -0.165699 -0.110736 -0.726144 0.176307 -0.0527529 -0.0134875 -0.00720245
kunukini -0.317654 -0.515095 -0.459941 0.255255 -0.360537 0.297495 -0.0633551 -0.123053 0.121725 0.00803948
abuni 0.381101 -0.410912 0.393827 -0.108949 0.141099 -0.128912 0.15797 -0.496404 0.305978 -0.0152548
šulábaan -0.720991 -0.400212 -0.0742692 -0.011974 0.0538361 0.163853 0.41862 0.125355 0.0479138 -0.00448443
ašurbeelawatim -0.890304 -0.240676 -0.0690822 -0.0516318 0.104262 -0.0801993 -0.175713 0.108866 0.0392152 -0.000513013
rubaim 0.021093 0.13994 0.592878 0.162131 0.0617826 -0.0906942 0.287643 0.515589 0.343608 -0.0133439
úṣúbu -0.448766 -0.0200173 0.172551 0.161242 0.122525 -0.69672 0.344121 -0.0484879 -0.109592 -0.00826745
kunuuk 0.0277593 -0.314581 0.134713 -0.367091 -0.59614 -0.17382 0.486268 0.000512313 0.103661 -0.00167231
ali 0.303583 0.282286 -0.304506 -0.119506 0.0313902 -0.18179 0.164278 0.185812 0.702201 -0.0130017
kulumaa -0.422387 -0.299382 -0.36295 0.0976147 0.0907924 0.425193 -0.088243 -0.048213 0.525069 -0.00679025
šununu -0.442592 -0.438202 -0.416475 0.0704705 0.230747 0.497573 0.0239356 0.131592 0.110401 0.00235905
tadíin 0.149873 -0.324509 0.15992 0.366307 -0.0978648 0.077485 -0.22951 -0.615975 -0.377374 0.00616016
luublam 0.00478706 0.197966 -0.439951 -0.276341 -0.595146 0.386531 -0.258881 0.100531 -0.0608187 0.0142941
ḫaarmìim -0.256542 -0.446318 -0.123526 -0.532277 -0.10604 -0.440047 0.258272 -0.194708 0.134729 -0.00460525
irade -0.0469704 -0.0132084 -0.191065 0.262686 -0.631572 0.438037 0.382645 0.0952942 0.175093 0.00126281
tur 0.223679 -0.48905 0.665087 0.276039 0.139614 0.201901 -0.0949819 0.110685 -0.0733972 -0.0018833
díinma 0.154781 0.0355565 -0.424245 -0.249825 -0.643353 0.278122 -0.245428 -0.260358 -0.0697542 0.0126507
ikribi -0.0216193 -0.221584 0.206415 0.29655 -0.309571 0.159218 0.390493 -0.646272 0.0592305 -0.00966699
qátía 0.526288 0.131191 -0.13999 0.465644 0.12483 -0.11812 -0.194817 -0.52374 0.140702 -0.00383827
amurašùr -0.801956 -0.199128 0.151945 -0.131152 0.0384859 -0.0257303 0.423415 0.0194269 0.0590914 -0.010856
maam 0.66808 0.169576 0.384663 -0.020822 0.394726 -0.219028 0.00325373 -0.0501263 -0.269592 -0.00223056
ašurdug -0.707387 -0.245555 -0.219955 -0.135387 0.327426 0.111737 0.0116262 0.370059 0.140511 -0.00223419
šanaat -0.0144079 -0.0414332 -0.066539 -0.123687 0.497291 -0.621209 -0.121652 0.257253 -0.379321 0.00572756
kùbabbarápšu 0.0238278 -0.322896 -0.102265 0.273001 0.0557702 -0.569596 -0.350073 -0.481239 -0.0978666 0.00288121
ide 0.552042 0.309412 0.564991 -0.0388834 -0.0386137 0.092483 0.166948 -0.294581 0.208658 -0.0152774
ḫaḫiim 0.237534 -0.011508 -0.108182 0.558528 0.189694 -0.0905353 0.0501864 0.671028 0.0579083 0.00555811
alikiim -0.0343579 0.383182 -0.716512 -0.0780617 -0.0296948 0.159952 -0.38731 -0.216536 0.0191059 0.00739574
ašùridí -0.721765 -0.0677029 -0.177844 -0.144443 -0.0935997 -0.0107094 0.243808 0.500783 -0.0700646 0.00364523
abikà 0.511011 -0.289514 0.0791593 -0.360186 -0.00308759 -0.0919241 0.484105 -0.286746 0.289189 -0.0117215
šukubuum -0.632811 -0.392793 0.0684082 0.270414 0.234875 0.208229 -0.133734 0.330234 0.208246 -0.00248671
kulia -0.310088 -0.207249 -0.0929354 -0.40356 0.145921 0.442033 -0.234239 0.152925 0.521582 -0.00744205
adíni 0.501803 -0.0829002 -0.0277502 0.41268 0.417715 0.0565446 -0.304553 0.223706 0.373992 -0.00305107
agu -0.609191 0.447916 -0.200284 0.147003 0.333509 0.0277999 0.0944295 0.146937 -0.352074 4.38348e-05
igap 0.0547475 0.498415 -0.251401 0.127989 0.207369 -0.205973 0.667328 -0.0784956 -0.120757 -0.00881101
ší 0.234202 0.748189 -0.103869 0.31279 0.0724396 0.183571 0.246724 -0.250673 0.0947129 -0.00975644
talqé 0.146873 -0.503828 0.473233 0.154506 0.0535613 0.182848 -0.349267 -0.452106 0.02426 -0.00335537
awatum 0.553024 0.232956 -0.0765998 -0.244797 0.307315 -0.268628 0.0428715 0.49538 0.228614 -0.00257395
niiš 0.127857 -0.35764 0.569927 -0.346634 -0.00684678 -0.279976 0.219686 0.40921 0.064097 -0.00399007
ìlídan -0.512276 -0.310211 0.178181 -0.546926 0.0416727 -0.427129 0.145383 0.0531229 0.0057724 -0.00567139
gu 0.162838 0.411733 0.467413 -0.0150713 -0.598467 -0.110223 -0.132203 -0.28974 0.014149 -0.00416836
dutuši 0.15327 0.246907 -0.613179 -0.0338117 0.0155414 0.200708 0.327669 0.41621 0.316667 -0.000576413
dmartubani -0.749299 -0.00607315 0.064331 -0.0149346 0.443566 0.0859023 -0.08621 0.335264 -0.125816 -0.00181735
pánia 0.225356 0.328937 -0.531209 0.161124 0.173498 0.239616 -0.564923 0.106627 0.0719418 0.00919874
kurara -0.818192 -0.259561 -0.187301 -0.12359 0.149459 0.274597 0.164385 -0.00323224 0.0745176 -0.00346251
ahi 0.394376 0.0317123 -0.341785 -0.409486 0.10567 0.423065 -0.291291 -0.417584 -0.0244766 0.00360035
za -0.346707 0.541047 0.0164297 0.213035 0.315921 -0.115351 0.330034 0.0655589 -0.44952 -0.00241575
ba 0.146901 0.594058 -0.0783634 0.370136 0.129221 -0.0914231 0.382852 -0.342463 -0.284159 -0.00484055
atùnuma 0.46444 -0.483892 -0.431766 -0.334297 0.109298 -0.054392 0.100373 0.134997 -0.333316 0.01466
ṣúḫari 0.0829526 0.413232 -0.445094 0.352272 0.101083 0.359582 -0.266649 0.178131 0.377282 -0.00140403
kùbabbaráp 0.162256 -0.504965 0.381625 -0.477261 -0.0837143 -0.221847 0.331439 -0.25902 -0.0329852 -0.00643093
meerú -0.01718 -0.20168 0.550715 -0.581952 -0.166401 0.0789813 0.301329 0.115728 -0.256818 -0.00110815
luqútum 0.168992 -0.315739 -0.66958 -0.0169662 0.137802 -0.112212 0.0855153 0.427867 0.29774 0.00496663
nénuma 0.57498 -0.476829 0.0237659 -0.35817 0.0720293 0.149307 0.356298 0.037661 -0.245607 0.00533243
ḫinaa -0.302921 -0.709905 -0.351506 0.0724285 0.251425 0.15922 -0.0436408 0.232709 0.166631 0.00387647
kuzizia -0.58739 -0.432613 -0.322588 -0.0644928 0.108766 0.333029 -0.337503 0.150675 0.0571597 0.00677811
šubelúm -0.320291 -0.545141 0.00151245 -0.291162 0.0356816 0.170647 -0.407681 0.455981 0.0293369 0.0098641
ìlía -0.515015 -0.43945 0.0371801 0.185325 0.333717 0.41572 0.128249 0.148932 0.278795 -0.00847142
diškurbani -0.760509 -0.0630169 -0.0535688 0.0144602 -0.0810689 0.385479 -0.0846826 0.199029 0.344045 -0.00469008
ṭuppée 0.305022 -0.10172 -0.334986 -0.30252 -0.434901 -0.0507512 0.505431 0.0638323 0.354715 -0.00284197
aniútim 0.0729568 -0.126453 0.168325 -0.206448 -0.278219 0.184953 -0.0814998 0.402072 0.700104 -0.008211
qáatkà 0.559498 -0.534886 -0.0912364 -0.134275 -0.230323 -0.193976 -0.229137 -0.201946 0.301343 0.00249948
dadía -0.548576 -0.506296 0.0258752 -0.174039 -0.129199 0.439607 0.303781 -0.0464468 -0.0908741 0.00117621
šuumšu 0.106253 0.0303101 0.791579 -0.229904 0.0292398 -0.027234 0.00126636 0.031817 0.421579 -0.0185782
kunukišu -0.109514 -0.450355 -0.132623 -0.37419 -0.365187 -0.102691 -0.15456 0.00355251 0.581104 -0.00351161
tíirtakà 0.0926809 0.280764 -0.642324 0.0168036 0.261438 0.284629 -0.106867 0.281834 0.378536 -0.00096613
páni 0.386425 -0.313767 0.072499 0.187552 0.013021 0.331612 -0.217143 -0.0549497 0.656508 -0.00769735
ḫaranim 0.163629 -0.245237 -0.167523 0.561698 0.246969 -0.0520446 -0.216336 0.29699 0.498557 -0.00377761
kunukikà 0.169618 -0.594224 -0.142938 0.0249567 -0.278183 0.358777 0.0113176 -0.494583 0.18145 0.000136976
ubláni -0.0871354 -0.707063 -0.0525738 0.284659 -0.422992 0.0979049 0.296818 0.118562 -0.114385 0.0090269
qéma 0.163756 -0.354156 0.526496 -0.0131733 -0.343961 -0.291042 0.221488 -0.420105 -0.153415 -0.00533506
támkàriim 0.0281655 -0.435745 -0.744092 -0.0811125 -0.21465 -0.0351037 0.162748 -0.149699 0.213946 0.0048239
šálmaašùr -0.244314 -0.33794 0.214852 -0.32026 -0.211623 0.2874 0.0506344 0.326348 0.564429 -0.00787602
šurutum -0.221624 -0.326756 -0.104294 0.605372 -0.183234 -0.0126868 0.508034 -0.171872 -0.180053 0.00202637
súea -0.298029 -0.551383 0.210518 -0.368608 -0.0395112 0.287954 -0.178071 -0.314743 0.315485 -0.00768107
ga -0.0719499 0.688654 -0.144656 0.222933 0.194584 0.103934 0.332465 -0.333879 -0.259443 -0.00630199
liwitim -0.183996 -0.212298 -0.311 0.640292 -0.310158 -0.132091 0.426673 0.0327481 -0.0624836 0.00527365
gig -0.384492 0.310614 0.327403 0.251145 0.0952915 -0.164455 -0.518815 -0.365447 -0.18924 -0.00184863
ḫumìit 0.0664908 0.223759 -0.333392 0.123833 -0.105381 -0.141524 0.24871 0.696364 -0.357465 0.0131859
dubsar -0.513735 -0.0221181 0.222808 0.179175 -0.136888 0.204047 0.158401 0.607794 0.291313 -0.004685
lulu -0.791467 0.0496894 -0.253453 0.207382 -0.0736805 0.355399 -0.177902 -0.0895665 0.0646264 0.000369484
ìr -0.181146 0.0363005 0.689801 -0.219402 -0.474052 0.0769753 -0.242698 0.0653479 -0.194459 0.00301379
beel 0.194704 0.196481 0.695233 -0.136065 0.0951801 -0.396947 0.115303 0.0803548 0.337121 -0.0179703
šunu -0.0288461 0.220324 -0.118524 -0.170674 0.0305129 -0.247184 -0.107448 -0.0443596 0.831133 -0.01767
šínišu 0.671772 -0.12922 -0.299213 -0.0925567 0.0237626 0.075988 -0.0537379 0.360068 -0.42871 0.0204688
ašurdutuši -0.770093 -0.184049 -0.356792 -0.000324763 0.197369 0.250127 -0.0577249 0.173568 0.146039 -0.000549288
adída -0.196377 0.0203765 -0.268305 -0.443362 -0.211974 0.41251 -0.0384485 0.360208 -0.47084 0.0182078
únusúnu -0.4249 0.126265 -0.307991 0.547088 -0.479454 0.111561 -0.0430971 0.176443 0.166815 0.00501296
ùlá 0.420675 -0.159509 0.0375705 -0.287046 0.519456 0.157337 -0.371312 -0.221952 0.342336 -0.00834273
idí 0.454369 -0.0940644 0.507268 0.344774 0.0394081 -0.269585 0.426764 -0.109798 -0.199589 -0.00295055
úṣúuršaašur -0.73165 -0.504654 0.210559 -0.027233 0.221891 -0.0589694 0.108001 -0.0509632 0.109886 -0.00841338
dingirbani -0.718163 -0.197979 0.242561 -0.285266 0.12092 0.261231 0.324263 0.0826003 -0.149656 -0.00376946
qíbíma 0.0433772 -0.122917 0.11918 -0.0911526 -0.0934337 0.444355 0.389429 0.159627 -0.671553 0.0114268
úul 0.500784 0.0322008 0.125403 -0.0779915 0.407433 0.035697 -0.159836 -0.493405 0.414906 -0.0153083
ašùremuqí -0.595232 -0.464169 -0.0120878 -0.0576809 0.433659 0.276035 0.088017 0.139416 0.188988 -0.00744167
atalkam 0.678408 0.335835 0.0407638 -0.0148727 -0.350269 0.424867 0.170419 -0.0160382 -0.00804417 0.00212248
anitum -0.0371027 -0.038923 -0.585502 -0.516313 0.228149 -0.397664 0.00154565 -0.0530557 0.248724 -0.00265671
ašùrsipa -0.53927 -0.449094 -0.247206 -0.31745 0.357676 -0.0443392 0.316738 -0.0998904 0.0637512 -0.00724187
imua 0.473835 -0.116164 -0.0942803 -0.390392 0.549637 -0.116386 -0.421493 0.0234222 -0.039936 0.00332241
libikà 0.584852 -0.391099 -0.168248 -0.00953818 0.163394 -0.233673 -0.289352 -0.403411 0.213697 4.07025e-05
ìgiš -0.233237 0.483817 -0.125869 0.502194 0.0596589 0.312636 -0.355308 -0.322611 -0.0372049 -0.00143446
aniim 0.242828 -0.162971 0.252477 0.160469 -0.670674 0.13798 -0.343658 -0.0397966 0.346723 0.00260912
naší -0.0650591 0.0158312 -0.0290291 -0.0557577 -0.845264 0.367579 4.50636e-05 0.0157925 0.167155 0.00494921
meeḫraat -0.123504 -0.300886 -0.384826 -0.303203 -0.117008 -0.489071 0.422988 0.00864515 0.327164 -0.00536355
tum 0.392075 0.382026 0.156432 0.53567 -0.318302 0.0406357 0.314289 -0.270282 -0.0839069 -0.00347636
itùru -0.215571 0.055395 0.611227 -0.373752 0.219279 -0.308632 -0.270422 0.301651 0.121841 -0.00827597
úzni 0.252199 0.333013 -0.372669 -0.289729 -0.0473649 0.492539 2.92805e-05 0.0320013 0.487619 -0.00599442
úbi -0.0632248 -0.202574 0.577088 0.0532729 -0.486256 0.161482 0.33191 -0.336089 -0.115981 -0.00652976
ašùrtaakláku -0.526657 -0.451751 -0.515068 0.062088 0.262916 0.144211 0.051738 0.233503 -0.080453 0.00630987
akidíe 0.151416 0.0269037 -0.286353 0.518776 -0.543788 0.374303 0.236352 -0.000958642 -0.144929 0.0104668
pánitim 0.214366 -0.668193 -0.343294 0.322971 0.196245 -0.0511879 -0.327621 0.163895 -0.02501 0.0133396
maalútim 0.0604544 0.0955028 -0.365348 0.0449997 0.60721 -0.494221 -0.237899 0.0584676 -0.246613 0.00542681
úbiil -0.373872 -0.388019 0.290351 0.0982651 -0.621666 0.299582 0.0507808 0.169976 -0.0440013 0.00616286
šuašur -0.804477 -0.268823 0.0623775 -0.279496 -0.148399 0.0301315 -0.0651844 0.278289 -0.0772721 0.00394576
ezibu 0.346368 -0.092869 0.287861 0.129477 -0.741615 0.183337 0.117862 0.112206 -0.235987 0.0106481
aḫuwaqar -0.527749 -0.36939 -0.090114 0.0179501 0.234517 0.390045 0.0749353 0.39529 0.315275 -0.00440687
ašùrgal -0.485426 -0.159336 0.0519009 -0.217253 0.060868 0.462137 0.0771352 0.235659 0.541446 -0.0115742
šíkam -0.271285 -0.323328 0.0914721 0.30484 -0.143453 0.088886 -0.561385 -0.138341 -0.490304 0.0161407
šíatí 0.386276 -0.1941 -0.315999 -0.135939 0.254761 0.0966051 -0.178291 0.430696 0.531664 -0.0013703
ḫaarmaam 0.0119273 -0.573036 -0.156391 -0.535748 -0.105989 -0.32053 0.103868 -0.256246 0.242567 -0.00319198
awilúm 0.614454 0.0185354 -0.0393423 -0.250573 0.566292 -0.121456 -0.174794 0.0928842 0.283107 -0.00632804
iṣéria 0.423894 0.281284 0.260118 -0.229205 0.169845 -0.426933 -0.174469 -0.513278 0.0231925 -0.00975972
beúláat -0.713441 -0.0499683 0.0905343 0.0359777 -0.392855 -0.292887 0.292494 -0.235596 0.0175762 -0.00692136
idíabuum -0.688654 -0.58823 0.151284 -0.0633531 0.122674 -0.177828 0.0148412 0.114299 0.0676876 -0.00281259
niisḫatim -0.0309758 -0.437538 0.0728418 0.725965 0.0729853 -0.0717323 0.165425 -0.0915686 0.340696 -0.00825778
pánimma -0.054724 0.289992 -0.76476 -0.0448574 -0.12074 0.00550417 -0.41512 -0.135138 0.10538 0.0085719
ìlí -0.352304 -0.0263383 -0.460125 -0.110391 0.448625 -0.00207922 0.52528 -0.192079 0.135374 -0.0125681
ištía 0.606696 -0.250075 0.268065 0.28103 0.384147 0.0798916 -0.151386 -0.0908008 0.357541 -0.00949106
nénu 0.641352 -0.270276 0.29815 -0.480409 -0.0134783 0.126996 0.0240339 -0.0550886 0.280252 -0.00557742
iláak 0.273172 -0.264806 0.110995 -0.277462 0.316804 -0.611213 -0.266565 0.158615 0.284333 -0.00425394
manaum -0.263094 -0.315648 0.0216603 -0.0255262 0.424397 -0.668603 -0.107219 -0.267662 0.0419526 -0.00833866
kùbabbarpìkà 0.193073 -0.318866 -0.341971 0.507833 0.178201 -0.0317643 -0.00613106 -0.534843 0.225225 -0.00474336
itùar -0.342567 0.0982127 0.601855 -0.420514 0.0669276 -0.301386 -0.287713 0.212967 0.0266115 -0.00629726
ummeani 0.14325 -0.156506 -0.159823 -0.536154 -0.403121 -0.300897 0.458407 0.200949 0.153225 -0.00016035
idínu -0.00432833 -0.153717 0.667582 0.22753 -0.347483 -0.138495 0.326338 0.326014 -0.110815 -0.00157582
aḫišu -0.571641 -0.254694 0.484212 -0.423322 -0.110079 -0.173708 -0.0979469 0.146467 -0.152254 -0.000401094
anina -0.527627 -0.197063 -0.0890182 -0.588065 -0.210416 0.289143 -0.248702 -0.168669 -0.093209 0.00504738
úla 0.520111 -0.371715 0.296104 -0.26362 0.30906 -0.160834 -0.309927 -0.212676 0.258816 -0.00640802
ilikam 0.537812 -0.307139 -0.00451231 -0.401082 0.0672283 0.230018 -0.479558 0.0583392 -0.255903 0.0142471
ṭuppìa 0.163389 -0.106039 -0.441584 -0.385372 -0.212665 -0.166624 0.390099 -0.378335 0.358175 -0.00824727
šína 0.105364 0.509481 -0.193082 0.256206 -0.561394 -0.348513 0.180497 0.180617 -0.125077 0.00650214
ataa -0.741294 -0.234273 -0.173858 -0.116504 0.230713 0.318855 0.311895 -0.0169308 0.0937323 -0.00714877
wedaku 0.24176 -0.121059 0.457719 -0.153021 -0.447225 0.280391 0.371534 -0.37866 -0.124413 -0.00528236
kùbabbarpì 0.287185 0.101743 -0.204867 -0.387108 0.452192 -0.230376 0.0282912 -0.556238 0.160373 -0.012107
ṣúbatí 0.507878 -0.125764 -0.298389 0.470478 -0.373136 0.00425722 0.158102 -0.0839287 0.371902 -9.72829e-05
idnaa -0.795032 -0.16891 -0.409101 -0.142463 -0.0142242 0.137199 0.206981 0.0488158 -0.0314476 0.00143805
liibší 0.342765 0.361845 -0.315029 -0.106057 -0.474584 -0.105147 -0.434488 0.0471706 -0.322973 0.0188951
ṭuppákà 0.287454 -0.558806 -0.43518 -0.384635 0.231351 -0.154641 0.190657 -0.223606 -0.0187652 0.00196424
dí 0.0414144 0.536563 0.0337643 0.0681067 0.0288381 -0.0190486 0.634492 -0.392716 -0.168936 -0.0113087
tašameú 0.425595 0.301949 -0.146551 -0.273986 -0.512867 0.409218 0.0912655 0.00516548 0.289748 0.000162469
enumašurma 0.0888899 -0.467443 -0.100475 -0.414677 -0.104097 0.526716 0.021355 0.141089 -0.405141 0.0156627
šè 0.25412 0.0364181 0.168168 0.0404231 0.514851 -0.382177 0.144517 -0.208433 -0.552216 -0.000312192
kùbi -0.312847 -0.0876532 -0.236371 0.575568 -0.0361222 -0.299432 0.139631 -0.467815 -0.250094 0.00182391
aḫua 0.0294389 0.333041 -0.719083 -0.23675 -0.167427 -0.0621317 0.0698724 0.255728 -0.318868 0.0154154
liil -0.287746 -0.190062 -0.322105 0.103693 0.398569 0.0237353 -0.488715 0.0893435 0.484892 -0.0063522
aluwa -0.247139 0.279641 -0.634637 0.0132933 -0.138386 0.233513 -0.418145 0.250103 0.200315 0.00794682
téertía 0.278897 0.213123 -0.838587 -0.209252 0.0340848 -0.0472447 0.127301 0.027343 0.0651388 0.00625445
itukamim -0.211589 -0.0212826 -0.13795 0.162292 0.437744 -0.746815 0.208762 -0.0178136 0.0479055 -0.0081591
adíšuum -0.189536 -0.215195 0.282186 0.57205 -0.0692915 0.113463 -0.587134 -0.0454019 0.182828 0.000401534
kunu 0.240676 0.174206 -0.314906 -0.319799 0.0741023 -0.377448 0.351895 -0.562124 0.0458746 -0.00902759
ašùrdug -0.678541 -0.290083 -0.184438 -0.0517029 0.251924 0.262963 0.256802 0.317461 0.151066 -0.00400492
égallúm 0.449885 -0.142913 0.352577 0.620227 0.152285 -0.0567164 0.0378177 0.0269828 0.361109 -0.0100265
ri 0.0479308 0.763753 0.0152607 0.344766 0.0855654 -0.000247812 0.234083 -0.0726894 -0.344916 -0.00169048
ṭuppìšu -0.228203 -0.417242 -0.381063 -0.302912 -0.0156253 -0.618175 0.0618945 -0.0514444 0.19301 -0.00173167
aláak 0.662949 -0.0190346 0.209063 -0.270142 -0.0494882 0.166182 -0.11245 0.369477 -0.399281 0.0145256
lušébi 0.486959 -0.10549 0.0636098 0.0728965 -0.561581 -0.0289618 -0.0407251 -0.561167 -0.0484986 0.00210463
tíšu -0.0576858 0.0648533 0.581178 -0.286575 0.16922 0.0665513 -0.476389 -0.0668434 -0.436529 0.00378526
belua 0.156684 0.372081 -0.641634 -0.244581 -0.0322572 -0.260525 0.210555 0.200019 -0.31256 0.01155
pìláaḫištar -0.606132 -0.265471 -0.349833 -0.349148 0.218384 0.229612 -0.0333322 -0.140422 0.309313 -0.00691462
dína -0.00855745 0.386706 -0.428018 0.124768 -0.528247 -0.413659 -0.090204 0.0928259 -0.279588 0.0136484
kàniìš 0.113036 -0.307578 0.0565571 0.190493 0.372724 -0.229654 0.0503082 0.702193 0.204686 0.000410499
amtám 0.0535008 0.276421 0.344063 -0.22257 -0.138272 0.299589 -0.683818 -0.15659 0.184682 -0.00193241
šatim -0.157412 -0.00891828 0.30446 0.182583 0.281043 -0.781774 -0.014168 -0.0873391 -0.178112 -0.00616896
púzurašur -0.523498 -0.210294 -0.0080578 -0.374155 -0.0908158 0.257082 0.18839 -0.218373 0.520171 -0.014949
damgàrriim -0.188892 -0.537323 -0.519729 -0.238971 0.188329 -0.104444 0.00112791 -0.344743 0.268309 -0.00343747
tíirtí 0.445113 -0.0438053 -0.439746 -0.395703 -0.0252716 -0.0479736 0.0751698 0.336674 -0.463067 0.0188813
aaldu -0.614002 -0.200804 -0.109361 -0.397499 0.399456 0.0478862 0.0277135 -0.364826 -0.124248 -0.00624536
imṭí -0.21928 -0.422344 -0.202469 0.526287 0.261756 0.0109852 0.0458536 -0.504331 -0.131046 -0.000911482
aláqé 0.282406 -0.433766 0.264168 0.0412992 0.0569365 -0.641088 -0.0800878 -0.268667 -0.23589 0.002446
um 0.0667919 0.496628 -0.0731884 0.141451 0.151913 0.0482992 0.418554 -0.600183 -0.203803 -0.00975456
gi 0.294173 0.084412 -0.000753315 -0.409592 -0.0308448 0.0400549 -0.254388 -0.647749 -0.360405 0.00410203
pániimma 0.0316822 0.347158 -0.800385 -0.151053 -0.0376228 0.107526 -0.296818 -0.0735939 -0.0066297 0.0100496
idísúin -0.670363 -0.452899 0.205111 -0.183527 0.189525 0.0127398 0.0350996 0.182783 0.318547 -0.00993608
zaalpá 0.180545 -0.00280001 -0.218964 0.50435 -0.00771119 0.415239 -0.0959326 0.602322 -0.0847445 0.0123663
amìšaam 0.332408 0.23619 -0.187929 -0.120695 0.107275 0.386219 -0.409233 0.568715 0.126553 0.00888595
šukitim -0.650715 -0.560782 -0.0942376 -0.197923 0.0827265 0.0123153 -0.302983 -0.120734 0.0911752 0.000517983
aḫiim -0.0312862 0.29515 0.0345603 -0.129855 0.356965 -0.294207 -0.243536 -0.190828 0.66577 -0.0203312
adínakum 0.294567 -0.450045 0.265972 0.0724296 -0.00786063 0.285107 -0.309258 -0.526965 -0.261228 0.00409111
illat -0.439958 -0.437554 -0.309115 0.413266 0.0136898 -0.0435432 0.217344 0.36408 -0.249057 0.0101699
qátám 0.437283 -0.75519 0.281672 0.109762 -0.13054 -0.129552 0.0230519 -0.0802247 -0.094205 0.00577592
alim 0.235343 -0.228425 0.623454 -0.249216 -0.187911 -0.335662 0.0237164 0.323623 0.275641 -0.00589993
idíinma -0.00956669 -0.332514 0.728945 -0.0304338 -0.0289382 -0.0269415 0.11916 0.476398 0.0244769 -0.00340686
am 0.1816 0.62517 0.0617649 0.405497 0.385093 0.151426 0.131783 -0.291707 -0.154833 -0.00843008
amutám 0.288873 -0.489863 -0.12806 -0.0680752 0.170668 0.133567 -0.677343 0.126707 0.130569 0.0110647
pèruwa -0.444525 0.608355 0.389125 -0.107262 0.0854386 -0.357054 -0.0896593 0.157539 -0.0130678 -0.00911284
itùwaar -0.272106 0.187939 0.477541 -0.427377 0.15514 -0.43633 -0.38906 0.0414078 0.0321278 -0.00670538
píláaḫištar -0.672097 -0.27849 0.183735 -0.0387258 0.146774 0.39223 -0.242634 0.316004 0.0656968 0.000309991
ašurtákláku -0.681561 -0.129554 -0.21095 -0.470266 0.010483 0.0625302 -0.120999 0.122146 0.352054 -0.00430711
adada -0.567593 -0.218879 -0.00953714 -0.102456 -0.0528513 0.419169 -0.0583475 0.289404 0.496722 -0.00553009
lugalsúen -0.427229 -0.540375 -0.29013 0.117858 -0.0769745 0.526687 0.18432 0.0308202 0.0674888 0.00426723
bazia -0.680521 -0.173532 -0.278336 -0.349408 0.30429 0.149194 0.294911 0.103015 -0.00511818 -0.00438109
annaak -0.307044 -0.304441 -0.448437 0.674327 0.0484729 -0.155805 0.127195 -0.0303989 0.0890445 0.00203571
alaḫiim -0.557344 -0.244985 -0.306301 0.0312844 0.325425 0.266629 -0.0198111 0.050954 -0.493831 0.0107801
luzina -0.395419 -0.377223 0.139297 -0.126609 0.384892 0.537197 0.143897 0.0185044 0.31448 -0.011754
aḫia 0.397973 -0.0327651 -0.0226853 -0.636531 0.0129025 0.201689 0.459167 -0.0762518 0.267338 -0.00856765
ištíkà 0.516438 -0.09965 -0.235845 0.0928431 0.133983 0.232173 -0.0396271 -0.1431 0.665797 -0.0105732
awiil 0.19365 0.674006 -0.0679238 0.387253 0.344843 0.0521009 -0.118302 -0.322658 0.047607 -0.00935109
šíta 0.367717 0.309709 0.378264 0.214649 -0.566256 0.274845 -0.198196 -0.14993 -0.134607 0.00414828
amria -0.924173 -0.14754 0.0610367 -0.121942 0.0791456 -0.0230715 -0.0932161 0.106007 -0.0236584 -0.00223484
kàniiški 0.250394 -0.35071 -0.24817 0.154784 0.419629 -0.0218685 0.0622409 0.631927 0.174279 0.00387006
ṭuppèe 0.321622 -0.00376374 -0.0671001 -0.374807 -0.473275 -0.0850053 0.440595 -0.0116044 0.45447 -0.00810748
masíam 0.0111957 -0.31123 -0.150055 0.0741301 -0.190555 0.142815 -0.272785 -0.177542 -0.765561 0.0220974
amtim 0.0136545 0.150781 0.424337 -0.0629948 -0.289501 0.177592 -0.660042 -0.264639 0.229752 -0.00243803
nadí 0.00249051 -0.676704 -0.0982099 0.296974 -0.425259 -0.111769 -0.237757 -0.287661 0.0296771 0.00912212
amutim 0.0320871 -0.597049 0.267183 0.42356 -0.0744395 0.135653 -0.451368 -0.122304 0.195352 0.00255231
šíimšunu 0.0468524 -0.189996 -0.0727667 0.7679 -0.288509 0.054714 -0.388826 -0.117523 0.059516 0.00771846
úkàlu 0.590659 -0.0906306 0.220894 -0.4556 -0.446264 -0.154356 0.248275 0.0487785 -0.0315972 0.00281508
kenišunu -0.473123 0.329596 0.234542 -0.0981414 -0.0651348 -0.62977 0.316562 -0.0223608 -0.0121574 -0.0101559
sìla -0.00336247 0.492452 0.0230335 0.612261 -0.0639209 0.266165 -0.185255 -0.400049 -0.0151272 -0.00352363
izaaz 0.304042 -0.0825174 0.528057 -0.376107 0.00771535 -0.446924 -0.0359648 0.245467 -0.330002 0.00312905
ášqúul -0.137743 -0.164217 0.411643 0.643002 -0.0613698 -0.0931252 -0.158318 0.283311 -0.372169 0.00875766
ašuremuqí -0.546375 -0.364016 -0.207497 -0.0705845 0.123826 0.602742 0.157743 0.126759 -0.0139997 0.00172067
ḫarani 0.316988 0.162043 -0.39448 0.0984433 0.353377 0.312 -0.0745091 0.59546 0.109755 0.00545452
azu -0.692895 0.0215559 0.0824136 0.0514931 0.00422221 0.433959 -0.39605 -0.0892124 0.242599 -0.00480928
kena 0.25073 -0.739343 0.268624 -0.122583 0.158048 0.274685 -0.0830395 -0.295204 -0.0708069 0.000315593
šurutim 0.0185559 -0.401724 -0.0549284 0.765743 0.0665238 0.0723681 0.335625 -0.100319 -0.0810383 0.000796004
dur 0.204504 -0.387614 0.685881 0.287117 0.0280743 0.283328 -0.100835 0.189897 -0.147867 0.000776041
úšébalákum 0.270078 -0.249583 -0.392742 0.22589 0.014607 0.265515 -0.65608 -0.111755 -0.191525 0.0171517
barini 0.0239053 -0.0561285 -0.477987 0.333498 -0.177813 -0.13527 0.450298 -0.213029 0.483679 -0.00984061
aḫuum 0.156121 0.0135845 0.613259 -0.374091 0.209204 -0.10679 -0.275784 -0.290083 0.346516 -0.0164815
šalimašùrma 0.0593794 -0.568845 0.0261571 -0.435453 0.0608558 0.489427 0.192116 0.196399 -0.225125 0.00814337
púzurištar -0.706139 0.152152 0.0700431 -0.153206 0.0754109 0.378416 0.404589 0.0700564 0.199192 -0.0124929
ṭuppía 0.321888 -0.171131 -0.339848 -0.590409 -0.242076 -0.174627 0.210034 -0.152336 0.366202 -0.00358733
tám 0.390641 0.338519 0.398808 0.342891 -0.133972 0.0694959 0.526151 -0.137702 0.157199 -0.0139928
batíiq 0.121006 -0.379422 -0.457247 0.052818 -0.458734 -0.37542 -0.290254 -0.255535 0.13795 0.00915021
kàšíim -0.458008 -0.0284521 0.157485 0.504222 0.426822 -0.174055 -0.233099 0.330066 -0.164514 0.00065822
ašùrtákláku -0.395497 -0.0550518 -0.179911 -0.672603 0.0330029 0.433313 0.15127 -0.146138 0.122174 -0.00554149
ḫabulam -0.3296 -0.127657 0.170185 -0.465686 -0.0785275 -0.0293678 -0.27456 -0.208538 -0.62111 0.0104952
riiksúum -0.507831 -0.0657849 -0.128944 0.109992 -0.482097 -0.0638086 0.307477 -0.515882 -0.0334422 -0.00389542
iš 0.0425384 0.598368 -0.122256 0.335889 0.371573 -0.144952 0.362219 -0.226699 0.25077 -0.0166961
kùbabbarpìa 0.138929 -0.000776563 -0.581291 -0.0662189 -0.176111 -0.574998 -0.159182 -0.368454 0.0392822 0.00480551
súkàlía -0.747358 -0.299711 0.156193 -0.178919 0.409455 0.0627755 -0.126848 -0.0202064 -0.135753 -0.00286186
alábi -0.456184 0.426892 -0.577231 -0.201035 -0.153604 0.0268749 0.0288969 0.326613 0.0744947 0.0028452
láni -0.195626 -0.0426872 -0.58598 0.216609 0.533395 0.280147 -0.244217 0.101539 0.162208 -0.00053276
enumašùrma 0.208748 -0.314396 -0.0322529 -0.410822 -0.0761043 0.496955 0.00303879 0.238366 -0.507265 0.0171629
ašamema 0.481139 -0.159017 -0.199964 0.00228665 0.110217 0.308217 -0.57021 0.338389 -0.202447 0.0189539
šabuú -0.396283 -0.461273 0.188837 -0.30258 -0.431995 0.0222316 0.0472875 -0.386699 0.232741 -0.0063631
amurištarma 0.288686 -0.566641 -0.124752 -0.0343886 0.0746448 0.625096 0.015487 0.0372745 -0.266719 0.0121725
ṭuppíkà 0.565372 -0.385441 -0.444948 -0.18907 0.279853 -0.174757 0.301354 -0.0233975 -0.010552 0.00326558
ašurmutabi -0.0630209 -0.140494 0.51901 -0.244873 -0.259555 0.135006 0.310323 -0.532772 -0.231539 -0.0082881
hubuul -0.187072 -0.36952 0.240576 -0.375642 -0.52352 -0.38356 0.268265 -0.0762519 -0.139661 0.00165278
ištíšu 0.115219 -0.00475145 -0.511669 0.113846 0.404563 0.108822 -0.086176 0.385595 0.505125 -0.00409322
naábsúen -0.683455 -0.128291 -0.0711251 -0.324022 0.455338 0.143938 0.247082 -0.156207 -0.0342523 -0.00906578
mìliik 0.538872 -0.15362 -0.69677 0.0947124 -0.0676614 0.0700571 0.257025 -0.134986 -0.00964508 0.00776205
annakà 0.135553 -0.315968 -0.456529 0.516549 0.426935 0.0916765 -0.0720103 -0.240197 -0.206109 0.00623258
aláhuum 0.00154374 -0.25414 0.167895 -0.514975 -0.396123 0.122298 -0.408398 0.355337 -0.231508 0.016815
ašurma -0.0559817 -0.0358719 -0.717297 -0.0516202 0.162491 0.250271 0.389976 0.0470937 -0.3538 0.00894947
dingirnada -0.82964 -0.225281 0.044203 -0.331383 0.208004 0.00872951 -0.147844 0.0109286 0.0039638 -0.00338429
tíibama 0.250578 0.25172 -0.65045 -0.0196292 0.140638 -0.0564821 0.385315 -0.00283932 0.403158 -0.00794452
aḫuqar -0.668561 -0.274093 -0.00247837 -0.0368792 0.469653 0.309597 -0.185128 -0.0469325 0.164367 -0.00738608
dutu -0.192034 0.0902719 -0.613619 -0.23349 0.0630381 -0.0751241 0.50327 -0.0654458 -0.379932 0.00463348
išténiiš 0.133779 -0.526727 -0.377111 0.306341 -0.38619 -0.366338 -0.266047 -0.0294715 -0.0448047 0.0153338
ìlíášrani -0.656808 -0.101774 -0.386433 0.346993 0.0378928 0.187432 -0.151048 0.129537 0.336984 -0.00183402
géme -0.140436 0.425707 0.309438 0.138107 0.168463 0.258852 -0.682821 -0.0920273 -0.0143998 -0.00137515
šénišu 0.665363 -0.12895 -0.256247 0.19194 0.161836 0.00582877 0.16931 0.28361 -0.442895 0.0154812
šusúin -0.688196 -0.0487626 -0.327402 -0.329087 0.363691 0.273219 -0.0640361 -0.0324217 -0.0523621 -0.00136251
ababa -0.18312 -0.0732754 0.269032 -0.637 -0.383635 0.0492318 -0.256405 0.368937 -0.125325 0.00940996
da -0.00778612 0.732643 0.00249542 0.343615 0.140167 0.0332727 0.429033 -0.0838947 -0.154701 -0.00840236
isúrik -0.519632 -0.397469 0.343006 -0.181017 -0.14161 0.000368812 -0.40235 0.346804 0.126602 0.00268199
ra 0.193395 0.715946 -0.0694943 0.309083 0.198181 -0.0119307 0.386253 -0.201087 0.107979 -0.013283
ṣaḫeer 0.29289 -0.0843306 0.644113 0.00149148 0.0205429 0.135614 0.373419 0.394559 0.259793 -0.0102286
púzurašùr -0.309227 0.151196 0.35512 -0.329514 -0.0551438 0.634007 0.206401 0.0405458 0.284859 -0.0130119
niisḫatum 0.0638101 -0.132595 0.0313689 0.758218 -0.258138 -0.177012 0.405128 -0.164921 0.0346035 -0.00256063
láqépìim -0.680953 -0.393005 -0.184052 -0.0286845 0.294811 0.27268 -0.174237 0.144675 0.199719 -0.00207259
šaduatám -0.0975697 -0.622258 0.0620868 0.514124 0.0878059 -0.194955 0.00376652 0.262385 0.329394 -0.0029017
ennanum -0.326421 -0.661272 -0.142703 -0.097755 0.229144 0.517617 0.0384701 -0.0305683 -0.0041583 0.00196816
ištarlámasí -0.327985 -0.0460991 -0.000780922 -0.587688 -0.366196 0.181172 -0.404039 0.158826 -0.277681 0.0139347
idaan -0.185263 0.0707844 0.614969 -0.07558 -0.318821 -0.543135 -0.0939911 0.0655956 -0.232267 -0.000660705
aṣbaatma 0.202991 -0.621754 0.329713 -0.389117 -0.0697541 0.368593 -0.222332 0.101256 -0.0863292 0.00694458
šalimaḫiim -0.668932 -0.348849 -0.24812 0.136539 0.214838 0.347256 0.0788869 -0.274959 0.0795295 -0.00494388
taaḫsíistum -0.179279 -0.452738 -0.304437 -0.120272 0.313406 -0.40279 0.271143 0.0298641 0.451448 -0.0105738
idídiškur -0.269447 -0.104915 -0.363987 0.0564367 0.111069 0.690285 0.202872 -0.0768715 0.35702 -0.00696697
abaúa 0.171077 -0.0494059 -0.682371 -0.278036 -0.0401458 -0.438272 0.247831 0.125102 -0.207974 0.0106385
ḫanu -0.563545 0.243971 0.172579 0.00769877 -0.0183024 0.427348 -0.412939 0.00195291 0.362654 -0.00822101
haamšatim -0.473641 -0.210972 -0.241518 -0.212266 0.368492 -0.315192 -0.343099 0.138582 -0.382426 0.0101515
kùbabbarpíkà -0.0462655 -0.658641 -0.353896 0.420384 0.198538 -0.194069 -0.133249 -0.245987 -0.010342 0.00500357
ataaa -0.713638 -0.348752 0.245839 -0.0621241 0.045722 0.351148 0.147091 -0.258779 -0.0189894 -0.00699114
ṭuppìkà 0.355653 -0.494911 -0.501368 -0.0268403 0.428421 -0.0165323 0.228236 -0.149627 -0.123037 0.00377439
laqéep -0.685024 -0.440568 -0.147693 -0.0335434 0.381848 -0.0261043 0.0721851 0.0393844 -0.258364 0.00194473
úṭátám 0.174371 0.447831 0.0926262 0.161964 0.00213707 -0.427629 -0.560341 0.223064 -0.272521 0.0098321
ṣéria 0.483583 0.120167 -0.681563 -0.275563 -0.138089 0.0545042 -0.152016 -0.0221598 0.245429 0.00728858
anitám 0.556166 0.150319 -0.166398 -0.263313 0.19854 0.348986 0.216114 0.240821 0.442326 -0.00732095
zupá -0.72311 0.0192141 0.0739657 -0.366895 0.422715 0.104633 0.165036 -0.13141 0.107772 -0.0136304
šunutí -0.0247388 0.186013 -0.385279 -0.167261 -0.155176 -0.284894 0.172203 0.302218 0.655098 -0.00915106
kuzalli -0.366227 -0.289457 0.127907 -0.146176 0.513333 -0.322498 0.37133 0.29037 -0.206214 -0.0041908
igri -0.406946 0.171519 0.130337 0.619458 0.079199 0.0841143 -0.43683 0.121941 0.272362 -0.00485711
meerišu -0.830575 0.224683 0.161599 -0.0988041 -0.216085 -0.272399 -0.0209621 -0.11074 -0.0760718 -0.0043656
úṣuršaašur -0.435741 -0.362327 -0.247353 -0.241865 0.425167 0.42918 0.236847 0.0692091 0.172186 -0.0056196
šaamší 0.213218 0.324355 -0.533369 -0.0346979 -0.0847477 0.177648 0.142595 0.481916 0.392708 0.000385643
anišaam 0.435136 0.0858581 -0.663184 -0.014149 0.292882 0.067109 -0.312741 0.18045 0.194474 0.00695091
šaášqílášu -0.072094 -0.104156 -0.272754 -0.45909 -0.142528 -0.403719 -0.487727 -0.382914 -0.119199 0.00738235
annakikà 0.0507861 -0.433269 -0.422183 0.581819 0.181242 -0.0573662 -0.193004 -0.192998 -0.261907 0.0120259
mešu 0.18358 -0.0366206 -0.442952 -0.0358633 0.270562 -0.650833 -0.26457 0.133812 -0.254818 0.0117435
ḫaraan 0.0982331 0.301242 -0.545073 0.210521 0.1395 0.126512 -0.225715 0.601444 0.00260194 0.0107817
ṣílulu -0.655142 -0.165982 -0.12487 -0.111844 0.423199 0.115275 0.277917 0.354168 0.135829 -0.00749202
šuuprama 0.699829 0.0668543 -0.138731 0.00407084 -0.0986797 0.286094 -0.325702 -0.162169 0.402026 -0.000323355
udu -0.418523 0.0604025 0.555629 0.510715 0.218368 -0.125161 -0.204513 -0.14933 -0.140358 -0.00664678
qábi 0.318695 -0.201154 -0.163835 -0.319768 0.391935 -0.27569 -0.179236 0.333234 -0.495252 0.0140044
illatat -0.307441 -0.568825 -0.221498 0.234305 0.0232222 -0.29216 0.374386 0.291385 -0.247992 0.00681231
ḫuraṣanim -0.584145 -0.35433 -0.430888 0.0520619 0.388717 0.230081 0.199824 0.000956104 0.0585375 -0.00274103
luqútí 0.359784 -0.063963 -0.803109 0.173027 0.07569 0.175789 0.146649 0.158097 0.0782568 0.00848066
awili 0.39518 -0.00555753 0.427968 -0.10418 0.0350439 -0.596953 0.156013 0.100388 0.374012 -0.0134604
tíirtíkà 0.376052 -0.314566 -0.768931 -0.110074 -0.143396 0.0678289 0.153546 -0.0413939 -0.0630692 0.0126542
atí 0.348127 0.562279 0.130995 -0.515853 0.23182 0.295267 0.0714679 -0.0294322 0.160868 -0.0104082
ašaat -0.280998 0.0237471 0.466684 0.0720571 -0.321366 0.654332 -0.190399 0.0280833 -0.133542 0.00269133
šébilánim 0.0480561 0.179333 -0.516893 -0.192695 -0.449295 -0.29252 -0.47391 -0.100029 -0.165143 0.015913
lámasí -0.224763 0.0109643 0.47754 -0.229451 -0.216982 0.429128 -0.331589 -0.399993 -0.225759 2.68215e-05
aṣéria 0.264023 0.172535 -0.516629 -0.215213 -0.309206 0.427128 -0.338765 0.170332 0.231642 0.0100025
ašurlámasí -0.696983 -0.0761806 -0.389616 -0.167986 -0.013633 0.440037 0.0687368 0.168703 0.0822637 0.00238437
kenatim -0.268639 -0.214779 0.133671 -0.047276 0.520268 -0.423964 0.514493 0.174208 0.0378155 -0.012182
šéepištar -0.0109971 -0.145097 -0.191601 0.142118 -0.595491 0.549705 -0.354865 0.135925 -0.0827949 0.0166356
annaki 0.262805 -0.0218263 -0.79489 0.305305 0.133102 0.021076 -0.160701 0.144172 -0.188711 0.0157608
manukiašur -0.457554 -0.187294 -0.340053 -0.273476 -0.304965 0.0161622 -0.460118 0.233277 -0.314868 0.0191199
šuištarma 0.0171163 -0.274404 -0.113281 -0.263279 -0.114128 0.641102 0.146759 0.0729305 -0.518621 0.0145882
tíde 0.689692 0.236139 -0.138628 -0.18782 0.207141 -0.156823 0.306638 -0.302797 -0.250429 -0.000905057
dninšuburbani -0.461024 -0.444263 -0.204106 0.0880172 0.163194 0.345737 0.221699 -0.317533 0.370573 -0.0108472
naášpèertám 0.242288 -0.0462782 -0.0941503 -0.519439 -0.134812 0.532801 0.440321 -0.0555227 0.215391 -0.00577494
qású -0.0399556 -0.672479 0.262326 0.146295 -0.109675 -0.494439 -0.183706 0.148048 0.18708 0.000997695
šuli -0.770518 -0.315979 0.0701452 0.232725 0.258351 0.192628 0.211893 0.0882379 0.0452184 -0.00687665
kùbabbarpí 0.446446 -0.0831885 -0.349119 -0.0961825 0.415079 -0.368842 -0.266281 -0.384669 0.160808 -0.00233203
mušu -0.0570217 -0.215814 -0.286084 -0.328953 0.252271 -0.544292 -0.0810514 -0.0799048 -0.518915 0.0103318
ilikamma 0.31588 -0.283754 0.403616 -0.431894 0.032604 0.236784 -0.362836 0.376661 -0.181042 0.00894228
aḫikà 0.440219 -0.0838442 -0.0474422 -0.248437 0.3626 0.311863 0.144 -0.0245639 0.606524 -0.014248
meeḫratim 0.141492 -0.326408 -0.26824 0.19811 0.197268 0.261797 -0.600504 -0.407739 0.104872 0.00443896
ašùrdutuši -0.726602 -0.294988 -0.207952 0.193315 0.201218 0.236477 -0.00848674 0.105779 0.315893 -0.00673486
aninim -0.593899 -0.469226 0.051794 -0.153926 0.346202 0.270193 -0.164849 0.282034 0.0551191 -6.66517e-05
gapa -0.14127 0.451469 -0.477374 0.273958 0.304078 0.00200772 0.496906 -0.108936 0.112369 -0.0096096
matíma 0.726799 0.129219 0.0669069 -0.325371 0.350963 0.0964465 -0.291692 0.0180282 -0.179021 0.00565501
bu 0.175059 0.678499 0.0490566 0.0598175 0.0438562 0.0611698 0.40378 -0.397235 -0.248973 -0.00797181
ḫabulu -0.219551 -0.348781 0.452015 -0.304832 -0.263324 -0.429011 0.230682 -0.0751343 -0.32831 0.000148308
nim -0.0208056 0.748116 -0.162428 0.347843 0.126792 0.143034 0.378834 -0.0111513 -0.078873 -0.00641533
puruušḫatim 0.233233 -0.380764 -0.212817 0.441452 0.437522 0.0411126 0.0343859 0.502291 -0.0108572 0.00657478
ublákum -0.301517 -0.317573 -0.154619 0.2117 -0.373589 0.563882 -0.0111422 0.0445965 -0.410778 0.0156481
zi -0.0381672 0.72047 -0.118958 0.311912 0.0981214 0.0130286 0.405404 -0.180132 -0.229669 -0.00545287
kunuukma 0.0288115 0.0563327 -0.561783 -0.149408 -0.31711 0.249693 -0.36239 -0.481438 0.125357 0.00566275
idíma 0.151855 -0.537788 0.0472326 -0.364579 -0.300771 -0.196144 -0.399791 0.298372 0.246641 0.00823115
ilákàni 0.346449 0.282144 -0.426806 -0.207532 0.125317 0.0315708 -0.399426 0.425098 -0.331135 0.0178378
láqépíim -0.71699 -0.0222008 -0.230835 -0.259456 0.0999531 0.51122 0.0208491 -0.021169 0.00222517 -0.0011115
ṣíláašur -0.502199 0.259258 -0.700236 -0.200098 -0.061948 -0.0567088 0.210837 0.0233423 0.0161337 0.000484148
šímuum 0.295176 -0.00694941 -0.743126 0.362984 -0.0632766 -0.198022 -0.0172569 0.240022 0.152079 0.009051
kiaam 0.443909 0.507785 -0.0716185 -0.0920948 0.511004 -0.0448455 -0.367975 0.0156212 -0.167876 0.00240744
anaaḫìlí -0.534685 -0.128769 -0.0986578 -0.425622 0.210604 0.288652 0.211421 -0.0856406 0.462679 -0.0155428
itùaar -0.15304 0.000947214 0.606038 -0.462153 -0.0945425 -0.273142 -0.357486 0.266498 0.0263404 -0.00199313
ṣúḫaraam 0.189764 0.605944 -0.165157 -0.15234 -0.0514709 0.421362 -0.447816 -0.159002 0.173908 -0.000917703
naášakuum -0.127553 -0.199713 -0.114408 0.123727 -0.560065 0.58593 -0.0103266 -0.360473 -0.126991 0.00664549
ikupìašur -0.475694 -0.0942399 -0.150877 -0.429593 0.218221 0.343846 0.230881 -0.458209 0.147167 -0.0115244
pèrua -0.462465 0.573694 0.326176 -0.0374178 0.333172 -0.208759 -0.25069 0.0349471 0.168799 -0.0134122
šaqálam 0.150225 -0.372828 -0.0367196 -0.427599 0.65435 -0.287863 -0.155171 -0.0796952 -0.0256791 -0.00315692
manim 0.283841 0.249282 -0.151786 -0.334153 0.659776 -0.0282285 0.25346 -0.295356 -0.13968 -0.00892782
analí -0.422025 0.0294359 -0.468236 0.350421 0.115407 0.4124 0.272991 0.180247 0.279576 -0.00471302
niishasú -0.426344 -0.435888 -0.191165 -0.116506 -0.238187 0.15671 -0.0522698 -0.610159 -0.100992 0.00225299
ramìnia 0.124931 -0.348203 0.00105579 0.437484 0.490427 -0.045405 -0.286597 -0.388976 0.274717 -0.00888865
atalákam 0.517037 0.189641 -0.300412 0.202129 0.279651 0.312562 -0.031757 0.163592 -0.506176 0.013998
šeum -0.275367 0.485957 0.318904 0.204445 -0.00122917 -0.384123 -0.399903 -0.317612 -0.162554 -0.0031076
alqéma 0.500652 -0.238297 0.270964 0.227533 0.172399 -0.220262 -0.181349 -0.27157 0.520257 -0.0122299
ášpurakum 0.680952 -0.107826 -0.188152 -0.132955 -0.0468222 0.395168 -0.106638 0.0674849 -0.436797 0.0180735
abukà 0.229633 -0.311147 0.311858 -0.437133 0.269045 -0.299592 0.101857 -0.518373 0.0177881 -0.0115907
erubu 0.606241 0.00573616 0.0386331 0.544323 0.0901709 -0.128234 -0.0748424 0.393215 -0.215867 0.0108738
šudaa -0.469512 -0.481477 -0.114438 -0.0658442 0.440074 -0.121648 0.452047 0.0830524 0.0679913 -0.00869587
ašùrbeelawatim -0.598795 -0.482516 -0.108123 -0.118174 0.372603 0.0771194 -0.127349 0.289167 0.198951 -0.00215389
šamama 0.0490823 0.35915 -0.667122 0.323574 -0.257927 0.0402355 -0.352412 -0.0788921 -0.114613 0.0134285
epuul -0.000938207 -0.346164 0.362705 -0.53213 -0.227997 0.152919 0.184709 0.060659 -0.485807 0.00826176
ummeanim -0.251823 0.194655 -0.472248 -0.538061 -0.0372867 0.0644829 -0.358867 -0.106307 0.354995 -0.00278096
waṣítum -0.463413 -0.0894999 -0.103918 0.557481 -0.117276 -0.197568 0.00281007 -0.437976 0.319855 -0.00953441
ḫurama 0.319058 -0.0820392 -0.021155 0.532821 0.178024 0.249575 -0.229236 0.587829 -0.0305715 0.00985775
liqéma 0.548701 -0.311079 -0.478344 0.146346 -0.029385 -0.238612 -0.133855 -0.359834 0.20867 0.00352964
etíiq -0.122805 -0.456465 -0.377895 -0.333287 0.0458321 -0.0998094 -0.330893 0.528741 -0.0973529 0.0158954
izazu 0.313481 0.0868199 0.113385 -0.0989129 -0.555031 -0.623789 0.243208 -0.0151308 0.0540318 -0.000525063
diškur -0.429501 0.264439 -0.473127 -0.0846876 0.223755 -0.190752 0.534613 -0.0949697 0.145257 -0.0116368
liqé 0.596455 -0.420391 -0.0867846 0.166002 0.18986 -0.0188946 -0.148478 -0.488617 0.181166 -0.0022796
ìlíištíkál -0.694472 -0.487082 -0.228827 -0.176746 0.109378 -0.090305 -0.16852 -0.0588878 -0.218904 0.00816562
sàḫeertám -0.259261 0.395375 -0.150657 0.707268 -0.0814252 0.160819 -0.280019 0.188852 0.0197698 0.00395969
akum -0.0529771 -0.316769 -0.421264 0.299872 0.21218 0.403685 0.14482 -0.241573 0.46828 -0.00899369
kenim -0.201332 0.230232 -0.55452 -0.557231 -0.20697 -0.170006 -0.261827 0.200135 -0.0305926 0.0102003
iṣbutùniatíma -0.0938464 -0.517125 0.357231 -0.206423 -0.197263 0.126212 0.411105 0.259967 -0.383014 0.00650144
meet 0.442889 -0.246013 0.636084 0.202492 -0.302255 0.190659 0.0468239 -0.251748 -0.0123291 -0.0035902
šuqúul 0.380225 -0.390582 -0.180523 -0.409051 0.104829 -0.0966455 0.124055 -0.381939 -0.457232 0.00820333
buzazuma 0.143537 -0.52102 0.197188 -0.280275 0.0658992 0.617869 0.299778 0.0626733 0.0149279 -0.00133644
inaaḫdingir -0.384247 -0.00744074 -0.0525091 -0.478332 -0.0162743 0.626627 0.0411221 0.0189907 -0.328726 0.00790163
italáak 0.390213 -0.0641785 0.130052 -0.380413 0.166734 -0.256185 -0.563587 0.382917 -0.0991169 0.0105152
úšínalam -0.0775393 -0.472282 0.424569 0.198714 -0.449176 -0.0565981 -0.162975 0.413806 0.18838 0.00410045
ibi -0.166192 0.719862 -0.128691 0.180274 0.438508 0.171469 0.213007 -0.0342215 -0.160515 -0.00823407
awilam 0.346579 0.0655908 -0.041657 -0.469403 0.379313 -0.35662 -0.132965 -0.457682 0.196384 -0.0106508
úkuultí 0.0347868 0.247723 0.318801 0.669062 -0.201099 -0.134439 -0.437198 0.163899 0.0116267 0.00342808
liliik 0.354801 0.336562 -0.0649754 -0.459009 -0.0823141 0.208726 -0.438465 -0.135252 -0.42233 0.0121456
zu -0.130033 0.680053 -0.139668 0.0428072 0.195976 0.179477 0.48 -0.205667 -0.211565 -0.00801663
gameer 0.530846 -0.189958 0.307423 0.0812482 -0.0713736 -0.366184 -0.35285 0.392609 -0.235514 0.0128871
ṣúḫariim -0.246585 0.378734 0.149803 0.161518 -0.176657 0.126368 -0.416692 0.0133599 0.633089 -0.0113272
awatí 0.375389 0.32511 -0.0867237 -0.308527 0.520945 -0.16606 0.326912 0.0890691 0.347573 -0.0154565
ummeanu 0.287523 -0.143666 0.0875273 -0.302355 -0.345739 -0.205159 0.704378 0.0663593 -0.143717 -0.000278168
awilu 0.195156 0.297074 0.110488 -0.508124 0.18104 -0.270137 0.59202 0.173052 0.00225371 -0.0103725
pušukiin -0.522087 -0.517206 -0.2318 -0.314201 0.310831 -0.00903494 -0.171004 0.193042 0.209517 -0.000980017
alákàni 0.517373 0.494045 -0.369084 0.143911 -0.314297 0.311151 -0.107331 0.117363 -0.109864 0.011651
ašùrlámasí -0.61216 -0.0887285 0.247063 0.00726954 0.15261 0.384744 0.380639 0.251892 0.26797 -0.0131511
aḫukà 0.78168 -0.0215613 0.16513 -0.435645 0.0232714 -0.109383 0.234254 0.0333698 -0.119099 0.00159369
ṣaláme -0.147385 -0.130389 -0.29282 0.598422 -0.471312 0.288248 -0.00978537 0.30968 -0.0423124 0.0132661
aluláa -0.2648 -0.615734 -0.0448817 -0.185306 -0.180677 0.337657 -0.305766 0.298833 0.275598 0.00550422
meerešu -0.389712 0.213459 0.641739 -0.386604 -0.0220095 -0.306558 -0.174528 0.0331908 0.0982636 -0.0107756
síghia -0.100383 -0.441429 0.0368575 0.183935 -0.604697 -0.105576 -0.460158 0.162464 -0.18984 0.0178774
šíimšu -0.116 -0.212016 0.142919 0.502967 0.176429 0.0486221 -0.539836 -0.402781 0.247685 -0.00532315
qátatum -0.340895 -0.183185 0.569509 -0.276059 -0.00110248 -0.420411 -0.0773454 -0.129229 -0.371173 -0.00141295
láliim -0.548159 -0.45982 -0.122645 -0.188996 0.270951 0.198702 -0.11855 0.0686856 0.446277 -0.00825487
irde 0.0958747 0.187795 0.04948 0.534319 -0.229624 0.469963 0.16035 0.371067 -0.344463 0.0100104
šuišḫara -0.591745 0.177851 0.136137 -0.181612 0.297277 0.602772 0.0551253 0.0730665 0.089093 -0.00869532
uktaal -0.608764 0.0850194 -0.0875808 -0.210298 0.236345 -0.299579 -0.465213 0.0641922 0.312335 -0.00674344
ṣíbatíšu -0.258459 -0.501227 0.00383847 -0.48168 -0.152901 -0.511513 -0.0368984 -0.168399 -0.164387 0.00401767
šanatim 0.213508 0.00249147 0.076621 -0.0809842 0.228125 -0.651574 -0.0659449 0.370323 -0.454234 0.00908235
anšehia -0.249924 0.0175768 -0.423514 0.574302 -0.499485 -0.0167596 -0.148432 0.214061 -0.0411492 0.0132964
šuašùr -0.630543 -0.0826547 -0.370605 -0.389271 0.0658711 0.2513 0.270382 0.17263 -0.193408 0.004181
qátíkà 0.454808 -0.365185 -0.329824 0.615521 0.188764 -0.0534414 0.0478728 -0.0212928 0.17378 0.00165143
ilikàni 0.437448 -0.244494 0.166393 -0.13948 -0.24193 0.11817 -0.474239 0.178401 -0.520411 0.0205116
ṣíim 0.235809 0.183527 0.594084 -0.0615783 -0.642242 0.0698178 -0.0276178 -0.137857 0.0738249 -0.00382256
ir -0.361637 0.58898 -0.231629 -0.272364 -0.244651 0.188288 0.105865 -0.336219 -0.260105 0.00124161
libaam 0.323152 0.0499874 -0.552521 -0.127685 0.564224 0.0955174 -0.204911 -0.13947 0.265854 -0.0036265
hamuuštim -0.363923 -0.248091 0.158933 -0.0441542 -0.014971 -0.433441 0.0870295 0.433651 -0.527292 0.0107572
beli 0.177831 0.277754 -0.341643 -0.369413 0.318606 0.346797 0.207807 -0.492023 0.134318 -0.00926726
béúláat -0.683133 -0.173466 0.0316262 0.222332 -0.4922 -0.305575 0.108659 0.00679851 0.0985677 -0.00160687
téertakunu -0.0360657 0.105626 -0.803717 -0.0242304 0.337245 -0.149394 -0.00998843 0.102165 0.286775 -0.00141645
ṭuppu 0.0815707 0.0505759 0.0990191 -0.0858162 -0.368437 -0.470776 0.68174 -0.0465789 0.161714 -0.0102088
išti -0.318742 0.338682 0.263931 0.579022 -0.123287 0.072414 -0.393516 0.26686 0.15239 -0.000282641
ublunim 0.155787 -0.383347 0.0745189 0.168721 -0.442436 0.223921 -0.49909 0.131025 -0.413972 0.0218009
maškim -0.0414792 -0.0352678 0.134904 -0.301932 -0.492616 0.0465857 0.40199 0.566782 0.192545 0.000334992
péruwa -0.36886 0.542007 0.464037 -0.304821 0.22193 -0.151563 -0.192844 0.141184 -0.171459 -0.00577159
wašaáb 0.375711 0.0157476 0.0274529 -0.167141 0.284605 0.279459 -0.459675 0.560577 0.169955 0.00549408
taadnu 0.208716 -0.274583 -0.198987 0.725653 -0.128483 -0.274327 0.0685093 -0.28884 -0.150118 0.006162
únuut -0.381808 0.257544 -0.0414159 0.60011 -0.372098 -0.304888 -0.168177 -0.160318 0.184679 -0.00187822
bealim -0.529046 -0.446251 -0.247195 0.152918 -0.0176902 0.315654 -0.450453 -0.0791226 0.158896 0.00502603
idunu -0.0457619 0.340369 0.529043 -0.0920485 -0.0457718 -0.566978 -0.363376 -0.0219983 -0.155345 -0.00218096
nu 0.213651 0.622858 -0.0440782 0.341796 0.0614164 0.055112 0.533752 -0.217847 -0.0477765 -0.00916057
niišqúul 0.0167441 0.0358595 -0.00205364 0.744606 0.102797 -0.446272 -0.141449 -0.309639 -0.0670724 -0.000878241
súkàlia -0.707197 -0.366147 0.156311 -0.043947 0.392094 -0.0877923 0.106123 0.207059 0.168043 -0.00979366
mìišlam 0.110814 0.02342 0.0100605 0.0264178 -0.123874 -0.649632 -0.45052 -0.230106 -0.415196 0.0110627
belánim -0.574583 0.165384 -0.182629 0.0604749 -0.0329147 0.520821 0.310417 -0.0792184 0.354689 -0.011568
šeim -0.308204 0.197145 0.398652 0.300636 0.0913624 -0.273378 -0.422179 -0.466625 0.146039 -0.0112895
kukulánim -0.656262 -0.15752 -0.0879635 -0.367336 0.194923 0.249247 0.188019 0.204196 0.34738 -0.0105856
kària -0.848139 0.0293777 0.154651 -0.180542 -0.214153 -0.239757 0.168148 -0.0776769 -0.0301541 -0.00619288
ṭuppuú 0.131183 -0.136251 0.00185402 -0.131077 -0.735119 -0.144616 0.518945 -0.0353154 0.0109685 0.00141791
satu -0.651154 0.0440158 -0.520344 -0.146898 0.214669 -0.182093 0.312823 0.000441864 0.0666937 -0.00640713
luqútíkà 0.354941 -0.444593 -0.599934 0.269567 -0.0134397 0.329298 -0.166199 0.00848617 0.0652054 0.0124233
dub -0.346673 -0.192756 -0.0672461 -0.274295 -0.638882 -0.424086 0.254356 0.0131805 0.0274006 0.00207394
ṣúḫaria 0.087162 0.167668 -0.46003 -0.131433 0.256026 0.284595 -0.587955 0.177447 0.307423 0.00357697
aniútum 0.139539 0.283926 0.507297 -0.567166 -0.290478 -0.0411554 0.330719 -0.0184296 0.107023 -0.010976
lumuun 0.0186761 0.491788 -0.565487 -0.0385251 0.407008 0.056639 0.144704 0.1438 0.328666 -0.00895467
kàraam 0.41997 0.0399564 0.00722702 -0.192394 0.309407 -0.0889851 0.362358 0.468651 0.453515 -0.0113912
šumabi -0.421973 0.127868 0.169889 -0.182167 0.0514803 0.739377 -0.0026042 0.0227407 0.293921 -0.00900708
šíbutí -0.28504 -0.330154 0.476172 0.11995 -0.0511208 0.371033 0.292829 0.234275 0.413271 -0.0128091
qátatim -0.265788 -0.162353 0.346452 -0.634617 0.315466 -0.303741 0.221129 0.138463 0.137823 -0.0109993
irišíim -0.668752 -0.141729 0.166721 -0.471268 -0.0700771 -0.18461 0.192582 -0.334976 -0.0352893 -0.00806866
alákia 0.835484 0.181105 -0.18504 0.0313119 0.076655 -0.119936 -0.322503 0.112884 0.0901606 0.00726806
ṭuppíšu -0.079895 -0.595908 -0.289214 -0.314445 -0.0827155 -0.427012 0.0704491 -0.293934 0.250901 -0.00321949
lití -0.488458 0.300592 -0.0411077 -0.0185651 -0.382994 -0.213213 -0.314923 -0.256551 -0.449178 0.00956484
ru 0.299519 0.454747 0.164841 0.378437 0.22542 0.0281165 0.363256 -0.474983 -0.101692 -0.0118914
ḫarumutim 0.135319 -0.147336 -0.0412827 -0.299272 -0.564006 -0.335984 0.450255 -0.0179827 0.338921 -0.00557497
iḫiid 0.350168 0.256746 -0.587117 -0.426136 0.231492 0.115851 0.100509 -0.318521 -0.00758484 0.000235383
ḫanunu -0.562585 0.136801 0.131968 -0.514204 -0.257673 0.413943 -0.103466 -0.113278 0.145484 -0.00477313
ašasú -0.264519 0.227627 0.65142 -0.24796 0.0653748 -0.178328 -0.426105 0.206616 0.142259 -0.00757319
rabiṣúum 0.184147 -0.38573 0.286787 -0.360452 -0.528066 0.166683 -0.148418 0.401845 0.0371183 0.0102283
ikribu -0.0781486 -0.0675258 0.425235 -0.0254153 -0.455367 -0.0945426 0.402078 -0.548743 0.0344585 -0.0119036
ummìani -0.0115135 -0.484361 -0.089417 -0.484258 -0.109905 0.211144 0.145362 -0.0125528 0.567264 -0.00890093
qáté -0.474999 -0.039065 0.232259 -0.00653674 0.202108 -0.40799 0.401132 0.417201 -0.253262 -0.00257109
adíma 0.19775 -0.0914682 0.0416942 0.657367 -0.0144499 -0.275712 -0.284382 -0.0558986 -0.483874 0.0143293
itbaal -0.199758 0.0982348 -0.301739 0.659837 -0.10053 -0.350791 -0.0192707 -0.420204 0.0281441 -0.00134871
úraa -0.584045 -0.236535 0.250324 -0.0638904 0.29194 -0.259167 0.267827 0.454862 0.0213728 -0.00654389
libaa -0.499509 -0.584904 -0.178069 0.0340632 0.279883 -0.129227 0.17414 0.38287 0.047827 0.000776697
annakia 0.341538 -0.270282 -0.65686 0.234991 -0.0147546 -0.180601 -0.28782 -0.302661 -0.0962583 0.0125615
ašurištíkál -0.51546 -0.476838 -0.14697 -0.554094 0.267525 -0.0525989 0.0776072 -0.0018722 0.0219453 -0.00221148
maṣíìlí -0.641067 -0.340426 -0.15332 -0.442652 0.226612 -0.157925 0.202354 0.157934 0.130305 -0.00512875
inaar -0.454078 0.504745 0.418932 0.0902421 0.131273 -0.401554 -0.0509447 0.265171 0.0256168 -0.00926704
ištíin 0.191119 0.424928 -0.500741 0.40873 0.111974 -0.415167 0.18936 0.167024 0.0893826 -0.00109243
úšaqíil 0.183202 -0.520192 0.636227 -0.0510843 -0.197862 -0.183686 0.0499432 -0.129069 -0.298856 0.00185259
ilia -0.40946 -0.656954 0.058393 -0.159239 0.0210879 0.0575294 0.491397 -0.154505 -0.016411 -0.00538392
abikunu 0.29834 -0.184613 -0.00764038 -0.513416 -0.223696 -0.478743 0.467196 -0.0374645 0.0517419 -0.00333138
martubani -0.621839 -0.341683 0.27522 -0.157397 0.200036 0.0343413 0.185584 0.36171 0.296656 -0.0103861
nada -0.286478 -0.295563 0.612546 -0.10683 0.206094 0.215651 0.131494 -0.422436 -0.198596 -0.0108675
eqlam -0.213209 -0.445568 -0.320288 -0.351327 0.318021 -0.0561428 -0.481224 0.286934 0.0351348 0.00893193
šéna 0.352096 0.21116 -0.257064 0.156717 0.291132 -0.552456 0.359049 -0.32122 0.0712001 -0.00948533
inasúen -0.509682 -0.14576 -0.163133 -0.0950814 0.405681 0.442046 0.30456 0.259959 0.236205 -0.00852603
matim 0.0252737 -0.017762 0.41629 0.534249 0.482034 0.216632 -0.285434 0.0761289 -0.243407 -0.000854176
anitim 0.309305 -0.428021 -0.283255 0.0895377 0.0285516 -0.416333 -0.0093895 0.522251 0.264005 0.0062607
damgàrruum -0.263758 -0.326524 0.0780913 -0.639051 0.304001 -0.395744 -0.142902 0.12219 -0.126284 0.00108362
ṣalámaam -0.196009 -0.20757 -0.102 0.623463 -0.308712 0.480308 -0.23702 0.150968 -0.0605864 0.0111518
úṣúuršaašùr -0.637565 -0.28093 -0.340595 -0.216925 0.384806 0.156001 -0.104054 -0.252167 -0.0898615 -0.000565049
tadanam 0.474459 -0.236673 0.381904 -0.235376 0.265273 0.0955768 -0.54037 -0.162486 0.117824 -0.00144928
kutanam 0.0646872 -0.037675 -0.0994513 0.687853 0.226737 0.433826 -0.0466774 -0.253479 0.297483 -0.00742977
dudu -0.689039 0.141018 0.0727985 -0.000596582 0.213904 -0.0255178 -0.565985 -0.180743 0.0558655 -0.00372971
túgḫitía 0.295992 -0.0663189 -0.735418 0.297942 -0.0910197 -0.115356 -0.219938 -0.258102 0.180603 0.00710806
rabiṣaam 0.259889 -0.088842 0.403402 -0.636821 -0.341086 -0.0476921 0.170516 0.250823 -0.185023 0.00479448
ašùrmutabi -0.064738 -0.167167 0.581071 -0.229622 -0.156555 0.0846305 0.344558 -0.483213 -0.257335 -0.00923977
úṣuršaašùr -0.511764 0.11487 0.082243 -0.345258 0.247965 0.612254 -0.00838903 -0.196165 0.144861 -0.0100515
kàṣari -0.338809 -0.205029 -0.0827251 0.621352 -0.432242 -0.169062 0.142467 -0.0145026 0.324178 -0.00199035
lamma -0.113881 0.135232 -0.600429 0.159917 0.61056 0.088569 -0.22039 -0.159996 0.115769 -0.00378796
iláakma 0.0621508 -0.390046 0.0595291 -0.25706 0.297002 -0.547893 -0.0958541 0.460379 -0.219085 0.007514
dumumí -0.371502 -0.153086 0.585434 -0.233882 -0.434407 0.220853 -0.303608 0.0559653 -0.0445625 0.00227561
ašaqal 0.264238 -0.49565 0.200357 -0.306916 0.606212 -0.177827 -0.194516 -0.0288077 0.0603822 -0.00453765
túgkutanam -0.243353 -0.3413 0.352264 0.665901 -0.04588 0.357611 -0.0129479 0.139417 0.000669855 -0.000428376
ìlíbani -0.598115 -0.418466 0.0893375 -0.237378 0.38073 0.265903 -0.170786 -0.209313 0.117926 -0.00773914
erabi 0.398393 0.22031 -0.281245 0.203583 0.217606 -0.50732 -0.0256548 0.37075 -0.343301 0.0112105
iqábi 0.57332 0.337722 0.277725 -0.409499 -0.153749 0.273662 -0.340318 0.013241 -0.01109 0.00300099
enasúen -0.727176 -0.405119 0.169498 -0.181313 -0.0378708 0.24739 0.238392 0.193387 -0.0192797 -0.000875186
tù 0.133846 0.777548 -0.22242 0.27749 0.299024 0.189668 0.10869 0.00835564 -0.102219 -0.00308418
eliani -0.127186 -0.410931 0.162032 -0.0568059 -0.472631 -0.480004 0.348666 0.139342 0.27239 -0.00445327
ḫa 0.0621759 0.76592 -0.0536711 0.195801 0.104228 0.0982896 0.350929 -0.344102 -0.00838115 -0.0113396
nimarištar -0.855785 -0.00860785 -0.0921203 -0.248146 -0.0249987 0.244008 -0.0586337 0.180924 -0.127882 0.00274593
šalátùar 0.525756 -0.0671034 0.0975771 0.533881 -0.0946454 0.10802 -0.242798 0.466877 -0.13592 0.0135692
téinatim -0.459773 -0.0595794 0.153932 -0.0975938 0.386475 -0.337179 0.347363 0.316142 -0.392934 -0.000350091
ašurreṣí -0.574662 -0.148402 -0.0894117 -0.452015 -0.0206203 0.296662 -0.0421721 -0.281793 -0.397756 0.0059014
niatí 0.745575 0.0168317 0.173163 -0.209723 -0.175724 -0.0692249 0.487652 0.062179 -0.000961211 -0.00196115
aršatim -0.24212 0.340019 0.381953 0.307407 0.265095 -0.189878 -0.537106 -0.259215 -0.107194 -0.00435094
naášúnikum 0.227862 -0.177862 0.0497629 0.145829 -0.65917 0.479095 -0.0770905 -0.329936 -0.0647163 0.00693626
adíinma -0.220885 -0.148876 0.181081 0.197196 -0.376724 0.609069 -0.320348 0.335794 0.120494 0.00684478
úṣuršaištar -0.542475 -0.595408 -0.152633 -0.228183 -0.0197034 0.41079 0.000855093 0.093486 -0.0178925 0.00529629
ašurdan -0.724349 -0.365301 0.243745 -0.058491 0.0578397 0.317771 0.17409 -0.0638209 0.219681 -0.0108189
emari 0.0810326 0.235477 -0.345148 0.455272 -0.284873 0.165451 -0.569128 0.263701 0.0320634 0.0136541
zukua -0.462262 -0.0760605 -0.607513 -0.386707 0.080045 0.192587 0.0974056 -0.0812858 -0.31023 0.00892233
dingirma -0.075335 -0.120013 -0.546901 -0.201774 0.455912 0.358152 0.116942 0.228833 0.343767 -0.00501767
šíbe 0.282154 -0.357265 -0.2187 -0.519911 -0.392975 -0.321272 0.064553 0.048423 0.316713 0.00137454
tadínani 0.623632 -0.135594 -0.0354105 0.402838 0.0986791 0.282038 0.17882 -0.415621 0.17831 -0.00629901
zakutum 0.341712 0.197502 -0.708815 -0.106198 0.202393 0.116969 -0.326574 0.248941 0.0108498 0.0120492
manaem -0.296881 0.0476148 -0.0380062 0.210758 0.487578 -0.663911 0.214239 -0.159204 -0.0790195 -0.00839419
ḫabulákuni 0.339454 -0.541663 0.118443 -0.217514 -0.188133 -0.106472 0.0690424 -0.595562 -0.109368 0.000417264
tappáini -0.476045 0.0241415 0.324015 -0.152238 -0.139265 0.248013 0.544925 0.211108 -0.333854 -0.000952048
tamaláki 0.200933 -0.0874995 -0.0586843 -0.083748 -0.658553 0.309052 0.504978 0.00554462 0.201663 -0.00106839
waášbu 0.606822 0.160464 0.316015 -0.182642 -0.410906 0.032329 -0.0739355 0.426113 0.112082 0.00545742
niišqúl -0.0880188 -0.500643 0.110383 0.457122 0.277033 -0.340598 -0.221357 -0.405944 0.0211061 -0.00383288
iziizma 0.368893 0.435304 -0.0748107 -0.496837 -0.474535 -0.0715096 0.284427 0.0787759 -0.0213972 0.00121572
kùbabbarpía 0.217693 -0.235238 -0.479215 0.0833881 -0.0408347 -0.55801 -0.236577 -0.420223 -0.032936 0.00617377
elá 0.0216958 -0.390486 -0.0242121 0.456162 0.117348 0.281798 0.00195265 -0.459481 0.459631 -0.011492
ḫubuur -0.384795 -0.230342 0.114091 -0.125769 0.410307 -0.395894 0.475719 0.241986 -0.221021 -0.0044778
reeš 0.449101 0.406364 -0.0440287 0.430196 -0.180129 -0.278854 0.184092 -0.102737 0.428071 -0.0098662
naášpéertám 0.374973 -0.123356 -0.0540122 -0.458612 -0.36872 0.120506 0.584306 0.139453 0.0951225 -0.000987865
mì 0.36266 0.27562 0.11992 0.270923 0.113866 -0.311291 0.531106 -0.40628 -0.186835 -0.00854654
ḫaranam 0.780195 0.242312 -0.252046 -0.032921 0.190553 0.308319 -0.113262 0.152303 0.107323 0.00407976
ìlíalúm -0.598697 -0.211895 -0.262893 0.294574 0.576738 -0.00852093 -0.00523459 -0.0709989 -0.0740187 -0.0028541
baaam 0.600703 -0.181832 0.27744 -0.30631 -0.19258 -0.0506304 0.462179 0.0217744 -0.282644 0.00312765
ḫananariim -0.108992 -0.133959 0.0663526 -0.218855 0.688108 0.447212 0.0143825 0.0329725 0.356821 -0.013423
buṣía -0.607139 -0.405169 0.041871 0.02921 0.376599 0.116184 0.459857 -0.00619313 -0.023484 -0.00875709
makál 0.159724 0.73386 -0.456169 0.0707672 0.143472 0.125844 0.0438744 0.284966 -0.00207862 0.00160755
ḫunia -0.664845 -0.387865 -0.274722 -0.141659 0.370214 0.198608 -0.169049 0.0722655 0.090886 -0.000233075
ipáriid 0.395396 0.087076 0.166028 0.150178 0.135746 0.446918 -0.26267 -0.201543 0.576526 -0.0126524
šalimašurma 0.040521 -0.632713 0.088084 -0.388056 0.0501373 0.24292 0.107769 0.0218944 -0.499684 0.012011
nuaim -0.0322824 -0.196433 0.516623 -0.00543343 -0.0123958 -0.35054 -0.497835 -0.142458 0.423757 -0.0101161
gapim -0.320904 0.566416 -0.0420108 0.334598 0.170087 -0.0618172 0.453669 -0.196659 -0.273067 -0.00765052
izizama 0.181441 0.342023 -0.167699 -0.192736 -0.627645 -0.0781289 0.183075 0.470173 -0.140072 0.0111245
šaqíil -0.00760691 0.491671 0.00698138 0.19764 0.271022 0.243193 -0.180666 0.649493 0.112023 -5.96141e-05
at 0.221096 0.634799 -0.150849 0.182762 -0.10408 0.144702 0.413716 0.166277 -0.387195 0.00490232
gánlam -0.259581 -0.427948 -0.468726 -0.235672 0.12776 -0.144956 -0.149144 0.521622 0.180903 0.00709762
dadanim -0.828225 -0.193765 -0.170821 0.17569 0.236668 0.0611801 -0.237914 0.121549 -0.00247832 0.000621044
kàṣaar -0.507941 -0.398153 0.11118 0.0883889 -0.338546 0.344753 0.335847 0.272004 -0.199284 0.00548245
isúriik -0.17997 -0.593556 0.139644 -0.54832 0.300534 0.168347 -0.16724 0.199587 0.0471363 6.87642e-06
ṣíibtum 0.281519 -0.149172 -0.100311 -0.175683 0.345498 -0.580648 0.0208293 -0.475489 -0.235086 -0.00246658
šuum -0.0197479 -0.390397 0.102371 0.170838 0.241549 0.336411 -0.0843024 -0.635182 0.310212 -0.0129712
gaptim 0.0266481 0.612576 -0.325014 0.286259 0.0506051 -0.153957 0.501106 -0.0884874 -0.200915 -0.00319891
šalátùwaar 0.346382 -0.308807 -0.292658 0.345813 0.137319 0.171816 -0.2572 0.590481 0.0154031 0.0143958
rubaum 0.311221 0.277498 0.389734 0.336343 0.295532 -0.13068 -0.0694483 0.575383 -0.081311 1.97381e-05
idíkubi -0.379155 0.356735 -0.633215 -0.0119419 0.0676936 0.130369 0.142042 0.425661 -0.055273 0.00476499
ašùrištíkál -0.318498 -0.79681 -0.129363 -0.0529357 0.172292 0.224543 0.0555484 0.245119 0.0319345 0.00416373
iḫda 0.105226 0.510785 -0.370262 -0.55255 -0.0909499 -0.289644 0.199899 0.212834 0.00567587 0.000920749
úšébalam 0.095864 -0.265959 -0.234897 0.156547 0.286669 -0.288433 -0.680249 0.298168 -0.110959 0.0131434
kànéeš 0.120164 -0.137442 0.425643 0.348714 0.501922 -0.364481 0.190987 0.22011 -0.277467 -0.00356111
šamanim 0.0260837 0.170947 -0.646533 0.251903 -0.305883 -0.406391 -0.2293 -0.0900771 -0.24114 0.0150457
luqútía 0.350989 -0.169666 -0.570898 0.391981 -0.227367 -0.0389635 -0.127878 0.425122 0.0986116 0.0148712
pániema 0.1073 0.319287 -0.799092 0.00680401 -0.0543826 0.0999772 -0.321191 -0.129612 0.061905 0.00956803
ikunum -0.54099 -0.54805 0.174725 0.0115228 0.421403 -0.123096 0.178336 0.18305 -0.134705 -0.00351961
šumìkà 0.152152 -0.348062 -0.0270609 0.112575 0.700443 -0.370958 -0.120694 -0.201304 0.201509 -0.00992601
ṣúḫaruum -0.115756 0.652119 -0.278681 0.0349327 -0.226637 0.384718 -0.410277 0.033076 -0.0393284 0.00814813
alee 0.441762 0.142814 0.201033 -0.145697 0.370992 0.0433693 -0.329329 -0.559689 -0.21457 -0.00314805
luublunim 0.0521787 0.236634 -0.523764 -0.181671 -0.400242 0.180335 -0.560039 0.116486 0.053119 0.0145961
aḫuur -0.0272734 -0.343361 0.0567057 0.249042 -0.219165 -0.440554 -0.127169 -0.632577 -0.186541 0.00252802
gapni 0.0502762 0.585681 -0.00102311 0.183889 0.0707506 -0.132939 0.6634 -0.165158 0.106063 -0.0159535
alábiim -0.624507 0.0694047 0.17163 -0.521555 0.0183754 0.200942 -0.191567 0.123913 0.332625 -0.00879943
šanim 0.512162 0.40877 0.462695 0.0229265 0.324805 -0.100641 -0.256309 -0.201218 0.187057 -0.0112774
šumìabi -0.447226 0.0656217 0.37906 0.00754655 0.232502 0.608564 0.19763 -0.190576 -0.21745 -0.00657465
aliki 0.1676 0.175928 -0.623237 0.0665595 -0.127087 0.229483 -0.515906 0.300326 0.0930111 0.0150135
ihdama 0.0613079 0.35286 -0.675556 -0.317582 -0.332912 -0.221993 0.00618838 0.167314 -0.129283 0.0124659
ublákunutí -0.226185 -0.305928 -0.48301 0.0272224 -0.498266 -0.0130188 0.0114016 0.0121678 -0.512536 0.0209099
úláma 0.200722 -0.24326 0.22787 0.39609 0.323028 0.0468488 -0.282266 0.585434 -0.209923 0.0100515
be -0.0472145 0.714642 0.0386334 0.160548 0.233026 0.0875542 0.401319 -0.3408 -0.108629 -0.012446
hinaa -0.426933 -0.768455 -0.0696549 -0.0333849 0.177815 -0.0152594 -0.218964 0.0419868 0.202451 -0.00021363
ápqíidma -0.393687 -0.400015 0.0271501 0.0381975 -0.49839 0.236579 0.105529 0.453782 0.224648 0.00417723
tùkàal 0.462592 -0.102858 0.333729 -0.52882 -0.243148 -0.103536 0.273319 -0.358587 -0.0462811 -0.00582064
anakamma 0.431415 -0.320867 -0.301923 0.179611 0.172504 0.494107 0.0424625 -0.450229 0.0211924 0.000976649
ištéet 0.557586 0.213597 0.087626 0.209243 -0.311599 0.339578 -0.169193 0.131533 0.473518 -0.00277964
dumusal -0.159846 0.0704023 0.649602 -0.339386 -0.284442 0.35635 -0.0997533 -0.178855 -0.262572 -0.00156466
idínuma -0.287448 -0.260839 0.705742 -0.148127 -0.382099 0.0102072 -0.135897 0.0337103 0.229331 -0.00742679
láqépuum -0.523318 -0.156637 -0.221721 0.135256 0.473325 0.314374 -0.205248 0.278322 0.287997 -0.00453585
qáduum 0.0183485 -0.331686 0.0109433 0.444585 -0.512596 -0.0334569 0.258014 0.220565 -0.439651 0.0157081
tašameani 0.318215 0.295807 -0.274197 -0.298968 -0.555675 0.257189 0.217114 0.326979 0.0943091 0.00677923
ašùrdan -0.754438 -0.249418 0.0234705 -0.165844 -0.119655 0.322605 0.000537807 0.358683 0.0280398 0.00274638
tašaqal 0.120662 -0.144212 0.421378 -0.34473 0.59871 -0.243856 -0.246504 -0.117766 -0.242144 -0.00439356
aḫušu -0.264767 -0.233247 0.519185 -0.363851 -0.0479621 -0.136945 -0.134611 0.553078 -0.120524 0.00352549
enaašur -0.531683 0.196558 0.376213 -0.0203868 0.135937 0.516826 0.118731 -0.288833 0.203614 -0.0172369
túgḫití 0.566873 -0.231508 -0.161345 0.517997 -0.136515 0.40566 -0.123195 -0.147127 -0.0996447 0.0103739
niiṣbaatma 0.284913 -0.674259 0.179058 -0.293118 -0.278002 0.243398 0.167185 0.162702 -0.225962 0.0105722
tadínam 0.368341 -0.183245 0.459588 0.269978 0.0952251 -0.0422743 -0.252685 -0.562898 -0.199034 -0.0029132
iluku 0.435525 0.266165 -0.127735 0.0940181 -0.439721 -0.333135 -0.111482 0.527006 0.0753934 0.0108834
baábtim 0.15158 -0.0271834 0.318128 0.162365 -0.719266 -0.453585 -0.0528015 -0.0477055 -0.0951291 0.00522891
qéúni 0.19349 -0.158498 0.434462 0.0212404 -0.463528 -0.409007 0.341412 -0.234601 -0.279919 -0.00136867
iṣbaatma -0.00383224 -0.346273 0.346052 -0.0743763 0.337374 0.1015 0.381282 0.601084 -0.0593343 -0.00231956
waahšušana 0.0694265 -0.245137 -0.140332 0.193694 0.129391 -0.0226512 -0.596697 0.616396 -0.0762429 0.015837
iláqéú 0.101345 -0.119684 0.404008 0.200948 -0.239895 -0.651768 -0.223284 0.246768 0.245736 -0.00287255
kia 0.0272165 0.127757 -0.0676432 0.535105 0.291728 0.471719 -0.344388 0.364334 -0.136933 0.00794525
luqúutkà 0.377231 -0.281533 -0.432849 0.255387 0.162867 0.39 -0.0353794 0.217845 0.431324 0.000590551
waášḫania -0.0287367 -0.116342 0.143062 0.481719 0.428475 0.168287 -0.330508 0.529287 -0.115074 0.00622968
libia 0.48237 -0.643381 -0.056577 0.390792 0.134279 -0.0499381 -0.0516202 -0.163522 0.219005 0.000694137
étí -0.00695588 -0.0565134 0.44156 -0.552248 -0.178915 0.0838217 -0.442799 -0.134459 0.352429 -0.00728381
mamaḫiir -0.240851 -0.359869 -0.0429279 -0.359181 -0.0934311 0.345635 -0.43716 0.321115 -0.36718 0.0189221
ahua 0.120731 0.262921 -0.68636 -0.15483 -0.3154 -0.066815 -0.0318646 0.240316 -0.371113 0.0202015
alánatim -0.35479 0.00768921 0.0817754 -0.268357 0.426317 -0.361952 0.5403 -0.0525134 -0.273338 -0.00837871
iaum -0.00559373 -0.344952 -0.0283616 0.36349 -0.595303 -0.0707812 0.357491 -0.307015 0.224681 -0.00247888
ṭuppìni 0.274716 0.171454 -0.37911 -0.332794 0.129373 0.050382 0.553338 -0.271041 0.342208 -0.013967
ašurṣúluli -0.598074 -0.321749 -0.392048 0.0814505 0.318242 0.307913 0.190129 -0.0547246 0.211964 -0.00586602
síkàtim 0.403667 0.412161 0.352176 0.433029 0.182559 -0.0475633 -0.124111 0.437478 -0.0818457 0.000636113
datum 0.0259436 -0.246189 -0.0650884 0.705802 0.314312 -0.388153 0.137825 0.177499 -0.154495 0.00232423
agia -0.627462 -0.181781 0.0658739 -0.537632 -0.190979 0.247493 -0.0290442 0.258026 0.130921 0.000298654
agua -0.869696 -0.187957 -0.146643 -0.0175923 -0.0153228 0.13587 0.245754 -0.125189 0.10872 -0.00616204
ṣúbatía 0.136573 0.117473 -0.694627 0.141251 -0.251997 -0.0413899 -0.291708 -0.00994877 -0.444878 0.0222788
alkam 0.712706 -0.26266 0.224517 -0.37207 -0.0443699 -0.146807 0.224661 -0.0283714 -0.254521 0.00509577
túgḫitíkà 0.361026 -0.42671 -0.398769 0.557602 0.022551 0.23047 -0.13262 -0.0704233 0.193484 0.00595495
waášbaku 0.624631 -0.0125865 0.0658411 0.239384 0.256042 0.209566 0.0386274 0.565293 0.112065 0.00305193
etíqú -0.0434829 -0.328769 -0.379321 -0.26061 0.0949978 -0.65451 -0.0916504 -0.269463 -0.21727 0.00560813
zuba -0.712651 -0.10671 -0.363827 -0.175407 0.0779528 -0.0827302 -0.185786 0.39476 0.139501 0.00283242
ḫabuul 0.213554 -0.341741 0.538723 -0.132427 -0.342696 -0.135603 -0.160243 -0.128042 -0.488258 0.0101334
kunutí 0.377071 0.15432 -0.636546 -0.278103 -0.0528904 -0.143854 0.361056 -0.118541 0.276996 -0.00188228
ištarpìláaḫ -0.621165 -0.357869 -0.291772 0.0258192 0.0285082 -0.0358272 -0.0136336 0.0384781 0.538231 -0.0085144
šuukna 0.268108 0.0447258 -0.0274004 -0.454152 -0.652901 -0.155656 -0.162645 -0.240056 -0.271713 0.0115192
