1893 10
of -0.588797 0.224877 -0.545349 -0.0467246 0.191202 -0.092739 0.272792 -0.26289 -0.12882 -0.000132197
the 0.315494 0.170588 -0.200335 0.680933 0.284578 -0.204037 0.0592517 -0.00335325 -0.360877 -0.00314288
thisisanumber -0.288547 0.554955 -0.592332 -0.105419 0.0537674 -0.26336 -0.102522 -0.242818 -0.00691281 -0.00418108
and 0.20725 0.331162 0.467713 0.246593 0.515988 0.279217 0.154771 -0.228748 -0.172115 0.0104833
to -0.00996347 0.403387 0.596327 0.224739 0.352378 0.182042 -0.376108 -0.140846 -0.0324263 0.00497609
silver -0.0844688 0.287531 -0.433571 0.0739118 0.212359 -0.588258 -0.298625 -0.143359 0.315578 0.00153928
you 0.467026 0.295161 0.475239 0.265067 -0.0761382 -0.216621 -0.370703 0.131752 0.288307 -0.00667383
for 0.391214 0.25027 -0.702372 -0.354038 -0.17323 0.167692 -0.0332446 -0.0499743 -0.0285072 -0.00755783
son -0.87584 -0.12135 -0.0824437 -0.108127 0.126496 0.0346572 0.300249 -0.0653622 -0.0959647 0.00405129
in 0.188434 0.0540683 -0.306198 0.754629 0.135325 0.122148 -0.120339 -0.0671235 -0.362869 -0.00598473
shekels -0.36917 0.449015 -0.6155 -0.163144 0.115726 -0.301236 -0.171207 -0.0315638 0.14199 7.0031e-05
minas -0.282101 0.563241 -0.538748 0.154578 0.0743241 -0.243568 -0.00970285 -0.288979 -0.179921 -0.00683627
my 0.502548 0.437352 0.356832 0.309375 0.21751 -0.128783 0.302694 -0.154447 0.224391 -0.00645037
gap 0.0249242 0.781713 -0.138512 -0.0649825 0.231731 -0.298896 -0.0479594 -0.161169 -0.292339 0.00274796
from -0.0714897 0.359262 0.039509 0.288728 0.363981 0.0869615 0.0103279 -0.684411 -0.220796 -0.00475078
me 0.507253 0.301308 0.467849 0.150436 -0.00967885 -0.383894 -0.35713 0.0852017 0.150627 -0.00785925
he 0.115539 -0.226171 0.0537146 0.321008 0.0475941 -0.486855 -0.657464 -0.0791364 0.183629 -0.00197139
by -0.522023 0.125658 0.17938 -0.294358 -0.133699 -0.383749 0.393877 -0.161633 -0.368587 -0.00665246
with 0.446987 0.190587 0.155749 0.376866 0.555563 0.226963 0.35754 -0.0558975 0.0194365 -0.000963329
that 0.23203 0.451254 0.258471 0.598245 -0.26253 -0.333453 -0.122475 -0.050404 0.108873 -0.00938761
your 0.5587 0.409763 0.196979 0.499812 0.0987963 -0.077681 0.197729 -0.250196 -0.0986179 -0.0135116
not 0.576973 -0.300731 0.228546 0.17883 -0.00121992 -0.25107 -0.435688 -0.196037 0.309336 -0.0053678
it 0.516154 0.158286 0.209674 0.323346 0.291061 -0.295571 -0.474021 0.211503 0.113555 -0.00114867
mina -0.34585 0.359416 -0.492279 -0.16427 0.156538 -0.511819 -0.247908 -0.137906 0.094773 -4.20885e-05
as 0.398728 0.461889 0.117949 -0.0101248 -0.477489 -0.247944 0.165685 0.133355 -0.395636 -0.0197788
have 0.458549 0.0671262 0.297348 0.448193 -0.40519 0.103689 -0.262933 -0.259628 -0.259907 -0.0187161
is 0.23555 -0.0824437 -0.0448089 -0.44055 -0.0746868 -0.183545 0.347974 -0.497329 -0.445559 -0.0167778
will 0.258706 -0.190252 0.0134838 -0.0846352 0.474721 -0.189986 -0.0956818 -0.270799 -0.643522 -0.00840711
his 0.04574 0.0574233 -0.107667 0.663671 0.0650865 -0.475018 0.242383 -0.336572 -0.153375 -0.00682459
seal -0.279216 0.175263 -0.128458 -0.0171947 0.66893 0.306844 0.392868 -0.118306 0.23037 0.00708718
textiles 0.129998 0.840209 -0.231624 0.161709 0.0215272 0.245882 -0.15642 0.0366255 -0.0715353 -0.00935299
we 0.223201 0.172906 0.0723604 0.584203 -0.186769 0.0608724 -0.413697 0.49327 0.0483948 -0.00611906
tablet 0.0264704 0.0276764 0.191027 0.677439 0.20001 -0.442383 0.226585 0.235264 0.214136 -0.000301157
ennamaššur -0.515967 0.296911 0.41108 0.357938 0.126765 -0.0201556 -0.174141 -0.240742 0.372772 0.00304495
copper -0.0109031 0.621999 -0.342609 0.277569 0.000644785 -0.266377 0.129222 -0.181998 -0.420821 -0.0135466
him 0.331215 0.0911513 0.213374 0.0172893 0.269662 -0.508882 -0.531509 0.3265 0.0256946 -0.00168139
pay 0.10221 -0.389505 -0.124747 -0.0691051 0.398508 -0.265731 -0.28524 -0.466602 0.409612 0.000938416
they 0.486151 0.0621902 0.135964 0.507528 0.00961125 -0.34815 -0.46537 0.192253 0.04274 -0.00564
tin 0.0939546 0.691475 -0.462456 0.274918 0.246324 -0.0775877 -0.182681 0.128154 0.040404 -0.00356298
has 0.0584402 -0.0927489 -0.0283541 0.46308 -0.35232 -0.0568437 -0.268296 -0.490387 -0.442107 -0.019042
gave -0.13692 0.0430009 -0.37613 -0.351969 0.160191 0.717467 0.169889 -0.0137323 -0.164179 -0.0076412
if 0.426241 -0.413485 0.167049 0.0530917 0.0723644 -0.115095 -0.332128 -0.605975 0.0803228 -0.00725193
send 0.54297 0.16505 0.109003 -0.218851 0.436437 0.187653 -0.0951362 -0.336567 0.398922 -0.00389149
aliahum -0.429498 0.356844 0.623789 0.242044 0.15856 -0.0721462 -0.181522 -0.196848 0.189052 0.00268103
city 0.135799 -0.24978 0.307476 0.740674 0.220839 -0.135191 -0.125569 0.226278 -0.174629 -0.00237621
paid 0.010459 -0.111991 -0.553424 0.265703 0.0473135 0.150019 -0.294381 -0.567476 0.23481 -0.00550102
our 0.244777 0.31805 0.22959 0.325721 -0.167722 0.0749042 0.621513 0.0406168 -0.36257 -0.0165393
on 0.327188 -0.240062 -0.286815 0.345744 0.0413865 0.0764194 0.235915 -0.522799 -0.410694 -0.0154728
shekel -0.165341 0.117286 -0.541322 -0.411397 0.0971317 -0.38771 -0.404805 0.134355 0.208906 0.00158665
give 0.266423 -0.145981 -0.114721 -0.198334 0.513906 0.318613 -0.120745 -0.322195 0.500193 0.000327341
let 0.473321 0.0513976 0.226893 -0.209816 0.477079 0.155688 0.21778 -0.0690198 -0.504316 -0.00958121
then 0.610227 -0.122967 0.301948 0.199309 0.537072 -0.232755 -0.182276 0.00446574 -0.0829458 -0.00114687
shall 0.530147 0.0616124 0.264134 0.0629875 0.370261 -0.185522 -0.0739644 -0.146241 -0.568163 -0.0113944
said 0.0150115 -0.321317 0.582127 0.21632 0.0548763 0.446503 -0.186504 -0.25157 -0.303156 -0.00826798
do 0.712354 -0.15745 0.426673 -0.137996 0.0884265 -0.183179 -0.00831703 -0.276885 -0.219674 -0.0124507
are 0.402064 0.112845 0.243225 -0.395115 -0.11413 -0.0116357 0.524193 -0.127994 -0.419475 -0.0187438
here 0.533455 0.0297258 0.613882 0.27397 0.00367329 0.0456928 -0.320281 0.112867 -0.203981 -0.00826469
them 0.480446 0.340708 0.252992 0.129311 0.18596 -0.218764 -0.354765 0.503641 -0.00235463 -0.0046056
us 0.102681 -0.106894 0.404386 0.513273 -0.0494538 -0.0885375 -0.287879 0.570485 -0.112976 -0.00368789
there 0.722213 0.0805414 0.39493 -0.248653 0.236313 -0.275609 -0.0375152 -0.137615 0.0901035 -0.00653947
was 0.0635718 0.0732575 -0.276643 0.205586 -0.445538 0.312351 0.179178 -0.143757 -0.613818 -0.0222915
so 0.76209 -0.0163511 0.128011 0.129436 0.452125 -0.199784 -0.141769 -0.00131853 0.170494 -0.0028484
šalimaššur -0.373605 -0.0247474 0.488458 0.692321 -0.126605 -0.0845683 -0.0818841 -0.0831808 -0.0213709 -0.00380282
this 0.0827224 0.579846 0.248534 -0.000530018 -0.447554 -0.0412265 -0.164184 0.414788 -0.262017 -0.0159278
owed -0.334572 0.0727144 -0.176754 -0.296392 -0.120017 -0.304041 0.340025 -0.621594 0.17921 -0.00883649
refined -0.533859 0.313637 -0.346481 0.000929872 0.126361 -0.476213 0.00465157 -0.345033 0.178428 0.000327684
must 0.384177 -0.0223448 0.202797 -0.10672 0.345234 -0.0346797 0.15107 -0.286963 -0.662131 -0.0143456
at 0.513065 0.0636126 -0.524005 0.143556 0.167748 -0.244641 -0.0302635 -0.413276 -0.256384 -0.0121817
under 0.00673538 0.547594 -0.137113 0.00875482 0.518798 0.224444 0.229919 0.100543 0.429234 0.00146733
when 0.218222 0.0587046 0.10463 0.261923 -0.031073 0.340226 -0.583882 -0.0382323 -0.528513 -0.0123228
interest 0.0533627 -0.15869 -0.247027 0.218526 0.280147 -0.642352 -0.39124 0.0150354 0.318014 0.00170006
take 0.420035 -0.241303 -0.16127 0.111158 0.367329 0.126928 -0.00134288 -0.273079 0.616791 -0.00129491
all -0.133304 0.180064 -0.495166 -0.238936 -0.192689 0.430104 0.211115 -0.0518711 0.505054 -0.00641503
or 0.605772 0.200741 -0.0203809 0.208237 0.0142332 -0.148789 -0.390642 -0.51383 0.0104488 -0.0135177
come 0.49048 -0.48394 0.364905 0.23423 0.216067 0.0296278 -0.182973 -0.0153907 0.388716 -0.00071705
brother 0.0859676 -0.099364 0.421699 -0.0634442 0.0836708 -0.225064 0.135518 0.129367 0.759317 0.000347568
brought -0.0543266 0.140107 -0.17649 -0.0121956 0.221772 0.794891 0.0786515 -0.367059 0.024037 -0.00929634
father 0.173764 -0.0827107 0.264743 0.318779 -0.237964 -0.0567178 0.393544 0.234946 0.625473 -0.00551331
talents -0.148307 0.593993 -0.188542 0.145291 0.0174246 -0.00683268 0.15895 -0.305628 -0.565593 -0.0151335
house 0.331174 -0.244875 -0.236523 0.538232 -0.113438 0.20452 0.552199 -0.0620836 0.0985235 -0.00797072
colony 0.0895517 -0.257481 -0.0988892 0.603603 0.267127 0.00625609 -0.0711316 0.48601 -0.345493 -0.000661319
concerning -0.0464969 0.222649 0.0825147 0.458168 -0.0210146 0.0763577 0.549521 -0.471107 -0.268886 -0.0141944
dear 0.459922 0.323229 0.37098 0.0364627 0.279419 -0.0570821 0.362297 -0.467584 -0.018201 -0.0112316
also 0.58698 0.517945 0.213349 0.227865 0.0799919 -0.341373 -0.0958347 -0.224387 0.0882019 -0.0105265
witnessed -0.492094 -0.31373 0.196965 -0.315272 -0.111078 -0.128744 0.540133 -0.258614 -0.161146 -0.0064548
been 0.158537 0.0483651 -0.205693 0.561469 -0.478492 0.0804127 -0.2805 -0.287651 0.307236 -0.0140751
month -0.325236 -0.261734 -0.156246 -0.00854417 0.258583 -0.456273 -0.13329 -0.0654773 -0.618047 -0.00160952
which -0.358328 0.303221 -0.0454133 0.377406 -0.70928 0.00615272 -0.110225 0.00515102 -0.050227 -0.0160837
goods 0.459134 0.540962 0.108681 0.463369 0.0657814 -0.102424 0.0154656 0.223818 0.312588 -0.00769075
its 0.0295332 0.320635 -0.455261 0.308367 0.394858 -0.300783 -0.237832 -0.408308 0.0960981 -0.00113555
be 0.569235 -0.250503 -0.147047 0.131784 0.0720554 -0.133019 -0.139456 0.175608 0.621422 -0.00249538
good 0.206567 0.749456 -0.154271 -0.0306995 -0.0028396 -0.0272844 0.0401405 -0.459214 -0.203288 -0.0151744
one 0.448708 -0.012338 -0.399335 -0.3926 -0.0585712 -0.200556 -0.349941 0.429864 0.152955 -0.00338182
per -0.00554167 -0.216167 -0.562144 -0.369965 0.376342 -0.476175 0.0931077 -0.112132 -0.025587 0.00273215
about 0.257203 0.326094 0.362055 0.361947 -0.152789 -0.157897 0.46558 -0.423885 0.0394599 -0.0141863
price 0.00338699 0.43822 -0.669094 -0.125764 0.0462069 -0.248212 0.014202 -0.0565129 0.404446 -0.00250664
an 0.301511 -0.100836 0.160531 0.268252 -0.135359 -0.668993 -0.0259603 0.382542 -0.258828 -0.00937382
left 0.199213 0.366137 0.000327001 -0.0479556 -0.0147096 0.637867 0.318176 -0.401807 0.173634 -0.0126071
sent 0.0709238 0.196333 0.0812898 -0.0225448 0.010934 0.688385 -0.172016 -0.493803 0.270316 -0.0106643
before 0.197621 0.0533779 0.423715 0.0910372 -0.0838103 0.268327 0.293725 0.224572 -0.646694 -0.0139542
tablets 0.372597 0.344092 0.318723 0.528715 -0.0286265 -0.0383897 0.435773 0.229032 0.0817962 -0.00897627
owes -0.273572 -0.0837682 -0.280796 -0.248255 0.37164 0.0919631 0.0959699 -0.702912 -0.0790291 -0.00521758
should 0.450595 0.139701 0.208242 -0.218291 0.384824 0.0429174 0.19498 -0.184204 -0.580974 -0.0132586
what 0.240095 0.0401461 0.430894 0.358968 -0.14741 -0.437028 -0.329446 -0.0249539 0.429316 -0.00634093
their 0.109654 0.401645 -0.221273 0.195864 -0.331855 -0.0416492 0.296776 0.340376 -0.538566 -0.0159412
bring 0.25024 -0.147633 -0.0906816 -0.160739 0.58156 0.512757 -0.0837582 -0.181986 0.353017 0.000904249
donkeys 0.0541548 0.762726 -0.312035 -0.130538 -0.103495 -0.0707065 -0.0822773 0.409214 -0.0229813 -0.0076425
make 0.486238 -0.348072 -0.000164272 -0.421646 0.529865 -0.132494 -0.014959 -0.249663 -0.0117911 -0.00239109
fathers 0.506969 -0.124171 0.141805 0.403104 -0.0525726 -0.0479284 0.530991 -0.0117884 0.382755 -0.00669044
belonging -0.319831 0.585653 -0.0661781 -0.0708482 -0.0318205 0.52437 0.0818086 -0.366509 0.125109 -0.00920067
kanesh -0.0163811 -0.26867 0.0859309 0.345566 0.285302 0.116875 -0.103838 0.542435 -0.522933 0.00160134
šuištar -0.874123 -0.0204541 0.246157 0.0295647 0.0123733 -0.0455753 -0.277639 0.0953267 0.083477 0.00554742
but 0.62123 -0.106003 0.350478 0.132458 -0.312218 0.227575 -0.333432 -0.30754 -0.0463641 -0.0149984
took -0.0674584 -0.0696682 -0.568943 0.0278592 0.0250187 0.537817 0.0729562 -0.443393 -0.220967 -0.0122849
answered 0.0524065 -0.357665 0.475951 0.126112 0.0132269 0.141213 -0.0920198 -0.559479 -0.39452 -0.0129836
brothers 0.288126 0.0390566 0.273451 -0.125937 0.187192 -0.25524 0.151739 0.185167 0.733634 0.000336795
can 0.626109 -0.0317461 0.243144 -0.340105 0.364843 -0.172707 0.238514 0.032706 -0.326168 -0.00777674
received -0.206306 0.109999 -0.353961 0.231023 0.0610942 -0.0848993 -0.00638279 -0.769673 0.18825 -0.00862555
accordance 0.207777 0.0394018 0.0165631 0.58219 0.612222 0.16205 0.279785 0.116196 -0.106589 0.000841844
representatives 0.20414 -0.0776747 0.346957 0.410518 0.26466 0.0483601 0.171932 -0.0237443 0.659774 0.00296858
go 0.24736 -0.472272 0.302676 0.35082 0.366199 0.241858 -0.232146 0.194382 0.326531 0.00339424
seized -0.30009 -0.336975 0.299412 0.174377 -0.0136238 0.696115 0.0543991 -0.135512 -0.238022 -0.00624131
attorney 0.0229613 -0.332953 0.549973 0.541158 0.208655 -0.147671 0.0838407 0.333205 0.00851646 0.00181907
say -0.162394 -0.380601 0.280648 -0.583287 0.0440341 0.47939 -0.248505 -0.0382539 -0.0767229 -0.00214312
entrusted -0.256919 0.105656 -0.123796 0.0799041 0.0179822 0.839202 0.139876 -0.176146 0.164237 -0.00827762
gold -0.336325 0.438288 -0.497136 0.167983 -0.0283784 -0.331368 -0.16196 -0.19802 0.364784 -0.00271934
textile 0.0145842 0.723503 -0.153798 -0.194478 -0.00789234 0.0944505 -0.542034 0.00813332 0.0346994 -0.00772077
elamma -0.626138 -0.0238053 -0.244402 0.109883 0.0674085 0.0815956 -0.65047 -0.0512666 0.0339641 0.00147254
these 0.0257564 0.170006 0.216357 0.133854 -0.248672 0.380647 0.136975 0.622488 -0.396252 -0.0123235
merchant -0.094518 0.376265 0.163986 0.726891 0.129842 -0.0440433 -0.268266 -0.0728893 0.293018 -0.00163888
amurištar -0.705825 0.258856 0.177498 0.399728 0.0541459 -0.0119019 -0.0796355 -0.363088 0.0928618 0.00164268
eponymy -0.385727 -0.562016 -0.178458 -0.157859 0.366647 -0.287954 0.115001 -0.180341 -0.333304 0.00191984
witnesses 0.0203883 -0.422152 0.487028 0.195714 -0.0659428 -0.0963438 0.178315 0.61711 -0.04721 -0.0029807
who 0.157567 -0.462652 0.302314 0.193745 -0.563265 -0.0802344 0.0270832 0.366144 0.240625 -0.00614553
sealed -0.324774 0.262274 -0.0393229 0.14347 -0.248464 0.22529 0.65134 -0.374523 0.0585191 -0.0134792
against -0.0742213 -0.650729 0.292169 0.062978 0.0666607 0.237398 0.179653 -0.442684 -0.275984 -0.00760072
puzuraššur -0.525807 0.457585 0.487927 0.240848 0.142199 -0.09527 -0.234894 0.179253 0.0708481 0.00295514
her 0.515925 0.0289533 0.0881079 -0.402747 -0.156296 -0.0678715 -0.361735 -0.0472778 0.534816 -0.00495778
transport 0.240591 0.338307 -0.291121 0.382505 0.210376 0.0662145 -0.31305 0.117835 0.561765 0.000354078
out 0.447625 0.208928 0.218046 0.328881 0.121655 -0.341733 0.135912 0.127238 -0.557458 -0.0131726
debt -0.202934 -0.0657533 -0.260612 0.614596 -0.0406519 -0.389529 0.284384 -0.224865 0.327661 -0.00412257
iddinabum -0.699022 -0.0551576 0.054563 0.408556 0.0371618 -0.236776 -0.0239023 -0.351067 0.24509 0.00442067
seals 0.00343411 0.343703 -0.300159 0.0385252 0.33943 0.526574 0.475523 -0.00351612 0.235221 -0.0024577
had -0.00185991 -0.0359742 -0.101298 0.312459 -0.504021 0.408517 -0.176619 -0.176375 -0.516282 -0.0208318
wrote 0.302031 0.234123 0.661778 0.0795048 -0.266686 0.344087 0.246498 -0.124919 -0.164666 -0.015708
šubēlum -0.628798 -0.202956 0.310489 0.544672 -0.159585 -0.0313538 -0.0796381 -0.1781 -0.102204 -0.00168188
up 0.534216 -0.098393 0.309789 0.413718 0.110114 -0.283451 -0.393333 0.2239 -0.183438 -0.00695129
until 0.680473 0.136529 -0.191205 0.0455589 0.139912 0.461726 -0.23662 -0.0158984 -0.293383 -0.0121489
ennasuen -0.503252 -0.138971 0.460707 0.479205 -0.00911472 -0.400113 -0.124256 -0.0717273 0.0673805 0.0014932
thus -0.3403 -0.0643277 0.240029 -0.602116 -0.0933809 0.497873 -0.24036 -0.0249658 -0.18734 -0.004347
day 0.398354 0.0295176 0.377782 -0.0875431 -0.110146 0.430547 -0.0919473 0.283778 0.531777 -0.00478828
presence -0.483607 -0.390983 -0.36456 -0.0330795 0.276584 0.458711 0.175799 0.248241 0.0562301 0.00329512
may 0.487122 -0.0453222 0.256549 -0.181096 0.452602 0.010233 0.285644 -0.136894 -0.48817 -0.00952969
talent -0.103667 0.525797 -0.330137 -0.0525058 0.109688 -0.18432 0.134824 -0.236382 -0.593114 -0.0128322
word 0.572925 0.440172 0.416056 0.145498 0.0349432 -0.260013 -0.253546 0.00430893 0.22302 -0.00808871
claim -0.0971966 -0.64211 0.128215 0.166197 -0.155047 -0.246345 -0.164437 -0.135488 0.535296 -0.00261817
ennānum -0.610985 0.227695 0.418034 0.177748 0.412749 -0.253729 -0.164207 -0.0682632 0.0731278 0.00947715
did 0.464446 0.0213233 0.377575 -0.0938766 0.0502362 0.17934 -0.162691 -0.250819 -0.614232 -0.0171697
aššurimittī -0.834585 0.149888 -0.00611563 0.226599 -0.0143662 -0.294166 -0.0835491 0.160681 -0.162501 0.00244027
add 0.113641 -0.447956 -0.438011 0.0356969 0.457429 -0.272237 -0.232545 -0.355003 0.132189 0.00406011
were 0.0786812 0.274131 -0.238848 0.213684 -0.518121 0.374478 0.149952 -0.0500285 -0.49311 -0.0221003
rest 0.268938 0.420734 -0.453363 0.263477 0.335341 -0.182942 -0.0371228 0.0365982 0.461624 -0.000230261
proceeds 0.159461 0.739386 -0.103802 0.297369 0.358884 -0.144535 0.00788995 0.00198258 0.267604 -0.00339295
care 0.394705 0.432688 0.419397 -0.0988866 0.358093 -0.276937 0.21033 0.105007 -0.314489 -0.00879941
itūrilī -0.524711 0.218727 0.241521 0.525275 0.276888 -0.139098 -0.174662 -0.307414 -0.138621 0.00144965
no 0.657218 -0.259967 0.30494 -0.206126 -0.146997 0.033309 -0.0447583 -0.307654 0.376551 -0.00884634
aššurṭāb -0.837533 0.116291 -0.0474279 0.302826 -0.220912 0.108786 -0.146371 0.146418 0.0690822 -0.000648864
within 0.0678105 -0.414323 -0.178807 -0.166294 0.0918832 -0.340182 -0.46393 -0.502577 -0.224938 -0.00575
man 0.298517 -0.224387 0.226093 0.214214 -0.00137052 -0.68986 -0.209446 0.178679 0.309588 -0.00304313
set 0.616694 -0.31003 0.165928 0.553585 -0.0909675 -0.211411 -0.0468966 -0.111018 0.154869 -0.00852247
investors 0.134798 -0.092173 0.183211 0.782526 -0.120904 -0.104109 0.418672 0.0384753 0.102461 -0.00833961
two 0.401301 0.295675 -0.220868 -0.12162 -0.540381 -0.116814 -0.045777 -0.00336712 -0.503446 -0.0206815
saying 0.369394 0.278462 0.645439 0.347396 -0.148158 0.0443092 -0.228227 -0.213486 0.130049 -0.0120634
letter 0.156491 0.0371925 0.602188 0.234323 -0.123489 0.309736 0.107868 0.538397 0.156787 -0.00536525
šukūbum -0.739684 -0.135332 0.144953 0.304639 0.129659 -0.30608 -0.0480506 -0.0117039 0.33718 0.0100122
lāqēp -0.82733 0.337905 0.265766 0.0756366 0.0956662 -0.17662 -0.000953095 0.000316826 -0.0559996 0.00441463
brings -0.0834516 0.307308 -0.0682625 -0.41971 0.352129 0.356377 0.366229 -0.421114 0.188565 -0.00600479
rate 0.187003 0.0900669 -0.657901 0.0905349 0.236344 -0.561285 -0.171109 0.0635056 -0.0345795 0.000518875
week -0.468285 -0.247421 -0.0847162 0.233842 0.38961 -0.348931 -0.358713 -0.268196 -0.276364 0.00250365
aššurmalik -0.731841 0.00986388 0.406909 0.220719 -0.0567844 -0.311461 -0.0100888 -0.08544 -0.225939 -0.000352049
wool 0.0597941 0.781511 0.0688744 0.210105 0.131897 -0.228762 0.085472 0.0734345 -0.373068 -0.0114805
due -0.426047 -0.00878382 -0.430634 -0.153377 -0.124372 -0.45491 0.197272 -0.472021 -0.107759 -0.0078296
made 0.405906 -0.345273 0.128101 -0.136543 -0.214226 0.439035 0.250753 0.0276561 -0.503472 -0.0154625
further -0.215486 0.677397 -0.395816 0.190873 0.0221022 -0.174462 0.0222715 -0.370831 0.154522 -0.00649948
black -0.102313 0.577002 -0.496136 -0.373517 -0.0265947 0.289115 0.231338 0.0283059 -0.150499 -0.00737839
owe -0.00191352 -0.144088 -0.0768135 -0.288037 0.210748 0.0248001 0.184418 -0.822478 0.0465365 -0.00966217
why 0.317843 0.0761982 0.503867 -0.0288401 -0.210974 0.154385 -0.261892 -0.422584 0.447315 -0.0096426
caravan 0.321042 0.138422 -0.17337 0.289926 0.34889 -0.389793 -0.343852 0.395537 0.313894 0.00466367
together 0.560125 0.101877 0.171636 0.130182 0.48383 0.179953 0.408941 0.263921 -0.145151 -0.00222356
clear 0.421797 -0.547176 0.199996 0.139391 0.444933 0.243063 0.268061 -0.0229155 0.175549 0.00187983
quality 0.181767 0.818619 -0.186117 -0.00318748 -0.056732 0.0412209 -0.15168 -0.321318 -0.144568 -0.0133865
capital -0.0888534 -0.161955 -0.404249 -0.00172032 0.279439 -0.453304 0.616114 0.0509744 0.147119 0.000331827
sell 0.62123 0.0772127 -0.274784 -0.27872 0.2223 0.245816 -0.119873 -0.0917265 0.463484 -0.00513402
own 0.279016 0.0401985 -0.193208 0.096158 0.277611 -0.15763 0.279515 0.185043 0.728129 0.00288667
dagger -0.339407 -0.331986 0.329887 -0.153103 0.0535343 -0.107617 0.341934 0.579376 0.250693 0.00647682
am 0.399032 -0.0847937 0.388496 -0.561678 -0.334945 0.00323359 0.23029 0.180111 -0.226901 -0.0148836
after -0.0768331 -0.0540466 -0.274344 0.512767 -0.268152 -0.0377345 -0.260649 -0.423038 -0.448535 -0.015619
thereof -0.227602 0.714564 -0.439525 0.161877 -0.0770091 0.246082 -0.16965 -0.117418 0.0604998 -0.00774146
any 0.602745 0.0087289 0.158377 0.366439 -0.0736718 -0.379672 -0.319551 -0.300066 0.171496 -0.0111205
testimony -0.155273 -0.0561645 0.0894464 -0.0342236 0.112503 0.154901 0.328796 0.797013 0.238475 0.00726484
name -0.16326 -0.427977 -0.36865 0.464353 0.360376 0.245607 -0.0670871 -0.321339 0.175603 0.00089895
ikūnpīya -0.514954 0.323912 0.346467 0.261032 0.0862013 -0.327172 -0.331366 -0.322861 0.100148 0.000577598
sold 0.207045 0.123143 -0.454333 0.155358 -0.157855 0.385981 -0.224135 -0.589911 0.120577 -0.0130048
added -0.238786 0.194146 -0.472113 0.264733 0.259528 0.127444 -0.383418 -0.0732082 0.506986 0.00710136
available 0.453655 0.279991 -0.120935 -0.347785 -0.279161 -0.145874 -0.100072 0.0137652 0.594074 -0.00629931
since 0.486916 -0.326231 0.390947 0.073314 -0.501921 -0.254282 0.045077 -0.171405 -0.194545 -0.0172017
matter 0.129009 -0.54753 0.223319 0.523255 -0.363844 -0.299929 0.0578633 0.150271 -0.0459296 -0.00674766
expenses 0.155588 0.105088 -0.722384 0.155044 -0.0393765 -0.029506 -0.418732 0.281971 0.218872 -0.00208116
both 0.405803 0.584609 -0.15276 0.242832 0.30738 0.369382 0.23006 -0.102536 0.116417 -0.00424124
very 0.718653 0.337696 0.272724 0.0597159 0.0299728 0.348298 0.0751702 0.255679 0.0497917 -0.009612
instructions 0.386858 0.2775 0.25414 0.606676 0.424479 0.147219 -0.10796 -0.0116107 0.143874 -0.00331011
keep 0.30471 -0.250992 0.621375 -0.308921 -0.339476 0.0864018 0.306981 -0.171148 0.00056884 -0.0143969
weeks -0.0869795 -0.200295 -0.192473 0.0481612 0.117744 -0.580252 -0.529244 -0.400327 0.047184 -0.00231068
sons -0.24019 -0.570369 0.235234 0.35214 -0.00947906 -0.130064 0.13271 -0.468976 0.26564 -0.00225328
aššurs -0.203131 -0.239268 0.414112 -0.125761 -0.0174248 -0.100197 0.350738 0.66443 0.142085 0.00605827
kuliya -0.39817 -0.438853 0.119381 -0.297356 0.00499468 -0.151829 -0.269841 0.579009 0.0987995 0.00367997
buy 0.523515 0.233474 -0.215946 -0.345009 0.47472 0.171159 -0.194232 -0.1935 0.264637 -0.00310679
case 0.159879 -0.66161 0.177255 0.426388 -0.249159 0.0232091 -0.0232743 0.338643 0.188831 -0.00441623
aššur -0.205545 0.165851 0.133244 0.351479 -0.15528 -0.21923 0.427302 0.431901 0.473177 -0.000620933
possession 0.202131 -0.054669 -0.38507 0.277381 0.223648 0.0825333 0.263127 -0.40904 0.558223 -0.00093036
iddinaššur -0.791256 0.181489 0.185213 0.169095 -0.0837466 -0.343199 -0.0378957 -0.129172 -0.215857 -0.00209135
amuraššur -0.808086 -0.0787612 0.107466 0.138593 0.049509 -0.30136 -0.328703 -0.0547283 0.142244 0.00591486
certified 0.0121758 0.132904 0.0531233 0.732816 0.123964 -0.322098 0.364935 -0.246058 0.119993 -0.00475091
donkey -0.135412 0.498516 -0.400519 -0.229414 -0.0693261 0.09382 -0.474444 0.407461 -0.0348061 -0.00480038
outstanding 0.397572 0.0587577 0.178751 0.139616 0.208365 -0.17766 0.254763 -0.721451 0.0546678 -0.011426
months 0.0258924 -0.190401 0.0127783 -0.0631532 -0.151835 -0.41377 -0.637058 -0.13353 -0.458906 -0.0106614
maid 0.26612 0.00271985 0.101382 -0.0119607 0.0210089 -0.113424 -0.139055 -0.0374587 0.864453 0.00184091
leave 0.420918 -0.258215 0.268287 0.150398 0.0957046 0.284195 -0.437592 -0.0197961 0.512863 -0.00201373
lapis 0.260835 0.179991 -0.262478 0.402547 0.347007 -0.134791 -0.0287965 -0.626015 0.127119 -0.00769181
bēlumbāni -0.386487 0.581516 0.300452 -0.170262 0.0201021 -0.454234 -0.278862 0.0339511 -0.0675249 -0.00302926
personally 0.320921 0.0475592 0.266859 0.501134 0.254108 -0.217258 -0.418836 -0.149031 0.38442 0.000429624
ilībāni -0.843403 0.049742 0.0464608 0.0641067 0.0788352 0.0529168 -0.344574 0.181918 -0.188494 0.00469941
hear 0.467624 0.00247261 0.51033 0.0310475 -0.00253508 0.571818 0.246882 -0.0119256 0.14668 -0.00978117
write 0.619296 -0.0560937 0.402856 0.0479658 0.223202 -0.0542981 0.097464 -0.0169077 0.528431 -0.000476717
each 0.338563 -0.0208396 -0.73484 -0.210518 -0.0969126 -0.412861 -0.0709641 0.0309451 0.0885325 -0.00520677
assembly 0.0741319 -0.372819 0.277757 0.636327 0.176151 0.184656 0.0149323 0.364115 -0.248445 -0.000649493
those 0.161198 0.535458 0.111637 0.352087 -0.313958 0.264497 0.180059 0.357135 -0.313527 -0.0156359
plus -0.0639248 0.613962 -0.520885 -0.0679663 0.00172223 -0.179099 0.386019 -0.185328 0.131188 -0.00700721
working -0.176236 0.263057 -0.217272 -0.25951 0.210134 -0.616608 0.414279 0.233259 0.145264 0.000808443
taken 0.0745887 -0.217836 -0.242658 0.358187 -0.244545 0.414764 -0.157572 -0.555368 0.257935 -0.0124032
aluwa 0.216103 0.69944 0.41522 0.136767 0.10243 -0.148578 -0.27389 0.225059 0.0894863 -0.00567724
back 0.407126 -0.356262 0.28113 0.0592473 0.0954648 -0.102451 -0.557082 0.119531 -0.405593 -0.00703504
men 0.330378 -0.158776 0.373257 0.200786 -0.335246 0.121464 -0.0401008 0.613905 0.242612 -0.0071511
grain 0.384032 0.361965 -0.0696678 -0.0293414 0.0662082 -0.496088 -0.227935 -0.384234 0.384371 -0.00752119
urgent 0.699236 0.153169 0.518983 -0.0389907 0.192482 -0.089142 0.233881 -0.0865822 -0.120446 -0.00901602
claims 0.328044 0.0973371 0.150911 0.359032 0.0110807 -0.704734 -0.0219209 -0.0518105 0.337691 -0.00677185
pilahištar -0.758224 0.178811 0.343949 -0.0824405 0.0407747 0.276983 -0.217922 0.151922 0.177771 0.00570739
lazuli 0.181092 0.573643 0.000202988 0.495528 0.298718 -0.424012 -0.0258821 -0.102882 0.0563628 -0.00581678
wife -0.608008 -0.141003 -0.17802 -0.0216406 -0.35745 0.0699202 0.00710179 -0.248213 0.524504 -0.00349006
aššurnādā -0.816716 -0.0921704 0.175284 0.0415251 0.0953689 -0.129685 -0.157538 0.184152 -0.345905 0.00427792
single 0.673505 -0.10548 -0.155468 -0.48339 0.118161 -0.300094 -0.215571 0.0943711 -0.133629 -0.009008
does 0.318175 -0.215419 0.115837 -0.115696 0.187013 -0.238986 -0.243311 -0.458372 -0.576711 -0.0117089
purchases 0.101767 0.131663 0.159535 0.15626 0.199852 -0.264959 -0.557105 0.599401 0.143094 0.00132967
slave -0.201113 -0.164688 -0.224214 -0.113065 -0.713715 0.056937 0.163626 -0.117829 0.444112 -0.00124175
ennamsuen -0.771465 -0.370733 -0.143153 -0.185083 -0.167345 0.232747 -0.086914 0.190733 -0.0537156 0.000977686
reckoned -0.437696 0.0232639 -0.141816 0.173183 0.330349 -0.436691 -0.177835 -0.444248 -0.338516 -1.09079e-05
well 0.484536 0.412779 0.159531 -0.0927716 -0.454566 -0.168447 0.191714 0.231353 0.353183 -0.0108747
given -0.0743742 -0.27429 -0.171246 -0.0558011 -0.324432 0.511048 -0.187723 -0.490722 0.336908 -0.0124756
cost -0.0589039 0.411459 -0.759929 -0.316695 0.154777 -0.00820731 0.085392 0.0988145 -0.0467694 -5.92545e-05
sacks -0.0160772 0.475708 -0.252199 -0.494002 -0.147431 -0.45057 -0.114246 -0.331014 0.0634091 -0.00803407
servants 0.633416 0.492771 0.0753901 0.0782458 0.181588 0.253948 -0.0842455 0.171076 0.332067 -0.00545763
adida -0.205809 0.399521 0.746716 -0.0121814 0.17823 0.152845 0.0527273 -0.133679 0.239175 0.00109386
either 0.537475 0.446618 -0.122417 0.14778 0.0605682 -0.22931 -0.50937 -0.208451 0.0987106 -0.010213
please 0.427674 -0.0982682 0.450659 -0.326341 0.151434 -0.0111572 0.489635 -0.338013 -0.0814205 -0.0105395
abušalim -0.605538 -0.237546 -0.00554472 0.0336967 -0.407203 -0.314067 -0.417041 -0.0426835 0.18771 -0.00113142
much 0.479106 0.220936 -0.0571707 0.0787226 -0.284636 -0.627763 -0.00217991 0.056804 0.345946 -0.0106944
where 0.832297 0.0192929 0.247529 0.201883 -0.245616 -0.0505957 0.184682 0.131823 0.0409877 -0.0128031
durhumit -0.00994543 0.0547892 -0.305018 0.227077 0.136083 0.333081 -0.0655711 0.481397 -0.594605 -0.00654794
servant 0.337756 0.243242 0.0254013 0.217643 0.579254 0.0338699 -0.0390528 0.535886 0.196275 0.00604563
verdict -0.143796 -0.299551 -0.0257631 0.78705 0.206824 -0.218607 0.0657967 0.241346 -0.0814612 0.0031728
over 0.463421 -0.424216 -0.070606 -0.571335 0.167833 0.186725 -0.306863 0.0939908 -0.0675326 -0.00407499
some 0.569725 0.496255 -0.234457 0.154277 0.20796 -0.328119 -0.232587 -0.131465 0.16429 -0.00803689
written 0.159348 0.0827482 0.460231 0.358139 -0.206064 0.390224 -0.0210919 -0.399072 0.387335 -0.00969938
missive 0.125446 0.229138 0.523662 0.654691 0.0597623 0.0651526 0.145882 0.284526 0.0824137 -0.00532582
every 0.408684 -0.0884488 -0.254733 -0.589492 0.140058 -0.380533 -0.131658 0.213426 0.27475 -0.00330921
first 0.485235 0.475132 0.0269916 -0.0892932 0.478913 -0.0663311 -0.0767788 0.2797 0.325612 -0.000276445
down 0.155199 -0.068196 0.177075 -0.024789 -0.170081 -0.585992 0.0956953 0.246078 -0.598163 -0.0151539
seize 0.470009 -0.175229 0.174024 -0.31028 0.525642 0.277418 -0.232187 -0.295496 0.142091 0.000202173
deposited 0.248506 0.11443 -0.682362 0.19566 -0.16592 0.407456 0.0434865 -0.284787 0.173822 -0.010392
damiqpīaššur -0.310238 0.629317 0.571683 0.0903611 0.181494 0.0507506 -0.00370106 0.1315 -0.135254 -0.0002284
manmahir -0.339493 0.563888 0.356962 0.419984 0.0427465 -0.143591 -0.14812 -0.323096 -0.0939 -0.00416767
remain 0.315535 0.121973 -0.171377 0.138639 0.386779 0.217779 -0.108126 -0.133863 0.695315 -0.000469087
proceedings -0.0552613 0.00998349 -0.0456092 -0.00446639 0.0517311 0.47111 0.0128846 0.796238 -0.0911351 0.0051863
aššurtaklāku -0.746288 0.0867136 0.0464754 0.0033734 0.168724 -0.53007 -0.0170755 -0.023096 0.181474 0.00708097
release 0.384116 -0.518212 -0.0570392 0.145835 0.311398 0.354765 -0.0657894 -0.198027 0.426475 -0.000174562
year 0.0300666 -0.238927 -0.0896157 -0.245435 -0.114185 -0.635827 -0.378386 -0.0680957 -0.427071 -0.00923576
tariff -0.124347 0.491193 -0.237953 0.439352 0.127297 -0.103836 -0.173481 0.135385 0.54732 0.00242969
iron 0.200683 0.168808 -0.222429 0.567309 -0.0156071 -0.27863 -0.492863 -0.2783 -0.203528 -0.0116407
worth 0.0770826 0.677091 -0.282568 -0.398542 0.121699 -0.130846 -0.00224454 -0.177302 0.34894 -0.00536423
share 0.342545 -0.0550919 -0.760398 0.124156 -0.108234 -0.0700425 0.300819 -0.250811 0.0818465 -0.00920035
amurrumbāni -0.639381 -0.18255 0.390471 0.0366365 0.114629 -0.325091 0.176225 0.349045 -0.191014 0.00447206
duty -0.153152 0.386504 -0.518779 0.383693 0.179476 -0.128643 -0.457497 0.0258331 0.202267 0.00385644
import -0.28211 0.395885 -0.527043 0.305533 0.302947 -0.0415705 -0.416671 -0.00625432 0.135099 0.00455082
raise -0.0312384 -0.840842 0.21869 0.207061 -0.0656395 0.0389362 -0.0530053 -0.281235 0.0946954 -0.00345197
kuziziya -0.476431 0.578055 0.258758 0.406553 0.180724 -0.0589675 -0.0770764 -0.222423 -0.125457 -0.000926279
message 0.271962 0.00148003 0.644457 0.458999 0.272539 -0.0220482 -0.14834 0.1774 0.249613 0.00106713
small 0.291428 0.670864 -0.132062 -0.264833 -0.0676303 0.207317 -0.067567 0.175502 0.426324 -0.00663889
settled -0.12022 -0.408686 -0.0191688 0.163872 -0.31804 0.380262 0.280976 -0.0275069 -0.575573 -0.0155233
aššurbāni -0.709654 0.344502 0.333859 0.147198 -0.00808362 -0.361633 0.0779894 -0.092305 0.0960703 0.00177178
god 0.184492 -0.122547 0.117977 0.162671 0.0304411 -0.187983 0.435867 0.744754 -0.0567515 -0.00397854
šalimwardī 0.0287366 0.778444 0.377224 -0.104214 0.271319 0.219907 0.00670035 -0.0852431 0.0797026 -0.00347849
lord 0.401205 -0.0889612 0.57746 -0.0533935 0.163146 -0.147821 0.349076 0.11373 0.44539 -0.00130086
anything 0.347402 -0.144136 0.347539 0.176866 -0.266791 -0.393074 -0.541851 -0.221199 0.146175 -0.0106505
now 0.425749 -0.192896 0.482396 0.225915 -0.519199 0.0783 -0.310371 0.114545 -0.0521995 -0.0128302
heard 0.0471728 -0.367565 0.339656 0.122797 -0.375225 0.622385 0.193746 0.16601 0.14142 -0.00948184
aššuršamšī -0.705927 -0.0750725 0.287224 0.0541309 0.149691 -0.073591 -0.408102 0.328402 0.123506 0.00955901
specifically -0.375619 0.285696 0.623318 -0.212231 0.174071 0.162862 -0.0700236 -0.385744 0.160334 0.00283796
hold 0.419949 -0.446955 0.0370628 0.328987 0.422647 -0.295689 0.172415 -0.269761 0.197876 0.000824759
barley -0.0971645 -0.0734932 -0.354226 -0.524456 -0.172057 -0.413341 -0.0926398 -0.318032 0.392907 -0.00347224
get 0.777495 -0.399571 0.0772846 0.0248529 0.176289 -0.21074 0.110929 0.0616404 0.22058 -0.00290724
bringing -0.0131148 0.103993 0.0486006 -0.56629 0.11814 0.256801 0.369146 -0.287397 0.491826 -0.00533911
because 0.16063 -0.339333 0.0243996 0.0289048 -0.657355 0.520105 0.0620078 -0.140734 0.0926834 -0.0157629
harness -0.0101714 0.4559 -0.580354 -0.131163 -0.0517093 0.237612 0.0334017 0.30969 0.407561 -0.000591834
wahšušana 0.334264 0.509807 0.0505235 0.38362 0.0392949 0.284579 -0.465539 0.259818 0.0304234 -0.00759662
palace 0.268603 0.189794 -0.287173 0.544513 -0.173527 0.0268459 -0.273937 0.26533 -0.462002 -0.0122094
šuillil -0.642502 0.0696138 0.433124 0.343596 0.0658211 -0.411369 -0.0742306 -0.0636556 -0.00427941 0.00128562
merchandise 0.281325 0.20429 0.122476 0.549449 -0.0331169 0.454076 -0.260302 0.256454 0.32288 -0.00593702
aliabum -0.700751 -0.47298 0.0221485 -0.292774 0.100441 -0.0971947 0.118731 -0.0649442 0.273987 0.00525949
would 0.513763 -0.24474 0.0696527 0.097655 -0.0605447 -0.0552143 -0.0997499 -0.101868 -0.711512 -0.0155037
she 0.433919 -0.199678 0.102623 -0.047561 -0.388048 0.00373322 -0.467012 0.116225 0.509029 -0.0046235
promised 0.169587 -0.119181 -0.0849962 -0.120038 -0.0698606 0.245398 -0.344603 -0.619772 -0.477538 -0.0159254
washed -0.0577311 0.605644 -0.0838162 0.0197644 0.0553597 -0.0623013 0.29949 -0.49885 -0.389329 -0.0134326
arrive 0.737394 -0.141688 0.0165227 0.155608 0.269719 0.221516 -0.344968 0.123984 0.245571 -0.00175928
journey 0.310411 -0.160638 0.135879 0.290102 -0.338835 -0.295527 -0.350614 0.471262 0.32483 -0.0072528
puzurištar -0.803143 -0.121015 0.0734584 0.116525 0.170728 -0.336709 0.111624 -0.251222 0.125692 0.00684539
behalf -0.437681 -0.39319 -0.00720961 0.425808 -0.123946 -0.459936 -0.0579598 0.0654738 0.36311 0.000988813
half 0.220671 -0.0655949 -0.576117 -0.511522 -0.0590983 -0.256836 -0.0273269 -0.366007 0.189951 -0.00470104
iliya -0.754106 -0.0861199 -0.0513397 0.16544 -0.221897 0.41335 -0.177191 0.116363 0.196596 0.00175038
myself 0.343128 0.0155766 0.122689 0.141243 -0.24755 -0.016307 -0.545777 0.567414 -0.206598 -0.00793181
šukkutum -0.467703 0.340583 0.12781 0.194294 0.110561 -0.472318 -0.345601 -0.237122 0.304174 0.00151627
daughter -0.360314 -0.451494 0.0260695 0.197466 -0.0225322 0.0852133 0.219348 -0.396036 0.544108 0.000216457
stating -0.0215472 -0.315502 -0.00186512 0.701523 0.0951499 -0.176109 0.3342 -0.36275 -0.09541 -0.00586569
receive 0.268081 -0.26493 -0.46052 0.0879598 0.440405 0.152489 -0.281844 -0.225813 0.418416 0.00107507
time 0.36083 -0.310319 -0.364522 0.355647 -0.205206 -0.406158 -0.395337 -0.195761 -0.0427197 -0.00918866
issuarik -0.580991 -0.0226488 0.09526 0.665685 -0.199342 0.074912 0.0319836 0.0126877 0.252861 -0.00130274
came 0.0403191 -0.397424 0.47139 0.294248 -0.184489 0.59833 0.108339 -0.0629933 -0.101863 -0.00731477
account 0.155956 -0.0473767 -0.50226 0.504378 -0.172509 -0.10605 0.209486 0.405034 0.316471 -0.00283383
away 0.0813797 -0.0122363 0.260644 0.288574 -0.0818003 0.194197 -0.609121 0.397766 -0.376894 -0.00610801
šalimaššurs -0.164732 -0.0606037 0.348959 0.772652 0.160261 -0.188143 0.160397 -0.222719 -0.0597697 -0.00179844
office 0.098166 -0.000634281 -0.54952 0.457234 0.196808 -0.0763961 0.0303942 0.307456 -0.465242 -0.00706469
aššuridī -0.815455 -0.297875 0.128533 0.211612 0.161044 -0.134634 0.0778019 -0.151184 0.168502 0.00789515
wheat -0.0192725 0.0985383 -0.345772 -0.584812 -0.261669 -0.316362 -0.197881 -0.278942 0.351433 -0.00525381
arrived 0.438479 -0.0431627 0.146654 0.506251 -0.156656 0.482287 -0.267993 -0.0465232 0.289807 -0.00956535
days 0.324683 -0.13937 0.0504689 -0.260449 -0.0346144 -0.32301 -0.688872 -0.103624 -0.301683 -0.0109695
into 0.491622 0.0687502 -0.0646873 0.429234 0.294815 0.572554 -0.196124 0.0527854 -0.0535353 -0.00508325
ataya -0.751292 0.107235 0.257747 -0.108914 -0.128818 -0.0762142 -0.438423 0.201989 -0.0351408 0.00157675
follows -0.027466 0.144194 0.60893 -0.00207283 -0.540702 -0.0276335 -0.386063 0.189516 0.0982169 -0.0117309
apart 0.159159 0.664402 0.0305696 0.290627 -0.225976 -0.195107 -0.00221848 -0.443874 0.21904 -0.0115988
entrust 0.104999 -0.183884 0.016079 -0.166692 0.466987 0.595513 0.0806498 -0.101646 0.466716 0.00214185
šunūnu -0.313508 0.702504 0.436143 0.0661822 0.022298 0.0843892 0.0609395 0.278824 0.148718 -0.00132119
iddinsuen -0.849272 -0.299862 -0.221855 0.189919 -0.00195259 0.0769664 0.0204982 0.134193 0.0304063 0.00515488
too 0.661701 -0.160933 0.154367 -0.0819298 -0.00714543 -0.447665 0.0316576 0.201136 0.400296 -0.00358089
still 0.513494 -0.147494 -0.0622056 -0.271741 -0.429266 -0.483722 0.30263 -0.129205 0.0161089 -0.0139127
cleared 0.362107 -0.0452727 -0.087389 0.00342082 -0.585351 0.517605 -0.0632438 -0.345247 0.0778406 -0.0166869
šuaššur -0.833197 -0.0842986 0.190765 -0.306321 -0.0194212 -0.0939517 -0.00435304 0.195226 0.195745 0.00812315
šēpištar -0.0176672 0.732914 0.440091 -0.0983573 0.203593 -0.0293383 0.331398 -0.034104 0.0179827 -0.0039974
indeed 0.384803 -0.406672 0.520194 0.339478 -0.189276 -0.295095 -0.128434 -0.152973 0.173445 -0.00867303
assist 0.309013 -0.352688 0.357182 0.0848905 0.430075 0.184538 -0.0308323 -0.113499 0.543377 0.0048325
excise -0.210185 0.235023 -0.543172 0.0849322 0.176492 0.0463254 -0.46186 0.0991307 0.47415 0.00462843
term 0.217602 -0.540614 -0.222363 0.131312 -0.0738177 -0.571331 -0.0741365 -0.25794 0.275973 -0.00467172
aššurmālik -0.792119 -0.209039 -0.247046 -0.0149293 0.265158 0.174144 -0.160898 0.242755 -0.0211869 0.00796475
respect 0.118196 0.626401 0.330867 0.438638 0.293495 -0.124443 -0.0256341 0.25768 0.125684 0.0010758
gate 0.0294302 0.032559 0.0297111 0.0938824 0.171698 -0.197175 0.440381 0.645072 -0.422177 -0.00477077
sister 0.305514 -0.365567 0.283529 0.370204 0.113329 0.202938 0.222562 -0.087585 0.570576 0.00104622
went 0.122221 -0.442642 0.140934 0.124917 0.193623 0.62909 -0.207654 0.32365 -0.238034 -0.00194602
know 0.692654 -0.079418 0.237021 0.0381134 -0.368622 0.276699 0.0839646 0.24922 0.266632 -0.0120584
inform 0.484039 0.2375 0.56146 0.0406292 -0.0508722 0.222063 -0.114356 -0.330638 0.329226 -0.00896221
whether 0.543888 0.294353 0.211222 0.170289 -0.0961694 -0.127419 -0.407283 -0.342478 0.353006 -0.00986594
uṣuršaaššur -0.845104 -0.0118831 -0.214193 0.226234 -0.294474 0.0895789 -0.0928827 -0.0191791 0.0475387 -0.0015738
današšur -0.453586 0.302482 0.301247 0.235658 -0.045518 -0.0456678 -0.173938 -0.639581 0.0288104 -0.0041381
bought 0.32974 0.0784996 -0.622573 -0.258577 -0.180093 0.446191 0.101814 -0.273046 -0.0095008 -0.0124098
puzuranna -0.602994 -0.439174 0.502363 0.0851664 0.154764 -0.16952 -0.00394417 0.074699 0.186378 0.00679214
hinnāya -0.641555 -0.0449566 -0.300835 -0.00768625 0.155949 0.374628 -0.469369 -0.124022 -0.0120694 0.00203655
less -0.276923 0.261433 -0.522363 -0.373446 -0.202452 -0.342544 -0.216587 -0.34374 0.0811685 -0.00707834
words 0.310857 -0.396322 0.279383 0.346658 -0.331647 0.185072 0.165484 0.503854 0.0833284 -0.00751058
today 0.748794 -0.207718 0.237117 -0.00138469 -0.281205 0.0162669 -0.34265 -0.0498387 -0.207533 -0.0143155
accounts -0.279274 -0.332128 0.0244391 0.499938 -0.239172 0.197457 -0.264257 0.39678 -0.343458 -0.00844249
kurubištar -0.814248 -0.0598286 -0.14402 0.119271 -0.194942 -0.0725742 -0.371814 0.0776173 -0.157168 -3.18573e-05
affiliated 0.114074 -0.161508 0.250413 -0.427511 0.358203 -0.0486625 0.0905226 0.663861 -0.132267 0.00364995
šuanum -0.752525 -0.195871 0.179931 -0.219564 0.223225 -0.377626 0.161624 0.00772071 0.095854 0.00883452
šusuen -0.678045 0.11159 0.0607584 0.180254 0.0645867 -0.386463 -0.437786 0.165126 0.153727 0.00647125
purušhaddum 0.0824148 0.377658 0.304582 0.376148 0.439318 0.125126 -0.518978 0.0197939 0.156985 0.00405096
jar -0.350678 0.105467 -0.200022 -0.679971 0.0851355 0.237271 0.0742355 -0.350848 0.248218 0.000431457
ištarlamassī -0.17367 0.301654 0.372553 -0.204183 0.12589 0.00512582 -0.173288 -0.338344 0.641694 0.000143083
votive -0.0469234 0.437731 -0.274536 0.525624 0.12738 -0.278696 0.322427 -0.218465 0.306303 -0.0041411
how 0.440082 0.433981 0.365739 0.103369 -0.370007 -0.425308 0.106232 -0.0529393 -0.163004 -0.0186738
lords 0.337088 -0.0471484 0.406014 -0.127405 0.287386 -0.112192 0.454458 0.0884486 0.524056 0.00161386
least 0.480121 0.162928 -0.404107 -0.173978 0.262362 -0.5895 0.0358088 0.125103 0.100938 -0.003694
way 0.290157 -0.536919 -0.185491 -0.217123 -0.373577 0.100271 0.0190579 0.111733 0.51446 -0.00712199
without 0.617936 0.0709535 0.0593065 0.352164 -0.231303 0.403264 -0.211132 -0.217642 -0.256183 -0.0184196
aššurbēlawātim -0.773162 0.254153 -0.117637 0.335173 -0.149576 -0.0470261 0.0855191 -0.292716 0.0694447 -0.000977386
attention 0.497759 0.260021 0.470022 0.0224805 0.392525 -0.280761 0.14803 -0.235902 -0.209191 -0.00950097
lead 0.293907 0.0254883 0.15831 -0.341335 0.202266 0.655605 0.110977 0.0730443 0.405918 -0.00345426
fine 0.303341 0.612466 -0.237453 -0.339351 0.137166 0.113214 -0.329673 -0.333266 0.0174012 -0.0088006
other 0.730054 -0.405168 -0.111983 0.0174236 -0.304595 0.205479 0.228063 -0.037558 -0.0849994 -0.0131228
held 0.208626 -0.44704 -0.216651 -0.337634 -0.372313 0.0409932 -0.268118 -0.508941 -0.056918 -0.0134401
even 0.773749 -0.0232066 0.0473155 -0.271947 -0.184515 0.031304 -0.409192 0.0841578 -0.128842 -0.0137811
years 0.178663 -0.273828 -0.224081 -0.205465 -0.488681 -0.340659 -0.335128 -0.160868 -0.420611 -0.0171543
trader 0.125351 -0.148902 0.095401 -0.517474 0.293768 -0.159289 -0.102893 0.666234 -0.0401987 0.00181366
aššurištikal -0.792834 -0.0130335 0.184731 0.00670326 0.116132 -0.335843 -0.277818 -0.207907 -0.0571141 0.00414927
representative -0.343868 -0.199601 0.258068 0.497867 0.120181 0.337778 0.310355 -0.317381 0.299155 0.000368561
šuhubur -0.463323 0.22262 0.128837 0.293353 0.458792 -0.405355 0.0488545 -0.313628 0.221168 0.00785193
lady 0.0414203 0.342401 0.112436 0.0286794 -0.375718 -0.383836 -0.25673 0.158089 0.600013 -0.00528962
amuršamaš -0.860824 0.0481466 -0.201512 -0.109026 -0.0445385 -0.23137 0.041701 -0.189013 0.168465 0.00468157
aššurrēī -0.826759 0.245517 -0.225852 -0.0137963 0.0965338 0.294912 -0.130352 0.0781768 -0.063466 0.0035389
angry 0.745877 -0.203182 0.27409 -0.300482 -0.178916 -0.268639 -0.114872 0.125107 -0.109313 -0.00864918
amount 0.398275 -0.190422 -0.350359 -0.0544342 0.17878 -0.603235 -0.196498 -0.320904 0.173266 -0.00416597
aššurlamassī -0.636028 -0.171698 -0.219372 -0.154334 -0.0692559 0.419657 -0.160131 0.347094 0.264353 0.00471694
balance -0.0392533 -0.375977 -0.677803 0.0202883 0.117245 -0.0894 -0.438145 -0.0604699 0.262787 0.00153677
burušhaddum 0.0400485 0.122099 0.0175532 0.563636 0.20273 0.387423 -0.0962146 0.398227 -0.427669 -0.00404872
thin 0.195632 0.703454 -0.0293754 -0.315109 0.115523 0.269959 -0.285021 -0.298307 0.0338131 -0.00767048
according 0.273868 0.0184876 -0.341786 0.523954 0.454455 -0.0658107 -0.0469575 -0.0813934 -0.44264 -0.00544026
oath -0.0409651 -0.735452 0.156523 0.0979838 -0.0488869 -0.370949 0.158043 0.36139 -0.139214 -0.00123384
act 0.687833 -0.290838 0.252228 0.256123 0.229124 -0.117496 0.18948 0.0862775 0.326668 -0.00119279
spent 0.167431 0.236535 -0.61324 0.0802802 -0.512297 0.257414 -0.187667 -0.186313 0.137295 -0.0133614
dadiya -0.56666 0.254288 -0.199172 -0.215471 0.138334 0.519469 -0.357525 -0.0435248 -0.101004 0.00016553
order 0.229835 -0.514323 0.192895 0.444148 0.340093 0.0995304 0.0836823 0.316745 -0.321563 0.000116645
ababa -0.273097 -0.0505453 0.668046 0.486471 0.0339551 0.1093 0.304378 0.162892 0.0266495 0.000320241
plenary -0.177275 -0.0964585 -0.112983 0.559818 0.119041 0.27053 0.0632158 0.489873 -0.423838 0.00115555
placed 0.05676 -0.144521 -0.295346 0.364491 -0.361878 0.48624 0.468073 -0.0174235 0.217009 -0.0108908
fee -0.274987 0.251383 -0.361974 0.389612 0.216258 0.0408145 -0.317999 0.213376 0.514786 0.007401
wrapping -0.188115 0.641873 -0.547479 0.138598 -0.0155097 0.262314 -0.0662989 0.229872 0.0429084 -0.00376149
arrives 0.400229 -0.276349 0.510458 -0.169047 0.343814 0.482152 0.0110296 -0.0484468 -0.117801 -0.00470579
nothing 0.365632 -0.0755872 0.304453 0.365797 -0.536864 -0.197436 -0.332272 -0.281249 0.0750028 -0.0128528
including 0.00880382 0.680561 -0.522087 0.237975 -0.0197772 0.188682 0.161914 0.168747 -0.094443 -0.00779736
annaanna -0.270276 0.674798 0.395934 0.0164843 -0.0958228 0.21828 -0.0693091 -0.304549 0.230007 -0.00495955
irišum -0.721067 0.296043 -0.0221883 0.106742 -0.194533 -0.335604 -0.331567 -0.0955079 -0.135651 -0.00155671
separately -0.360436 0.185112 -0.619836 -0.382871 0.129249 0.324672 -0.0660489 0.210947 0.173121 0.00367083
among 0.441273 -0.175935 0.248063 0.0250648 0.0282869 0.378178 0.657515 -0.136884 -0.0580671 -0.0102386
ilīdan -0.487941 0.272385 0.485289 0.458798 -0.121291 -0.214153 -0.0245787 -0.217718 -0.173397 -0.00507999
terms 0.201401 -0.334313 -0.0660593 -0.0301708 -0.390376 -0.654331 0.267716 -0.0364746 0.260242 -0.010681
overland 0.0383628 -0.308175 -0.12727 0.470214 0.655384 0.105861 -0.32695 -0.0732222 0.043432 0.00625874
partner -0.1372 -0.454574 -0.0095528 0.132258 -0.553102 0.111651 0.455367 0.018228 0.333763 -0.00846908
soon 0.392344 0.286666 0.286036 -0.206494 -0.194301 -0.349377 -0.0802138 0.543934 0.245591 -0.00614616
ṭābṣillaššur -0.396379 0.452035 0.434228 -0.185575 0.133521 -0.427926 0.00716545 -0.0753049 0.321659 0.00221062
while 0.6125 -0.21359 0.316736 -0.365222 -0.303653 0.175501 0.262549 0.033737 0.225955 -0.00897711
confirm 0.0849533 -0.460298 0.155567 0.202112 0.158285 0.532415 -0.288074 -0.431264 0.143351 -0.00490173
three 0.267225 -0.0827261 0.216184 -0.354151 -0.666186 0.110327 -0.377222 0.157149 -0.0570787 -0.0161472
affair 0.0283598 -0.642523 -0.124532 0.234607 -0.450191 0.138792 0.197221 0.374471 0.0277652 -0.00765298
deducted 0.108782 0.0240968 -0.563124 0.330446 -0.0130702 -0.0113771 0.0314191 -0.517606 -0.401934 -0.0152627
hahhum 0.193138 0.674021 -0.0482259 0.224702 -0.0971013 -0.107482 -0.356864 0.365511 -0.24413 -0.00894269
food 0.135502 -0.188152 -0.603148 -0.168828 -0.112743 0.165952 -0.04203 0.614337 0.127192 -0.00236466
died 0.0723564 -0.322509 0.0677274 0.31349 -0.480484 0.46151 0.298518 -0.358381 0.0450148 -0.0152535
lamassī -0.469452 0.283964 0.713221 -0.112719 -0.0471901 0.139977 0.0301194 -0.208954 -0.102198 -0.00217857
favour 0.431974 -0.281818 0.49497 -0.23871 -0.0543218 0.0741716 -0.232149 0.070154 0.501959 -0.00173822
return 0.294104 -0.419134 0.0112971 0.162418 0.232943 0.0234606 -0.294643 -0.513065 0.431075 -0.00169017
ahuwaqar -0.854136 -0.0710446 0.0869028 -0.24179 0.127856 0.0248188 0.0452603 0.304327 0.0871674 0.00898331
swear 0.0857641 -0.653997 0.280843 -0.234235 0.0301069 -0.237665 -0.0198194 0.467412 0.212374 -0.000180764
annina -0.550424 0.392114 0.372717 0.232739 0.0111284 -0.326663 -0.354285 -0.130017 0.0458727 0.00149234
staying 0.332417 -0.276846 0.197498 -0.124695 -0.462816 0.30654 -0.187689 0.381375 0.388126 -0.00524471
lost 0.448972 -0.126168 -0.305896 0.675804 -0.322374 -0.0343555 -0.111182 -0.101905 -0.0349799 -0.0104702
lāqēpum -0.694061 0.233461 0.412281 0.27397 0.0706419 0.0377246 -0.107845 0.319362 -0.0864692 0.00377702
dark -0.242462 0.529614 -0.443587 -0.0546646 -0.0223663 0.56729 -0.0590357 0.0546693 -0.152728 -0.00530259
bēlānum -0.685771 0.162744 0.159431 -0.0458039 0.182903 0.263764 -0.237803 0.456845 0.114671 0.0079387
pūšukēn -0.739185 -0.302483 -0.000954679 0.25968 0.00636554 -0.272512 -0.00032297 0.340463 0.131069 0.00508226
yourself 0.665602 0.142148 0.422027 0.12848 -0.062772 -0.230085 -0.185225 0.281125 0.269698 -0.00479269
šalatuwar 0.409184 0.218325 -0.0282214 0.130914 -0.441612 0.183353 -0.418992 0.288087 -0.403141 -0.0120222
creditor -0.228334 -0.300906 -0.0542203 0.406345 0.379664 -0.649346 -0.0772585 -0.00174429 0.0895353 0.00512116
enter 0.591135 -0.207315 -0.0696151 0.206676 0.360002 0.252403 -0.287116 -0.0209291 0.4216 4.60374e-05
open 0.625686 -0.338881 0.138858 0.17016 0.093716 0.234953 0.509625 -0.0676719 0.128823 -0.00680519
ikūnum -0.768713 -0.287646 0.0931529 -0.224236 0.000531701 -0.408315 -0.100388 0.0109091 -0.0719243 0.00486558
tax -0.0232407 -0.0500519 -0.680642 0.0812436 0.0934134 -0.0555078 -0.579635 0.168746 -0.190218 -0.00122851
hanu -0.0178255 0.615339 0.341419 0.225153 -0.112515 0.126466 -0.414586 0.251632 0.278271 -0.00228393
whom 0.262546 -0.0504731 0.566576 0.13439 -0.473913 -0.320655 -0.0887568 0.0362637 0.367166 -0.00993042
customers 0.287528 -0.12986 0.343071 0.479529 -0.0368402 -0.239769 0.552182 0.269427 -0.0519436 -0.00548441
iramaššur -0.748261 -0.183636 0.0581108 0.148787 0.294896 0.187343 -0.259571 0.30833 -0.0572629 0.0132601
collect 0.73255 -0.0163149 -0.043237 0.0010567 0.383559 -0.00497623 -0.0126326 -0.158549 0.435625 0.00127605
checked -0.0266121 0.254452 -0.344351 -0.0656529 0.205552 0.632744 0.440786 -0.038132 -0.228432 -0.00865492
zukuwa -0.506259 0.576602 0.427944 0.131794 0.10376 -0.0496509 -0.0795117 -0.294246 0.0771011 0.00206757
assets 0.484513 0.204032 0.189744 0.450913 0.175675 0.0567538 0.489065 0.322663 -0.00904392 -0.00377337
twice 0.266572 0.405394 0.467049 0.176186 -0.244162 -0.0509662 -0.387543 -0.399456 0.170225 -0.0109952
become 0.314788 -0.369186 -0.205965 -0.349951 -0.467811 -0.0992882 -0.120746 -0.334852 0.347011 -0.0144956
lamassutum -0.600206 0.173519 -0.301298 -0.0704681 -0.389304 0.101474 -0.423236 -0.251554 -0.0846396 -0.00639815
mother 0.0777577 -0.164686 -0.0834222 -0.199506 -0.429568 0.369901 0.445545 0.0234917 0.519676 -0.00902477
aššurrabi -0.445926 0.102557 0.43231 -0.29207 0.0797924 -0.565552 0.277258 -0.0901813 0.0505035 0.00280777
ready 0.594017 0.239377 0.324312 -0.0770356 -0.112663 -0.370695 0.311198 -0.22529 -0.269608 -0.0151833
place 0.493143 -0.225603 -0.255592 0.121148 0.466646 0.268507 0.316024 0.0886095 0.347171 0.00137584
sworn -0.101251 -0.483828 0.29143 0.409825 -0.463493 -0.221509 0.283647 0.0726366 -0.190722 -0.0115934
listen 0.488393 -0.158721 0.668155 -0.192336 -0.0941939 0.336591 0.0833697 -0.0102755 0.140665 -0.00752882
delayed 0.651409 -0.195335 0.477968 -0.21963 -0.293278 0.184824 -0.119046 -0.119075 0.122638 -0.0102858
agreement 0.309196 -0.492873 0.104761 0.318211 0.188041 -0.351404 0.184553 0.460094 -0.181586 -2.16755e-06
inahilī -0.269962 0.160748 0.67702 0.375223 0.181692 0.28589 0.0241834 -0.251324 -0.122732 0.00149936
deposit 0.53418 -0.312598 -0.209204 0.233987 0.195849 -0.0897583 0.14135 0.00846204 0.582295 0.00493635
earlier 0.0975711 0.603593 0.232183 0.118562 -0.46826 0.270496 -0.214876 0.0842075 -0.311236 -0.0138224
slavegirl 0.158679 0.292713 0.0248171 0.0142833 -0.286668 -0.339332 -0.622221 -0.219925 0.367044 -0.00423957
satisfy 0.189376 -0.495435 0.164579 0.321638 0.554468 0.128908 -0.256494 0.230134 0.190725 0.00695499
mannumkīaššur -0.321661 0.39262 0.421839 0.151991 0.167633 -0.360979 -0.0955456 -0.408366 0.306781 0.00184356
rule -0.0920092 -0.191953 -0.328731 0.300505 0.589035 -0.308704 0.198504 0.278036 -0.285962 0.00597965
belongs -0.187426 -0.229587 -0.189087 -0.149868 -0.0365844 0.716471 0.0752909 -0.326913 -0.318732 -0.0109801
elāli -0.511227 -0.264304 0.63225 0.0178447 0.0145943 -0.345787 0.186497 -0.0114046 0.125724 0.00359478
absent -0.266901 -0.289932 0.108257 0.263434 -0.46316 0.0427518 0.464835 0.159248 0.432081 -0.00379278
once 0.240771 0.535561 0.500533 0.180612 -0.18336 -0.111798 -0.197185 -0.385261 0.164744 -0.0107027
questioned 0.0340806 -0.264756 0.740505 0.091488 -0.0726974 0.453884 0.0207315 -0.210274 -0.0548337 -0.0074938
satisfied 0.143596 -0.417179 -0.153399 -0.0178522 -0.189769 0.661154 0.205906 -0.308607 -0.223737 -0.0110785
uku -0.301841 0.477453 0.418716 -0.0396923 0.506972 0.25677 -0.113872 0.204071 0.140205 0.0091251
šamašbāni -0.478369 0.464251 0.100798 -0.289137 -0.0786579 0.47374 -0.115799 -0.225321 -0.247614 -0.00545148
orders 0.494791 0.139264 0.200507 0.575929 0.323247 -0.206292 0.254057 0.153154 0.158491 -0.000880366
ask 0.370665 -0.0454232 0.364239 -0.36808 0.207995 -0.00873042 -0.424438 0.0563419 0.49936 0.00137694
messenger 0.0373968 -0.410372 0.124637 -0.322941 0.231173 0.325001 0.344813 0.561586 -0.0362477 -0.00101582
passed -0.172479 -0.444578 -0.337435 0.585964 -0.035995 -0.00700596 -0.137963 -0.242307 -0.34967 -0.00582319
says 0.00764785 -0.433097 0.374898 -0.666926 -0.213463 0.254299 -0.0391182 -0.0749548 -0.002022 -0.00527542
eponym -0.0420438 -0.627106 0.13525 0.0755815 0.569685 -0.337441 0.0949914 -0.0913823 -0.136025 0.00507983
inn 0.085657 0.33833 -0.626826 0.0347911 0.122016 0.154952 -0.0180559 0.556005 -0.140706 -0.00115768
statement -0.157091 -0.385568 0.466348 0.0458751 -0.12607 -0.418841 -0.079282 0.527668 0.12946 -0.0011881
addition -0.16825 0.400583 -0.263588 -0.0665174 0.153875 0.404283 0.257975 0.158028 0.580552 0.00281101
entered 0.105664 -0.202025 -0.0698775 0.465404 0.16012 0.724258 0.165103 -0.0911291 -0.158159 -0.00390873
ahšalim -0.712219 0.0268396 0.116187 -0.327548 -0.0885805 0.275875 -0.384985 0.211134 0.0560824 0.00412194
behind -0.0222507 0.400633 0.170353 0.29308 -0.536311 0.496621 -0.190201 0.0188693 -0.192505 -0.0122641
oil 0.177189 0.684398 -0.00963189 -0.605131 0.104406 0.0718949 0.0470265 0.0799508 0.0575717 -0.00622107
payment 0.140175 0.0444777 -0.581658 0.133847 0.16418 -0.566804 -0.244543 0.0722094 -0.303865 -0.00431322
extra 0.407584 0.0297232 -0.688648 0.0709314 0.129295 -0.212781 -0.315213 -0.221741 0.189855 -0.00368374
king -0.245222 -0.276248 0.220239 0.741203 -0.113677 -0.188031 -0.00488218 0.261967 -0.19483 -0.00409318
wages -0.110783 -0.0681019 -0.728786 -0.116621 0.145381 -0.078859 -0.155438 0.292357 0.431585 0.00454583
alulaya -0.660218 0.448462 0.240486 0.319342 -0.307416 -0.0246321 0.0797962 0.0555147 -0.0745469 -0.00534566
full 0.372247 -0.126703 -0.449544 0.170155 -0.0877396 -0.494736 -0.432631 -0.218545 -0.126691 -0.00694884
only 0.539185 -0.180668 0.0935588 0.0017314 -0.439292 -0.36298 -0.322309 -0.358484 0.0360319 -0.0140481
jars -0.035719 0.272407 -0.606426 -0.442284 -0.324493 -0.226096 -0.18472 0.0259043 0.240372 -0.00396999
tumliya 0.16428 0.146688 0.0683419 -0.0609828 -0.0767248 -0.693041 0.153229 -0.162417 -0.521074 -0.0158792
possible 0.444664 0.307759 0.274839 -0.399398 -0.0785118 -0.432905 -0.064774 0.401873 0.0564644 -0.00682755
ālṭāb -0.64605 -0.337239 0.0170403 0.0899195 0.0356956 0.20484 -0.56492 0.000151076 -0.0393392 0.00715012
jointstock 0.163623 -0.022953 -0.161142 0.213132 0.0964769 -0.679879 0.518301 0.193043 -0.0634249 -0.00641355
times 0.447799 0.311193 0.407096 0.0732337 -0.446844 0.26443 -0.305187 -0.23691 -0.000178859 -0.0170381
offerings 0.0851074 0.459294 -0.380927 0.386746 0.00913955 -0.356479 0.426028 -0.00718033 0.251817 -0.0069839
abiya -0.58888 -0.104125 0.362057 -0.222626 0.538935 0.104728 0.253225 -0.00448948 -0.0169688 0.0102946
sue 0.337222 -0.720882 0.338544 0.0419132 0.0970628 0.218896 0.122265 0.219168 0.1629 -0.00377355
wherever 0.56056 -0.257277 0.18907 -0.379941 0.294279 -0.187502 -0.400118 -0.0086624 -0.234165 -0.00194011
later 0.449889 -0.180679 -0.403897 0.485669 -0.327051 -0.0304912 -0.165483 -0.14968 -0.320496 -0.0104506
stay 0.662887 -0.200127 0.0585698 -0.200813 0.129573 0.305515 -0.168462 -0.0172542 0.483332 -0.00190057
hurama 0.0367545 0.0297188 -0.478387 0.104008 0.0939102 0.197491 -0.386723 0.620166 -0.23123 0.000558431
stand 0.438407 -0.406932 0.223512 0.0876621 0.326717 0.189547 0.260748 -0.235241 0.454283 0.00265804
yourselves 0.474363 -0.0777418 0.399185 0.040185 0.56717 -0.391693 0.134158 0.0315029 -0.0959109 0.00200354
yet 0.425891 -0.20102 -0.0494272 0.229222 -0.620566 0.0588614 -0.337083 -0.267788 -0.183249 -0.0175338
agreed 0.528915 0.0113031 0.344367 -0.0211406 -0.282322 -0.566494 0.249508 0.0768977 -0.155618 -0.0121221
show 0.683919 -0.362998 0.425324 0.0390727 0.0475363 -0.131337 0.127313 -0.246202 0.163805 -0.00690243
produce 0.513979 -0.312328 0.281442 -0.0291013 0.31538 0.0094999 0.257444 0.115596 0.517888 0.00245989
see 0.596697 -0.4645 0.134445 -0.181472 0.276207 -0.0635792 0.221507 0.0136655 0.382793 0.000712037
along 0.53447 -0.113473 0.267159 0.0926403 0.311751 -0.0606633 -0.327745 0.358059 -0.417103 0.00112623
grains -0.166762 0.309781 -0.675931 -0.387329 0.213227 -0.287385 -0.081296 0.121209 -0.113598 -3.92402e-05
kukuwa -0.454579 0.196839 0.280845 -0.00380426 0.147048 -0.614369 0.0354023 -0.182805 0.364155 0.00377537
purchase 0.552076 0.363368 -0.0658126 -0.115389 0.622294 -0.187104 -0.144859 0.0130493 0.0454673 0.000566367
delay 0.570767 -0.336573 0.188225 -0.300314 0.204701 0.0455161 -0.444502 -0.161464 0.254847 -0.00116226
kura -0.72117 -0.0769211 -0.0541757 0.0808749 -0.111115 -0.431274 -0.210043 -0.0366108 -0.351663 0.00172553
bad 0.0802917 0.473397 -0.295451 -0.0825492 -0.239862 -0.0860109 0.270438 -0.48057 -0.424363 -0.0155441
kuburnat -0.222324 0.0976834 0.0828227 0.391135 0.239693 0.276609 -0.25986 0.602358 -0.309946 0.00126521
credit 0.293799 0.243606 -0.0786052 0.0863924 -0.124102 -0.0820329 -0.390261 0.387147 0.622708 -0.00315479
ago 0.103985 -0.118082 0.00892015 -0.190101 -0.521302 -0.319623 -0.445972 0.0822586 -0.470215 -0.0183274
scribe -0.577374 0.0761231 -0.0530905 -0.110025 0.162217 0.376949 0.127473 0.566791 -0.190544 0.00352251
track 0.706672 0.23578 0.094625 0.546062 -0.165054 0.0145738 0.0827024 -0.0762952 -0.0316536 -0.0153753
narrow 0.696395 0.231124 0.204255 0.246187 -0.329131 -0.33672 -0.128617 0.131422 0.043816 -0.015831
hands 0.4352 -0.158232 -0.323374 0.216406 0.264535 0.599577 0.25234 -0.137747 0.117133 -0.00362123
second 0.127167 0.359789 -0.796657 0.00135117 -0.12015 -0.11504 0.200028 -0.0891725 -0.186463 -0.0081078
put 0.57186 -0.0682205 -0.432045 -0.184032 0.0623218 0.47672 -0.091475 -0.110165 0.303393 -0.00444604
comes 0.159868 -0.444176 0.0244684 0.0623825 0.423712 0.267968 -0.589074 -0.17273 -0.174126 0.00210335
value -0.0459866 0.25654 -0.801271 -0.0747528 0.0246847 -0.0168044 -0.260967 0.208519 0.247112 -0.000707306
concluded 0.0431927 -0.22936 0.0998417 0.330545 -0.643984 0.122674 0.276807 0.0127631 -0.440283 -0.0152869
lulu -0.44365 0.488199 0.234123 0.0632483 0.0831975 -0.421069 -0.137035 -0.2585 0.357708 0.00370931
sale 0.452399 0.584772 -0.388597 -0.104304 -0.17661 -0.0350115 -0.206438 0.166697 0.292032 -0.00619496
present 0.333179 -0.191418 0.0736793 0.300859 -0.339387 0.333677 0.203314 -0.574881 0.189479 -0.0140583
loan -0.589425 0.0248949 -0.25205 0.00917692 -0.417266 -0.222972 -0.185676 0.374338 0.292803 -0.00159869
guarantor -0.295829 -0.232202 0.0218823 0.306758 -0.458641 -0.575108 0.00888596 -0.158 0.28841 -0.00430918
ušinalam -0.048197 0.13894 0.0316667 0.279369 0.256243 0.309052 -0.513307 0.384503 -0.448351 0.00260818
reach 0.527693 -0.502897 0.0337912 0.0857635 0.153314 -0.268987 -0.138599 0.197978 0.446458 0.0029332
akuza -0.729654 -0.117799 0.14128 -0.0352255 0.0398747 -0.386465 0.42154 -0.066675 0.0325069 0.0111568
profit 0.543395 -0.461935 -0.209705 0.000829871 0.37926 -0.422859 -0.142457 0.0728394 0.00987499 0.00220167
answer 0.458293 -0.349234 0.187091 0.00754302 -0.0516023 0.0765814 -0.619982 0.0717488 0.351946 -0.00146089
aliahums 0.0128297 0.359237 0.0860533 0.605789 0.190521 0.430566 0.279133 -0.259724 -0.126019 -0.00433395
whatever 0.491725 0.142034 0.422921 -0.0593846 0.183714 -0.568253 -0.182164 -0.220121 -0.109038 -0.00498473
became 0.0241432 -0.0565158 -0.445706 -0.581304 -0.481107 -0.0786728 -0.203581 0.205244 -0.140085 -0.0109477
led 0.151078 -0.00329209 -0.126161 0.173521 0.0757384 0.891677 -0.00462246 0.0951244 0.0399431 -0.00752177
borrowed 0.0317173 -0.343899 -0.620803 0.304199 0.0847334 0.0224666 -0.420922 -0.17877 -0.263227 -0.00798603
guard 0.682408 0.153059 -0.090934 -0.288612 0.256364 0.0942293 0.417489 -0.0904047 0.251008 -0.00530442
instruction -0.0558058 -0.138817 -0.158896 0.473129 0.570831 0.00762025 -0.249782 0.475777 -0.0123169 0.00575121
witness -0.00277892 -0.275595 0.429645 -0.408543 -0.23218 -0.0478397 0.105704 0.593946 0.182333 -0.00311908
yes -0.217599 0.0315428 0.379903 0.563054 -0.169411 0.21494 -0.51065 -0.200517 0.0105903 -0.00669135
anatolian -0.0784006 -0.396362 -0.427754 0.378911 -0.433364 -0.227512 0.216667 0.320437 0.0811692 -0.006376
girl 0.124792 0.267222 -0.0748731 0.291397 -0.706149 0.166668 -0.186298 0.00490551 0.374668 -0.0120185
transported -0.253499 0.235513 0.237181 0.019217 -0.507593 0.479235 0.379512 -0.178885 0.183862 -0.0162723
five 0.441439 0.190635 0.177555 -0.0533747 -0.522776 0.411158 -0.390716 -0.161597 0.0206532 -0.0151962
hinnaya -0.0488019 0.462816 -0.0212221 0.727875 -0.0630145 -0.241571 -0.234353 0.042402 -0.14707 -0.00895151
akkadian 0.168151 0.765886 -0.155048 -0.334517 0.0606038 0.292886 -0.227357 0.0442084 -0.0217186 -0.00679331
report 0.530436 0.233414 0.408353 0.0568528 0.472629 -0.353062 -0.0597867 0.184549 0.0811536 4.3221e-05
being -0.151908 0.00765873 -0.517561 -0.213062 -0.326356 -0.124622 0.489543 -0.405251 -0.122709 -0.0125335
obstruct 0.341162 -0.613855 0.571333 0.0124766 0.0814938 0.104237 -0.131752 -0.167415 0.123821 -0.00114541
hand 0.600148 0.024146 -0.569454 -0.407881 0.070649 0.000557243 0.129516 0.16284 -0.0672878 -0.0014148
missives -0.0271931 0.1036 0.506049 0.56153 0.308478 0.1393 0.278029 0.144301 0.300708 0.00352562
importtax -0.0437723 0.279575 -0.698472 0.130778 -0.218931 0.129734 -0.246482 0.357524 -0.215066 -0.00623706
ummīišhara -0.493304 -0.269285 -0.183203 -0.360577 -0.138229 0.436024 -0.0732667 0.118761 0.431324 0.00271545
mind 0.393798 -0.382327 0.487743 0.28676 -0.458625 -0.0823408 -0.0329086 0.20708 0.107887 -0.00778957
responsibility 0.222486 0.224581 0.0751284 0.112494 0.597015 -0.0652926 0.214938 0.532982 -0.267827 0.00305019
travel 0.230358 -0.460239 -0.273317 0.194528 0.16809 0.0854003 -0.375763 0.333322 0.466203 0.00458121
atata -0.869644 0.0042883 0.255293 -0.254133 -0.0801674 0.0193488 0.159336 0.0269363 0.0308796 0.00554785
fodder 0.142905 0.385592 -0.638505 -0.345084 -0.209262 0.0266378 0.0677246 0.357587 0.129488 -0.00219536
safe 0.206236 0.106293 0.319463 0.252956 -0.323249 -0.00177859 0.533348 -0.436319 0.288528 -0.0058312
friend 0.525722 0.114639 0.451263 -0.2704 -0.233866 -0.0365635 0.0940665 -0.435995 0.266383 -0.00987087
plur 0.506449 -0.194181 0.684084 0.214869 -0.111547 -0.0172751 -0.0800766 -0.151933 0.222234 -0.00346117
innaya -0.538198 -0.343538 0.0864761 0.144871 0.590428 -0.243337 -0.101143 0.00926781 -0.218519 0.00879401
opened 0.4393 -0.184535 -0.159063 0.1125 -0.177167 0.633375 0.403262 -0.00429308 -0.169399 -0.00978413
karum -0.110441 -0.222871 -0.382351 -0.246937 0.514704 0.211139 0.294546 0.445026 -0.151504 0.00692599
paternal 0.562809 -0.447815 0.0472277 0.196417 0.0821352 0.10565 0.538752 -0.0921757 -0.149966 -0.00770566
enahilī -0.647491 0.192429 0.415472 -0.0986952 0.105814 -0.0601863 0.227299 0.243146 -0.36883 0.00370608
bronze 0.0727448 0.637036 -0.2827 -0.359124 0.193076 0.129151 0.352544 -0.132169 0.271162 -0.00344094
container 0.0270724 0.508813 0.014463 -0.0821067 0.17868 0.416876 0.570972 0.162358 0.243369 -0.00284069
sheep -0.0140502 0.161185 -0.547148 -0.551549 -0.255774 -0.396228 -0.118916 0.143328 0.0458882 -0.00176517
favours 0.472237 -0.537404 0.250291 -0.23129 -0.147481 -0.303281 -0.00207139 -0.318654 0.230413 -0.00401314
anyone 0.370756 -0.383121 0.557394 0.151502 -0.172666 -0.230696 -0.37107 0.110849 0.206269 -0.00190202
ikūnpīaššur -0.854043 -0.0961338 0.218656 -0.0869666 0.244453 -0.0606977 -0.0306715 -0.233698 0.0309452 0.0113597
security -0.11789 -0.0311356 0.431712 -0.0358075 -0.813355 -0.115683 0.0112067 -0.0393438 -0.0278279 -0.0149072
booked -0.0730123 -0.117136 -0.418672 0.273696 -0.701788 0.0713792 0.0241561 0.322615 0.100058 -0.00966873
mine 0.686947 -0.0349711 -0.0717778 -0.430777 0.180496 0.288175 0.235743 0.038029 0.258072 0.00464234
alone 0.397898 0.0661646 0.634491 -0.407106 -0.334786 -0.0955 0.0198452 0.103212 0.16744 -0.0096368
sukkalliya -0.836752 -0.0570738 -0.165028 0.215731 -0.0899008 -0.239115 -0.180467 -0.18535 -0.0809498 0.000953472
reason 0.615004 -0.171213 0.234755 -0.350728 -0.467949 0.0103296 -0.282267 0.112215 0.0439211 -0.0109585
truly 0.372391 -0.154888 0.483503 -0.0547964 -0.0452979 -0.0699098 0.280159 -0.505821 0.376102 -0.00608692
many 0.332425 0.311353 0.476992 -0.0809311 -0.564758 0.178092 0.284572 0.0336547 0.120349 -0.0133049
turn 0.470864 -0.566941 0.201074 0.0415275 0.264457 0.127934 -0.178191 0.184413 0.395778 0.00550118
during 0.212388 -0.204596 -0.768556 0.218894 -0.115306 0.0193504 -0.221637 -0.138567 -0.278824 -0.0106346
zuba -0.679349 -0.0687236 -0.04875 0.0272387 0.582311 -0.00606163 0.019019 0.268331 -0.132088 0.0172186
returned -0.0213184 0.134906 0.0683378 -0.128377 -0.0611012 0.51395 -0.51341 -0.148386 -0.525005 -0.010115
iddinabums -0.0683375 -0.238922 0.0747161 0.653719 -0.203397 -0.0271976 0.366355 -0.455192 0.0724661 -0.00632548
šuli -0.761903 -0.451612 -0.100313 0.245186 0.182929 0.019976 -0.151776 -0.0706769 -0.0257991 0.00648501
šumiabiya -0.629367 -0.0323702 0.0542353 0.247389 0.419362 0.269842 0.29445 0.29018 0.137886 0.0125637
lawsuit 0.195462 -0.631199 0.438311 -0.22743 -0.207062 -0.276994 0.00947372 0.0557526 -0.292493 -0.00815122
furthermore -0.314358 0.359099 -0.314439 -0.257814 0.0738716 -0.494282 0.256946 0.0561989 0.418446 0.00261108
ilīālum -0.773095 -0.272597 -0.398955 -0.10514 0.226515 0.0827188 0.0473046 -0.0326686 -0.111147 0.00733966
uraya -0.657194 -0.34379 0.429891 0.0613212 0.0681469 -0.197126 0.264903 0.183394 -0.14299 0.0070346
court 0.240259 -0.551947 0.493358 -0.0307791 -0.00171063 0.104483 -0.162818 0.372392 -0.323964 -0.00272985
refused 0.386527 -0.283937 0.533698 0.0591185 0.191017 0.169608 -0.218093 -0.396464 -0.313062 -0.00758748
ilištikal -0.601245 0.355518 0.279614 -0.326427 -0.137924 -0.0281481 -0.0979864 -0.419899 -0.145932 -0.00235077
copy 0.0583313 0.209148 0.608547 0.404816 -0.137818 -0.00655836 0.376599 0.367166 0.0795502 -0.00733703
indebted -0.240097 -0.0554552 -0.0205776 -0.259902 -0.635992 -0.0967694 -0.513995 -0.255124 -0.0685273 -0.0140072
decide 0.704303 -0.000826831 0.402665 0.032319 -0.142495 -0.22433 0.102385 0.0146147 0.403071 -0.00390868
merchants 0.607838 0.153155 -0.302514 0.533929 0.201587 -0.235665 -0.122601 0.145687 -0.0435718 -0.0022069
worry 0.59173 -0.0507393 -0.00973277 -0.299109 -0.33791 -0.517074 -0.131145 -0.00768649 0.228207 -0.0111242
aššurennam -0.47251 -0.31432 0.114894 -0.727333 0.0682372 -0.122914 0.127691 0.0532203 0.00522428 0.00337855
already 0.295225 -0.0110109 0.214951 0.521241 -0.499398 0.0311425 -0.452292 -0.121973 0.105565 -0.0119298
front -0.150276 -0.159566 -0.370775 0.286278 -0.384441 0.316996 0.60275 -0.0219005 0.0483521 -0.00917339
remains 0.479536 0.280622 -0.352745 0.321717 0.357799 -0.0815832 0.190195 -0.392555 0.176478 -0.00517807
adadbāni -0.703201 0.0887806 -0.0199443 -0.307348 0.164862 0.391409 -0.0563654 0.216638 -0.280733 0.00382137
jointly 0.304376 -0.280373 -0.118985 -0.608303 -0.306593 -0.278902 0.267831 -0.176585 0.231056 -0.0107914
aššurrēṣī -0.574717 0.14945 0.0330427 -0.41078 -0.116955 0.209674 -0.444048 0.0263482 -0.343041 0.00091405
reached 0.377732 -0.466573 0.568806 0.285164 -0.0219634 0.11574 -0.129976 0.171319 -0.262469 -0.00469842
released 0.445042 -0.199019 -0.166407 0.214018 -0.163465 0.287053 0.450024 -0.456994 0.240354 -0.00529162
uzua -0.776782 -0.350772 -0.282411 0.0937022 0.0720501 -0.182172 0.0665131 0.109217 0.216167 0.00715033
instead 0.405071 0.120602 -0.0664307 -0.616615 -0.461859 -0.217115 -0.148205 -0.0193901 -0.205681 -0.0131786
detain 0.507413 -0.384729 0.372157 -0.13784 -0.121814 0.491712 0.0667698 -0.252474 -0.0579154 -0.0124629
total 0.165102 0.302216 -0.673424 0.169024 0.29037 -0.130776 0.386908 -0.185793 0.0626776 -0.000301381
check 0.449592 0.137845 0.376454 -0.119245 0.346224 0.153435 0.444934 -0.344314 0.229482 -0.00207414
extrafine 0.158735 0.839759 -0.129297 -0.119549 0.00811146 -0.000171947 0.0356225 -0.31962 -0.168594 -0.0102681
azu -0.540774 0.317705 0.311569 -0.0816052 0.376355 0.0954174 -0.35327 0.0678829 0.336606 0.0148028
kept 0.384681 -0.396468 0.271473 -0.113183 -0.496232 0.383875 0.2783 0.031827 -0.156608 -0.0128172
clothes 0.331362 0.328635 -0.517967 -0.330822 -0.176632 -0.0883909 -0.0418499 0.130501 0.482755 -0.00143986
šalimbēlī -0.0816874 0.565223 0.0570035 -0.434884 0.355363 0.124193 -0.314654 0.259376 0.250854 0.00534358
salliya -0.54474 0.113606 0.623371 0.15816 -0.346627 -0.122176 0.170832 0.0144908 0.114603 -0.002109
garment 0.317573 0.287915 -0.0839138 -0.242438 -0.0715616 0.654879 -0.407667 -0.144103 0.133044 -0.00366841
agent 0.0965273 -0.127586 0.481177 -0.0286673 -0.417056 -0.387076 -0.291086 0.431379 -0.169689 -0.00473373
iddiništar -0.76594 -0.46017 0.00646449 -0.0725898 0.114763 0.22243 0.202713 0.0220246 0.0870756 0.00887316
same 0.0389752 0.219626 -0.0431612 0.149623 -0.492544 -0.409526 0.491662 0.322035 -0.215799 -0.0113932
abarnian 0.154019 0.612604 -0.382049 -0.475414 -0.187893 0.185878 -0.184441 -0.0158239 -0.134218 -0.00760185
asked -0.0445446 0.0440703 0.106122 -0.313403 -0.293409 0.270639 -0.424602 -0.369484 -0.525923 -0.0135999
losses 0.159564 -0.573596 -0.325303 0.0120688 -0.134383 0.0732552 0.603423 0.183351 0.0833594 -0.00334632
offering 0.0949954 0.334844 -0.287695 0.441444 0.0318958 -0.339908 0.505106 -0.230832 0.243647 -0.00573578
hall 0.0873244 -0.374266 -0.0455844 0.816027 0.0263078 -0.20875 0.0781916 -0.0570956 -0.146608 -0.00286826
sack -0.237108 0.102562 -0.427839 -0.583717 -0.399028 -0.280309 -0.166181 -0.0291595 0.178642 -0.00488184
shipment 0.33361 0.514027 -0.460419 0.0836424 0.0484787 0.232831 -0.0371823 0.0931103 0.475296 -0.00416629
fem 0.381604 0.451563 0.468972 -0.0958299 0.115889 0.308515 -0.0149584 -0.359946 0.269438 -0.00717609
expense 0.349837 -0.0677799 -0.824136 -0.0434887 0.00981847 -0.128531 0.0674005 0.203217 0.15431 -0.0022425
weight -0.22158 -0.0405581 -0.741342 0.10136 -0.220703 -0.138189 0.457287 -0.0334819 0.0153483 -0.00621772
hire 0.291863 -0.706185 -0.0405452 0.140881 0.231029 0.0306175 -0.253456 0.412281 0.0130933 0.00531023
instructed 0.332882 -0.0668233 0.511397 -0.432383 -0.167827 0.476051 -0.14558 -0.0747265 0.212578 -0.00386932
free -0.459156 0.359301 -0.0565372 -0.273011 -0.597012 -0.107803 -0.225874 -0.0656759 -0.210576 -0.0147312
aššuremūqī -0.732979 -0.149528 0.369031 0.103169 0.112267 0.0391501 -0.257221 0.345912 0.080316 0.00584615
amuršarrassa -0.0354831 0.248207 0.315723 0.465295 0.261144 0.106413 -0.637377 0.132705 0.0548977 0.00260241
ewarimuša -0.0937152 0.782821 0.183981 -0.111951 0.343835 -0.05478 0.0299114 0.0473057 0.317389 0.00389167
settle 0.0662909 -0.288726 0.231941 0.310202 0.177756 0.562716 0.122781 0.201113 -0.484088 -0.00588546
dadaya -0.498405 -0.215409 0.530672 -0.245106 0.42939 -0.205591 -0.154234 0.097809 0.087368 0.00855588
kutānutextiles -0.116785 0.693584 -0.41678 0.0954027 -0.238516 0.0247429 -0.239362 0.143112 -0.273541 -0.0108544
illilbāni -0.766853 0.164125 0.0754032 -0.244692 0.216996 -0.269011 0.130645 0.0902623 0.293251 0.00921854
invested -0.567861 0.14062 -0.236141 0.224792 -0.080416 0.0942893 0.0452361 -0.652065 0.011258 -0.00338189
ilīašrannī -0.598348 0.594341 0.0710201 0.102377 -0.145363 0.203482 0.273445 0.200426 0.0349688 -0.00131124
mannumkīiliya -0.270912 0.340713 0.444728 -0.298634 0.368432 -0.0782457 -0.0711529 -0.018978 0.512037 0.00699113
package 0.0350065 0.590667 -0.370826 0.428751 0.324099 0.127667 0.0796761 -0.099341 -0.285644 0.000352389
cover 0.0364222 0.0465959 -0.263893 0.577073 -0.168371 -0.354504 0.02043 -0.542981 0.147605 -0.0108311
kūnilum -0.592059 0.12574 -0.467835 -0.0448287 -0.205735 0.226438 -0.420154 -0.0182829 0.205267 0.00342042
fees 0.0964726 0.370286 -0.565208 0.400062 0.233288 -0.21248 -0.326506 0.140176 0.193753 0.000974694
envoys -0.180319 -0.0819766 0.00642221 0.672668 -0.10527 0.243473 0.203589 0.488832 -0.200724 -0.00115842
balanced -0.166048 -0.0701575 -0.588024 -0.523556 -0.0288995 0.274246 0.276037 -0.253132 -0.12561 -0.00886571
like 0.54984 -0.160465 0.271627 -0.361031 -0.407017 0.00456622 0.234356 0.176783 0.330042 -0.00788227
ibniadad -0.362521 0.395897 0.0564571 -0.237131 0.284673 -0.657247 0.15983 0.0902554 0.0114179 0.00235501
slavegirls 0.668279 0.129624 -0.102998 -0.244795 0.166998 -0.405989 0.378125 0.172669 -0.0658722 -0.000136202
yours 0.578394 -0.0694093 0.457059 0.0250375 -0.0424652 -0.387584 -0.142799 -0.388733 -0.169915 -0.00235558
bags 0.0415778 0.518052 -0.598418 -0.426404 0.124519 0.188661 0.10496 -1.65295e-05 0.144435 -0.00184608
ship 0.673399 0.000393893 -0.266528 -0.227139 0.263121 0.254037 0.0497566 -0.200413 0.3834 -0.0004445
obtain 0.625633 -0.262279 -0.104454 0.0663995 0.639923 -0.0104585 -0.00926848 0.131771 -0.0139518 0.000405955
belong -0.0412941 0.0733635 -0.21381 -0.503504 0.162393 0.495735 0.171203 -0.51493 0.051754 -0.00980376
writing 0.196411 0.19554 0.65478 -0.187455 -0.579699 -0.0258935 -0.0462016 -0.0471683 -0.0470597 -0.0151677
next 0.535383 0.18562 -0.0863247 0.0714056 0.618077 0.00710168 -0.182505 0.222756 0.308492 0.00440801
trip 0.461466 0.0655324 0.027632 0.144452 0.154623 -0.0760897 -0.563221 0.513949 -0.189092 0.00115274
else 0.423212 -0.423192 0.199658 0.114311 -0.0167518 -0.073728 -0.658947 -0.197881 -0.0461641 -0.00331249
shipped -0.0963923 0.0370513 -0.372638 -0.034257 0.106435 0.815666 -0.166869 -0.130257 0.10872 -0.0020914
top -0.00566902 0.0781056 -0.465032 0.309594 0.161969 -0.645054 0.283636 0.12404 0.16873 -0.00163107
bloodmoney 0.346521 -0.432559 0.364821 0.518649 0.045331 0.0663306 0.201784 0.119589 -0.342878 -0.00824778
mamma -0.183239 0.19315 -0.212743 0.45623 0.136836 0.0138529 -0.585916 0.137126 -0.41818 -0.000389483
funds -0.141819 0.25481 -0.624406 -0.158966 0.139732 0.00847692 0.37383 0.205266 0.426747 0.00393885
long 0.680382 -0.0930312 0.117361 0.00423494 -0.526634 -0.171982 0.317334 0.0940746 -0.0200611 -0.013492
ušinalams -0.250368 0.632911 0.0281291 0.147498 0.377674 -0.102568 0.31219 -0.0893237 -0.379861 -0.00247459
official -0.103976 0.0768243 -0.730781 -0.0989254 0.138828 -0.278262 -0.115861 0.259049 -0.382407 -0.0018374
responsible 0.544728 -0.201909 -0.304912 -0.564778 0.0418883 -0.253775 0.262108 -0.119008 -0.0159746 -0.0060011
manana -0.714979 -0.188029 0.289304 -0.166501 0.136266 -0.155868 0.381548 0.24427 -0.00358097 0.0107583
swore -0.187154 -0.667489 -0.0540287 0.183994 -0.222458 -0.0774649 0.444984 0.221015 -0.263614 -0.0034152
packet 0.426794 -0.0524574 -0.646116 0.0458102 -0.140887 0.379678 0.270615 -0.166173 -0.145244 -0.0117915
road 0.606699 -0.0153949 -0.218211 0.399692 -0.262529 -0.160176 -0.475568 0.056357 -0.034014 -0.00855304
šutammuzi -0.235327 -0.0330055 0.838223 0.132751 0.237583 0.0812913 0.0346284 -0.223537 -0.0348399 0.00455129
idnaya -0.437327 0.273334 0.567103 0.0249568 0.0634813 -0.0579153 0.475265 0.120514 0.241269 0.00430006
dānaššur -0.624366 0.120603 -0.470494 -0.0491804 -0.00273397 0.165019 -0.398529 0.208728 0.213731 0.00477354
discuss 0.205205 -0.560876 0.343418 0.371755 0.376281 0.0157725 0.0370976 0.231532 0.283683 0.00804219
containers -0.127007 0.458397 -0.00779128 0.262057 -0.051159 0.16739 0.746219 0.0302213 -0.0364829 -0.00570193
harnessor -0.296088 0.0691204 -0.644101 0.215064 -0.534797 0.0450322 -0.0110732 0.134481 -0.170755 -0.00870858
elaya -0.252709 0.133698 0.840909 -0.0469625 0.17247 0.109503 -0.0402691 -0.233347 -0.0662021 0.00182529
tūramilī -0.901713 0.0290395 -0.0025454 0.173558 -0.0225562 0.0576514 0.104713 -0.242058 -0.0226141 0.00610774
save 0.645209 -0.0972421 0.321705 -0.281515 0.0226257 -0.130326 0.484159 0.0758149 0.189533 -0.00174512
fact 0.170156 0.0839677 -0.0311456 0.321655 -0.629528 0.441447 -0.222942 0.239766 0.2109 -0.00761101
four 0.316474 0.155446 0.132984 -0.135845 -0.312394 0.574183 0.210552 0.413006 0.279364 -0.00633379
collected 0.16486 -0.283911 -0.55349 -0.0329328 0.343316 0.39262 -0.4086 -0.117447 -0.141043 -0.00139956
lest 0.765202 -0.353105 0.0845736 -0.230257 0.212407 -0.0437774 -0.259495 -0.109394 -0.116993 -0.00484989
convert 0.724074 0.216612 -0.0505622 0.0319949 0.292742 0.405318 0.0192275 -0.0799626 0.271711 -0.0022687
clothing -0.232436 -0.0864401 -0.797869 0.058513 -0.187438 0.0507389 0.237972 0.20101 0.232629 -0.00193022
šummalibbiaššur -0.334403 0.460678 -0.11684 -0.157833 0.582904 -0.354358 -0.225279 0.0900442 0.07892 0.0100328
lot 0.38163 -0.463962 0.169153 0.250622 -0.296847 -0.239365 -0.421727 -0.14032 0.309315 -0.00330477
could 0.54173 -0.220622 0.307499 -0.114495 0.0642431 -0.39458 0.0540077 0.031152 -0.519781 -0.0115738
making -0.0613726 -0.0396514 -0.247784 -0.510401 0.255933 0.37348 -0.41705 0.198462 -0.368682 -0.00106903
suennādā -0.820336 0.118731 0.177763 0.291797 -0.110407 0.0646478 -0.235284 -0.0265202 0.191831 0.00637831
storeroom 0.296219 0.438558 0.103629 0.252179 0.404653 0.420054 0.247517 0.186767 0.311522 0.000629161
himself 0.159159 -0.654602 -0.386713 -0.412631 0.129635 0.0465842 -0.114362 -0.262586 -0.133605 -0.00455289
debtnote 0.302928 -0.260087 -0.128103 0.00140805 0.276145 -0.180372 0.568765 0.225722 0.469099 0.00634868
pass 0.0580202 -0.448713 -0.246009 0.253972 0.57401 0.164849 -0.318222 -0.0913337 0.301191 0.00826901
tithe 0.00341268 -0.157608 -0.557196 0.496131 0.251135 -0.199577 -0.23005 0.194067 -0.331781 -0.000240371
loans 0.314252 0.309358 0.0606242 0.187731 -0.26565 -0.722369 0.0835599 -0.00409286 0.219513 -0.0127437
assurmalik -0.552997 -0.424785 -0.324382 0.0421684 0.110464 0.048868 0.156574 0.508916 0.103805 0.00703505
gods -0.0880489 -0.405756 -0.394217 0.0535799 -0.352368 -0.025221 0.530779 0.331604 0.192549 -0.000543429
copies 0.171837 0.167106 0.189252 0.41695 0.194138 -0.135199 0.72364 0.182753 -0.0537844 -0.00359994
look 0.708047 0.135614 -0.116562 0.11614 -0.0730212 -0.343865 0.000830343 0.22919 0.420732 -0.00296247
abaya -0.126874 0.44236 0.428474 -0.576652 0.0590441 -0.0180137 -0.0384146 0.210797 0.329387 0.00805799
overdue 0.0494571 -0.285011 -0.0173545 -0.126396 -0.358704 -0.590022 0.0829406 -0.518665 -0.139218 -0.0143102
šalimahum -0.67085 -0.0539943 0.220646 0.307244 -0.0497407 -0.145324 0.0177403 -0.21576 -0.479533 -0.00278828
holds -0.0933336 -0.324155 0.217453 0.0673216 -0.213295 0.103497 0.293848 -0.735522 -0.154954 -0.0100312
alive 0.337788 -0.134817 0.0618502 0.0389326 -0.667057 0.165239 0.37145 -0.0828664 0.358359 -0.0110968
meet 0.371724 -0.289109 0.472833 -0.100774 0.369622 0.0711989 -0.438186 0.255097 -0.190264 0.0042533
express 0.605939 0.235675 0.00552019 0.00380099 0.3222 -0.38118 0.0585959 0.35667 0.304928 0.00191827
wašhaniya 0.0718239 0.0616568 -0.183135 0.409962 -0.527853 0.298015 -0.229922 0.472457 -0.154174 -0.00939874
pins 0.0133843 0.645583 -0.176728 -0.540553 0.217863 -0.00355514 0.294061 -0.0618192 0.122076 -0.0014412
memoranda -0.0867198 0.168855 0.597331 0.489809 -0.033965 -0.225475 0.374119 0.252052 0.00261263 -0.000388259
memorandum 0.353709 -0.00362745 0.0250241 0.84781 -0.012396 -0.0478153 0.135993 0.092224 0.144558 -0.00125439
šulaban -0.657779 0.0689595 0.172798 0.496217 0.0286127 0.228375 0.272597 -0.0107814 0.249156 0.00533554
aššurdan -0.795523 0.0843452 0.417852 -0.0709318 0.119714 0.114963 0.216364 -0.13374 0.0372392 0.00725729
ṣilliya -0.322648 0.374094 0.401387 0.50371 0.180425 0.191197 0.344713 -0.210146 0.0185769 0.00494452
amounted 0.0394902 0.158455 -0.790784 -0.170488 0.291999 -0.0816347 -0.0783892 0.211084 -0.254732 -0.000645761
breads -0.741914 0.0186414 -0.176858 -0.346826 0.199724 0.206557 -0.239198 -0.114345 -0.229186 0.00728688
idnāya -0.686501 0.0795506 -0.326919 -0.0728848 0.357627 -0.0982471 0.356275 -0.203378 -0.0932619 0.007874
question 0.309997 -0.574126 0.475779 0.345507 0.192483 -0.00397104 -0.230204 0.0017558 0.183173 0.00545962
ennamaššurs -0.0905394 0.00117022 0.263893 0.668225 -0.0353907 -0.233564 -0.192613 -0.496627 0.138549 -0.00303818
acorns 0.250226 0.200331 -0.273193 -0.389184 0.216174 0.0166094 0.297173 -0.144673 0.624388 -0.00297096
shoes 0.326607 0.573473 0.0699292 -0.636771 0.126941 -0.0806386 -0.0918547 -0.0893584 -0.0963001 -0.00782297
kudātum -0.473912 0.376367 0.521026 0.293184 0.259226 0.106142 -0.137654 -0.273928 -0.0436993 0.003762
investment -0.137632 -0.353641 -0.387062 0.348839 -0.347274 -0.543618 -0.152566 0.164731 -0.0639003 -0.00668109
produced -0.120648 -0.326828 0.0718694 0.275137 -0.117552 0.163541 0.681309 -0.395815 0.132884 -0.00135977
testament 0.0386819 0.121357 0.377711 0.604714 0.00213562 -0.0151827 0.568415 0.191847 -0.0270325 -0.00365222
damqaya -0.234034 0.525756 0.637211 0.0108319 0.215607 -0.146126 -0.0176889 -0.182043 0.234658 0.000380716
zalpa 0.0439333 0.316124 0.124818 0.334343 0.514705 0.329971 -0.26526 0.373704 -0.262804 0.00428987
colonial 0.0503962 -0.0409152 -0.725002 0.273576 0.019046 0.155208 -0.11937 0.0566526 -0.48263 -0.00775493
tuhpiya -0.21342 -0.293817 -0.621179 -0.168323 -0.193161 0.245733 -0.216808 0.43795 -0.0772424 -0.000367821
carry 0.57588 -0.0997663 -0.113703 0.137376 0.328028 0.350895 -0.350495 -0.123172 0.38821 0.000989722
refuses 0.244205 -0.303633 0.484379 -0.1966 0.380685 -0.181518 -0.217614 -0.243171 -0.417316 -0.00213507
missing 0.0158536 0.383631 -0.7205 0.405939 -0.131081 -0.0552096 0.160998 0.0783029 0.0844735 -0.00702221
hearing 0.352114 0.053008 0.682042 -0.0675262 -0.452842 0.0470368 0.137638 -0.126716 -0.22348 -0.0140733
burušhattum 0.171564 0.0358688 -0.614529 0.10468 0.151075 0.284659 -0.538304 0.226181 -0.147342 -0.000568101
garments 0.214875 0.538112 -0.203223 -0.427724 -0.0486975 0.343063 -0.361653 0.261536 -0.0972207 -0.00602408
approach -0.0234626 -0.46217 0.658556 -0.112372 0.0553222 0.472439 -0.00517022 -0.0723269 0.018501 0.00132242
šātanna -0.521748 0.534662 0.242722 0.0791907 -0.0844216 -0.207488 -0.362113 0.0755532 0.297605 0.00236903
assurtaklaku -0.497557 -0.0893394 0.236293 0.161396 0.19202 -0.0177516 0.579242 0.359466 0.229687 0.00793407
levied -0.158779 0.0162851 -0.41113 -0.0933584 0.445845 0.45535 -0.0943584 0.38582 -0.340523 0.00235409
baziya -0.801617 -0.312672 0.0238178 -0.154184 0.271524 -0.164164 0.134008 0.0781042 -0.158673 0.0107683
accrued 0.221404 -0.172209 -0.239703 0.118024 0.668306 -0.461959 -0.166465 -0.215646 -0.0472432 0.0049922
disposal 0.192447 0.0893513 -0.674909 -0.204158 -0.0421688 -9.88633e-05 -0.0788007 0.390762 0.423455 -8.26227e-05
letters -0.069075 0.0459803 0.431111 -0.0514218 -0.528134 0.444353 0.182293 0.406072 -0.091183 -0.00987392
obtained 0.146636 -0.365798 0.0664214 0.512356 -0.297631 0.348697 0.0335383 -0.0396573 -0.49273 -0.0115178
erišum -0.108385 0.0296557 0.664892 0.324119 0.166766 -0.285032 0.196949 -0.410622 0.0974269 0.00222395
aššurṣulūlī -0.56329 0.2352 -0.443405 -0.108688 -0.0414071 0.205381 -0.313744 0.33593 -0.247516 0.00277503
aššurmūtappil -0.229033 0.521693 -0.334308 -0.0178268 -0.124582 0.232276 -0.567756 0.244641 -0.0282134 -0.00269731
timelkiya 0.00668778 0.29556 0.0167622 0.544298 0.305046 0.384826 -0.496587 0.00334907 -0.117737 0.00241683
declared -0.229187 -0.0785787 -0.499896 0.379586 -0.0118114 0.565634 -0.153984 -0.00100958 -0.299397 -0.00304824
ṣilulu -0.555244 0.146558 0.722272 -0.156528 0.12197 -0.0755003 0.00703539 -0.0140339 0.0743061 0.0078402
ennambēlum -0.325306 0.0866075 0.0183196 0.440802 0.516663 -0.492845 0.14641 -0.129355 -0.167959 0.0105551
uzuwa -0.861628 0.0126388 0.138804 0.0268794 0.254718 0.0903938 -0.00330108 -0.061895 -0.273247 0.00877626
asānum -0.306196 -0.158636 0.182863 -0.555954 -0.503279 0.133861 0.395141 0.00199916 -0.0413143 -0.000965289
basis 0.0828455 -0.50359 0.152725 0.466055 -0.0584854 -0.088306 0.276113 0.473008 0.265723 0.00632166
again 0.636034 -0.271882 0.124084 0.188647 0.310348 0.370638 -0.254036 -0.1851 -0.196681 -0.00434186
therefore 0.583747 -0.323482 -0.101418 0.401893 -0.320877 0.237272 0.206469 0.240773 -0.162849 -0.00395897
things 0.388033 0.283996 0.420745 0.14315 -0.55721 0.0921995 0.29186 -0.0269208 0.233243 -0.0140372
lives 0.182964 -0.374369 0.249566 -0.00155598 -0.168956 0.411819 0.668603 0.0212302 0.0253561 -0.00848629
final 0.41845 0.282974 0.481226 0.116353 0.544087 -0.0496931 0.145604 0.106163 0.24895 0.00441719
observe 0.804411 -0.10107 0.257486 -0.118334 -0.0669796 -0.0115537 0.109169 -0.364359 0.158739 -0.00706221
amriya -0.760891 -0.117252 -0.0155682 0.0105092 0.260708 -0.450318 0.197439 -0.0220162 -0.0966296 0.00590222
packets 0.0601742 0.353178 -0.57957 0.0525291 -0.177389 0.480124 0.0365833 0.37085 0.130065 -0.00541214
conclude 0.448054 -0.521482 0.274063 0.355814 -0.184483 -0.0560414 0.129577 0.298583 -0.278544 -0.00500791
submit -0.186633 -0.399205 0.589705 0.353783 0.339052 -0.00189156 0.31787 0.0901827 -0.0305129 0.00700724
adada -0.836297 -0.0166299 0.103599 0.038992 -0.370727 0.00388224 0.179099 0.181227 0.0333014 0.000728205
wait 0.568403 -0.649523 0.29895 -0.110609 0.0487038 0.200866 -0.0344135 -0.126874 0.0189834 -0.000775426
little 0.704849 -0.059727 -0.537485 -0.216669 0.243615 -0.0389442 -0.0735249 0.0300186 0.044408 -0.00729057
ones 0.362149 0.686263 -0.227598 -0.306113 -0.0732159 0.300894 -0.0724162 0.0133292 -0.216228 -0.00994496
acquire 0.642258 -0.605161 -0.0742127 -0.0826744 0.167452 -0.00847563 0.143295 0.137983 0.21717 -0.00251236
successor -0.527202 -0.419193 -0.214935 -0.118416 0.312979 -0.245066 0.14513 0.161133 -0.416671 0.0101529
firm -0.161199 -0.102243 0.326435 0.563863 -0.289635 0.0715705 0.520807 -0.251247 0.0413737 -0.00553748
treated 0.525686 0.0879244 0.282494 -0.339081 -0.600653 0.186766 -0.105575 -0.0441198 0.055653 -0.0162354
converted 0.504971 0.515745 -0.167436 0.172265 0.0548356 0.458684 -0.0139771 -0.227568 0.223952 -0.010166
third 0.312013 -0.383017 -0.507201 -0.368269 0.0790121 -0.0973476 0.265772 0.0649947 -0.40108 -0.0032486
got 0.339616 -0.0158775 -0.319455 0.531785 0.309086 0.00234015 0.0915378 -0.170651 -0.499558 -0.00566422
matters 0.218168 -0.0946311 0.430134 -0.113608 -0.322021 0.332961 0.191578 0.609401 -0.0385096 -0.00632863
kurara -0.589513 -0.62718 -0.235834 -0.0909977 0.303888 0.0675675 0.0274338 0.0902137 -0.0227159 0.0093092
ulama -0.267482 0.0822971 0.142163 0.178663 0.243064 0.393888 -0.550746 0.441292 -0.196814 0.00659673
traders -0.0239152 -0.0182227 0.260301 -0.275767 0.000602223 -0.120317 0.0604976 0.842814 0.0132499 -0.00301896
great 0.642799 -0.0913319 0.0745827 -0.0397721 -0.458947 -0.203053 0.342723 0.210045 0.235829 -0.00976923
returns -0.141323 -0.288912 -0.024488 0.0370901 0.244079 -0.149025 -0.771164 -0.13456 -0.284414 0.0011479
decision 0.330883 0.145327 0.214176 0.338464 -0.0450287 -0.322383 0.330888 0.544793 -0.274104 -0.00803683
anahili -0.536664 -0.445295 -0.27916 0.392423 -0.0472732 -0.0839633 -0.120959 0.265714 0.297802 0.00478182
cannot 0.487078 -0.284316 0.149902 -0.419067 0.163949 0.00397755 -0.345487 0.0644046 -0.469343 -0.00657027
safely 0.385436 0.140625 0.00174481 0.62121 0.236412 0.420375 -0.238918 -0.0563934 -0.210169 -0.00490515
firewood 0.178881 0.199462 -0.48265 -0.492763 -0.0845252 -0.256423 -0.47078 0.126008 0.171728 0.00241992
assur -0.123123 -0.402049 -0.00501682 0.239388 0.307886 0.459358 -0.434228 0.295211 -0.263723 0.0018945
imdīilum -0.609399 -0.267441 -0.229575 0.0132137 0.235335 -0.0332824 -0.589636 -0.0383356 -0.0189443 0.00869676
following 0.109761 -0.273269 -0.135719 0.520567 0.292256 0.140906 0.126065 0.331961 -0.518779 -0.00276519
measure 0.0228672 -0.307823 -0.193438 -0.423611 -0.216433 -0.225676 0.00990006 -0.649466 0.20133 -0.0110385
spoke -0.118977 -0.735674 0.460321 0.0899078 -0.104255 0.243551 -0.000786313 0.216106 0.0668124 0.00114797
export -0.229314 0.35376 -0.679156 -0.127405 -0.0566204 -0.123359 -0.392788 0.191181 0.164633 7.23877e-05
abšalim -0.698074 0.310872 -0.0976616 -0.264541 -0.0916108 -0.114271 -0.142924 -0.299237 0.330426 0.000111112
reliable -0.0192431 -0.0658284 0.219723 -0.401351 0.435337 -0.236513 -0.204192 0.615237 -0.0529504 0.00720457
able 0.540388 -0.124512 0.288602 0.107186 -0.325629 -0.424999 -0.0845032 -0.214896 -0.379589 -0.0160623
going 0.203917 0.122806 0.760471 -0.0142687 -0.381625 -0.0779268 -0.131071 0.171935 -0.233035 -0.00911544
just 0.68135 -0.000895554 -0.186636 -0.164852 -0.5241 -0.134955 -0.22208 -0.125105 0.157419 -0.00737472
nabsuen -0.656514 0.339885 -0.0612553 -0.490129 0.27428 0.0111791 0.0761348 -0.186564 0.0129381 0.0073524
appear 0.160389 -0.575213 0.322499 -0.0523879 -0.0635594 -0.0225322 -0.11055 0.635783 0.0368712 0.00109269
smuggling 0.532813 0.2301 -0.270921 0.0641188 0.229208 0.316769 -0.21788 0.445727 0.279475 0.00215503
agents 0.511813 -0.105425 -0.0371705 0.092996 -0.209523 0.241676 0.580261 0.259613 -0.313215 -0.00982701
encourage 0.731796 -0.038045 0.42574 -0.227871 0.113947 0.256343 -0.174832 6.12877e-05 0.168148 -0.00452118
aššurnimrī -0.538792 -0.00635269 0.581302 -0.164948 0.1094 0.394295 -0.25642 -0.0361749 0.0922008 0.00843141
confront 0.413456 -0.293146 0.220915 0.415657 0.326676 0.174828 0.124389 0.394688 -0.31809 -0.00167297
goes -0.00153727 -0.539775 0.0503745 0.0992209 0.090222 0.03877 -0.537059 -0.274752 -0.447777 -0.00611748
certify 0.180475 -0.413712 -0.00178148 0.296665 0.523908 0.0973448 0.479914 0.198962 0.201498 0.00789821
dont 0.730371 0.0361269 0.328174 -0.231766 -0.129981 -0.131795 0.163746 -0.300256 -0.231605 -0.0144702
šikkucopper 0.0253649 0.673715 -0.350601 -0.0594821 0.102905 0.124861 0.19136 -0.337046 -0.357989 -0.00862798
offered 0.0790599 0.366373 -0.267371 -0.554944 -0.30685 0.349597 0.0909206 0.149415 -0.333524 -0.0131151
envoy -0.142076 -0.151559 0.227356 0.259734 0.486184 -0.193965 0.0448012 0.395217 -0.531188 0.00137673
agiya -0.396287 0.0804694 0.42343 0.285627 -0.540321 -0.395103 -0.0757807 -0.0570343 0.10578 -0.0047216
būrsuen -0.490466 0.197415 -0.348603 -0.0806169 0.444183 0.336606 0.344139 0.221164 0.0753514 0.0134516
unhappy 0.747173 -0.206361 0.316843 -0.197406 0.0995591 -0.0780358 0.0395883 0.369521 0.114836 0.00358766
ordered 0.353524 -0.0121077 -0.158068 -0.0625557 -0.416673 -0.228893 -0.493875 -0.350983 -0.361688 -0.0149621
cheat 0.626053 -0.430841 0.391529 -0.101681 0.212589 0.0505476 -0.212464 -0.265967 -0.00668024 -0.0019548
affairs 0.531456 -0.212599 0.17241 0.329125 0.222467 0.041212 0.598283 0.128521 0.066735 -0.00183399
harnessors -0.124526 0.610456 -0.416375 0.0642067 -0.199396 -0.352609 0.246702 0.265974 0.171041 -0.00120015
leads -0.294446 0.3665 0.176627 -0.480491 0.191875 0.569977 0.128851 -0.165481 -0.0387737 -0.00537982
ikuppiya -0.607882 0.07873 -0.318486 0.0191681 0.241272 0.0838105 0.550112 0.182295 0.151358 0.00621715
ennumassur -0.45778 -0.111131 -0.399926 -0.0524222 0.237334 -0.26733 0.545667 0.23519 0.163577 0.00909971
investor -0.124364 -0.568215 0.210535 0.386194 -0.00171423 -0.580791 -0.0472036 -0.138694 0.0307025 -7.3714e-05
yield 0.367124 0.566306 -0.291623 -0.407177 0.256157 0.103749 0.184851 -0.224659 -0.164864 -0.00660908
iddinkūbum -0.626537 0.158246 0.253351 0.34113 0.288031 -0.405843 -0.000827722 -0.169149 -0.15591 0.00883237
roadtax 0.164001 3.43372e-05 -0.794799 -0.220328 0.0491634 -0.0325956 -0.143757 0.394714 -0.0437057 -0.000761449
puzuršamaš -0.0841054 0.103806 0.385563 0.166733 0.0852768 0.226068 -0.493155 -0.363547 0.496379 -5.65954e-05
carnelian 0.0497604 0.486483 -0.476651 -0.373706 0.128892 -0.00296981 0.437509 -0.26316 -0.040888 -0.00934959
stones -0.102449 0.150823 -0.588948 0.0440533 -0.0611904 -0.611316 0.322596 -0.0929905 0.0900743 0.0101232
beads -0.511243 0.527522 -0.218487 -0.196193 -0.00410188 -0.448754 0.0151626 -0.260602 -0.065802 -0.00147372
sadaya -0.646317 -0.361782 0.351511 0.439018 -0.0366498 0.112124 0.0622595 -0.0279011 -0.156695 0.000560239
raises -0.106328 -0.652818 0.356141 0.100613 -0.192361 -0.00629202 -0.139566 -0.378672 -0.336109 -0.00332423
particular -0.583442 -0.18051 -0.0151277 -0.480084 -0.0815252 0.400409 -0.00946791 -0.116091 -0.337187 -0.00103289
fail 0.582091 -0.259808 0.189376 -0.33172 0.251027 -0.157176 -0.439484 0.172722 -0.188434 0.000987574
aššurmuttabbil -0.472451 -0.261511 0.459409 -0.35877 -0.130824 -0.259466 -0.187387 -0.364766 0.103732 0.00377074
dead 0.316594 -0.243082 -0.044355 0.358697 -0.651388 -0.153145 -0.101524 -0.13213 -0.344497 -0.0154029
eyes 0.712948 -0.173496 0.316953 0.00557865 0.0956902 -0.191978 0.30021 0.33704 0.125211 -0.00254738
gone 0.364971 -0.49419 0.102278 0.473583 -0.327903 0.219986 -0.257685 -0.196779 0.114904 -0.0135989
someone 0.427598 -0.263655 0.277471 0.113678 0.425394 -0.371491 -0.336813 0.332546 -0.0804572 0.00280342
invalid 0.159388 -0.794039 0.264791 0.0838019 0.0409342 -0.184019 0.179587 0.234282 0.200309 0.00118873
bread 0.00456176 0.0824785 -0.145428 -0.683288 -0.239952 -0.460458 -0.284688 0.188251 0.0707005 -0.00223312
waldiilum -0.320765 0.16201 0.182638 -0.504504 -0.28794 -0.596864 0.0117433 0.156681 -0.0958014 -0.00140481
additions -0.398676 0.397811 -0.637815 -0.13152 -0.051337 -0.129315 -0.333466 0.113719 0.113519 0.000959789
sickles -0.178542 0.60803 -0.350092 -0.350718 0.354444 -0.0145843 0.208054 -0.0451232 0.272894 0.00327909
keeps -0.0480245 -0.431307 0.681077 0.370527 0.0790964 -0.00925539 0.160363 -0.228601 0.131973 0.00297762
šaradad -0.608133 0.582977 0.242507 0.165617 -0.232337 0.159384 0.0838966 -0.0231663 -0.152909 -2.79583e-05
bundle -0.272205 0.480834 -0.576901 -0.0202074 0.153215 0.451754 0.0409684 -0.134755 -0.0792612 0.0051683
property 0.323698 -0.330837 -0.555847 -0.320669 -0.028838 -0.290427 0.285183 0.226101 0.218592 0.00117324
hanunu -0.748295 0.00235577 0.344186 -0.271963 0.207472 -0.00799894 -0.125821 -0.0184901 -0.304606 0.0104921
zikiki -0.319555 0.34712 0.423647 -0.542053 0.0601282 0.141093 0.245988 -0.335101 0.00960072 -0.00127527
service -0.134225 -0.26069 0.118398 -0.0696081 -0.633263 -0.541165 0.0474418 0.264071 -0.0937128 -0.0104676
having 0.359761 0.0789526 -0.00489297 0.268565 -0.0954062 0.394884 -0.705822 -0.00666431 0.112698 -0.00801237
off 0.288499 -0.0934609 -0.529532 -0.12387 -0.14629 0.337325 -0.426271 -0.35989 -0.218923 -0.0108135
cut 0.493407 -0.20893 -0.49763 0.0691205 -0.303742 0.018321 -0.318228 -0.333475 -0.218028 -0.0123519
minus -0.155268 0.164152 -0.65863 -0.418499 -0.0344847 -0.398293 -0.0739288 -0.24403 -0.0694244 -0.00188254
lay 0.0328121 -0.646716 0.347191 -0.0207119 -0.155361 0.00547227 0.0961482 -0.522953 -0.188918 -0.00954985
saddlecloths -0.105115 0.441268 -0.550697 -0.490372 -0.272284 0.153684 0.192855 0.0595943 -0.0639398 -0.00465933
record 0.0725287 -0.685467 -0.163653 0.245144 0.268932 -0.173142 0.202765 0.370773 0.212117 0.0103482
ištarpilah -0.762234 0.0811112 0.142883 -0.134446 -0.299925 -0.168543 -0.406871 -0.0143232 -0.00956315 -0.00121769
pirikannus 0.0835141 0.645813 -0.14637 -0.0493006 0.0457183 0.505564 -0.20626 0.309457 -0.211003 -0.00166519
ibayas -0.286459 -0.0288017 0.13023 0.548883 0.337198 0.0708081 0.178554 0.439377 -0.372864 -0.000313694
provide 0.707137 -0.0492771 0.0563586 -0.33738 0.098839 0.10572 -0.184285 0.370203 0.298585 -0.00124379
credits 0.254663 0.212168 0.458159 0.169488 0.177004 -0.620502 0.329201 -0.113972 0.00961997 -0.00659415
last 0.15517 -0.369053 -0.389471 -0.522532 -0.265043 -0.362625 -0.272164 -0.164462 0.0353666 -0.00455852
really 0.408828 -0.383984 0.404652 -0.25764 -0.402789 0.12705 0.0675249 -0.313764 0.261564 -0.00353801
hattum 0.474473 0.427188 -0.144142 -0.0789669 0.251937 0.0765064 -0.612959 -0.126424 0.00836047 0.0005887
indicated 0.226901 -0.426349 -0.134329 0.542859 -0.439324 -0.287957 0.134879 -0.202955 0.0911001 -0.00941542
corresponding 0.398533 0.519845 0.00989412 0.213214 0.377025 -0.509928 -0.109159 -0.0246713 -0.0780051 -0.00279878
meteoric 0.260551 -0.189934 -0.420597 0.350209 0.103563 0.0118687 -0.560098 -0.253615 -0.302218 -0.00530182
gentleman 0.471008 -0.210622 0.200992 -0.26168 -0.266954 -0.0537192 0.0230957 0.441616 0.488545 -0.0016854
kutānus -0.0632146 0.70147 -0.513099 0.159016 0.0990891 0.135513 0.0338122 0.0893187 -0.268024 -0.00178171
favor 0.449734 -0.511667 0.125607 -0.100477 0.0847992 0.0326392 -0.128457 -0.0928121 0.601886 0.00304704
never 0.597477 0.0863385 0.269915 -0.184492 -0.309395 0.43242 -0.341842 -0.00783048 0.166881 -0.00805638
station 0.176793 -0.167702 -0.119298 0.131606 0.013763 -0.101226 -0.149197 0.761403 -0.407741 -0.00163923
anatolians 0.15713 0.576581 0.287902 0.411722 -0.176946 -0.394706 -0.0618284 -0.000758465 0.301706 -0.000583345
appointed 0.0396586 -0.234859 0.622581 -0.253007 -0.349606 -0.0156923 -0.45638 0.110415 -0.181449 -0.00770768
peruwa -0.756144 -0.00412532 0.224186 -0.0525787 0.254748 0.0228709 -0.194676 -0.405382 0.102144 0.0109055
ten 0.507057 0.254619 -0.0581867 -0.249687 -0.561477 0.361999 0.0841868 -0.0665692 0.212337 -0.0147348
pn -0.117562 0.330362 0.563158 -0.155667 0.189636 -0.589208 -0.185296 -0.063963 -0.0489151 0.00452366
maṣiilī -0.642914 -0.490324 -0.199416 0.075409 0.389843 -0.0433521 0.10386 0.0325357 -0.190039 0.0146559
abusalim -0.559434 -0.286324 -0.286842 0.239736 0.316776 -0.134001 0.480905 0.0331759 0.0902043 0.0137826
others 0.724061 0.00400269 0.00958154 -0.110609 -0.454104 0.0296569 -0.0437069 -0.168049 -0.355296 -0.016859
quickly 0.805933 0.31604 0.0213809 -0.121942 0.0763762 -0.00111504 -0.19159 0.173415 -0.268096 -0.00949259
money 0.492201 -0.0359564 -0.285811 -0.287977 -0.33517 -0.114829 0.203067 0.405755 0.385451 -0.00211615
formal 0.168481 -0.680583 0.119444 -0.359123 -0.448207 -0.18908 0.0254217 -0.0937252 0.0845915 -0.0110559
additional 0.106924 0.0375061 -0.628422 0.138113 -0.576543 -0.247573 -0.0196061 0.193945 -0.171569 -0.00755991
fear 0.561049 -0.380303 0.191514 -0.0262434 -0.399677 0.220263 0.00203111 -0.0995994 0.42637 -0.00319032
met 0.297691 -0.336124 0.247502 0.00415815 -0.403085 0.460768 -0.163651 0.38116 -0.277289 -0.000972578
dust -0.222959 0.0432843 -0.408563 -0.448375 0.0508259 -0.45546 0.46885 -0.0300858 0.192272 0.00249896
departure -0.0153766 -0.577501 -0.311166 -0.0344687 -0.125644 -0.0270632 -0.383857 0.0732762 0.529111 0.00557958
ilibani -0.609734 -0.346221 -0.165189 0.0723083 -0.393632 0.161974 0.245737 0.161453 0.328281 0.00249301
scrap 0.110459 0.742387 -0.43619 -0.311074 -0.0231252 0.10064 -0.0263169 -0.175991 -0.072518 -0.00121598
eye 0.397561 -0.280479 0.371074 -0.144206 -0.077608 -0.272975 0.526491 0.326396 0.168849 -0.00410732
hanaknak 0.180673 0.429058 -0.215516 0.170312 -0.0458637 0.347847 -0.207812 0.648944 -0.0388375 -0.00105128
regulation -0.0748215 -0.0861275 -0.349043 0.401199 0.557239 -0.246131 0.118894 0.29619 -0.337815 0.00474074
dispatch 0.660651 0.265877 -0.0867518 -0.083093 0.142959 0.102233 0.163593 0.196572 0.52616 0.00148724
priest -0.648253 -0.171963 -0.25558 -0.405228 -0.0764303 -0.391931 0.207576 -0.140696 0.0354326 0.00694405
confirmed 0.0343371 0.0300121 -0.425774 0.168678 -0.530768 -0.0904358 0.428064 -0.377458 -0.224778 -0.0145072
consignment -0.089021 -0.184465 -0.217153 -0.60382 0.0893459 0.443931 0.0228649 -0.0562398 0.469051 0.00245412
colleague 0.296386 -0.00830454 -0.175561 -0.286193 -0.424919 0.106662 0.313887 0.284832 0.547573 -0.00889416
laqēp -0.812036 0.135441 -0.223062 0.0156878 -0.174544 0.0315563 0.0118091 0.390098 0.0434269 0.00428334
adadrabi -0.757772 -0.139055 0.351319 0.153124 -0.299856 0.087538 0.166492 -0.209284 -0.00099164 0.00266988
hired -0.0130797 -0.798034 0.0351454 0.195605 -0.118922 0.042522 0.18276 0.316713 -0.256421 0.000821556
ibaya -0.43761 -0.563096 -0.194648 0.204249 -0.222845 -0.0559027 0.405561 0.298734 0.051381 0.00271367
broken 0.211204 0.460042 -0.128105 0.0363868 -0.21829 0.260044 0.297313 -0.54322 -0.325847 -0.0143442
abuwa -0.330734 0.286407 0.385745 0.459301 0.0500776 0.387984 -0.169635 0.359028 0.169084 0.003439
leading 0.268106 0.0828967 0.0232111 -0.558593 -0.536259 0.375454 -0.0433516 -0.0731954 0.229358 -0.0138787
aššurgap -0.500556 0.386906 0.0710035 -0.311827 0.253401 0.407775 0.199948 0.148543 -0.317712 0.00213344
