10324 10
thisisanumber -0.490143 -0.168464 -0.419784 0.403424 -0.158724 -0.0756081 -0.0685314 0.454958 0.203236 -0.00505309
ana -0.399824 0.514224 -0.244323 -0.0122255 -0.204693 -0.408983 0.452859 -0.113037 -0.088262 0.00659432
ša -0.218398 0.392798 -0.22597 0.137292 0.631371 -0.207739 -0.216824 -0.0542436 0.356785 0.00424655
kùbabbar -0.354776 0.0407599 -0.229935 0.427419 0.115715 0.349844 0.363398 0.410282 0.288653 0.0041361
mana -0.516855 -0.00464695 -0.338072 0.458176 0.11068 0.0418176 0.126543 0.499399 0.143397 0.000331121
gap 0.0219785 -0.545181 -0.102296 -0.0511409 -0.197462 0.275179 -0.665578 0.0769261 -0.119065 -0.012253
gín -0.598462 -0.333422 -0.259876 0.363863 0.0164733 -0.0549583 0.171408 0.348295 0.274854 -0.00189045
dumu -0.853683 0.0860459 0.226801 -0.139215 0.118317 -0.133771 -0.16219 0.12192 -0.186027 0.00177418
ina 0.459614 0.167642 0.00441895 0.628852 0.219354 -0.180601 0.114055 -0.403208 -0.0266706 0.00283022
umma 0.110931 0.622255 -0.13083 -0.247556 -0.365071 -0.40846 -0.0758022 0.32691 -0.0045529 0.00217864
lá 0.582268 -0.0253185 0.147136 0.184928 -0.453764 0.448707 0.249538 -0.170373 0.0407869 0.00202552
igi -0.800681 0.00712708 0.404539 -0.00343109 0.131026 -0.08937 -0.206006 -0.154397 -0.125754 0.00300456
šuma 0.312201 0.0555833 0.0612345 0.212582 -0.256419 0.583071 0.492466 -0.188763 -0.215889 0.00737335
lu 0.615674 -0.191184 0.00191802 -0.031383 0.528727 -0.132157 -0.154518 0.0378887 0.399661 -0.00568658
kišib -0.660491 -0.170646 0.407511 -0.252839 0.152864 -0.0982181 -0.24141 0.229765 -0.250639 -0.00581575
kima 0.441077 0.665601 -0.124388 -0.0629668 0.127734 0.38721 -0.112701 -0.253033 -0.0590992 0.00984043
anna -0.127082 -0.0117662 -0.827033 0.410585 0.127388 -0.0636408 -0.0202291 -0.0170204 -0.0660902 0.00343795
urudu -0.0274755 -0.0311965 -0.367354 0.325267 0.250825 -0.453382 0.323253 0.50282 -0.10006 -0.00324421
ma -0.0233117 0.191029 -0.505648 -0.371043 -0.57139 0.0684803 -0.215416 0.277102 -0.029381 -0.000170235
qíbima -0.0528448 0.322121 -0.183064 -0.445568 -0.00872606 -0.433131 -0.232329 0.508726 -0.203812 -0.00365496
ištù -0.28549 0.224337 0.103822 0.506147 -0.407486 -0.184307 0.212518 0.0145798 -0.486409 0.00467713
puzur -0.451559 0.144559 0.253345 0.0528036 -0.421927 -0.32582 -0.137221 0.326983 0.430664 0.000403906
il -0.373302 0.146211 -0.288871 0.34439 -0.410778 -0.0200866 0.468794 -0.341075 0.0624967 0.0163491
ata 0.495359 0.23466 -0.177425 -0.286646 -0.40941 0.414937 -0.130181 0.142878 0.317725 0.00104994
iští -0.0976225 -0.17605 -0.216862 -0.298915 0.362223 0.185763 0.441744 0.481847 -0.323869 -0.00190948
gú -0.155883 0.179699 -0.535606 0.302061 0.183256 -0.30521 0.004496 0.553502 -0.122515 -0.00249333
mìma 0.0839012 -0.15234 -0.0986756 0.190686 0.194293 0.184067 0.270382 -0.604281 0.527933 0.0115367
alimki 0.225291 0.612841 0.2754 0.248477 0.40426 -0.115072 0.0721879 -0.346006 -0.162443 0.0104473
ki -0.604172 -0.278228 0.0210003 0.138466 0.140126 0.100625 -0.120004 0.58419 -0.2186 -0.00719891
túg -0.250188 -0.138488 -0.500521 0.115895 0.102318 -0.50688 -0.483811 -0.0211465 0.194258 -0.00404178
malá 0.572504 0.532762 -0.400283 -0.0353344 0.317221 0.137935 0.0398115 0.102505 -0.0277544 0.00646676
gínta -0.204448 -0.114549 -0.245109 0.754828 -0.237634 0.252897 -0.0669358 0.115267 -0.251485 -0.000748029
adí 0.539744 0.109586 -0.307603 0.0676314 -0.175104 -0.222342 0.175686 -0.31609 -0.524702 0.00265187
libi 0.239565 -0.197796 0.027694 0.0629793 0.286202 0.153637 -0.388698 0.655714 0.300882 -0.0120515
šíim -0.0155857 -0.355763 -0.458822 0.147831 0.249878 -0.235663 0.358111 0.450138 0.27435 -0.00366846
sig -0.0367106 -0.183938 -0.594072 -0.169803 0.204727 -0.275208 0.0592508 0.581979 0.0875989 -0.00550747
qíbi 0.00645345 0.0738262 -0.112455 -0.477303 -0.0807336 -0.307779 -0.326609 0.631487 -0.161948 -0.0085012
ṭuppáam 0.0427923 0.639139 0.130523 -0.102625 0.445634 0.349312 -0.0891992 -0.203136 0.278172 0.0141169
kàriim 0.0539021 0.206643 -0.0451974 0.570776 0.0762511 0.0269016 -0.158988 -0.677188 -0.0891384 0.0099872
abi 0.305738 0.101119 0.201347 -0.175606 -0.208394 0.337271 -0.585014 0.17294 0.419837 -0.00417578
itukam -0.275546 0.183564 0.26559 0.55693 -0.251767 0.149279 -0.25888 0.0343679 -0.488627 7.17343e-06
iṣéer -0.392699 -0.0989203 0.287781 0.00761289 0.172386 -0.0743776 -0.0220534 0.730335 -0.259518 -0.00775081
úlá 0.451493 0.229543 0.313117 0.245396 -0.397589 0.0241095 0.39828 -0.102821 0.380932 0.00590284
amakam 0.482369 0.173646 -0.250972 -0.443099 -0.0280964 0.450916 0.294725 -0.250067 0.118603 0.00977644
túgḫia 0.295612 -0.10882 -0.75955 0.162034 0.301869 -0.149997 -0.254353 -0.113699 0.0366239 -0.00138113
ašur -0.383511 0.278943 -0.317622 0.0271884 -0.0667919 0.508891 -0.404429 -0.292611 -0.199841 0.0113973
anakam 0.618602 0.519435 -0.208539 -0.252602 -0.20558 -0.166729 0.226421 -0.155833 0.015399 0.00777368
išaqal -0.308741 -0.0280718 0.341187 0.44036 -0.0272911 0.122785 0.175217 0.324673 -0.568006 -0.00194401
ṣarupáam -0.708406 0.0835903 -0.117168 0.156268 -0.0142686 0.234642 0.169927 0.515767 -0.0409186 0.00300928
anaku 0.581446 0.47944 0.254099 0.102313 -0.479319 0.0490648 -0.0662428 0.0893074 0.128519 0.00142912
kùgi -0.317553 0.250432 -0.248745 0.333669 0.0753693 0.180185 0.166001 0.435921 0.534483 0.00593049
išu -0.352876 0.00318593 0.514535 0.0364717 -0.209656 -0.176957 0.0616699 0.451491 -0.461043 -0.0053738
šuištar -0.733504 0.454373 -0.147768 -0.0207868 -0.206929 -0.0590232 0.255246 -0.165257 -0.0337544 0.0156181
anim -0.180831 -0.141406 -0.17635 -0.238977 0.273089 -0.402925 0.272711 -0.216132 0.610167 0.00765363
qé -0.0902971 -0.0336144 0.334184 0.176232 0.272167 -0.407481 -0.294035 0.48519 0.411521 -0.00640158
adíin -0.503688 -0.37028 -0.185042 0.078041 0.116769 -0.64171 0.17378 -0.0375942 0.0914451 -0.000856397
ašumì -0.0801443 0.728671 -0.214415 -0.135994 -0.071034 -0.318871 0.376577 -0.212467 -0.0702033 0.0140804
limuum -0.429675 0.117973 0.372386 0.281497 -0.109046 0.0495556 -0.486466 0.0593891 -0.464583 -0.00245977
šuutma 0.193849 0.541787 0.0244266 0.0814928 -0.54524 -0.343402 0.207212 -0.100989 0.278036 0.0099345
im -0.290359 0.171243 0.41598 0.174055 -0.378034 -0.226891 -0.116508 0.302766 0.516353 0.00167798
aṣéer 0.216187 0.406269 -0.478895 -0.372064 0.4121 0.0254302 -0.205584 -0.30021 0.0731381 0.0097968
anše -0.226288 -0.355956 -0.722463 0.157748 0.209829 -0.0773601 -0.0221571 -0.340532 -0.0463582 0.00378279
ašùr -0.32564 0.20049 -0.217177 -0.0126325 -0.0148915 0.445614 -0.577178 -0.370368 -0.115159 0.00838102
anakuma 0.466638 0.469439 -0.17016 -0.0920567 -0.415391 -0.445864 -0.0611945 0.0235973 0.211356 0.00354931
atùnu 0.324688 -0.00811403 -0.0389533 -0.221227 0.333085 0.357503 -0.269008 0.3149 -0.560825 -0.00569516
atama 0.377274 0.371139 -0.431058 0.00685984 -0.598072 -0.241371 0.00601139 0.0956413 0.0535503 0.00327687
úṣaáb -0.544958 -0.00353133 0.283352 0.554089 0.123211 0.160436 -0.354564 0.0727207 -0.198384 -0.0014113
ṣíibtám -0.209108 -0.0868925 0.235347 0.719325 -0.102806 0.455575 -0.153502 -0.0590297 -0.129029 -5.89935e-06
iatí 0.142268 0.643477 -0.387645 -0.120287 0.00705933 0.500603 -0.099559 -0.167276 0.0577453 0.0140519
itu 0.0587418 0.126108 0.456081 0.35682 -0.07613 -0.0669896 -0.347972 0.583746 -0.240165 -0.00916575
šébi 0.369858 -0.153717 -0.092868 -0.278006 0.277118 0.0133341 -0.164753 0.653466 0.332105 -0.00829026
pušukeen -0.512592 0.598832 -0.283164 -0.0256114 -0.404541 0.0260759 -0.136761 0.134894 -0.00300952 0.00925481
kàniiš 0.176248 0.174819 0.184641 0.272266 -0.0547271 -0.305949 0.130642 -0.644369 -0.416774 0.00677836
enumašur -0.65792 0.471443 -0.227763 -0.135454 0.04478 0.0946224 0.403423 0.011853 -0.068199 0.0156158
šàba -0.345668 0.0121006 -0.455767 0.491842 0.150753 -0.325791 -0.0276764 0.250686 0.35481 0.000567487
kam -0.220597 -0.0225086 -0.153985 0.269326 -0.400976 0.330103 -0.104419 -0.40117 -0.533284 0.00739836
meat -0.128524 -0.341536 -0.375796 0.202115 0.041935 -0.590849 -0.308592 0.349541 -0.026837 -0.0121934
awatim 0.194106 0.41467 0.545221 0.00312195 -0.330894 -0.0355223 -0.0665199 -0.469106 -0.209852 0.00727258
amurištar -0.777114 0.325211 -0.233398 0.109194 -0.118441 0.0117467 0.268149 0.0461026 -0.21893 0.010628
damgàr -0.100952 0.588355 -0.345812 0.291639 0.144422 0.535704 0.141968 -0.0354198 0.00499663 0.0146867
ni 0.191099 -0.198984 0.0371666 -0.0887321 -0.0749824 0.33155 -0.7422 0.00470328 0.352385 -0.00757835
kunukia -0.247331 0.0673902 -0.571699 -0.430952 0.334392 -0.0406087 0.0772242 0.156721 0.403145 0.0066214
šu -0.129998 -0.254056 -0.00306487 0.163204 -0.341103 0.674124 -0.182585 -0.0227043 0.408305 -2.79062e-05
aláḫiim -0.55473 0.40001 -0.291503 -0.320475 -0.132282 0.128948 0.206327 0.056405 -0.402968 0.0105834
ašurmalik -0.807738 0.33908 0.0280163 0.0188681 -0.286366 0.0923443 0.142756 -0.115267 -0.138678 0.0120069
šítí 0.01538 0.101487 -0.695007 0.470597 -0.00209749 0.123244 0.18696 0.0889577 0.336636 0.00677046
qátí -0.0987434 0.0809701 -0.0587936 0.472112 0.478096 0.0435429 -0.519441 -0.305916 -0.201265 -0.00011364
inumì 0.0268798 -0.0282891 -0.0931369 0.133309 -0.227778 -0.67322 0.24254 -0.490065 -0.203354 0.00494798
aḫi 0.362157 0.256124 -0.302115 -0.274729 -0.476971 0.388014 0.0968477 0.0890608 0.358117 0.00556189
la 0.519772 0.128512 0.0537495 0.36213 -0.484638 0.394258 0.221354 -0.0964718 -0.153921 0.00302991
kàruum -0.00574338 0.254018 0.242793 0.0986682 -0.26259 -0.261459 -0.114032 -0.744403 -0.186486 0.00819605
dingir -0.283821 0.262741 -0.40317 0.132178 -0.0402972 0.288547 0.155805 -0.462892 -0.461139 0.0172279
ḫaamšatim -0.38841 0.0173232 -0.0166434 0.359479 -0.202063 0.210246 0.17894 0.188232 -0.667526 0.000977861
diri -0.337869 0.169896 -0.556578 -0.131455 0.270042 0.159765 -0.165348 0.354573 0.406669 0.00300948
ašar 0.584849 0.0878895 -0.12361 -0.167105 0.332079 0.418118 0.0955814 -0.245992 0.379947 0.00653547
nidíin -0.613079 -0.236295 -0.0197672 0.264923 0.201707 -0.372681 -0.272397 -0.0550398 0.371215 -0.00120777
aḫama -0.477139 -0.218634 -0.349845 0.242762 0.404091 0.0140592 0.150629 0.22714 0.442122 0.00241355
ášqúl -0.400677 -0.468347 0.00912905 0.479504 -0.145848 -0.452901 0.205052 0.130717 0.0129121 -0.00569754
ḫamuuštim -0.431638 -0.00766479 0.28411 0.289994 0.186483 -0.206804 -0.173114 0.281013 -0.589458 -0.00463388
kà 0.0957235 0.0616152 -0.188531 0.103393 -0.380868 0.434622 -0.425426 0.085469 0.540936 0.000297586
manaim -0.300063 -0.0236773 0.0178732 0.690986 -0.142615 0.426436 -0.234033 0.021134 -0.244314 -0.000808427
ašùrmalik -0.83007 0.34327 0.0376021 0.0151534 -0.200288 0.0185408 0.0784915 -0.243285 -0.0281538 0.0126786
šunígin -0.393703 -0.113151 -0.350166 0.473802 0.337699 -0.174134 -0.0981092 0.433598 0.175704 -0.00414812
mamaan 0.368792 -0.170886 0.608463 -0.0938546 -0.0158491 0.348629 0.37131 -0.294815 -0.00838308 0.00300161
ṭuppuum -0.381624 0.282015 0.315993 0.0533293 0.68755 0.203826 -0.117151 0.0708197 0.167518 0.00672972
ištar -0.483221 0.181277 -0.285915 -0.0830196 -0.0414284 0.505042 -0.316835 -0.0291595 -0.415288 0.00701426
inaa -0.423181 0.533656 -0.280836 -0.0317257 -0.443966 0.162796 -0.0971481 -0.142449 -0.311482 0.01145
šabu -0.524745 0.345505 -0.263792 -0.094793 0.389657 0.0314939 -0.0839127 0.106341 0.500138 0.00850869
lam -0.0912488 -0.0852941 -0.595251 0.18557 -0.476275 0.378731 0.206527 -0.221724 -0.117997 0.00967396
ibaší 0.632491 0.179496 -0.224449 0.267583 0.510588 0.174177 0.19304 0.0741923 0.114111 0.00233271
manata 0.123625 -0.050155 -0.144855 0.860407 -0.0884608 -0.0294089 -0.199758 0.221091 -0.0993084 -0.00532629
gal -0.0540541 -0.418317 0.432706 -0.0691921 0.100377 -0.193158 -0.167008 -0.529069 -0.397235 -0.00284255
ašurimìtí -0.835382 0.302242 -0.167282 0.173138 -0.17091 0.0721309 -0.0947898 -0.0875552 -0.132236 0.00940865
šaduasú -0.520436 0.281174 -0.383722 0.0427712 0.266716 0.285571 -0.0844992 0.15491 0.460833 0.00812925
kutani -0.0469899 -0.014399 -0.766979 0.277067 0.187969 -0.263003 -0.34287 -0.029536 -0.00150655 -0.000881893
enumašùr -0.585307 0.411122 -0.173698 -0.30941 0.125267 -0.0193992 0.392969 -0.129106 -0.270763 0.0145282
ḫamuštim -0.424689 0.0175133 0.27534 0.276805 0.154528 -0.212219 -0.212775 0.265368 -0.605215 -0.0048031
ašursipa -0.653783 0.444426 -0.106456 0.408527 -0.175681 0.183592 0.048374 0.0441254 -0.178529 0.0108663
kunuki -0.143581 0.28508 -0.398167 -0.184369 0.540663 -0.338404 -0.287728 0.172344 0.264172 0.00280194
naruuq -0.238465 -0.559123 0.273469 0.115317 -0.0554255 -0.156655 0.178681 0.606027 0.0624921 -0.0127501
ennanim -0.874144 0.290922 -0.00923939 0.0682298 -0.111592 0.17617 -0.00759648 -0.00592576 -0.148106 0.00906483
lilikam 0.528878 0.0641127 -0.245623 -0.413996 0.106712 0.0590059 0.457457 0.384898 -0.0580662 0.00115497
ennamašur -0.576985 0.375967 -0.260114 -0.0828297 -0.255824 0.0236655 0.399826 0.306829 -0.163617 0.00963522
ṣíbasú -0.262111 0.183617 0.075879 0.16999 0.101127 0.667573 0.058128 0.528268 0.060278 0.00221857
ḫubuul -0.42618 0.17549 0.394849 0.00537833 0.51779 0.0552781 -0.287679 0.408671 0.0261255 -0.00142755
qátim -0.190858 -0.16834 -0.632651 0.437825 0.209729 0.0405995 -0.409085 -0.0485593 0.129593 -0.00217393
itur -0.191803 0.144433 0.450613 0.0810661 -0.184091 -0.428067 -0.0796391 0.477883 0.406253 -0.00212418
aputum 0.414863 -0.114122 -0.073212 -0.445089 -0.0772317 0.629051 -0.00477585 -0.261315 -0.170265 0.00325997
aniatim -0.00412053 0.265177 0.54014 -0.0364734 -0.452857 -0.248415 -0.000930651 -0.468818 -0.182734 0.00502396
niisḫasú -0.403033 0.187606 -0.383368 -0.0417998 0.0478354 0.187023 -0.0943071 0.506031 0.483807 0.00223782
gír -0.245169 0.100675 0.356909 0.143826 -0.0834752 -0.334662 -0.279753 -0.517175 0.439342 0.00494558
na 0.0246678 -0.489108 0.0148683 -0.119026 -0.1636 0.113147 -0.655021 0.365502 -0.157922 -0.0168485
še -0.454276 -0.445379 -0.0427329 0.413859 -0.345862 -0.245786 0.0765094 0.300801 0.20277 -0.00694038
láqéep -0.752324 0.238756 -0.283744 0.0422236 -0.135883 0.164709 0.193927 -0.254713 -0.227475 0.0138873
šuanim -0.821431 0.272104 -0.101233 0.0649201 -0.354812 -0.0564645 -0.0637899 -0.0446016 -0.126217 0.00764889
téertakà 0.18843 0.10048 -0.463573 -0.0108828 -0.243319 0.514822 -0.00756864 -0.536967 -0.0498298 0.0119084
kuatí 0.484395 0.669169 -0.163849 -0.0971042 -0.146251 0.244135 0.134556 -0.201429 0.212928 0.0119472
šubelim -0.858404 0.295878 0.106843 0.171851 -0.0361438 0.123581 0.149272 -0.105634 -0.00314874 0.0122522
išaqúlu -0.235087 -0.280588 0.355023 0.403651 0.0487951 0.123641 0.179451 0.314035 -0.558789 -0.00529612
šéep -0.149553 0.317469 -0.585402 0.0463751 0.364795 -0.152609 -0.496295 -0.119542 0.0115281 0.0057219
díin 0.558151 0.249113 0.0945 -0.0748504 0.559151 -0.349818 -0.144331 0.0739064 0.215601 -0.00290764
aláhiim -0.329101 0.445888 -0.346692 -0.49324 -0.0289532 0.0337612 0.310364 0.167178 -0.305463 0.0102328
ašùrimìtí -0.744954 0.488379 0.00969868 0.133375 -0.204732 -0.0483457 -0.0316748 -0.192759 0.139706 0.0125318
ašurnada -0.823813 0.207253 -0.213256 0.137719 -0.150724 0.228966 0.00677056 -0.0765103 -0.214786 0.00954591
anšeḫia 0.0254121 -0.349636 -0.771102 0.136026 0.291932 -0.0169526 -0.0557155 -0.246112 -0.0937879 0.00104851
kù -0.484936 0.00808826 -0.293288 0.55579 -0.130564 0.301732 0.0196337 0.382607 0.082427 0.00149154
išqúul 0.0661529 -0.106214 0.310951 0.572205 -0.0402764 0.367358 0.272558 0.0371399 -0.476775 -0.000886405
ili -0.429614 0.124497 -0.371768 0.0425321 -0.299551 -0.0950357 0.500072 -0.420166 -0.0809333 0.0173671
mìim 0.389941 -0.0503975 -0.0690203 0.323351 0.167758 0.195507 -0.0833945 -0.658926 -0.324756 0.00604807
kurubištar -0.734629 0.244519 -0.216005 0.320227 -0.294643 0.00486135 0.050297 -0.0917495 -0.243601 0.00932844
tim 0.0957492 -0.648482 -0.152094 -0.133409 0.0273864 -0.371451 -0.338197 0.12844 0.390091 -0.0129683
waaḫšušana 0.326966 0.180378 -0.195961 0.384768 -0.128519 -0.437332 0.25894 -0.333261 -0.410744 0.00519965
égallim 0.351907 -0.144048 -0.358356 0.370666 0.126386 -0.186501 -0.310106 -0.539227 -0.18861 0.000307904
alqé -0.0443134 0.122314 0.0827292 0.518786 -0.136661 -0.249624 0.244287 0.583834 0.316314 -0.00301214
ṣéer -0.0360318 0.193566 -0.0222516 -0.562831 0.452015 -0.307652 0.0333945 0.184706 -0.435021 0.00019658
lilikamma 0.633449 0.0784647 -0.0904479 -0.490246 0.123227 -0.0121344 0.376284 0.257756 0.138166 0.000792782
kutanu -0.239135 -0.0804374 -0.6018 0.0562612 0.351991 -0.249676 -0.49554 0.154741 0.0383656 -0.0049143
bani -0.339611 0.112807 0.469559 0.106998 0.172269 -0.205438 -0.392047 0.380835 0.395607 -0.00269567
ta 0.285492 -0.570404 -0.13091 -0.114084 -0.18245 0.189964 -0.593966 0.113509 -0.12883 -0.0156054
kùki -0.0743081 0.0968559 -0.31386 0.135543 0.0775652 0.0281275 0.100044 0.542512 0.653216 9.51081e-05
ikunim -0.764301 0.241059 0.161196 0.366363 -0.156203 0.203007 0.0409541 -0.0959709 -0.172829 0.00904627
taášpurani 0.458293 0.414411 -0.310618 -0.149691 -0.21073 -0.515797 -0.176276 0.198598 -0.119401 -0.00239921
ibašíú 0.433567 0.041077 -0.0457119 -0.168541 0.705103 -0.0668943 -0.239162 0.094046 0.31744 -0.00231458
šunuma 0.345438 0.669877 0.31535 0.0380715 -0.324794 -0.316743 -0.0457096 -0.0619326 0.130154 0.00682439
eláma -0.683861 0.392823 -0.179353 0.13795 -0.0268602 -0.316446 0.293774 0.0864268 -0.190416 0.0100968
eziib 0.12579 -0.105807 -0.0393073 -0.161823 0.532678 -0.607565 -0.0583881 0.358533 0.203068 -0.00703138
du -0.275354 -0.144124 0.271588 -0.450662 -0.105948 -0.0785372 -0.17113 0.418001 0.53661 -0.00340411
šalimašur -0.48524 0.570715 0.24382 0.192733 0.168368 -0.0459612 0.340477 -0.0106186 -0.30406 0.0126404
ennasúin -0.659773 0.52153 0.175319 0.0734993 -0.109433 0.175963 0.246242 -0.0620974 -0.236933 0.0133505
túgkutani -0.237433 -0.0705869 -0.555717 0.330978 0.0707036 -0.52739 -0.343799 0.0159875 -0.0825599 -0.00329069
mìšu 0.422628 0.392711 -0.30327 0.078519 -0.437275 -0.0612736 0.119944 0.252491 -0.431825 0.000100406
ṭuppìim -0.0459008 0.378531 0.304377 0.10807 0.368967 0.452742 -0.482148 -0.240053 0.00715516 0.00608063
šalimašùr -0.505446 0.594437 0.129363 0.200582 0.195524 -0.145585 0.342357 -0.213453 -0.101674 0.0159144
abini 0.406232 0.413063 0.191766 0.0700347 0.492325 0.0318723 -0.488647 -0.0172296 0.175587 -0.000383761
amurdingir -0.567906 0.40307 -0.435896 0.00376472 -0.356678 0.0324511 -0.00929281 -0.302456 -0.0726872 0.0137584
túgkutanu -0.289538 -0.0423245 -0.398717 0.169232 0.278226 -0.312658 -0.637218 0.166334 0.000899612 -0.00643128
šímìim 0.0953923 -0.608156 -0.198689 0.166569 0.0607417 -0.0394419 0.393601 -0.454775 0.268709 0.00296404
ikupía -0.685906 0.494315 -0.217887 -0.140623 -0.120277 -0.136893 0.297701 -0.019057 0.067436 0.0141996
ašùrnada -0.655754 0.395407 -0.243675 -0.0514151 -0.203699 0.26362 -0.0682918 0.0570887 -0.366811 0.00931507
qéú 0.00924357 -0.0141744 0.425293 0.25141 0.268029 -0.334209 -0.289067 0.43006 0.433969 -0.0060471
bi 0.258191 -0.449513 0.199706 0.0129398 -0.00655218 -0.154868 -0.565503 0.397654 0.284301 -0.0161449
naášakum -0.198396 0.135187 -0.459466 -0.373775 0.202477 -0.272068 -0.0189154 0.399417 0.443665 0.00268073
awaat 0.192995 0.277603 0.31392 0.507406 -0.0405538 0.493367 -0.102093 -0.257343 -0.30269 0.00510309
ennasúen -0.768193 0.335706 0.0446607 -0.0537774 -0.380428 0.130354 -0.190384 0.0591152 -0.0566558 0.00583684
abušalim -0.789166 0.267026 -0.133831 -0.0589206 -0.0949736 0.259911 0.258198 -0.227135 0.021021 0.014825
ṣíibtim 0.0275093 0.40688 0.0798121 0.650395 -0.0654976 0.458233 0.102465 0.189144 0.166814 0.00715124
ṣarupuum -0.656878 -0.185132 -0.0635343 0.304873 0.0312763 0.204777 0.101095 0.467955 -0.250445 -0.00224716
šumì -0.123313 0.711491 0.092207 0.279544 0.39287 0.260223 -0.165463 0.189584 0.0221076 0.00857698
išqúl 0.0591003 -0.0590545 0.155668 0.660101 -0.0935995 0.326158 0.171448 0.221709 -0.466028 -0.00370719
ikupìa -0.715395 0.280154 -0.180746 -0.3332 0.000283593 0.208084 -0.0153531 -0.249367 0.262611 0.0125815
ašurdu -0.777207 0.242798 -0.172384 -0.00779555 0.150631 0.037645 0.430565 -0.0688526 -0.0425933 0.0134921
dug -0.281263 -0.685696 0.0447605 -0.0451114 -0.22372 -0.21241 0.221671 0.427795 0.104244 -0.0123353
amurašur -0.788826 0.244777 -0.00367886 0.0917839 -0.0430171 0.384646 0.176508 0.0508913 -0.185416 0.0106427
šálmaašur -0.531323 0.458824 0.201499 -0.279966 0.0165882 0.0863423 0.528032 0.00232071 -0.0227528 0.0137706
úšébi 0.298009 -0.0415199 0.125605 -0.167876 0.216856 -0.403706 -0.210711 0.507953 0.48971 -0.00649448
ṭuppušu -0.128325 0.533301 0.110581 0.276366 0.304256 0.48782 0.229828 0.325794 0.062419 0.010337
úkàal 0.186488 0.531609 0.503127 0.226711 0.30501 0.117024 0.0868123 0.249097 0.306082 0.00441433
ama 0.351764 0.485118 -0.0995824 -0.394861 -0.294664 0.135485 -0.465899 -0.203061 0.0246991 0.00525791
iḫiidma 0.449395 0.0402792 -0.398598 -0.374051 -0.139018 0.606753 0.0152102 -0.00177695 0.05423 0.00306782
idísúen -0.748899 0.260939 -0.212915 0.05928 -0.424165 0.181118 -0.127952 0.0293779 -0.0182138 0.00800138
me 0.460717 -0.163055 -0.0846367 0.236913 -0.205697 0.143242 -0.0566548 0.227185 -0.681756 -0.00866885
baáb 0.0773113 0.130958 0.550881 0.12972 0.0705898 -0.397702 -0.246648 0.229587 0.515404 -0.00201656
súen -0.435328 0.0549079 -0.376116 -0.180386 0.088322 0.372576 -0.322639 0.0529461 -0.513778 0.00406838
šuatí 0.0605132 0.460152 0.308383 -0.053604 0.197215 0.577332 0.296505 -0.171056 0.288806 0.013056
belí 0.354098 0.154708 -0.127016 -0.198179 -0.569856 0.486412 -0.11039 0.0360458 0.326138 0.000797571
nikàsí -0.061097 0.354499 -0.025341 0.741577 -0.170327 -0.266716 -0.258775 -0.192465 -0.018874 0.00443243
šíbutíni -0.634696 0.116961 0.12358 0.0178595 0.0828634 -0.249563 -0.428361 -0.410152 0.209144 0.00336645
idíniatíma -0.14161 0.127984 0.216619 0.17309 -0.16955 -0.288095 -0.34713 -0.715264 0.131169 0.0038908
idíin -0.214592 0.095262 0.325409 0.0392634 0.266281 -0.629763 0.290229 0.384895 0.136806 -0.00118505
elálí -0.801924 0.289922 0.0476837 0.0125718 0.104199 0.16979 -0.132563 0.0320105 -0.353089 0.00580679
dínama 0.185806 -0.170919 -0.39626 -0.363686 0.563444 0.211817 0.266124 0.257469 -0.17968 0.000465477
luqútim 0.134698 0.493632 -0.491397 0.223585 0.497322 -0.0911183 -0.0948009 -0.260684 -0.0673334 0.0102744
niil -0.25177 0.258312 -0.273824 0.493715 -0.189062 0.181909 0.542277 -0.22196 0.0974584 0.0172363
šímaam 0.37282 0.104622 -0.636824 0.194263 0.232094 0.437594 0.203756 -0.100947 0.0373416 0.00820842
ninda -0.367139 -0.318632 0.132928 -0.00308455 -0.287137 -0.598246 -0.120487 0.264495 -0.330925 -0.0102698
amurdutu -0.775901 0.174933 0.125571 0.0309165 -0.285249 0.341565 0.182358 0.159952 0.0417717 0.00807434
šusúen -0.682687 0.212061 -0.0250934 -0.0667512 -0.463571 0.0822985 -0.325543 0.0614788 -0.232978 0.00214977
agap -0.0210298 -0.324555 -0.178909 -0.21267 -0.317526 0.302483 -0.642329 -0.146939 -0.268699 -0.00568504
idíabiim -0.672793 0.562356 0.274639 -0.0459386 0.135188 -0.0184648 0.152986 0.13751 -0.0763774 0.00985878
rabi 0.104981 -0.129128 0.226017 -0.148606 0.43001 -0.110418 -0.207132 -0.122459 -0.721886 -0.00263473
buzazu -0.450523 0.43714 0.100975 -0.0983439 -0.322564 -0.0601118 0.417333 -0.0145398 0.434377 0.0144196
ṭuppí 0.184708 0.486352 -0.168657 -0.409719 0.388267 0.24171 -0.224529 -0.389821 0.0791403 0.0114949
kunuku -0.250559 0.167039 -0.487673 0.170233 0.441495 -0.211121 -0.425403 0.325146 0.0320056 -0.00297782
išuú -0.230906 0.116193 0.716083 0.00944472 -0.0117896 -0.01347 0.281479 0.416064 -0.236723 -0.00130208
idíašur -0.761162 0.237694 -0.215298 0.223571 -0.188485 0.198873 -0.141216 -0.145406 -0.245472 0.00859203
ašuridí -0.727701 0.410378 0.069217 -0.0466781 0.0808624 0.196423 0.167314 0.0126776 -0.361196 0.0106076
ìlíalim -0.724314 0.375839 -0.242004 0.196614 -0.0833184 0.0173012 -0.15761 -0.122916 -0.310566 0.0095188
ṭuppíim 0.0999077 0.496106 0.345886 0.0837249 0.4139 0.368404 -0.405237 -0.13815 -0.115543 0.00549255
luqútám 0.175923 0.548505 -0.307873 -0.0954487 0.172175 0.197322 -0.0517515 -0.611556 0.0233828 0.0163838
abia 0.0136782 0.621441 0.453544 0.0804162 0.0720216 0.275448 -0.265455 0.0639068 0.368396 0.00704251
ublam -0.325168 0.100561 -0.384812 -0.0133258 0.0384112 -0.378806 -0.125394 0.54208 0.40244 -0.002145
lášu 0.595608 -0.0832515 -0.333285 -0.0859335 -0.106174 0.347457 0.473081 -0.21281 -0.119092 0.0047036
denlílbani -0.779548 0.270656 -0.24895 0.10067 -0.15196 0.0468797 0.278954 -0.104812 -0.208076 0.0122344
qáqáad -0.148607 -0.230072 0.548585 0.359121 0.400061 0.334428 -0.14021 0.237634 -0.190722 -0.00611647
ašurbani -0.857289 0.28627 -0.0995944 0.0469354 -0.164799 0.0586483 0.180578 -0.125147 -0.0790152 0.0128927
mee 0.494822 0.0156982 -0.115663 0.135023 -0.336811 0.128536 -0.093434 0.104687 -0.677789 -0.00512124
ṭuppì 0.177042 0.311002 -0.09485 -0.312766 0.339805 0.499644 -0.46404 -0.117562 0.226265 0.00509404
idíabi -0.368837 -0.0315436 -0.241444 -0.17431 0.147598 0.407086 -0.132641 -0.263899 -0.612023 0.00774076
mìnam 0.423557 0.321093 0.148367 -0.272844 -0.577294 -0.0506113 -0.234698 -0.0460583 0.343923 0.00115657
aḫšalim -0.630405 0.491178 -0.322346 0.14987 -0.24294 -0.0630591 0.127697 -0.247202 0.0375465 0.0149632
atata -0.913771 -0.00199539 0.1438 -0.119534 -0.116767 -0.0127703 0.0648927 -0.185052 -0.0216193 0.0059704
taášpuraam 0.274979 0.464872 -0.458832 0.0806402 -0.318881 -0.249273 -0.375818 0.277896 0.00852009 -0.00195603
úzua -0.886033 0.151262 -0.0900053 0.0565612 -0.201466 0.0752493 0.100147 -0.149988 0.129996 0.0114247
šébilam 0.446221 -0.00305572 -0.598132 -0.220144 -0.014796 0.413126 0.242876 0.137821 0.199199 0.00397897
ašùrdu -0.789485 0.274196 -0.261118 -0.23617 -0.180504 0.168301 0.0572757 0.126864 0.101508 0.00939229
šudenlíl -0.648029 0.431217 -0.18256 -0.0754331 0.0107266 0.270339 0.3516 0.116774 -0.21762 0.0130944
današur -0.595688 0.321502 -0.57394 0.00744815 -0.22741 0.19708 0.0580143 -0.147568 0.00253531 0.0133803
rakiis -0.357595 -0.264597 0.554599 0.121813 0.292719 0.443156 -0.251145 -0.0108002 -0.168538 -0.00283602
ašùrbani -0.808288 0.243704 -0.0322507 -0.205304 -0.15729 -0.141868 0.147214 -0.284452 0.0908857 0.0123066
iṣbaatniatíma -0.217445 0.401671 0.236602 -0.348598 -0.058092 -0.491257 -0.257644 0.392791 -0.184113 -0.0026614
mala 0.579005 0.46499 -0.416325 0.140344 -0.0378065 0.253657 0.0274258 0.111746 -0.283614 0.00367412
kura -0.8225 0.202902 -0.00373029 0.230862 -0.198076 0.094016 0.266877 -0.125081 0.102996 0.0106474
imdídingir -0.506441 0.546085 -0.280266 0.157382 -0.379888 0.0260829 -0.138958 -0.205861 -0.187618 0.0117899
ápqíid -0.643755 -0.0485079 -0.165999 -0.313048 0.373616 -0.303142 -0.263509 -0.129925 0.196558 0.00329736
láma 0.113246 0.00390327 -0.595413 0.0837119 -0.349471 0.280585 0.344342 -0.298375 -0.304419 0.0113136
mu 0.28456 0.0220779 0.384587 0.296596 -0.18849 -0.130886 -0.21769 0.645819 -0.229233 -0.011731
šukubiim -0.808083 0.202358 0.00982464 0.0601549 -0.0145069 0.118364 0.32829 -0.208033 -0.215935 0.0126677
idíištar -0.788892 0.278919 0.132082 0.277556 -0.264391 0.0177635 0.205277 -0.0779457 -0.0396322 0.00935018
ištéen 0.63991 -0.322813 -0.0050809 0.207566 0.0760445 0.371422 -0.31698 -0.15933 -0.274203 -0.00773593
lánim -0.179933 -0.0528621 -0.574915 -0.0072443 -0.167685 0.487471 0.214531 -0.202879 -0.396946 0.0108734
meere -0.213596 0.350128 0.599589 -0.35519 0.305544 -0.171653 0.02856 0.220013 -0.255365 0.00169204
dam -0.105553 -0.300324 0.0527788 -0.797905 0.00179675 -0.213301 0.196315 0.245436 -0.0541686 -0.00349494
aḫuúa 0.168268 0.042166 -0.179655 -0.307465 0.249657 0.527456 -0.214989 -0.0460792 -0.574587 0.000564457
šuut 0.161881 0.318567 0.534785 0.343222 -0.0273948 0.375679 0.428137 -0.109472 0.135789 0.00876797
sígḫia 0.0621977 -0.208427 -0.442034 0.181477 0.37505 -0.500466 0.361831 0.246662 0.155873 -0.00194452
idíašùr -0.85853 0.190265 -0.184147 0.10092 -0.123916 0.124144 -0.103629 -0.204396 -0.113392 0.0103851
awilim 0.642723 0.252542 -0.0205063 0.0140497 -0.356026 0.168342 0.0260838 -0.416223 0.300598 0.00623754
kùbabbarápkà 0.289299 0.301186 -0.476878 0.318235 -0.394704 0.293681 0.174022 0.060435 0.330582 0.00720129
dínam 0.0203266 0.483912 0.448577 0.12202 -0.276497 -0.25914 0.369668 -0.326567 0.213633 0.0121851
téertíkà 0.472004 0.45208 -0.62525 0.22313 -0.0785647 0.017674 -0.109509 -0.117466 0.0577518 0.0061907
tí 0.257214 -0.434963 0.0487466 -0.255736 -0.0732227 0.154205 -0.722076 0.0850703 -0.00475915 -0.0149763
téertí 0.53127 0.320188 -0.398464 -0.100473 -0.0945226 0.08235 -0.078696 -0.270542 -0.494725 0.00416881
išqúlu 0.174908 -0.319421 0.278811 0.632316 -0.0121456 0.33577 0.125684 0.136145 -0.358286 -0.00668573
dadaa -0.678621 0.115254 -0.448118 -0.22895 -0.00714553 -0.0717374 0.0538448 -0.394821 0.118672 0.0119197
qádum -0.347039 -0.118603 -0.148751 0.585287 0.375496 -0.256367 -0.26577 0.323563 0.0659556 -0.00663087
šeam 0.114763 -0.658928 0.20016 0.101932 -0.186387 -0.081737 0.393582 0.437582 -0.0676345 -0.0122917
ennamašùr -0.64733 0.473448 -0.205464 -0.129563 -0.212665 0.0208105 0.382287 0.0543846 -0.0785674 0.0141895
ašítíšu -0.406893 -0.512112 0.47452 -0.146915 -0.0714908 0.137289 0.274877 0.349346 0.0323651 -0.00689918
gapma 0.158626 -0.276809 -0.201087 -0.243077 -0.431799 0.189736 -0.654998 -0.0069624 -0.170914 -0.0090551
iḫdama 0.23402 -0.140263 -0.248201 -0.219625 0.312501 0.59485 -0.0499595 -0.0100458 -0.491889 -0.000508978
túghia 0.207794 -0.138103 -0.661467 -0.0786443 0.530202 -0.316606 -0.040011 0.0178388 0.048095 -0.00146129
imdílim -0.453087 0.587782 -0.400699 0.135924 -0.382222 0.0453764 -0.124072 -0.0594852 -0.068268 0.011429
šaášqíil 0.156887 -0.0625102 0.0364603 -0.337728 0.00536951 0.438144 -0.0167523 0.693382 0.241618 -0.00561632
belúmbani -0.648038 0.164154 -0.548674 -0.156136 0.11941 0.265637 0.0537532 -0.208056 -0.0299252 0.0127078
šíbi 0.207473 0.615034 0.475675 0.0881716 0.295045 0.290731 -0.208895 -0.131211 0.0917383 0.00717836
tùšébi 0.350858 -0.0561759 -0.0173457 -0.219966 0.168381 -0.233799 -0.23944 0.556049 0.511753 -0.00667291
awatám 0.647083 0.369059 0.432772 -0.0899829 -0.336349 -0.00845842 -0.0270932 -0.196629 -0.0631184 0.00202253
naášakunutí -0.193249 -0.0128809 -0.340942 -0.495732 0.614637 0.0107167 -0.107662 0.30863 0.0215775 0.000453244
mìšuum 0.694028 0.228534 0.0856873 -0.200625 -0.46064 -0.104389 0.138088 0.273734 0.0766002 -0.0031129
ahama -0.445279 -0.191983 -0.266221 0.16159 0.514828 0.0309001 0.290114 0.32144 0.31888 0.00260998
ašurtaakláku -0.703553 0.239221 -0.293918 0.0236025 -0.108167 0.333943 0.230632 -0.201263 -0.213877 0.0142976
šíamatim -0.268256 0.496882 -0.287271 0.166924 0.010882 -0.294706 0.378697 -0.314115 0.351077 0.0172319
današùr -0.653367 0.241295 -0.498481 -0.164034 -0.0619315 0.00302109 0.198251 -0.313811 0.0252842 0.0149385
li 0.217957 -0.685853 0.115815 -0.13008 -0.0432843 0.210347 -0.547577 -0.0333848 -0.0108669 -0.0141934
ku 0.154682 -0.517169 -0.170967 -0.134169 -0.386392 0.0488707 -0.606435 -0.0436662 -0.160254 -0.0130101
buruušḫadum 0.313207 0.238658 -0.329286 0.282687 -0.0454211 -0.343775 0.0334709 -0.345172 -0.544539 0.00446685
limìim -0.322013 0.405638 0.188611 0.600203 0.128297 0.0748361 -0.316617 0.138387 -0.287798 0.0033033
iláqé -0.166263 -0.101978 0.47412 0.541445 0.357253 -0.0533215 0.394932 0.0686057 0.193774 0.00276012
šukubi -0.378608 -0.150745 -0.255699 -0.139933 0.189834 0.369586 -0.111458 -0.269993 -0.607087 0.00632135
ṣalámu -0.297222 -0.419411 -0.578139 0.0779288 0.468871 -0.138162 -0.199326 -0.0290861 0.100732 -0.00460994
itbulu -0.36309 -0.51032 -0.346977 0.379677 0.352918 0.121187 -0.236677 0.189433 0.0843894 -0.00748623
buzutaa -0.669142 0.38522 -0.154017 0.250924 -0.32773 -0.0582941 -0.0463042 -0.170444 -0.278952 0.0102117
libakà 0.630692 -0.168194 -0.178584 0.188698 -0.356333 0.173018 0.0479408 -0.278167 0.408081 0.000324401
dutubani -0.757538 -0.0109131 -0.170314 -0.134547 -0.381193 0.124157 0.289869 -0.205636 -0.022524 0.00933056
šuḫubur -0.632445 0.526222 -0.129529 0.169279 -0.366577 0.0588221 -0.109168 0.0917557 0.163258 0.00939277
kuunkàma 0.154103 -0.172564 -0.358775 -0.347095 0.537384 0.473127 0.160831 0.13127 -0.161304 0.00135399
qátíšu -0.426638 -0.289153 -0.461189 0.410779 0.163647 -0.0119072 0.181531 -0.398519 0.156614 0.0080609
ani 0.518369 -0.230909 -0.319922 0.223713 -0.590286 -0.156221 -0.0835608 -0.209213 0.000370136 -0.00408135
ṭur 0.0698318 -0.418803 -0.282636 -0.595427 -0.129997 0.114582 0.368226 -0.0343693 -0.323715 4.04545e-05
aláḫuum -0.440163 0.438389 0.276385 -0.199518 0.411441 -0.164703 0.282819 -0.0076669 -0.353567 0.0054037
idínam -0.134704 0.193962 0.0564782 0.285712 -0.280528 -0.278924 0.37443 0.305499 0.583623 0.00496899
adíi 0.420707 0.191426 -0.369709 0.194064 -0.496311 -0.287061 -0.282944 -0.260245 0.160175 0.000199288
ašurgal -0.696025 0.420415 -0.251295 -0.27652 -0.0305254 0.104285 0.0579348 -0.303924 -0.0289291 0.0150801
šálmìšunu -0.334263 -0.306892 0.468647 0.253419 0.368892 0.434202 -0.164865 0.123805 -0.18608 -0.00522709
kunukini -0.378111 0.234224 -0.729638 0.00510464 0.30207 -0.0721562 0.0819426 0.0380121 0.248584 0.00943243
abuni 0.232985 0.36331 0.318833 0.31697 -0.148053 0.00693343 -0.158852 0.0944001 0.660079 0.00238844
šulábaan -0.837838 0.322835 -0.130837 0.0506767 0.0438634 -0.0736426 -0.250294 -0.123352 -0.0728128 0.00803098
ašurbeelawatim -0.858025 0.0454325 -0.0488818 0.198152 0.0656999 0.108759 0.304515 -0.00918173 -0.162168 0.00815924
rubaim -0.0342712 -0.146271 0.522689 0.109074 0.0560734 -0.390138 -0.181654 -0.618489 -0.0231457 0.000273492
úṣúbu -0.398517 -0.20686 0.335484 0.582904 0.17538 0.165834 -0.363523 0.114018 -0.183127 -0.00633161
kunuuk -0.0883781 0.397729 0.287981 -0.168182 0.644134 -0.0357593 -0.369199 0.0869482 0.217929 0.00217061
ali 0.34103 0.0352414 0.0453066 -0.050657 0.170233 0.490748 -0.0890658 -0.682192 0.0945454 0.009699
kulumaa -0.489647 0.24207 -0.511897 -0.0441656 -0.098058 0.147411 0.210187 -0.400393 0.302743 0.016764
šununu -0.539289 0.414926 -0.571924 -0.0450583 -0.217543 -0.0451847 0.102544 -0.213809 -0.0636746 0.0142066
tadíin 0.112611 -0.10395 -0.271981 0.26157 -0.149762 -0.291559 0.0227349 0.658181 0.408665 -0.00823659
luublam 0.0654634 -0.0143292 -0.365468 -0.709322 0.378251 0.0997055 0.277675 0.0887592 -0.0641131 0.00530136
ḫaarmìim -0.311325 0.549502 0.257692 0.18933 0.371404 0.439063 -0.118134 0.19772 0.0989874 0.00740576
irade -0.13171 -0.0502121 -0.436282 -0.431023 0.414985 -0.261475 -0.367668 -0.233821 0.234691 0.00341992
tur 0.0718154 0.184586 0.19721 0.294146 -0.227059 -0.773559 0.0928958 8.57625e-05 0.241705 0.00144315
díinma 0.1892 0.0529129 -0.396125 -0.556456 0.389936 0.175474 0.19737 0.332635 0.213327 0.00303679
ikribi -0.152871 -0.0552397 -0.146856 0.0406204 0.0482832 -0.156854 -0.486543 0.280912 0.691017 -0.00500853
qátía 0.58168 -0.318262 -0.314453 0.321007 -0.21858 0.170787 -0.0377388 0.0918812 0.412315 -0.00653494
amurašùr -0.881515 0.139375 0.197511 0.0548709 0.0591367 0.0356356 -0.264726 -0.0481248 -0.0182552 0.00546452
maam 0.669129 -0.0538618 0.437801 0.204492 -0.392834 -0.134788 -0.119524 0.163375 -0.101931 -0.00976912
ašurdug -0.728437 0.287824 -0.111234 0.0771141 -0.107271 0.107787 0.187604 -0.317913 -0.331385 0.0139777
šanaat 0.0920343 0.0734064 0.279963 0.520525 -0.120801 0.196385 0.102931 0.174686 -0.647226 -0.00206661
kùbabbarápšu 0.106175 -0.0910442 -0.147684 0.707215 0.103548 0.216061 0.184171 0.45223 0.206322 -0.00334698
ide 0.485708 -0.191335 0.46989 -0.180395 -0.199164 -0.132401 -0.23465 -0.0576451 0.504633 -0.00584916
ḫaḫiim 0.264044 -0.115224 -0.235373 0.342494 0.0336146 -0.358926 -0.0714704 -0.548905 -0.429958 0.000286149
alikiim 0.119836 -0.218787 -0.535462 -0.31962 -0.066488 0.567431 0.305632 0.0831386 -0.0917354 0.00313546
ašùridí -0.715353 0.115096 -0.0133066 -0.115372 0.28084 0.00395771 -0.0656092 -0.199137 -0.488691 0.00634417
abikà 0.352953 0.554046 0.265882 0.00323235 0.0438323 0.185072 -0.422304 -0.0269843 0.4157 0.00377926
šukubuum -0.687762 0.11977 -0.195646 0.268858 -0.111601 -0.292558 0.269612 -0.35871 -0.0610018 0.0110781
kulia -0.382602 0.420609 -0.0365767 -0.29372 -0.143514 0.143023 0.462303 -0.42245 0.187931 0.0198667
adíni 0.502584 0.00320146 -0.208777 0.367361 -0.310255 -0.154591 0.260076 -0.512729 0.0780968 0.00555115
agu -0.496947 -0.426801 -0.107296 -0.0529866 -0.314389 0.158232 -0.123288 0.0235173 -0.557801 -0.00338799
igap 0.0940799 -0.275527 0.00803096 -0.014294 -0.150348 0.356978 -0.749865 -0.0827527 -0.271348 -0.00850973
ší 0.301119 -0.605563 -0.138207 -0.277539 -0.304616 0.205712 -0.399855 -0.17683 0.117935 -0.010022
talqé 0.0352601 0.152202 0.0327939 0.273352 -0.242913 -0.388046 0.287341 0.31397 0.616782 0.00172265
awatum 0.596354 0.161432 0.3171 0.03962 -0.0378487 0.195167 0.0229615 -0.485618 -0.364729 0.00386734
niiš 0.0154377 0.438308 0.696192 0.170177 0.226152 -0.326506 -0.0512398 -0.146404 -0.0816283 0.00310818
ìlídan -0.539653 0.380552 0.528023 0.184979 0.234826 0.242383 0.0343571 0.144752 -0.127745 0.0068013
gu 0.224334 -0.526688 0.380082 -0.270638 0.337708 -0.100394 0.0191878 0.242903 0.41058 -0.00861091
dutuši 0.161919 0.127878 -0.360088 -0.325614 0.0874842 0.28402 -0.243789 -0.603695 -0.288981 0.0087422
dmartubani -0.724294 -0.0370303 0.0750253 0.105542 -0.313484 -0.0552762 0.208595 -0.144584 -0.437927 0.00544397
pánia 0.366795 -0.23773 -0.522639 -0.15726 -0.229734 0.221352 0.476779 -0.187809 -0.189088 0.00393738
kurara -0.884444 0.248948 -0.205716 -0.0757009 -0.113975 0.116542 0.00148663 -0.0666629 -0.0508394 0.0084174
ahi 0.377036 0.286113 -0.250773 -0.433117 -0.347634 0.320583 0.258097 0.266712 0.226789 0.00530786
za -0.25669 -0.509617 0.0999698 0.0136007 -0.318993 0.0637797 -0.416726 0.104636 -0.509739 -0.0120474
ba 0.219334 -0.579615 -0.0880959 -0.00878927 -0.276 0.167659 -0.592999 0.180183 -0.0716758 -0.0167482
atùnuma 0.396342 0.716383 -0.198106 0.0446044 0.0460343 0.0601284 -0.0732319 0.250253 -0.336418 0.00529306
ṣúḫari 0.175075 -0.351647 -0.533058 -0.207259 -0.182696 0.150382 0.220964 -0.544481 -0.0171731 0.00683858
kùbabbaráp 0.00443853 0.583502 0.51073 0.116095 0.143828 -0.0353218 -0.241894 0.324366 0.299976 0.00197993
meerú -0.154747 0.405953 0.645677 -0.310386 0.0938332 -0.307887 -0.156078 0.250297 -0.0259476 -0.000270401
luqútum 0.162711 0.479214 -0.41757 0.18724 0.201723 0.259955 0.0131026 -0.464793 -0.30263 0.0142122
nénuma 0.396205 0.737516 0.0944067 -0.0983945 -0.0789568 -0.212821 -0.300508 0.196867 -0.0357437 0.002407
ḫinaa -0.401381 0.590185 -0.443935 0.306869 -0.0361837 -0.071852 0.182979 -0.22571 -0.0874837 0.015743
kuzizia -0.611322 0.324706 -0.426523 -0.0118103 -0.0600963 -0.0109086 0.469528 -0.0590937 -0.101318 0.0146936
šubelúm -0.367933 0.511813 -0.020113 0.0108872 0.109259 -0.240007 0.604082 -0.104809 -0.21044 0.014728
ìlía -0.655355 0.305549 -0.234547 0.13724 -0.301373 -0.238293 0.0249838 -0.376817 0.11387 0.0126793
diškurbani -0.784575 -0.0140317 -0.1917 -0.21852 0.0472934 -0.0402195 0.254628 -0.367733 0.0742073 0.0112057
ṭuppée 0.226142 0.402624 -0.0517655 -0.279098 0.515762 0.267513 -0.407089 -0.249681 0.155528 0.00663517
aniútim 0.00164662 0.248747 0.180882 -0.229236 0.332947 -0.119012 0.278761 -0.657709 0.290512 0.0155445
qáatkà 0.49971 0.472171 -0.0736215 0.237872 0.322953 0.0655016 0.222469 0.0683222 0.442124 0.00802251
dadía -0.71911 0.464087 -0.155494 -0.218499 0.020566 -0.237749 -0.145076 0.135991 0.116942 0.00610299
šuumšu 0.0216542 0.01579 0.750889 -0.0116546 -0.0630125 -0.215301 0.105596 -0.281171 0.423897 0.00408982
kunukišu -0.159953 0.474255 0.0214132 -0.00691403 0.520273 0.239916 0.327223 -0.213466 0.386402 0.0163103
tíirtakà 0.155192 0.0210679 -0.463877 -0.233367 -0.194408 0.374833 0.155929 -0.577247 -0.211533 0.011641
páni 0.279649 0.239872 -0.215549 0.0655491 -0.0805392 -0.170133 0.260939 -0.467894 0.606752 0.0104366
ḫaranim 0.167777 -0.00319454 -0.372421 0.511444 -0.0333222 -0.126238 0.207496 -0.615844 0.0849338 0.0101382
kunukikà 0.0141827 0.445462 -0.427349 -0.049015 0.0798906 -0.0877875 -0.0218813 0.215289 0.658594 0.0077052
ubláni -0.233343 0.382147 -0.361546 0.172811 0.443444 -0.48849 -0.266193 0.0947619 0.107855 0.0035847
qéma 0.0634085 0.0918668 0.384356 0.242355 0.268188 -0.254159 -0.293133 0.479611 0.459248 -0.00488475
támkàriim -0.0114324 0.484953 -0.581399 0.0483018 0.353346 0.400821 -0.126179 -0.00930932 0.112464 0.0113367
šálmaašùr -0.376837 0.440638 0.19092 -0.240828 0.25313 -0.166647 0.210424 -0.497051 0.272337 0.0156896
šurutum -0.305724 -0.0580511 -0.439743 0.318146 0.165715 -0.278578 -0.595335 0.138074 0.10511 -0.00768597
súea -0.438904 0.50192 0.0883059 -0.0666255 -0.0489597 -0.012243 0.331592 0.0920459 0.555849 0.0135025
ga 0.00482425 -0.571111 -0.114199 -0.216706 -0.399726 0.261082 -0.490366 0.142177 -0.112262 -0.0130112
liwitim -0.202116 -0.142571 -0.536626 0.304581 0.389982 -0.166274 -0.508849 -0.0458759 -0.0329749 -0.00558319
gig -0.242254 -0.657894 0.13696 0.215083 -0.21924 0.0130497 0.374998 0.360741 0.120688 -0.00951769
ḫumìit 0.143662 -0.101801 -0.138004 -0.0916942 0.279428 -0.129618 -0.255234 -0.186892 -0.787124 -0.00134462
dubsar -0.559027 -0.0765458 0.0666718 -0.0934805 0.208922 -0.381187 0.0139122 -0.590568 -0.137319 0.00740985
lulu -0.750637 -0.25113 -0.454731 -0.159316 -0.0512807 0.0665532 0.209458 -0.034765 0.0425552 0.00515307
ìr -0.192898 -0.176873 0.518077 -0.288118 0.268642 -0.463645 0.281007 0.280962 0.146662 -0.00416469
beel 0.182699 -0.14456 0.820716 0.20367 0.0245521 -0.0469965 -0.0677732 -0.27293 0.208127 -0.00178302
šunu 0.0327504 -0.0624116 0.169227 0.0605619 0.154346 0.573822 0.201909 -0.569938 0.339085 0.0111607
šínišu 0.665532 0.339044 -0.215048 -0.115645 0.0131443 -0.206664 0.0102985 0.127558 -0.472882 -0.00313531
ašurdutuši -0.772888 0.14491 -0.361581 -0.015849 -0.0990544 0.15141 0.202125 -0.230763 -0.183394 0.0122441
adída -0.199739 0.260371 -0.142294 -0.6327 0.0928092 -0.116578 0.142625 0.215682 -0.513648 0.00238322
únusúnu -0.348475 -0.448042 -0.550577 -0.0545678 0.436078 -0.108995 0.00273616 -0.257477 0.00861403 0.000957094
ùlá 0.372432 0.367689 0.098853 0.0794845 -0.518258 0.213921 0.408778 -0.128229 0.311441 0.00993732
idí 0.369328 -0.0783758 0.302814 0.374908 -0.0373848 -0.410605 -0.537271 0.138141 0.130011 -0.0169264
úṣúuršaašur -0.82386 0.2771 0.116694 0.357879 -0.0678194 -0.0597642 0.0380176 0.000528013 0.102807 0.00740528
dingirbani -0.829895 0.259222 0.217689 -0.185662 -0.147852 -0.147097 -0.137251 0.0685594 -0.12217 0.00146669
qíbíma -0.080102 0.225192 -0.040385 -0.397248 -0.137209 -0.516347 -0.385311 0.357703 -0.318299 -0.00562722
úul 0.461736 0.0921884 0.13004 0.143394 -0.475962 0.281964 0.106759 -0.091308 0.547964 0.0028828
ašùremuqí -0.713765 0.4275 -0.101668 0.159639 -0.316291 -0.0626123 0.0988634 -0.253333 -0.0233687 0.0139002
atalkam 0.629265 -0.0946557 -0.0622219 -0.58814 0.0212033 -0.21369 -0.245315 -0.0632326 0.194029 -0.00472935
anitum 0.0320943 0.38363 0.0032048 0.10114 0.100071 0.81522 0.0945394 -0.076786 -0.186313 0.0102357
ašùrsipa -0.632942 0.552206 -0.0318827 0.18515 -0.147235 0.33357 -0.154661 0.0248788 -0.0788025 0.0115331
imua 0.500803 0.382463 0.163784 0.157741 -0.402197 0.239156 0.435827 0.0658348 -0.178016 0.00536603
libikà 0.565873 0.333858 -0.146083 0.41159 -0.0664261 0.235037 0.206552 0.146271 0.388351 0.00327655
ìgiš -0.114055 -0.713272 -0.433184 -0.110243 -0.345152 0.0425936 0.177297 0.057075 0.153503 -0.00500638
aniim 0.218067 -0.0982236 -0.0643389 -0.129872 0.495248 -0.347868 0.323248 -0.0864121 0.565082 0.00280072
naší -0.100536 -0.0612638 -0.197085 -0.578392 0.579402 -0.202106 0.0374476 -0.0235607 0.339316 0.00389692
meeḫraat -0.149511 0.448562 0.0442491 0.228375 0.476651 0.52172 -0.296798 -0.149642 -0.0112799 0.00795522
tum 0.397646 -0.54989 -0.117959 -0.0685831 0.0618611 -0.225679 -0.52684 0.0669666 0.281903 -0.0143093
itùru -0.183263 -0.00368214 0.793111 0.147623 -0.0381592 -0.0624426 0.406167 -0.140025 -0.125702 0.00384696
úzni 0.239088 0.109527 -0.214392 -0.62327 -0.107022 0.336167 0.0832708 -0.458187 0.185316 0.0104937
úbi -0.206064 -0.0284886 0.25366 -0.145582 0.20382 -0.453456 -0.358425 0.33122 0.516419 -0.00426911
ašùrtaakláku -0.562515 0.387538 -0.504198 0.177475 -0.0738381 0.0657157 0.0530103 -0.091021 -0.351986 0.0123771
akidíe 0.119647 -0.217962 -0.641414 -0.269593 0.29097 -0.346524 -0.358274 0.0201562 0.0980764 -0.00540686
pánitim 0.185889 0.403954 -0.529425 0.5267 0.00818665 -0.192607 0.302214 -0.0235405 -0.0981768 0.00696869
maalútim 0.207279 -0.0539399 -0.0630619 0.504302 -0.291841 0.410386 0.154242 0.107877 -0.533446 -0.00274881
úbiil -0.47999 0.0939409 -0.0694603 -0.204319 0.46577 -0.584342 0.0357513 0.063575 0.202763 0.00305202
šuašur -0.817519 0.192085 0.114099 -0.0835679 0.252999 -0.0771094 0.252195 0.0441257 -0.227991 0.0077247
ezibu 0.277779 -0.0586376 0.00394429 -0.315406 0.496282 -0.601357 -0.17823 0.199924 0.163377 -0.00620456
aḫuwaqar -0.63401 0.363719 -0.210449 -0.00786504 -0.131114 -0.16662 0.137259 -0.498718 -0.0791997 0.0156838
ašùrgal -0.594629 0.295057 0.00754003 -0.286239 -0.0712325 -0.0219423 0.167171 -0.546777 0.192936 0.0162479
šíkam -0.229239 -0.158076 -0.300582 0.204425 0.0079419 -0.406734 0.4442 0.552536 -0.019998 -0.0033105
šíatí 0.357993 0.44512 -0.153339 0.0405372 -0.0354092 0.132574 0.308445 -0.640805 -0.059951 0.0162577
ḫaarmaam -0.071007 0.686565 0.152255 0.176522 0.323609 0.394644 0.0236689 0.170751 0.269308 0.0102488
awilúm 0.61338 0.304281 0.217044 0.173123 -0.39062 0.257505 0.204695 -0.301668 -0.0369903 0.00623165
iṣéria 0.496367 -0.189126 0.47953 0.173742 -0.181151 0.378682 0.0490745 0.311965 0.281774 -0.00665242
beúláat -0.701627 -0.202589 0.113684 0.104352 0.4354 0.140618 -0.266423 0.200077 0.161922 -0.00129082
idíabuum -0.757196 0.342269 0.11358 0.407896 0.117291 -0.0918663 0.144553 0.00212868 -0.0293658 0.00864457
niisḫatim -0.1174 -0.0303142 -0.337428 0.622216 0.0227603 -0.287639 -0.221249 -0.290491 0.384895 0.00219626
pánimma 0.114463 -0.188053 -0.54877 -0.195823 0.125068 0.591286 0.348158 0.019096 -0.103322 0.00473144
ìlí -0.398614 0.24696 -0.194362 0.0826574 -0.303853 0.538012 -0.456341 -0.14013 -0.0971997 0.00740896
ištía 0.516477 0.155504 0.0191965 0.372915 -0.38068 -0.230775 0.102341 -0.291526 0.406353 0.00414011
nénu 0.500076 0.557698 0.381328 -0.175689 -0.0332072 -0.0774721 0.0728761 -0.0827914 0.379215 0.00633552
iláak 0.308583 0.325279 0.434776 0.535814 0.0809768 0.252477 0.337814 -0.161077 -0.0579625 0.00690539
manaum -0.216975 0.114108 0.225535 0.759603 -0.0793231 0.378749 0.0925922 0.197036 0.00540938 0.0035599
kùbabbarpìkà 0.16037 0.0321095 -0.578237 0.480078 -0.176221 0.172992 -0.140532 0.0455979 0.45875 0.00151219
itùar -0.292905 -0.0765977 0.783611 0.0495722 0.0552402 -0.0369455 0.410502 0.0142896 -0.108982 0.00227448
ummeani 0.0891204 0.472469 0.276096 -0.189386 0.605526 0.256833 -0.311901 -0.0842087 -0.0813763 0.00553998
idínu -0.092393 -0.0972098 0.425292 0.129307 0.351597 -0.671069 -0.30127 -0.0615469 0.0214381 -0.00627505
aḫišu -0.599318 0.177763 0.563304 0.0218954 0.200212 -0.163853 0.255548 0.227952 -0.0960567 0.00311514
anina -0.550731 0.31237 0.0099737 -0.430185 0.0849429 0.169357 0.388905 0.341264 0.0729524 0.00844467
úla 0.452129 0.419575 0.335409 0.317696 -0.219968 0.0372058 0.331982 0.0310122 0.372213 0.00576864
ilikam 0.499568 0.477271 0.00828178 -0.180671 -0.151909 -0.175013 0.489735 0.292543 -0.0629609 0.0049619
ṭuppìa 0.116079 0.382468 -0.0788019 -0.124022 0.291842 0.625907 -0.340575 -3.12401e-05 0.324708 0.00712901
šína 0.250308 -0.560237 -0.0635688 -0.122519 0.582626 0.0772664 -0.305693 -0.0183471 -0.243372 -0.0100484
ataa -0.836809 0.28231 -0.182274 -0.0923752 -0.209069 0.117127 -0.1476 -0.122807 -0.0347414 0.00919176
wedaku 0.0822118 0.121209 0.248337 -0.359243 0.107297 -0.339347 -0.396831 0.345293 0.513513 -0.00401298
kùbabbarpì 0.303103 0.20011 0.160672 0.11583 -0.385449 0.69697 -0.0653309 0.167805 0.215596 0.00229392
ṣúbatí 0.474894 -0.0291722 -0.483357 0.116635 0.352367 -0.0507949 -0.259939 -0.275969 0.382921 0.00137278
idnaa -0.808783 0.190425 -0.299139 -0.121691 0.0953038 0.244915 -0.0728472 0.0051449 -0.213928 0.00764818
liibší 0.511171 -0.295431 -0.170511 -0.329157 0.371844 0.121685 0.300553 0.326353 -0.240398 -0.00618664
ṭuppákà 0.193374 0.768599 -0.149644 0.204074 -0.0372755 0.370335 -0.139941 0.212521 0.0132444 0.00899116
dí 0.0404861 -0.368609 0.128268 -0.210119 -0.202261 0.232766 -0.745922 0.157173 0.0620086 -0.0131882
tašameú 0.394771 0.0354522 -0.0810486 -0.727617 0.256801 0.0700219 -0.0577285 -0.208718 0.278793 0.00292883
enumašurma -0.0535633 0.658296 -0.169142 -0.430647 -0.0525999 -0.329808 0.0860634 0.311616 -0.16279 0.0051039
šè 0.275385 -0.0437051 0.277349 0.418171 -0.426979 0.0291234 -0.288478 0.453715 -0.293566 -0.0105843
kùbi -0.256469 -0.350024 -0.425043 0.48396 0.0568108 0.11477 -0.327392 0.387689 0.0846725 -0.0102634
aḫua 0.155726 -0.0127438 -0.320841 -0.367104 0.24388 0.397374 -0.0861699 0.091191 -0.617804 -0.000749998
liil -0.235255 0.0912705 -0.305384 0.31523 -0.204744 0.286668 0.555316 -0.411931 0.057529 0.0186502
aluwa -0.108758 -0.188942 -0.526946 -0.323356 0.137673 0.311425 0.442924 -0.291642 -0.226736 0.0104703
téertía 0.355158 0.173222 -0.425187 -0.219326 0.0830349 0.6178 -0.139292 -0.114986 -0.287105 0.0038541
itukamim -0.1284 -0.080325 0.154733 0.724846 -0.0150622 0.420827 -0.237128 -0.0673348 -0.268304 -0.00223094
adíšuum -0.163608 -0.332133 -0.230278 0.347861 -0.0187772 -0.423345 0.510031 -0.0771339 0.351232 0.0028915
kunu 0.266216 0.0952567 0.103877 0.0338489 -0.00766831 0.715886 -0.420439 0.269547 0.163491 -0.00311114
ašùrdug -0.764117 0.331526 -0.180329 -0.00777558 -0.11253 -0.0103341 -0.054355 -0.345366 -0.220151 0.0119129
égallúm 0.384354 -0.150394 -0.0127959 0.478776 -0.125407 -0.394433 -0.125519 -0.396312 0.374633 -0.00139892
ri 0.160604 -0.723538 -0.00390048 -0.167955 -0.258099 0.0282875 -0.415882 0.0794327 -0.266309 -0.0161173
ṭuppìšu -0.199793 0.418304 0.0356904 0.429977 0.421549 0.543545 0.0257956 0.0559776 -0.0690432 0.010877
aláak 0.623708 0.255826 0.227482 -0.289917 -0.0375322 -0.423453 0.111289 0.141486 -0.309981 -0.00435763
lušébi 0.457744 -0.0630896 -0.104221 -0.0815199 0.312804 -0.0541206 -0.125792 0.450614 0.579831 -0.00458677
tíšu -0.0322644 -0.102833 0.497812 -0.0861566 -0.329168 -0.283698 0.455803 0.460001 -0.0800971 -0.00434086
belua 0.281517 -0.0101535 -0.156191 -0.212192 0.186442 0.479581 -0.244366 0.0923374 -0.62762 -0.00448703
pìláaḫištar -0.652451 0.397099 -0.20176 -0.0993365 -0.14768 0.42197 0.209123 -0.117636 0.106422 0.0158027
dína 0.186568 -0.461182 -0.211937 -0.0725865 0.592682 0.25006 -0.0482641 0.22491 -0.355308 -0.00697151
kàniìš 0.0804677 0.278423 0.0912292 0.477246 0.0108665 -0.259725 0.0652106 -0.578061 -0.388988 0.0066971
amtám 0.11236 -0.260548 0.218771 -0.370445 -0.133295 -0.0544168 0.678512 0.045033 0.356756 0.00298097
šatim -0.0655506 -0.267817 0.432465 0.733034 0.0116005 0.105997 -0.0766293 0.215363 -0.16749 -0.00676346
púzurašur -0.632216 0.331754 0.060567 -0.244661 0.0568309 0.27705 0.0124863 -0.209906 0.447068 0.013623
damgàrriim -0.240864 0.57124 -0.326948 0.262336 0.0029207 0.523181 0.0768666 0.0739128 0.212896 0.0138754
tíirtí 0.46471 0.41042 -0.0963869 -0.244938 0.128253 0.0867687 -0.0619803 0.209481 -0.602542 -0.000665551
aaldu -0.646689 0.290792 0.0588596 0.0350885 -0.366387 0.38674 0.0645096 0.322977 -0.0112574 0.00614645
imṭí -0.26651 0.0128629 -0.530178 0.525894 -0.279541 -0.0143201 -0.175604 0.297013 0.247527 -0.0019078
aláqé 0.277977 0.162795 0.287966 0.66792 0.142649 -0.0484564 -0.0209416 0.467918 0.100216 -0.00627549
um 0.0865111 -0.396841 -0.053325 -0.138034 -0.379853 0.307855 -0.587526 0.290773 0.155865 -0.0129162
gi 0.317588 0.0522474 0.100774 -0.236992 -0.214109 0.26615 0.134398 0.720905 0.230366 -0.00565204
pániimma 0.18009 -0.100488 -0.527274 -0.332703 0.0143933 0.582588 0.245244 0.0307788 -0.232435 0.0035431
idísúin -0.762573 0.363716 0.202188 0.20729 0.00255604 -0.041976 0.188808 -0.262969 0.0689329 0.0138095
zaalpá 0.177539 -0.0944577 -0.523083 -0.0934623 -0.0386336 -0.515155 0.0698541 -0.403251 -0.352298 0.00298791
amìšaam 0.38182 0.0464641 -0.141683 -0.387861 -0.136855 -0.118418 0.47538 -0.445768 -0.321807 0.0076281
šukitim -0.684273 0.368066 -0.12029 0.216622 0.0343242 0.113724 0.430914 0.155551 0.111225 0.0130639
aḫiim 0.0545996 -0.180003 0.290573 0.220565 -0.193879 0.579253 0.277948 -0.408225 0.298681 0.00826556
adínakum 0.191551 0.198268 -0.126147 0.0860488 -0.273027 -0.348464 0.192511 0.558614 0.480301 -0.0007637
illat -0.469184 0.144295 -0.462486 0.347746 0.184785 -0.268827 -0.19115 -0.0497125 -0.412896 0.00328334
qátám 0.290377 0.490425 0.031873 0.41478 0.185846 -0.462647 -0.0438392 0.243569 0.286295 2.4365e-05
alim 0.168834 0.229133 0.696811 0.166924 0.363694 -0.287478 0.102835 -0.226125 0.142305 0.00241244
idíinma -0.133749 0.216271 0.555403 0.149095 0.11385 -0.656905 0.0160316 -0.214531 -0.0271403 0.0021188
am 0.241815 -0.600432 -0.0742641 -0.0360838 -0.601202 0.0539808 -0.323223 0.00968573 0.00560447 -0.0124811
amutám 0.277184 0.416799 -0.243436 0.18928 -0.0933155 -0.126086 0.715582 -0.0404492 0.0649814 0.0100761
pèruwa -0.297546 -0.582687 0.602567 -0.00432588 -0.00425274 0.161556 0.107246 -0.0835017 -0.254437 -0.00596091
itùwaar -0.171417 -0.151801 0.744613 0.138434 -0.00571318 0.186415 0.459062 0.104146 -0.0858942 0.000562039
píláaḫištar -0.728278 0.151986 -0.0311212 -0.0700113 -0.158285 -0.316853 0.415708 -0.193466 -0.0903175 0.0106273
ašurtákláku -0.675059 0.287879 0.0426964 -0.175598 0.135856 0.383792 0.349576 -0.217546 -0.032795 0.0141777
adada -0.645019 0.231989 -0.121587 -0.219467 0.0657497 -0.0849884 0.287934 -0.506413 0.145871 0.0142528
lugalsúen -0.572536 0.426258 -0.565331 -0.115332 0.00324936 -0.212323 -0.066549 -0.0862731 0.114001 0.00926389
bazia -0.736461 0.378875 -0.0517927 -0.108937 -0.172436 0.285898 -0.106691 -0.0795282 -0.278808 0.0102388
annaak -0.290322 -0.0979966 -0.656393 0.540821 0.127655 0.0244998 -0.202419 -0.135425 -0.0213257 0.00155481
alaḫiim -0.571241 0.177146 -0.388364 0.0209453 -0.327331 -0.0634113 0.0480739 0.29145 -0.433388 0.00156876
luzina -0.570703 0.447195 -0.0394615 -0.0847584 -0.437636 -0.141568 0.0503392 -0.313228 0.23112 0.0129347
aḫia 0.256569 0.574802 0.282738 -0.442197 -0.0511403 0.250861 -0.309153 -0.153667 0.198037 0.00479861
ištíkà 0.448155 0.229514 -0.285423 0.00832779 -0.151945 0.190528 0.0506118 -0.492038 0.491921 0.011003
awiil 0.31409 -0.667195 -0.133453 0.0124991 -0.509217 0.247939 -0.0806144 -0.0784273 0.0882268 -0.0079504
šíta 0.38282 -0.465989 0.0379126 -0.387304 0.169542 -0.439704 0.0485292 0.203021 0.343416 -0.00874145
amria -0.904936 0.000477969 0.0825631 0.0780009 0.029624 0.0552409 0.231736 0.0280664 -0.167649 0.00637974
kàniiški 0.198967 0.43205 -0.199448 0.335215 -0.0970018 -0.15966 0.0386191 -0.553323 -0.399724 0.00983511
ṭuppèe 0.243591 0.300135 0.201127 -0.311252 0.505783 0.240447 -0.336012 -0.255863 0.321655 0.00530826
masíam 0.0192896 0.0795012 -0.366922 -0.0257229 0.0153843 -0.30342 0.138134 0.762475 -0.198777 -0.00580227
amtim 0.0631275 -0.316064 0.194226 -0.203566 0.0306296 -0.126441 0.625243 0.105182 0.521747 0.000588225
nadí -0.0449104 0.203315 -0.409312 0.375242 0.433064 -0.202685 0.171749 0.309304 0.419046 0.00259983
amutim -0.0420398 0.102437 -0.245187 0.409806 0.0219515 -0.478307 0.419243 0.0104293 0.481697 0.00435053
šíimšunu 0.0906485 -0.372098 -0.577776 0.335127 0.188492 -0.353668 0.217113 0.0186708 0.297369 -0.00236107
úkàlu 0.51552 0.340379 0.425221 -0.26351 0.427711 -0.0853959 -0.207944 0.140826 0.119518 -0.00234212
kenišunu -0.380263 -0.358084 0.538499 0.210012 0.273611 0.306559 -0.295723 0.0505946 -0.164205 -0.0080076
sìla 0.0813164 -0.759865 -0.359981 -0.0808266 -0.268334 -0.077424 -0.0357851 0.0656116 0.309496 -0.00987726
izaaz 0.303714 0.161113 0.740403 0.154129 0.140708 -0.218616 0.0597098 0.256976 -0.264499 -0.00397839
ášqúul -0.121747 -0.359106 -0.0371297 0.414859 0.0608125 -0.717877 0.0523367 0.102983 -0.189289 -0.00840438
ašuremuqí -0.675533 0.398821 -0.378329 -0.253988 -0.210934 -0.163162 0.00117973 -0.108451 -0.0631559 0.0107857
ḫarani 0.337368 0.111203 -0.326074 -0.156684 -0.266798 -0.049727 0.120704 -0.566245 -0.458418 0.00805872
azu -0.68085 -0.192613 -0.168406 -0.193107 -0.174338 -0.0414328 0.476686 -0.120717 0.24482 0.00815133
kena 0.0581906 0.625001 -0.00794062 0.166136 -0.264472 -0.348374 0.113503 0.300487 0.411123 0.00621561
šurutim -0.0804687 -0.0215414 -0.507052 0.475517 -0.0709738 -0.406792 -0.447317 -0.0258933 0.145636 -0.00482482
dur 0.0648446 0.0928917 0.188216 0.153798 -0.175924 -0.859419 0.0936495 0.00731348 0.178104 -0.000131872
úšébalákum 0.319389 0.0613915 -0.636642 0.0551476 -0.131801 -0.10702 0.531037 0.249375 0.0175858 0.00373036
barini -3.60879e-06 -0.00534196 -0.440678 0.17888 0.282907 0.358792 -0.480934 -0.332136 0.31642 0.00435926
aḫuum 0.122008 0.0633386 0.670107 0.069825 -0.246054 0.0876702 0.328863 -0.0056766 0.483479 0.00384973
šalimašùrma -0.137945 0.793792 -0.0223296 -0.307486 -0.132187 -0.339053 -0.0207421 0.117791 -0.101036 0.00777878
púzurištar -0.779947 -0.000537278 0.0771604 -0.360581 -0.157769 0.0623354 -0.231331 -0.287741 0.0132641 0.00487363
ṭuppía 0.273986 0.541256 0.0889214 -0.194491 0.368266 0.526352 -0.102083 -0.0541374 0.225973 0.00914924
tám 0.319079 -0.347335 0.206698 -0.0837205 -0.0538445 -0.245649 -0.621828 -0.210443 0.344534 -0.00972814
batíiq 0.18294 0.144243 -0.38702 0.278738 0.594745 0.290252 0.217793 0.237311 0.242177 0.00541831
kàšíim -0.382692 -0.334272 -0.0414978 0.534258 -0.246103 -0.272925 0.20039 -0.143566 -0.384691 -0.000523344
ašùrtákláku -0.48256 0.444423 0.0453809 -0.5648 -0.148962 0.335018 0.0429985 0.031175 0.0897471 0.0114049
ḫabulam -0.304586 0.112228 0.255264 -0.158409 -0.0275156 -0.0216966 0.274971 0.754591 -0.186334 -0.00249731
riiksúum -0.5206 -0.172111 -0.208937 -0.0474124 0.357126 0.186963 -0.35747 0.357626 0.353261 -0.00278172
iš 0.111757 -0.497481 -0.0219867 0.127724 -0.351188 0.402993 -0.465997 -0.315643 0.048793 -0.00769581
kùbabbarpìa 0.276587 -0.0289417 -0.24494 0.278742 0.371708 0.666411 0.0439156 0.289366 0.0317525 -0.000134361
súkàlía -0.781025 0.19871 0.129817 0.18568 -0.322854 -0.00227119 0.253945 0.150431 -0.139246 0.00540911
alábi -0.326036 -0.177782 -0.222339 -0.394548 0.243807 0.453843 0.051148 -0.257759 -0.448568 0.00797898
láni -0.156279 0.0683386 -0.599786 0.122401 -0.450125 0.250165 0.250926 -0.318787 -0.202593 0.0135598
enumašùrma 0.0934356 0.552096 -0.0727764 -0.472998 -0.0918436 -0.385505 0.0776298 0.312229 -0.290376 0.00218948
ašamema 0.503802 0.215923 -0.320422 -0.109567 -0.156341 -0.289225 0.544552 -0.00128371 -0.267338 0.00342543
šabuú -0.502062 0.314914 0.128301 -0.0614851 0.363357 0.0459284 0.0617294 0.240215 0.565728 0.0076821
amurištarma 0.112795 0.607655 -0.417627 -0.19962 -0.260215 -0.448953 0.0189583 0.166603 0.0301453 0.0052636
ṭuppíkà 0.486415 0.641934 -0.178371 0.223977 -0.0602696 0.263017 -0.290197 0.00745555 -0.123825 0.00424097
ašurmutabi -0.195919 0.0890234 0.37911 -0.208527 -0.0272972 -0.190527 -0.330397 0.533294 0.46572 -0.00424725
hubuul -0.24812 0.297135 0.399739 0.0369034 0.621216 -0.0354329 -0.188848 0.377333 0.100739 -0.000133437
ištíšu 0.136067 0.188485 -0.373254 0.111999 -0.177339 0.265167 0.17047 -0.708087 -0.176882 0.0148358
naábsúen -0.746699 0.280635 0.0776725 -0.0253648 -0.397384 0.291507 -0.100458 0.0647287 -0.10552 0.00558456
mìliik 0.506932 0.30996 -0.601795 -0.0381017 0.0848483 0.24614 -0.33993 0.0170288 -0.00646483 0.00171365
annakà 0.124278 0.0837088 -0.689933 0.44567 -0.402174 -0.000123008 -0.0786919 0.153864 -0.0482999 -6.22776e-05
aláhuum -0.00803781 0.341037 0.223285 -0.354237 0.363503 -0.293106 0.534845 0.22467 -0.188546 0.00421474
ašurma -0.0802172 0.278927 -0.553351 -0.220638 -0.15854 0.229997 -0.396258 0.11272 -0.44178 0.00290188
dingirnada -0.833348 0.195113 0.148906 0.047514 -0.0953468 0.168441 0.314778 0.0855131 -0.11421 0.00891201
tíibama 0.274013 0.0898113 -0.313952 -0.0829674 0.000749707 0.593234 -0.375615 -0.441852 -0.0468696 0.00604802
aḫuqar -0.720751 0.191929 -0.127814 0.114086 -0.444783 0.0439737 0.315313 -0.129461 0.0537794 0.0115509
dutu -0.175328 0.182732 -0.249416 -0.173847 0.0162889 0.443764 -0.505812 0.254239 -0.450046 -6.2862e-05
išténiiš 0.175856 0.145761 -0.471315 0.457637 0.567993 -0.0343655 0.177271 0.21436 0.049122 0.00180752
ìlíášrani -0.620113 -0.12221 -0.537469 0.11296 0.0413648 0.106698 0.215321 -0.374901 0.00232128 0.0107206
géme -0.0268125 -0.556065 0.0785156 -0.138576 -0.403247 -0.122366 0.602022 0.0309082 0.0986996 -0.00216212
šénišu 0.6386 0.223664 -0.270072 0.104574 -0.103155 -0.264699 -0.268195 0.0846437 -0.441933 -0.00649108
šusúin -0.685233 0.217436 -0.168927 -0.18146 -0.33831 0.340078 0.197881 0.0367474 -0.230962 0.0098533
ababa -0.182774 0.249632 0.4463 -0.429272 0.377834 -0.161446 0.430611 0.122088 -0.194482 0.00449547
da 0.0624964 -0.644301 0.00489295 -0.15918 -0.282365 0.0941386 -0.565504 -0.0959249 -0.168909 -0.013094
isúrik -0.540285 0.191163 0.243539 0.0892187 0.252899 -0.301398 0.576438 -0.0900456 -0.0102866 0.0105085
ra 0.258184 -0.566913 -0.0107055 -0.09932 -0.306621 0.269027 -0.522925 -0.226503 0.030981 -0.0100196
ṣaḫeer 0.138833 0.174751 0.501076 -0.0460216 -0.0194115 -0.531142 -0.250645 -0.465124 0.130842 -0.000285773
púzurašùr -0.435816 0.0933082 0.256488 -0.626244 -0.213547 -0.158445 -0.0278452 -0.285231 0.281747 0.00702953
niisḫatum 0.0254373 -0.299158 -0.318143 0.41361 0.252343 -0.277923 -0.5539 -0.0360826 0.258414 -0.00939953
láqépìim -0.728669 0.298838 -0.270321 0.10563 -0.189617 0.0265326 0.337438 -0.218703 -0.0523187 0.0149501
šaduatám -0.172158 0.203049 -0.20909 0.68072 0.181888 -0.332046 0.0373691 -0.378362 0.123958 0.00886364
ennanum -0.497114 0.626656 -0.357383 -0.0261479 -0.278044 -0.194898 0.0998391 0.0265727 0.103042 0.0126103
ištarlámasí -0.288813 0.175715 0.136597 -0.498542 0.268134 -0.0226751 0.518739 0.338756 -0.206981 0.0048123
idaan -0.119042 -0.309309 0.661884 0.214289 0.39841 -0.210715 0.0674363 0.303146 -0.0534099 -0.00732187
aṣbaatma 0.0378085 0.658124 0.157727 -0.164154 -0.035576 -0.464437 0.350874 0.17259 0.180607 0.00879675
šalimaḫiim -0.747365 0.179611 -0.447794 0.0776733 -0.268233 0.0867227 -0.0166012 0.0356687 0.178215 0.00864641
taaḫsíistum -0.231799 0.501775 -0.0148743 0.50775 0.102267 0.437872 -0.134153 -0.324214 0.0269246 0.012495
idídiškur -0.383113 0.231186 -0.530063 -0.351634 -0.279814 0.0729307 -0.0995579 -0.362785 0.244665 0.0119414
abaúa 0.240058 0.309472 -0.1814 0.0717061 0.332582 0.508886 -0.24758 0.13808 -0.489282 0.0010142
ḫanu -0.526728 -0.318176 -0.0190178 -0.304872 -0.168328 -0.0182089 0.497321 -0.280644 0.251496 0.00803412
haamšatim -0.375846 0.160166 -0.00656772 0.324867 -0.102754 0.228997 0.382864 0.306929 -0.549945 0.0038611
kùbabbarpíkà -0.0757688 0.266332 -0.548965 0.680821 -0.0174864 0.0229422 0.0542912 0.168695 0.127524 0.00460144
ataaa -0.841498 0.181133 -0.00264552 -0.0587028 -0.186902 -0.169885 -0.035813 0.172249 0.27428 0.00404787
ṭuppìkà 0.263637 0.614724 -0.393157 0.305364 -0.272189 0.19939 -0.247646 0.119201 -0.103777 0.00561152
laqéep -0.725702 0.305876 -0.139066 0.312435 -0.205813 0.0289595 0.0196034 0.179445 -0.304594 0.00618446
úṭátám 0.392106 -0.572419 0.183441 0.186596 0.0849464 -0.00384999 0.413045 0.124234 -0.390095 -0.0086095
ṣéria 0.542941 0.229626 -0.374859 -0.299279 0.171535 0.501521 0.150025 -0.13773 -0.00747663 0.00593239
anitám 0.473739 0.34001 0.0076281 -0.374682 -0.213002 0.129466 -0.107774 -0.575966 0.0549765 0.00834737
zupá -0.760478 0.145589 0.24893 -0.0679266 -0.371897 0.32158 -0.00224219 -0.0424042 -0.0323536 0.00639031
šunutí 0.0341554 0.055595 0.0162251 -0.0410538 0.437157 0.510715 -0.0463582 -0.63932 -0.0309139 0.0115249
kuzalli -0.422125 0.337949 0.335512 0.414811 -0.182581 -0.00454533 -0.246508 -0.032944 -0.467038 0.00194755
igri -0.313118 -0.586847 -0.228079 0.25899 -0.104273 -0.205258 0.37936 -0.348511 0.109021 0.00275295
meerišu -0.732943 -0.388442 0.265603 -0.00494774 0.250249 0.201558 0.0590907 0.203109 -0.0609774 -0.00316329
úṣuršaašur -0.570824 0.562035 -0.213647 -0.105635 -0.370532 0.116281 -0.0379253 -0.236245 -0.0515386 0.0130424
šaamší 0.255663 0.0247409 -0.295796 -0.360511 0.174652 0.243752 -0.0636249 -0.659166 -0.250166 0.00906655
anišaam 0.515701 0.15991 -0.459284 -0.00982038 -0.164109 0.365041 0.290482 -0.303682 -0.231626 0.0082121
šaášqílášu 0.046623 0.120325 0.0518831 0.0815431 0.238765 0.541593 0.454787 0.536614 0.0403578 0.00277463
annakikà 0.0666171 0.036096 -0.705187 0.541221 -0.116013 -0.0977986 0.0315326 0.260075 -0.0506028 -0.00176851
mešu 0.339846 0.0498508 -0.0742538 0.490142 0.099364 0.396424 0.185378 0.182592 -0.531359 -0.00186043
ḫaraan 0.220854 -0.166647 -0.440803 -0.118961 -0.0218364 0.0532103 0.216425 -0.444514 -0.584843 0.00583865
ṣílulu -0.712298 0.275827 -0.00169812 0.0717511 -0.212568 0.0887055 -0.0784247 -0.376908 -0.331473 0.0112919
šuuprama 0.688692 0.0662447 -0.229116 -0.217778 -0.0677093 0.0618308 0.270451 -0.213945 0.439423 0.0042127
udu -0.379405 -0.53662 0.181045 0.444684 -0.271408 -0.34594 0.103994 0.130686 0.112104 -0.00839483
qábi 0.356078 0.394431 0.137822 0.205741 -0.149902 0.0245055 0.184281 0.249787 -0.647403 0.00163511
illatat -0.367131 0.332831 -0.225158 0.482779 0.276824 -0.174611 -0.33175 0.0437799 -0.372 0.00372767
ḫuraṣanim -0.652455 0.341412 -0.43992 0.139047 -0.271086 0.180387 -0.0914749 -0.129861 -0.139457 0.0109091
luqútí 0.3622 0.242958 -0.706813 -0.0619976 0.00421377 0.225625 -0.179844 -0.260223 -0.221729 0.00624655
awili 0.38633 0.0458573 0.646987 0.388333 0.225223 0.0701841 -0.125629 -0.272136 0.168813 -5.12051e-06
tíirtíkà 0.342984 0.49745 -0.596918 -0.0942573 0.212769 0.272252 -0.168878 0.0943833 -0.107094 0.00579661
atí 0.34319 -0.00650862 0.400224 -0.583876 -0.405188 0.262223 -0.0137612 -0.193699 0.0318166 0.000598772
ašaat -0.354763 -0.186278 0.0083851 -0.482948 -0.0788888 -0.610143 0.219997 0.097201 0.237628 -0.000777352
šébilánim 0.233684 -0.170915 -0.250875 -0.142581 0.484201 0.424808 0.382368 0.354914 -0.163833 -0.000359729
lámasí -0.268258 -0.112059 0.201434 -0.400095 -0.182551 -0.268897 0.317135 0.486905 0.387528 -0.00197658
aṣéria 0.311022 0.0990429 -0.430676 -0.58236 0.172217 0.176727 0.377197 -0.229524 0.00463818 0.00915643
ašurlámasí -0.72428 0.189463 -0.364531 -0.363679 -0.0144968 0.133327 0.0972773 -0.174655 -0.171042 0.00999435
kenatim -0.330593 0.263348 0.36195 0.508794 -0.160601 0.122732 -0.407642 -0.19301 -0.273066 0.00176594
šéepištar -0.0233673 -0.0142738 -0.533711 -0.453671 0.317263 -0.39714 0.342234 0.0695162 0.112279 0.00427362
annaki 0.352428 0.0280656 -0.747023 0.117285 -0.0318607 0.183234 0.0460909 -0.0211288 -0.399329 0.00183653
manukiašur -0.367416 0.126692 -0.232586 -0.181505 0.357665 0.0447598 0.524483 0.302514 -0.380451 0.00661192
šuištarma -0.114882 0.443885 -0.25901 -0.533095 -0.150178 -0.367378 -0.0927227 0.351082 -0.188571 0.00113764
tíde 0.686952 0.0867595 0.117591 -0.0586821 -0.246416 0.284778 -0.431903 0.269553 -0.058294 -0.00893807
dninšuburbani -0.598873 0.344593 -0.386954 0.0845119 -0.19305 0.122721 -0.119344 -0.153662 0.421404 0.0110472
naášpèertám 0.0761238 0.520747 0.0305261 -0.658325 -0.0583089 0.0806244 -0.292014 -0.155031 0.238982 0.00754388
qású -0.079172 0.280983 0.164967 0.679353 0.41734 -0.242276 0.233577 -0.0316448 0.150401 0.00576852
šuli -0.854669 0.0861375 -0.147912 0.217208 -0.19555 -0.182237 -0.101486 -0.157021 -0.039689 0.00630698
kùbabbarpí 0.510702 0.177727 -0.0993836 0.40712 -0.233244 0.559615 0.17579 0.110707 0.123506 0.00189624
mušu 0.0207546 0.270594 0.0998409 0.350447 0.0188561 0.359967 0.0459804 0.549304 -0.484016 -0.00118246
ilikamma 0.240456 0.429726 0.369059 -0.211391 -0.0809258 -0.457586 0.473246 0.0670623 -0.133786 0.00609666
aḫikà 0.315016 0.453833 0.0445246 -0.138972 -0.355576 0.18959 -0.0217057 -0.527072 0.344541 0.0110763
meeḫratim 0.145128 0.114679 -0.535144 0.189801 -0.313979 0.0617598 0.506697 0.173017 0.366685 0.00678905
ašùrdutuši -0.769484 0.116042 -0.353704 0.154459 -0.106169 0.0348234 0.136301 -0.340988 0.0426164 0.0139419
aninim -0.675856 0.416891 -0.0361975 0.0952227 -0.23338 -0.171773 0.360812 -0.157612 -0.155891 0.0133774
gapa -0.092896 -0.288117 -0.324208 -0.00850989 -0.260506 0.448059 -0.554711 -0.278874 -0.167259 -0.00349195
matíma 0.735055 0.200977 0.203629 -0.145996 -0.411758 0.0123731 0.249938 0.116536 -0.13061 -0.00284151
bu 0.215981 -0.488625 0.116308 -0.310112 -0.298394 0.203552 -0.560474 0.220058 0.0323029 -0.0144108
ḫabulu -0.278079 0.215089 0.554017 0.194662 0.365319 -0.161562 -0.183751 0.476896 -0.00996852 -0.00312374
nim 0.0579067 -0.614252 -0.1533 -0.248365 -0.271803 0.140358 -0.495421 -0.205297 -0.202869 -0.010464
puruušḫatim 0.182244 0.270771 -0.372022 0.448482 -0.204348 -0.331359 -0.0246033 -0.390165 -0.363557 0.00499423
ublákum -0.378047 0.0906224 -0.550672 -0.308711 0.108041 -0.489598 -0.00209545 0.296894 -0.0477266 0.00102993
zi 0.0485105 -0.632705 -0.0859255 -0.176529 -0.249905 0.186091 -0.560914 0.0320047 -0.181769 -0.0143413
kunuukma 0.0905154 -0.00394204 -0.526904 -0.349376 0.113045 0.443498 0.294897 0.250007 0.337622 0.00565014
idíma 0.125435 0.515141 0.157141 0.105728 0.506581 -0.0880211 0.541713 -0.0759456 0.0746389 0.0120053
ilákàni 0.480678 0.00331591 -0.166366 -0.245603 -0.0657091 0.117193 0.366071 0.0182093 -0.641506 0.00107785
láqépíim -0.756048 0.155515 -0.23191 -0.412187 -0.223257 0.142308 0.126316 -0.01737 -0.0722402 0.0087501
ṣíláašur -0.407673 -0.0412388 -0.320656 -0.241676 0.172603 0.620474 -0.159119 -0.0566292 -0.334696 0.00667974
šímuum 0.385631 -0.0167977 -0.627945 0.218646 0.280776 0.248468 -0.0615854 -0.30313 -0.253052 0.00426428
kiaam 0.57274 -0.245643 0.116258 -0.039448 -0.522337 0.234702 0.263417 0.0168605 -0.305642 -0.00600407
anaaḫìlí -0.631423 0.379204 0.0674225 -0.232472 -0.18091 0.353237 0.0116708 -0.307521 0.212248 0.0151136
itùaar -0.118879 0.0229548 0.761896 -0.00935742 0.1952 -0.137303 0.480167 0.0373803 -0.06314 0.003102
ṣúḫaraam 0.293137 -0.35972 -0.135964 -0.585061 -0.244777 0.256511 0.391129 -0.0925192 0.157463 0.00188718
naášakuum -0.214118 0.0144644 -0.498519 -0.441217 0.159517 -0.266418 -0.0425406 0.332 0.430018 0.00186563
ikupìašur -0.570092 0.324518 -0.0365762 -0.28867 -0.337761 0.410235 -0.1075 0.120435 0.275473 0.00722348
pèrua -0.323157 -0.559709 0.463225 0.0650782 -0.275367 0.247009 0.269487 -0.198896 -0.105763 -0.00208028
šaqálam 0.121016 0.558492 0.266739 0.400082 -0.383328 0.312055 0.226072 0.128044 -0.140076 0.00776611
manim 0.274128 0.170978 0.17932 -0.0295873 -0.64048 0.46938 -0.282629 0.12521 -0.146222 -0.00218233
analí -0.45472 -0.0379054 -0.596392 -0.114189 -0.122156 0.0619975 -0.211007 -0.494049 -0.0697486 0.00917315
niishasú -0.488266 0.236974 -0.32478 -0.029198 0.0880102 0.157681 0.0466053 0.534272 0.407908 0.00333969
ramìnia 0.0959038 0.0330706 -0.271979 0.627881 -0.435371 0.0322203 0.188884 -0.0554428 0.4148 0.00476959
atalákam 0.538788 -0.0412704 -0.381333 -0.164016 -0.414087 -0.197785 -0.107111 0.123403 -0.440854 -0.00608065
šeum -0.0937726 -0.758589 0.280808 0.214067 -0.0555129 0.136428 0.241227 0.319402 0.0504618 -0.0126371
alqéma 0.454741 0.0666408 0.123602 0.489261 -0.0934054 -0.00465674 0.127627 -0.224055 0.586216 0.00230724
ášpurakum 0.627815 0.314842 -0.268237 -0.351829 -0.154526 -0.275889 0.0386453 0.284715 -0.172491 -0.00369149
abukà 0.140048 0.409954 0.496439 0.266257 -0.209419 0.244977 -0.0898049 0.37234 0.361327 0.00121827
erubu 0.638237 -0.175847 -0.165423 0.326095 -0.0115623 -0.458246 -0.0666459 -0.149826 -0.299494 -0.00795263
šudaa -0.582223 0.48483 0.00229615 0.384418 -0.159752 0.119808 -0.304715 -0.140381 -0.1594 0.00922384
ašùrbeelawatim -0.652756 0.427695 -0.0868788 0.250283 -0.131588 0.0188841 0.32527 -0.266352 -0.169989 0.0154002
šamama 0.226075 -0.447087 -0.674177 -0.144492 0.170222 0.272415 0.182046 0.0931875 -0.159111 -0.00260848
epuul -0.131421 0.477563 0.389224 -0.313472 0.113247 -0.361244 -0.0848133 0.479774 -0.10617 -0.00109718
ummeanim -0.156982 0.109922 -0.0902364 -0.357876 0.0714093 0.682451 0.462687 -0.105778 0.0459641 0.0143466
waṣítum -0.425999 -0.372829 -0.345168 0.439532 0.143011 0.171388 -0.0936198 -0.0263225 0.44765 -0.000818812
ḫurama 0.317788 -0.0744922 -0.341088 0.157116 -0.145859 -0.559841 0.191076 -0.417843 -0.297852 0.0018591
liqéma 0.55824 0.239357 -0.433289 0.346411 0.1358 0.32325 0.0183169 0.089333 0.302226 0.00268247
etíiq -0.100809 0.542869 -0.14633 0.0857248 0.247538 0.03316 0.478696 -0.0534346 -0.501007 0.0134073
izazu 0.360752 -0.105061 0.36191 0.109715 0.697495 0.128209 -0.292499 0.105805 0.0837206 -0.00602768
diškur -0.392047 -0.0436725 -0.103358 0.0077369 -0.049385 0.632029 -0.487436 -0.185342 -0.205045 0.00321169
liqé 0.520216 0.30063 -0.25189 0.371249 -0.21402 0.0547935 0.0388198 0.142927 0.509604 0.00164023
ìlíištíkál -0.694831 0.32684 -0.180201 0.227386 0.0510448 0.135 0.26526 0.326952 -0.195072 0.00525737
sàḫeertám -0.126435 -0.718244 -0.471055 0.0370402 -0.0178316 -0.191879 0.151643 -0.259626 -0.128687 -0.00367494
akum -0.160243 0.25808 -0.631889 0.0928876 -0.253752 0.137242 -0.12122 -0.346413 0.405056 0.0120983
kenim -0.0556982 0.0903724 -0.0488426 -0.349832 0.350756 0.568828 0.346717 0.0545373 -0.411647 0.00718687
iṣbutùniatíma -0.268855 0.495065 0.247207 -0.0808152 0.186647 -0.557243 -0.291717 0.227379 -0.149146 -0.000210458
meet 0.304594 0.00460738 0.204744 0.00653333 0.0310881 -0.601948 -0.126362 0.184842 0.577035 -0.0051095
šuqúul 0.30536 0.556623 0.00196878 0.0373195 -0.112136 0.160701 -0.170608 0.643494 -0.0276842 -0.00164653
buzazuma -0.102715 0.700342 0.00263383 -0.312301 -0.232904 -0.415683 -0.143329 -0.0522079 0.211188 0.00846901
inaaḫdingir -0.458762 0.283126 -0.0575072 -0.664681 -0.23363 -0.0853121 0.0925844 0.24813 -0.172555 0.00106909
italáak 0.464902 0.218434 0.36084 0.094558 0.0207112 -0.0345783 0.609739 0.0178854 -0.333538 0.0029402
úšínalam -0.145623 0.113554 0.12899 0.198259 0.528492 -0.61508 0.25058 -0.209421 0.158269 0.00559549
ibi -0.0779829 -0.528184 -0.0503673 -0.201702 -0.554693 0.228759 -0.299527 -0.128502 -0.310373 -0.00642151
awilam 0.379826 0.2089 0.348105 0.168284 -0.262752 0.628103 0.116694 0.162179 0.218893 0.00233474
úkuultí 0.154895 -0.707468 -0.0548255 0.272187 0.142685 -0.422055 0.280607 -0.121043 0.0515028 -0.00769582
liliik 0.437997 -0.053521 0.0891698 -0.523984 -0.163599 0.108689 0.362187 0.465912 -0.156191 -0.00335003
zu -0.0890759 -0.420954 -0.0183757 -0.361967 -0.380228 0.275417 -0.558642 0.0358786 -0.180847 -0.0100606
gameer 0.57134 0.0419945 0.269188 0.332012 0.228787 -0.419928 0.295932 0.0828423 -0.247924 -0.00445363
ṣúḫariim -0.157623 -0.488353 0.0273482 -0.141706 0.0878843 0.0993361 0.445057 -0.479571 0.386295 0.00591808
awatí 0.370547 0.159471 0.339462 -0.00489459 -0.336466 0.467579 -0.258839 -0.441988 -0.111959 0.00359344
ummeanu 0.175138 0.359762 0.309884 -0.145276 0.406072 -0.0505858 -0.648925 0.120001 -0.0476844 -0.00411807
awilu 0.165476 0.191405 0.601195 -0.17439 -0.0253825 0.296307 -0.492091 -0.14594 -0.278712 -0.00180291
pušukiin -0.563441 0.548801 -0.0702902 0.206949 -0.042667 0.207 0.374664 -0.160953 -0.142433 0.0175026
alákàni 0.601368 -0.312817 -0.394582 -0.509761 0.0838725 -0.0165285 -0.0194977 -0.070344 -0.130853 -0.0054007
ašùrlámasí -0.738844 0.114729 0.106961 -0.152315 -0.172891 -0.221523 -0.186131 -0.44016 0.039392 0.00800467
aḫukà 0.707215 0.39497 0.409135 -0.152903 -0.0105602 -0.0146791 -0.223425 0.109403 -0.0321405 -0.00424773
ṣaláme -0.143958 -0.199332 -0.673408 -0.066509 0.384133 -0.430191 -0.039206 -0.178515 -0.076915 0.000385125
aluláa -0.364628 0.531699 -0.193249 -0.086726 0.222696 -0.25602 0.498999 -0.211853 0.130437 0.0177469
meerešu -0.340556 -0.203499 0.807686 -0.00292023 0.0799749 0.0434722 0.274817 0.0396728 0.0550246 -0.000730567
síghia -0.069406 0.00971522 -0.216367 0.141195 0.609672 -0.416349 0.426612 0.280086 0.0271332 0.00211163
šíimšu -0.0931848 -0.259314 -0.275526 0.457868 -0.25631 -0.102967 0.42555 0.0349843 0.507978 0.00229173
qátatum -0.336846 0.00694707 0.638104 0.266043 0.0784719 -0.122867 0.0948608 0.516124 -0.0565112 -0.00443477
láliim -0.629821 0.452082 -0.1178 0.116202 -0.123659 0.147853 0.326184 -0.322258 0.1527 0.0183886
irde 0.0712479 -0.337296 -0.353983 -0.281025 -0.017933 -0.657161 -0.251999 -0.106645 -0.243413 -0.00617621
šuišḫara -0.652457 -0.00456853 0.0415876 -0.428583 -0.480182 -0.051227 0.0949922 -0.219923 -0.0235718 0.00571905
uktaal -0.477044 -0.120057 0.163919 0.216376 0.00247112 0.457483 0.564946 -0.173053 -0.0987821 0.0107567
ṣíbatíšu -0.268228 0.447022 0.292332 0.278539 0.389912 0.246681 0.116901 0.474595 -0.0244536 0.00398525
šanatim 0.313053 0.00537354 0.374579 0.430828 0.0971528 -0.0153517 0.0164755 0.196809 -0.641863 -0.00528688
anšehia -0.147287 -0.383578 -0.641078 0.0620506 0.508841 -0.14314 0.0552674 -0.0827503 -0.142392 -0.000677008
šuašùr -0.66456 0.326263 -0.151779 -0.345271 -0.0238867 0.20823 -0.103265 0.0471064 -0.395498 0.00679928
qátíkà 0.412268 0.121546 -0.566447 0.523915 -0.0681676 -0.117772 -0.165455 -0.226051 0.131686 0.00262731
ilikàni 0.437863 0.173637 0.0244534 -0.134367 0.111936 -0.482092 0.410373 0.447855 -0.179458 -0.00161997
ṣíim 0.2057 -0.275275 0.409749 -0.338081 0.362609 -0.3466 -0.0125437 0.127241 0.469344 -0.00531009
ir -0.269489 -0.370823 -0.0533324 -0.606202 -0.0134005 0.395299 -0.149375 0.34838 -0.071104 -0.00762041
libaam 0.356886 0.24095 -0.325211 0.0604085 -0.469275 0.534081 0.194466 -0.217298 -0.0232414 0.00967515
hamuuštim -0.334248 0.0830398 0.272563 0.319518 0.275762 -0.258953 -0.0439329 0.257498 -0.612119 -0.00270252
beli 0.140728 0.171477 -0.126082 -0.411067 -0.499545 0.556012 -0.204295 0.047689 0.214567 0.00115461
béúláat -0.651836 -0.213771 -0.044353 0.216805 0.603705 -0.0259537 -0.0782995 0.0349165 0.0991829 0.00192043
téertakunu 0.0578855 0.117355 -0.439101 0.126552 -0.0701983 0.662333 0.0330334 -0.352512 -0.284232 0.0110262
ṭuppu 0.042182 0.0177831 0.347537 0.0773596 0.515091 0.172955 -0.660428 -0.0682661 0.11796 -0.00373066
išti -0.20629 -0.706454 -0.0856753 0.0870699 0.0504952 -0.345634 0.332971 -0.321705 0.00118407 -0.00369662
ublunim 0.148568 0.0603496 -0.292767 -0.0625929 0.272014 -0.595496 0.424182 0.392724 -0.0211375 -0.000546757
maškim -0.118438 0.247359 0.288063 -0.383828 0.568539 -0.216034 -0.208383 -0.378554 -0.14017 0.00539695
péruwa -0.258308 -0.406632 0.65892 -0.152864 -0.226447 0.0734952 0.236009 0.0555824 -0.297934 -0.00573764
wašaáb 0.383384 0.212853 0.0515899 -0.158026 -0.233893 -0.203335 0.555287 -0.43837 -0.249507 0.00964011
taadnu 0.222623 -0.199725 -0.506285 0.573931 0.166862 -0.151038 -0.284756 0.227395 0.166457 -0.00869679
únuut -0.239505 -0.715255 -0.237968 0.278935 0.381371 0.0657248 0.0353781 -0.0520786 0.198576 -0.00679848
bealim -0.544307 0.152849 -0.519947 0.0941684 -0.0129534 -0.0547648 0.508879 0.000429769 0.189382 0.0119082
idunu 0.100766 -0.478442 0.660124 0.230553 0.12552 0.0229488 0.289571 0.246542 -0.0818781 -0.00904191
nu 0.238367 -0.506591 -0.0634267 -0.160459 -0.227585 0.118721 -0.679697 -0.096299 0.0259339 -0.0138775
niišqúul 0.120649 -0.536127 -0.245898 0.693154 -0.0196873 -0.00821938 -0.0901151 0.150435 0.124355 -0.0109542
súkàlia -0.769247 0.249669 0.172309 0.358027 -0.145004 -0.0166956 0.0715239 -0.234159 -0.121789 0.010422
mìišlam 0.275534 -0.27504 0.137882 0.408738 0.244255 0.159378 0.274656 0.601322 -0.150998 -0.00895197
belánim -0.63568 -0.0831607 -0.291066 -0.394042 -0.133273 0.130917 -0.202304 -0.356224 0.213791 0.00678307
šeim -0.205506 -0.586774 0.205595 0.38154 -0.150807 0.0906903 0.298858 0.171345 0.407212 -0.0052043
kukulánim -0.734309 0.359844 0.0717983 -0.191833 -0.088796 0.198902 0.0627606 -0.372907 -0.0456336 0.0155656
kària -0.817431 -0.151981 0.279032 0.00459632 0.288686 0.171433 -0.0727773 0.159471 -0.0314109 0.000286412
ṭuppuú 0.055796 0.154137 0.0800636 -0.22178 0.702987 -0.0646935 -0.497123 0.119622 0.19248 -0.00187158
satu -0.605651 0.0810375 -0.172228 0.073425 0.0121685 0.574741 -0.224788 -0.0990531 -0.301953 0.00862755
luqútíkà 0.3019 0.370636 -0.798011 0.0581826 -0.00628665 -0.0729539 0.121523 -0.0757976 0.0712326 0.00816547
dub -0.337381 0.128097 0.175074 -0.0171962 0.794044 0.179245 -0.172971 0.179115 0.0216981 0.00223322
ṣúḫaria 0.180363 0.0404114 -0.344988 -0.203321 -0.239995 0.309251 0.629458 -0.343624 -0.107277 0.0126768
aniútum 0.0815186 0.0466224 0.746252 -0.453279 0.183858 0.0265432 -0.229178 0.00299395 0.183923 -0.00235501
lumuun 0.103349 -0.115853 -0.22586 -0.151572 -0.288497 0.584365 -0.119822 -0.51638 -0.263005 0.0073691
kàraam 0.351461 0.340201 0.292808 0.0283609 -0.0627389 0.0966036 -0.221147 -0.686394 -0.141628 0.00876918
šumabi -0.51463 0.0367865 -0.0179723 -0.57017 -0.326454 -0.124709 0.1615 -0.30639 0.24753 0.00753948
šíbutí -0.468801 0.212842 0.156345 -0.037645 -0.0010304 -0.492183 -0.117941 -0.472564 0.339134 0.00849247
qátatim -0.329109 0.436779 0.72489 0.101291 -0.0555304 0.21235 -0.00204577 -0.0833822 -0.120636 0.00453166
irišíim -0.701141 0.168966 0.371278 -0.0339186 0.111501 0.306499 -0.0722332 0.341405 0.135302 0.00126233
alákia 0.911089 -0.0166114 -0.0774611 0.0351353 -0.0300961 0.0876731 0.220782 -0.138416 -0.0609906 -0.00265734
ṭuppíšu -0.127803 0.56499 -0.0236496 0.368991 0.354106 0.444839 0.00637961 0.162443 0.252506 0.0110021
lití -0.324322 -0.515672 -0.00753098 -0.114734 0.2668 0.149537 0.199288 0.592826 -0.138731 -0.0085429
ru 0.298141 -0.468845 0.0226141 0.0459856 -0.437954 0.0444412 -0.560209 0.11052 0.23566 -0.0142685
ḫarumutim 0.0783215 0.272437 0.230055 -0.0834454 0.697717 0.219602 -0.359827 -0.105662 0.255226 0.00353378
iḫiid 0.378174 0.230733 -0.203855 -0.340709 -0.279157 0.651909 -0.123746 0.118491 -0.0585004 0.00127236
ḫanunu -0.588552 0.0422688 0.183235 -0.620379 0.0377453 0.122461 0.263534 0.0477891 0.208772 0.0067712
ašasú -0.195969 -0.261519 0.70263 0.0140951 -0.0242218 -0.115189 0.512504 -0.111631 0.003567 0.00135925
rabiṣúum 0.090044 0.429503 0.229188 -0.305984 0.494822 -0.458554 0.297048 -0.033109 0.0590551 0.00662566
ikribu -0.171597 -0.0961659 0.299154 -0.0527278 0.260325 -0.0651831 -0.447835 0.340358 0.597569 -0.00562707
ummìani -0.168088 0.710409 0.0431433 -0.181289 0.176548 0.171498 0.0782012 -0.300862 0.402685 0.0180614
qáté -0.472453 -0.00564797 0.404155 0.312739 0.0876133 -0.113442 -0.31001 -0.0610948 -0.532349 -0.00291394
adíma 0.285328 -0.388256 -0.282476 0.516677 0.0212024 -0.367703 0.0466951 0.376572 -0.161482 -0.0134708
itbaal -0.0864737 -0.529506 -0.460459 0.476202 0.142194 0.234155 -0.185797 0.145719 0.183766 -0.00776018
úraa -0.625826 0.182603 0.364575 0.33523 0.0226674 -0.122255 -0.0916197 -0.261951 -0.368416 0.00544849
libaa -0.570736 0.468243 -0.131789 0.420218 0.0608595 -0.0624073 -0.0118478 -0.223476 -0.318981 0.0118164
annakia 0.409182 0.118349 -0.650474 0.319808 0.094259 0.28956 0.128921 0.279288 0.0352713 0.00107402
ašurištíkál -0.59 0.636087 0.128186 0.0741999 -0.0559906 0.295647 0.129067 0.102542 -0.128894 0.012269
maṣíìlí -0.687574 0.483352 0.162182 0.113233 0.0614067 0.319193 0.0222615 -0.1029 -0.219855 0.0117024
inaar -0.320645 -0.591969 0.541514 0.173991 0.0132296 0.0314125 0.0646324 -0.197803 -0.279384 -0.00581795
ištíin 0.337364 -0.401802 -0.276598 0.269293 0.112035 0.37121 -0.317327 -0.311797 -0.342824 -0.00336105
úšaqíil 0.061558 0.256171 0.423569 0.270779 0.162327 -0.523059 -0.0696831 0.449359 0.235246 -0.00392226
ilia -0.59553 0.582859 0.00871714 0.15712 0.0538972 -0.0847466 -0.353363 0.148411 0.168149 0.00655395
abikunu 0.24054 0.453525 0.428527 0.0310812 0.436548 0.295824 -0.388254 0.115774 0.0105661 0.000710605
martubani -0.722739 0.320059 0.286844 0.140589 0.00196579 -0.140201 0.0560059 -0.392489 -0.0575026 0.011616
nada -0.433344 0.144168 0.351955 0.0629014 -0.407233 -0.297979 -0.110497 0.390005 0.364754 -0.000805683
eqlam -0.189307 0.518762 -0.116415 0.18631 -0.049816 0.184508 0.624355 -0.0442962 -0.316425 0.0150537
šéna 0.41144 -0.132779 0.0250553 0.425604 -0.0902438 0.515029 -0.495201 0.012165 -0.00211584 -0.00678038
inasúen -0.618108 0.331768 -0.159433 -0.148847 -0.350796 0.0283764 -0.104266 -0.451571 -0.143922 0.0120413
matim 0.014461 -0.298216 -0.0309495 0.326255 -0.59419 -0.551189 0.174192 -0.00249336 -0.060853 -0.00368981
anitim 0.308975 0.401657 -0.112994 0.468261 0.39537 -0.000436823 0.0836127 -0.411399 -0.257999 0.00860339
damgàrruum -0.259125 0.49417 0.480439 0.2212 0.00189985 0.267673 0.300898 0.208455 -0.308006 0.00698641
ṣalámaam -0.217945 -0.208985 -0.656433 -0.0469267 0.105348 -0.556453 0.174268 -0.0800911 0.0946632 0.00162001
úṣúuršaašùr -0.652668 0.293544 -0.263508 0.0669376 -0.335001 0.341491 0.186652 0.217984 -0.0786062 0.0086456
tadanam 0.42943 0.261814 0.281757 0.101077 -0.334854 -0.144518 0.54168 0.100195 0.328132 0.00401049
kutanam 0.0135944 -0.231736 -0.579559 0.166062 -0.413247 -0.183366 -0.0622668 -0.285731 0.420093 0.00135599
dudu -0.569605 -0.343373 0.02949 0.120117 -0.221016 0.213249 0.574555 0.107045 0.0341785 0.00351065
túgḫitía 0.382347 -0.0274563 -0.706228 0.196838 0.156557 0.40514 0.0830637 -0.00164498 0.127835 0.00287298
rabiṣaam 0.180828 0.378788 0.618493 -0.376405 0.324108 -0.217355 -0.0410007 0.169166 -0.101265 -0.00159156
ašùrmutabi -0.204896 0.110821 0.447601 -0.121719 -0.0864085 -0.226459 -0.357493 0.511525 0.407214 -0.00473192
úṣuršaašùr -0.584626 0.105129 0.0349364 -0.483882 -0.484822 0.118689 0.148538 -0.0620084 0.189455 0.00697018
kàṣari -0.336467 -0.264078 -0.372227 0.343654 0.510939 -0.14244 -0.176407 -0.22921 0.290785 -0.000782987
lamma -0.0294876 -0.061637 -0.493844 0.182999 -0.528018 0.498007 0.161408 -0.150615 -0.148069 0.00838306
iláakma 0.0796776 0.419519 0.355506 0.485968 0.124015 -0.0306719 0.184261 0.0395821 -0.534977 0.00404598
dumumí -0.416522 -0.0183008 0.358497 -0.282558 0.242372 -0.437227 0.403999 0.189003 0.237958 0.00163564
ašaqal 0.182707 0.580232 0.316634 0.43777 -0.391305 0.035232 0.270999 0.0387089 0.0263974 0.00815636
túgkutanam -0.345778 -0.145817 -0.269857 0.228702 -0.0906271 -0.738919 -0.0126048 -0.156823 0.204093 0.000868574
ìlíbani -0.687218 0.362212 0.00608477 0.0879807 -0.383464 0.0677616 0.31167 0.0710756 0.191497 0.0121955
erabi 0.53787 -0.178447 -0.0356638 0.345575 0.0552877 0.0892493 -0.0974627 -0.0050141 -0.653323 -0.00736129
iqábi 0.587632 -0.0302614 0.331163 -0.543058 -0.0979821 -0.0961696 0.331038 0.0609 0.127305 -0.00188689
enasúen -0.850282 0.346835 0.0695298 -0.0942276 0.067493 -0.239688 -0.0297127 -0.0382468 -0.059433 0.00585598
tù 0.2452 -0.578825 -0.184366 -0.250356 -0.443594 0.18931 -0.23956 -0.191971 -0.268638 -0.00926489
eliani -0.191326 0.247339 0.266219 0.287367 0.725676 -0.0496705 -0.246521 -0.115072 0.172607 0.0043078
ḫa 0.129212 -0.59908 -0.0108568 -0.273813 -0.321537 0.29432 -0.489052 -0.0345564 0.0762102 -0.0123114
nimarištar -0.840808 0.0317547 -0.0425996 -0.282603 0.0108995 0.0458894 0.209686 0.0395207 -0.273803 0.00657283
šalátùar 0.536706 -0.154174 -0.245335 0.147953 0.0727911 -0.630478 0.141295 -0.205724 -0.185643 -0.00444821
téinatim -0.459112 0.08332 0.354919 0.294723 -0.121951 -0.0400799 -0.266974 0.0832551 -0.599983 -0.00389344
ašurreṣí -0.608526 0.234214 -0.0408964 -0.350943 -0.143848 0.120368 0.117088 0.539996 -0.0715622 0.00148325
niatí 0.64299 0.272237 0.311926 -0.175869 0.153199 -0.118261 -0.489208 -0.0468092 0.0786678 -0.00511196
aršatim -0.101196 -0.655915 0.19617 0.309502 -0.337 -0.0207551 0.39453 0.199813 0.0818154 -0.00859608
naášúnikum 0.142291 -0.0127167 -0.352032 -0.396111 0.256766 -0.372747 -0.0117036 0.298998 0.532432 -0.000585813
adíinma -0.276236 -0.0525486 -0.256055 -0.35418 0.143172 -0.596087 0.395789 -0.237996 0.146598 0.00735153
úṣuršaištar -0.669811 0.56322 -0.268202 -0.137702 0.0115148 -0.147213 0.18285 0.0484376 -1.61803e-05 0.0124812
ašurdan -0.858991 0.230422 0.0415096 -0.0209872 -0.10384 -0.158551 -0.00213364 -0.117251 0.269336 0.00923959
emari 0.227568 -0.451886 -0.557356 -0.0940572 0.201751 -0.139744 0.453882 -0.18049 -0.130452 0.0016967
zukua -0.44943 0.309283 -0.349861 -0.301806 -0.0716322 0.402734 -0.022279 0.293997 -0.355704 0.0051519
dingirma -0.134134 0.467201 -0.352465 -0.148319 -0.333329 0.325486 0.0362909 -0.496236 -0.168396 0.0173505
šíbe 0.244361 0.560341 0.148637 -0.03435 0.604444 0.314667 0.0551069 -0.0415709 0.151589 0.0107543
tadínani 0.512482 0.0570602 -0.353541 0.100813 -0.299728 -0.138884 -0.319187 -0.0471273 0.524728 -0.00207569
zakutum 0.450425 0.102636 -0.459003 -0.183212 -0.117423 0.356404 0.306725 -0.190997 -0.400362 0.00597316
manaem -0.216377 -0.190788 0.166164 0.689937 -0.160182 0.36834 -0.274865 0.0753404 -0.229565 -0.00706773
ḫabulákuni 0.219101 0.451054 0.0606166 0.152012 0.103774 0.00723466 -0.121144 0.562175 0.508546 -0.000820555
tappáini -0.579259 0.0497883 0.26789 -0.342076 0.0257643 -0.347464 -0.430364 0.091508 -0.229039 -0.00456801
tamaláki 0.0708124 0.208218 -0.127015 -0.487434 0.474743 -0.161002 -0.446346 -0.133367 0.328833 0.00259378
waášbu 0.59564 0.0209635 0.346889 -0.334172 0.357062 -0.338314 0.112709 -0.237796 -0.0055216 -0.00221991
niišqúl -0.100288 -0.000967393 -0.155237 0.810311 -0.144658 -0.0552583 0.1053 0.238324 0.315579 -0.000196036
iziizma 0.399252 -0.00769615 0.306649 -0.589898 0.395579 0.242686 -0.261433 0.0298644 -0.0831614 -0.00286469
kùbabbarpía 0.316464 0.0622417 -0.301398 0.497152 0.239936 0.481668 0.0916074 0.369362 0.0961651 -0.000515266
elá -0.0946831 0.092544 -0.436755 0.293011 -0.231095 -0.0730726 -0.0462293 -0.168414 0.701436 0.00612675
ḫubuur -0.43154 0.27051 0.347416 0.402288 -0.08124 0.0386621 -0.366621 0.00494027 -0.45236 -0.000881845
reeš 0.515279 -0.459634 -0.0466674 0.152072 0.206233 0.166574 -0.315975 -0.372216 0.286923 -0.0064958
naášpéertám 0.236084 0.509802 0.175224 -0.442284 0.346213 0.00165267 -0.461274 -0.10303 0.0590553 0.00377837
mì 0.357516 -0.286766 0.142816 0.226221 -0.153007 0.108559 -0.709956 0.214782 0.110388 -0.0158472
ḫaranam 0.781958 0.0974849 -0.200838 -0.283549 -0.284921 0.0275671 0.0663931 -0.277569 -0.065732 0.000908756
ìlíalúm -0.587231 0.0143057 -0.342748 0.444104 -0.418872 0.145901 0.0134588 -0.017883 -0.208133 0.00367256
baaam 0.468807 0.399503 0.366415 -0.158259 0.14211 -0.262296 -0.454698 0.245605 0.00227364 -0.00631252
ḫananariim -0.226058 0.393492 0.0562807 -0.0602178 -0.6859 0.0749269 0.148545 -0.405706 0.109444 0.0115511
buṣía -0.742494 0.33806 -0.0286226 0.228191 -0.266896 -0.0632401 -0.329177 -0.0587449 -0.0618633 0.00526505
makál 0.297928 -0.40325 -0.22184 -0.365226 -0.167534 0.308878 -0.100661 -0.344522 -0.447619 -0.00182102
ḫunia -0.697267 0.360725 -0.257568 0.116903 -0.236015 0.158333 0.323096 -0.0860523 -0.136538 0.0136061
ipáriid 0.335798 -0.0562631 -0.0980788 -0.138184 -0.354661 -0.0719373 0.247751 -0.405779 0.610079 0.00708725
šalimašurma -0.118577 0.707326 0.0374747 -0.0941596 -0.0976723 -0.336296 -0.0194485 0.471155 -0.147367 0.0025298
nuaim -0.00705566 -0.0830808 0.430672 0.423651 0.120944 -0.034326 0.518435 -0.0729079 0.463686 0.00485114
gapim -0.252291 -0.589674 -0.0360064 -0.0167182 -0.260528 0.15603 -0.579266 0.0909603 -0.202698 -0.012709
izizama 0.249133 -0.124345 0.0718596 -0.484675 0.627722 -0.0443401 -0.160011 -0.0910519 -0.370506 -0.00228556
šaqíil 0.0767751 -0.351644 -0.00855039 -0.192539 -0.249646 -0.179669 0.218066 -0.602864 -0.44862 0.00298764
at 0.278145 -0.42925 -0.0998068 -0.403723 -0.0626104 -0.0655815 -0.530346 0.0035964 -0.402317 -0.0128828
gánlam -0.248247 0.518618 -0.196838 0.18142 0.2454 0.191135 0.330256 -0.317204 -0.411967 0.0173704
dadanim -0.786133 -0.058608 -0.272501 0.234012 -0.117275 0.0340378 0.310422 -0.0670269 -0.202707 0.00846823
kàṣaar -0.640293 0.220608 -0.154292 -0.178278 0.256832 -0.513399 -0.219923 0.0252551 -0.0834386 0.00387336
isúriik -0.304554 0.74344 0.236995 0.0143506 -0.173628 -0.0891313 0.386311 -0.00769133 -0.0585269 0.015691
ṣíibtum 0.318222 0.169764 0.187821 0.491765 -0.160922 0.441067 -0.136686 0.489795 -0.0020869 -0.00388928
šuum -0.149103 0.191189 -0.238752 0.18746 -0.42737 -0.000123491 0.0531169 0.0791476 0.72731 0.0068181
gaptim 0.119531 -0.493546 -0.164614 -0.0769739 -0.0702898 0.300447 -0.643559 -0.0148958 -0.288106 -0.0117408
šalátùwaar 0.336904 0.227686 -0.467989 0.186685 0.00433091 -0.374302 0.266843 -0.377558 -0.33645 0.00657236
rubaum 0.35891 -0.318858 0.298338 0.221226 -0.187815 -0.434719 0.0291323 -0.376664 -0.390443 -0.00551497
idíkubi -0.281114 -0.126683 -0.374104 -0.292453 0.0339008 0.304321 -0.0856945 -0.309053 -0.598786 0.00672437
ašùrištíkál -0.470495 0.690027 -0.260739 0.210998 -0.0187122 -0.25289 0.113546 -0.0982376 -0.0707238 0.0146291
iḫda 0.21866 0.000713762 0.251119 -0.375951 0.24548 0.595607 -0.136792 -0.0985069 -0.430023 8.32952e-05
úšébalam 0.211893 0.0650627 -0.213455 0.495692 -0.0237316 -0.0150424 0.635246 0.00704683 -0.360887 0.00652189
kànéeš 0.0937106 -0.0606944 0.325951 0.629578 -0.295544 -0.362631 -0.249939 -0.013193 -0.297415 -0.00714232
šamanim 0.216316 -0.332555 -0.493188 0.164185 0.415759 0.363468 0.0545749 0.281009 -0.272426 -0.00490693
luqútía 0.400276 0.0668699 -0.621876 0.139728 0.384858 -0.0947409 0.0793023 -0.31547 -0.241692 0.00478444
pániema 0.254219 -0.159027 -0.615903 -0.240324 0.0205478 0.540584 0.234906 -0.00612217 -0.126443 0.00227183
ikunum -0.636002 0.372847 0.12981 0.468336 -0.180601 -0.188253 -0.0529622 0.0102581 -0.226362 0.00673029
šumìkà 0.137673 0.253098 0.0463918 0.735978 -0.415125 0.250446 0.0956503 -0.073708 0.0903174 0.00570756
ṣúḫaruum 0.0364927 -0.539124 -0.309848 -0.588176 -0.0391462 0.13802 0.346008 -0.0414539 -0.116507 -0.00374219
alee 0.459943 -0.0696477 0.176952 0.0296906 -0.569108 0.133007 0.181322 0.451326 0.250261 -0.0057217
luublunim 0.191657 -0.117952 -0.397778 -0.449158 0.310614 0.253837 0.545462 0.00488204 -0.112094 0.00612268
aḫuur -0.00460243 -0.100621 -0.0973082 0.514392 0.226392 0.0677611 -0.0403649 0.617003 0.385874 -0.0080379
gapni 0.0684916 -0.419715 0.143464 -0.0857026 -0.10901 0.270498 -0.738784 -0.203794 0.0233515 -0.00887187
alábiim -0.628742 0.116185 0.333026 -0.342403 -0.0169824 0.190315 0.415919 -0.221231 0.0643462 0.0116388
šanim 0.558191 -0.326082 0.445003 0.0881956 -0.412556 0.0285781 0.16055 -0.0961013 0.262539 -0.00717319
šumìabi -0.561135 -0.066845 0.0657922 -0.322946 -0.553179 -0.32244 -0.15199 0.137801 0.121119 -0.00410467
aliki 0.292554 -0.0810768 -0.575252 -0.2609 0.120243 0.151687 0.491526 -0.227373 -0.252797 0.00687304
ihdama 0.209107 -0.0447283 -0.206683 -0.343734 0.442746 0.527585 -0.0144074 0.0673276 -0.441109 -2.5732e-05
ublákunutí -0.20109 0.137772 -0.498254 -0.0957536 0.481636 -0.0586705 -0.0612503 0.497818 -0.280264 -0.000407891
úláma 0.190423 0.0283074 -0.0486718 0.362334 -0.201416 -0.628038 0.26893 -0.215495 -0.391888 0.000204535
be 0.00204903 -0.554806 0.0810501 -0.215295 -0.431959 0.251968 -0.522671 0.0293728 0.00665002 -0.01278
hinaa -0.512466 0.526677 -0.171688 0.42236 0.0320804 -0.0553725 0.356191 -0.0471669 0.120132 0.0156281
ápqíidma -0.486438 0.248532 -0.150259 -0.161962 0.5323 -0.392097 0.0681897 -0.316596 0.0340581 0.0108617
tùkàal 0.357541 0.336423 0.509486 -0.217026 0.129677 0.0601993 -0.260815 0.352615 0.361833 -0.00216577
anakamma 0.306532 0.325463 -0.57464 -0.0497789 -0.400612 -0.040271 -0.130808 0.13294 0.401108 0.00294198
ištéet 0.540199 -0.173045 -0.128556 -0.303511 0.118417 -0.228751 0.140626 -0.469444 0.389657 0.00292104
dumusal -0.2306 -0.067375 0.46286 -0.477636 -0.0698611 -0.383235 0.133319 0.391247 0.25322 -0.00307484
idínuma -0.368235 0.035232 0.502698 -0.0244129 0.311181 -0.397603 0.252064 -0.0117948 0.420901 0.00468172
láqépuum -0.534042 0.117698 -0.314258 0.114592 -0.361083 0.0309991 0.333734 -0.459731 -0.147281 0.0144503
qáduum -0.0304991 -0.0250757 -0.294923 0.119142 0.482145 -0.586417 -0.338525 0.23969 -0.168532 -0.00749424
tašameani 0.316426 0.0761148 -0.0770403 -0.700578 0.439563 0.0353954 -0.152173 -0.2296 -0.117192 0.00262253
ašùrdan -0.811288 0.209399 -0.0531856 -0.22892 0.134768 -0.205562 0.204381 -0.155725 -0.17166 0.00985415
tašaqal 0.109836 0.219724 0.560429 0.32121 -0.492103 0.0212981 0.256399 0.299404 -0.107732 -9.83077e-05
aḫušu -0.296495 0.238617 0.596844 0.0142505 0.20827 -0.381234 0.315696 -0.0516948 -0.310678 0.00456747
enaašur -0.612572 -0.199986 0.140132 -0.322419 -0.428461 -0.0766389 -0.0496957 -0.0997604 0.395034 0.00272322
túgḫití 0.500848 0.0150085 -0.618427 0.00851493 -0.102378 -0.418568 -0.0372884 0.0782264 0.265921 -0.00318044
niiṣbaatma 0.0943326 0.711263 0.0546818 -0.148569 0.223136 -0.497457 -0.0627449 0.222179 0.0588144 0.0046343
tadínam 0.329096 -0.144655 0.10711 0.333836 -0.297201 -0.283254 0.0625045 0.477432 0.481304 -0.00758001
iluku 0.553178 -0.218647 0.0371558 -0.0497975 0.594445 -0.0652064 0.0786253 -0.283629 -0.30177 -0.00334216
baábtim 0.202687 -0.297354 0.233425 0.142534 0.714412 -0.239578 -0.0503893 0.27309 0.1975 -0.00799797
qéúni 0.142683 -0.0511278 0.394433 0.172704 0.431369 -0.241889 -0.434658 0.451181 0.21048 -0.00859407
iṣbaatma -0.155297 0.453808 0.31704 0.122769 -0.163093 -0.481542 -0.208556 -0.344452 -0.342912 0.00486028
waahšušana 0.142315 0.0822244 -0.233865 0.252988 0.0653163 -0.311385 0.619078 -0.218768 -0.43995 0.00767493
iláqéú 0.168761 -0.199617 0.409568 0.534654 0.508099 -0.168575 0.207264 -0.172372 0.0808313 9.17426e-05
kia 0.0606828 -0.287136 -0.448343 -0.0152555 -0.41846 -0.44834 0.27378 -0.269428 -0.269014 0.00084459
luqúutkà 0.297092 0.34322 -0.58359 0.0198825 -0.128708 -0.0665665 0.0738113 -0.544642 0.123084 0.0129576
waášḫania -0.01484 -0.116759 -0.17103 0.321169 -0.34559 -0.526279 0.319421 -0.313092 -0.365219 0.00219416
libia 0.372685 0.372551 -0.340203 0.551027 -0.0393513 -0.216485 -0.0100298 -0.0684202 0.378162 0.00349759
étí -0.0302694 0.162703 0.504834 -0.257599 0.0802236 0.0480565 0.565741 0.0125452 0.445861 0.00865525
mamaḫiir -0.263838 0.389343 -0.10081 -0.285119 0.0398459 -0.301228 0.556297 0.257349 -0.321066 0.00645808
ahua 0.250828 -0.0392623 -0.382829 -0.34562 0.356741 0.275069 -0.0171868 0.177641 -0.560937 -0.00330641
alánatim -0.381336 0.158758 0.408192 0.223982 -0.213266 0.269975 -0.475688 0.178576 -0.348376 -0.00431027
iaum -0.0951586 0.0152164 -0.286019 0.146013 0.535263 -0.137774 -0.407284 0.0504922 0.537354 -0.00195927
ṭuppìni 0.210226 0.284568 -0.021644 -0.253389 -0.115652 0.582531 -0.506506 -0.210318 0.186891 0.00553068
ašurṣúluli -0.677022 0.295397 -0.455241 0.0785095 -0.250254 0.182253 -0.0723221 -0.218342 0.0215341 0.0117407
síkàtim 0.472753 -0.482219 0.187789 0.120385 -0.18827 -0.424416 0.0210287 -0.321025 -0.270338 -0.00821658
datum 0.0459094 -0.144003 -0.252554 0.77231 -0.0532463 -0.232778 -0.256359 -0.0963445 -0.262057 -0.00488929
agia -0.681968 0.341141 0.192585 -0.394416 0.206893 0.0104489 0.279933 -0.0997331 -0.0699664 0.010957
agua -0.915572 0.0788546 -0.180324 -0.0177202 0.0408658 0.15911 -0.122603 -0.0167086 0.06381 0.00563771
ṣúbatía 0.28142 -0.159918 -0.62399 -0.106831 0.223001 0.182817 0.135313 0.367907 -0.380539 -0.0042525
alkam 0.608126 0.484968 0.365052 -0.0193182 0.0600368 -0.157055 -0.226925 0.292694 0.00468255 -0.00504676
túgḫitíkà 0.304358 0.168431 -0.748208 0.289458 -0.0385891 -0.182797 0.0380874 -0.172751 0.251774 0.00551763
waášbaku 0.567972 0.13967 -0.0562956 0.0316562 -0.19775 -0.419893 -0.0227569 -0.527279 -0.224001 0.00170428
etíqú 0.0296906 0.291027 -0.00234314 0.470894 0.212697 0.520944 0.0504882 0.471348 -0.173945 0.00222633
zuba -0.639701 0.122743 -0.139925 0.040664 0.181963 0.264091 0.351082 -0.251512 -0.394857 0.0134235
ḫabuul 0.159709 0.118791 0.360477 0.0676158 0.222303 -0.490081 0.0989231 0.627427 0.111284 -0.00743266
kunutí 0.391982 0.258527 -0.20671 -0.180539 0.177727 0.643921 -0.342076 -0.176303 -0.00657305 0.00207139
ištarpìláaḫ -0.644816 0.226865 -0.254445 0.228956 0.187284 0.280052 0.168024 -0.374163 0.176013 0.0160495
šuukna 0.314873 0.0520743 0.16128 -0.369151 0.51465 0.124695 0.109685 0.560654 0.108459 -0.00407044
taláqé 0.444085 -0.0614154 0.308767 0.438357 0.150215 -0.352766 0.164086 0.283491 0.383501 -0.00596446
maa 0.27398 0.348586 0.403986 0.0717261 -0.499266 0.373893 0.337108 -0.116943 -0.078099 0.00778783
madam 0.416412 0.256313 0.572146 0.304814 -0.227405 0.103969 0.0494201 0.378151 0.165523 -0.00393512
ipqídu -0.215641 0.2288 0.0606977 -0.552351 0.304361 -0.261494 -0.403508 -0.184518 -0.339801 0.00170963
šaáptám 0.44306 -0.281845 -0.476727 -0.134918 0.121951 -0.334406 0.369017 0.143171 -0.297498 -0.00464708
