1893 10
of -0.740217 -0.349957 0.207984 0.137006 0.0936095 0.23042 -0.214228 0.207477 -0.152265 0.0110527
the 0.261042 -0.0989811 -0.0803845 0.625357 0.224491 0.452796 -0.301621 -0.23175 -0.0942432 0.00476534
thisisanumber -0.465232 -0.686316 -0.0485897 0.258681 -0.224212 0.132588 -0.153673 0.222392 0.01056 0.0192926
and 0.196983 0.107036 -0.618278 -0.0824238 0.503695 0.301593 -0.22691 0.0776071 -0.186632 -0.0244975
to 0.067979 0.178537 -0.899291 0.0333167 0.147069 -0.0303576 -0.160117 0.0223218 0.0333325 -0.00345292
silver -0.192494 -0.415435 -0.115264 0.630315 -0.288207 0.069197 0.220113 0.35128 0.0604434 0.0171488
you 0.560373 0.0850726 -0.569367 0.160707 -0.232721 0.0775809 0.235471 -0.0483185 0.329367 0.00775262
for 0.206809 -0.821372 0.341348 -0.0917361 -0.0329283 -0.181361 -0.148944 0.0642861 0.0195871 0.0101286
son -0.886322 0.208693 0.174502 -0.121918 0.116745 0.0701805 -0.0399419 0.0520314 -0.151732 0.00339898
in 0.185903 -0.0390154 0.00727268 0.587157 0.2916 0.168392 -0.557357 -0.249775 0.102135 0.0122245
shekels -0.54136 -0.652453 -0.0115245 0.32166 -0.198833 -0.0118406 0.0910737 0.165915 0.0489811 0.0193632
minas -0.437038 -0.567331 -0.0700472 0.347138 -0.134064 0.319085 -0.343544 0.122913 0.00166586 0.0198444
my 0.473324 -0.0502409 -0.423555 0.00759473 0.207486 0.608129 0.12063 0.212411 0.122262 -0.00281095
gap -0.146419 -0.616432 -0.47656 0.146113 -0.16593 0.371308 -0.162547 9.49467e-05 -0.236756 -0.00290847
from -0.106805 -0.0639509 -0.416841 0.163393 0.204679 0.299804 -0.583535 0.400915 -0.163751 0.00858652
me 0.572162 0.0316236 -0.57517 0.185975 -0.337119 0.135416 0.24703 -0.0370781 0.106239 0.00973432
he 0.230566 0.25141 -0.197898 0.689429 -0.396933 -0.238717 0.0989505 0.141866 0.0854753 0.019326
by -0.543972 0.106262 0.0393734 -0.307045 -0.378759 0.438886 -0.04565 -0.0207481 -0.39071 0.00384811
with 0.385288 -0.0213665 -0.267108 0.0936048 0.697034 0.402948 -0.0269106 0.0752121 -0.0782577 -0.0043336
that 0.300623 0.046667 -0.396173 0.30097 -0.302311 0.48375 -0.0912261 -0.0753242 0.451774 0.00639019
your 0.541235 -0.0798164 -0.32828 0.15078 0.148798 0.604107 -0.258742 0.0597433 0.0829076 0.00678145
not 0.697181 0.26721 -0.135728 0.34172 -0.22126 -0.201092 0.128763 0.310639 0.0887797 0.00996666
it 0.545657 -0.0221243 -0.501514 0.523515 -0.0462808 -0.033039 0.235807 -0.118143 0.04085 0.0105094
mina -0.486036 -0.514039 -0.076756 0.421039 -0.355304 0.0184057 0.110055 0.247493 -0.0941239 0.0203102
as 0.36432 -0.290176 -0.0680876 -0.234654 -0.43645 0.476812 -0.143488 -0.411486 -0.00127863 0.0101867
have 0.60207 0.217389 -0.204814 0.0386122 -0.234882 0.100648 -0.548903 -0.12738 0.234441 0.0142118
is 0.167005 -0.124975 0.265843 -0.337288 -0.236433 0.257279 -0.289249 0.259404 -0.609987 0.0118395
will 0.220642 0.0305249 -0.0946696 0.238596 0.0438794 0.0115314 -0.303212 -0.000495333 -0.808692 0.0176935
his 0.0453224 0.144644 0.06794 0.555058 -0.0618595 0.669051 -0.273419 0.136355 -0.00925401 0.00662659
seal -0.406036 -0.152365 -0.125014 -0.0451906 0.728499 0.147809 0.111972 0.32768 -0.104621 -0.000785959
textiles 0.00399234 -0.678925 -0.439838 0.0291002 0.122598 0.13984 -0.282077 -0.168854 0.302197 0.0163278
we 0.31122 0.0378935 -0.252945 0.376157 -0.0122539 -0.0759104 0.00677712 -0.539151 0.522618 0.013569
tablet 0.0693861 0.320484 -0.118708 0.513909 0.127817 0.568323 0.318212 -0.111762 0.211343 0.00215828
ennamaššur -0.410681 0.329948 -0.588254 0.123298 0.006437 0.130844 -0.00881475 0.291597 0.390203 0.00456817
copper -0.14796 -0.501124 -0.124614 0.267805 -0.13276 0.554522 -0.41407 -0.129177 -0.0761596 0.0192367
him 0.348252 -0.0380925 -0.455549 0.460156 -0.289056 -0.134401 0.413871 -0.189194 -0.178886 0.0164029
pay 0.11849 0.131017 0.0291753 0.418556 -0.00745191 -0.278724 0.163459 0.723777 -0.179977 0.0156066
they 0.561365 0.0784733 -0.308359 0.591203 -0.203976 0.0347625 0.0810867 -0.210607 0.189566 0.0131318
tin -0.0722647 -0.698899 -0.302525 0.44701 0.133402 0.172435 -0.0515617 -0.106128 0.212055 0.0181006
has 0.175944 0.226469 0.0390118 0.270433 -0.335052 0.0858659 -0.76644 0.000926116 0.0440762 0.0243472
gave -0.249282 -0.373703 0.209113 -0.416813 0.523629 -0.31782 -0.274592 -0.0282953 -0.115286 0.0160173
if 0.536261 0.317862 -0.0379389 0.210238 -0.161811 -0.216875 -0.223506 0.547753 -0.177234 0.0112063
send 0.482488 -0.243536 -0.349813 -0.0894427 0.31296 -0.131872 0.142863 0.570248 -0.068939 0.00837244
aliahum -0.317072 0.364648 -0.748551 0.00312061 -0.0701195 0.173522 0.00204757 0.173306 0.198215 0.00110428
city 0.269825 0.544136 -0.186269 0.540403 0.196062 0.17545 -0.0487295 -0.351304 0.033457 0.00732012
paid -0.00533498 -0.175575 0.200361 0.428607 0.0966505 -0.250224 -0.42846 0.548346 0.240101 0.0208681
our 0.226339 0.0227628 -0.00691944 -0.281077 0.176039 0.742734 -0.251967 -0.326028 0.0200997 0.0017542
on 0.3124 0.043973 0.359955 0.207654 0.190213 0.262977 -0.63691 0.181198 -0.245618 0.0151012
shekel -0.293089 -0.541813 0.0809452 0.322498 -0.347532 -0.359844 0.344905 0.131266 -0.0898715 0.020504
give 0.220007 -0.124771 -0.0876627 0.0250702 0.475889 -0.372298 0.148501 0.642402 -0.0346497 0.0117513
let 0.39967 -0.0892076 -0.216201 -0.215926 0.358131 0.144753 -0.139711 -0.104398 -0.663819 0.00774686
then 0.629507 0.162121 -0.35613 0.387258 0.183428 0.0561581 0.156292 0.0326134 -0.371507 0.00524586
shall 0.514327 0.0140757 -0.337326 0.157576 0.0268824 0.202847 -0.231223 -0.130891 -0.606458 0.0133975
said 0.211323 0.648724 -0.286296 -0.187461 0.198811 -0.212269 -0.459881 -0.0524052 -0.10926 0.00816312
do 0.76124 0.177464 -0.167462 -0.116655 -0.140572 0.116272 -0.0474753 0.155558 -0.439025 0.00570903
are 0.343298 -0.108868 0.088034 -0.594468 -0.0596449 0.408953 -0.0979007 -0.0681177 -0.460724 0.00613982
here 0.671219 0.320184 -0.505631 0.028505 -0.04762 -0.0132893 -0.0926521 -0.294436 -0.0128038 0.00461997
them 0.471922 -0.179039 -0.521343 0.25529 -0.0618636 0.0079296 0.347795 -0.415139 0.0258478 0.0120801
us 0.253164 0.431946 -0.270038 0.307824 -0.022465 -0.0129453 0.152252 -0.629639 0.207194 0.00871033
there 0.707961 -0.0497348 -0.339411 -0.0830789 -0.103596 0.120853 0.285231 0.251996 -0.326252 0.00225113
was 0.058582 -0.140648 0.334356 -0.17402 -0.0292517 0.177123 -0.739427 -0.347728 0.0258535 0.0205884
so 0.733714 -0.0713301 -0.262466 0.344177 0.195028 0.0492104 0.266627 0.173885 -0.180218 0.0066067
šalimaššur -0.177293 0.668199 -0.316844 0.235407 -0.0752769 0.278488 -0.226017 -0.119798 0.33378 0.00525084
this 0.0991764 -0.238133 -0.366531 -0.244876 -0.391097 0.155518 -0.0332186 -0.613871 0.238057 0.0162258
owed -0.395552 -0.105003 0.229142 -0.179884 -0.291176 0.306072 -0.0652463 0.658274 -0.105072 0.0113959
refined -0.630576 -0.263849 -0.0475368 0.335223 -0.266017 0.252082 0.0209539 0.422516 0.00211515 0.0141974
must 0.347689 0.0226328 -0.153704 -0.082932 0.115026 0.223488 -0.352808 -0.0416636 -0.72827 0.0145261
at 0.388371 -0.433002 0.195488 0.445705 -0.0266798 0.184899 -0.359373 0.247972 -0.28915 0.019533
under -0.152117 -0.465426 -0.332096 -0.0156616 0.579403 0.188589 0.296787 0.206876 0.186989 0.00675971
when 0.305827 0.0377745 -0.345286 0.153111 -0.00923087 -0.34693 -0.608858 -0.373812 -0.0492059 0.0225782
interest 0.0453863 -0.0110157 -0.0187578 0.790849 -0.234441 -0.074456 0.359233 0.240166 -0.0172622 0.0189715
take 0.401725 -0.01362 0.0925895 0.233098 0.423091 -0.142845 0.212236 0.620734 0.15867 0.00916175
all -0.2376 -0.466642 0.336376 -0.320237 0.238611 -0.151424 0.0629024 0.302248 0.467479 0.0120146
or 0.614661 -0.192395 -0.289098 0.314663 -0.208082 0.023458 -0.339572 0.367709 0.0246375 0.0192685
come 0.628484 0.490659 -0.0840731 0.201979 0.215305 -0.205028 0.266516 0.233614 0.0852214 0.00259819
brother 0.154282 0.299124 -0.145562 -0.0960354 0.0143732 0.0961472 0.726763 0.346508 0.277013 0.000457894
brought -0.0994315 -0.194624 -0.0654728 -0.29284 0.613565 -0.206572 -0.477456 0.275771 0.111119 0.016827
father 0.254746 0.307808 0.142593 -0.10017 0.12227 0.355678 0.468484 0.0701592 0.570736 -0.00253457
talents -0.257172 -0.391994 -0.201892 0.000338804 -0.0372445 0.455564 -0.599766 -0.115068 -0.181466 0.0194085
house 0.332141 0.130061 0.527162 0.093817 0.443682 0.408417 -0.174624 0.0323329 0.284927 -0.00220665
colony 0.124401 0.22674 0.0813048 0.554604 0.351479 0.0341027 -0.0535446 -0.603037 -0.0646373 0.00958683
concerning -0.0506489 0.129221 0.0069445 -0.0737422 0.2182 0.708412 -0.532379 0.13942 0.0145151 0.0061853
dear 0.418829 -0.030668 -0.363537 -0.195444 0.179887 0.542774 -0.10735 0.390368 -0.226348 0.00253367
also 0.553948 -0.240398 -0.494249 0.203261 -0.178286 0.42264 -0.000216534 0.185538 0.0631838 0.0089563
witnessed -0.456518 0.390854 0.330171 -0.435407 -0.120829 0.264608 -0.00736517 0.191534 -0.345707 0.0020424
been 0.255778 0.0234533 0.0995442 0.298149 -0.184957 -0.00865658 -0.36706 0.193741 0.703452 0.0197273
month -0.34009 0.13489 0.101415 0.420449 -0.237132 0.0153184 -0.188884 -0.175163 -0.655902 0.0156991
which -0.267121 0.026886 0.0229289 -0.0235477 -0.426494 0.177359 -0.368453 -0.263833 0.612097 0.0195012
goods 0.424618 -0.243973 -0.396222 0.237977 0.142011 0.403647 0.207056 -0.104629 0.444324 0.00831512
its -0.0843119 -0.39744 -0.192261 0.671123 0.0298929 0.144024 -0.192567 0.412714 -0.018609 0.0181914
be 0.577345 -0.042313 0.172025 0.326217 0.105265 -0.163062 0.486879 0.229507 0.302371 0.00922063
good 0.0725829 -0.603741 -0.344198 -0.0816504 -0.117979 0.37684 -0.429863 0.217661 -0.0388965 0.0168839
one 0.349851 -0.524962 0.183348 0.150928 -0.234728 -0.403597 0.43145 -0.166783 -0.0390759 0.0147146
per -0.171077 -0.346966 0.392918 0.335956 -0.0699734 -0.0267173 0.255032 0.305496 -0.545773 0.00999195
about 0.287026 0.147083 -0.183912 -0.147273 -0.0358587 0.767686 -0.204484 0.259817 0.157872 0.00027221
price -0.191476 -0.745261 0.135383 0.253542 -0.0794857 0.101836 0.214489 0.322381 0.224277 0.0149623
an 0.347727 0.180551 0.0396963 0.383218 -0.409968 0.344394 0.251924 -0.451548 -0.158283 0.0108625
left 0.143595 -0.268818 -0.105383 -0.510261 0.440043 0.134325 -0.341821 0.349447 0.256433 0.00703694
sent 0.107553 -0.0814905 -0.281396 -0.332664 0.316496 -0.288688 -0.407596 0.451681 0.329799 0.0161278
before 0.246162 0.214199 -0.114947 -0.390535 0.166914 0.276009 -0.291005 -0.593782 -0.258913 0.00384887
tablets 0.381965 0.0780221 -0.200384 -0.00889518 0.248112 0.680733 0.112668 -0.246776 0.310117 -0.00266141
owes -0.35256 -0.113214 0.0898141 -0.00959463 0.172179 -0.0621267 -0.351009 0.637811 -0.400233 0.0177248
should 0.372598 -0.140016 -0.236339 -0.204079 0.191434 0.225685 -0.238011 -0.0678464 -0.687512 0.0119388
what 0.382984 0.32892 -0.366507 0.318365 -0.375953 0.123181 0.278848 0.16092 0.369952 0.0106508
their 0.0244046 -0.356901 0.154394 -0.0667772 -0.0922299 0.462409 -0.257278 -0.653949 0.0288226 0.0120158
bring 0.20165 -0.109671 -0.10914 -0.0388043 0.659995 -0.412025 0.0798269 0.44118 -0.0735588 0.0104914
donkeys -0.109507 -0.769608 -0.22761 -0.0185319 -0.133999 0.129404 0.14466 -0.367722 0.207626 0.0157122
make 0.423389 -0.0444903 0.0432337 0.0436062 0.158563 -0.195096 0.199863 0.408822 -0.648875 0.00890099
fathers 0.533293 0.21136 0.224974 0.00528814 0.288287 0.514337 0.219584 0.175819 0.297042 -0.00665449
belonging -0.379643 -0.341658 -0.300017 -0.395666 0.227808 0.045306 -0.384827 0.273452 0.316257 0.0140005
kanesh 0.031799 0.282771 -0.0289529 0.300215 0.32148 -0.101916 -0.0628401 -0.718009 -0.260287 0.00495257
šuištar -0.763976 0.380014 -0.279322 0.0474566 -0.168793 -0.214744 0.075587 -0.0703071 0.134903 0.00886905
but 0.764491 0.211086 -0.180687 -0.136285 -0.167344 -0.182923 -0.362273 0.0964898 0.154297 0.0097314
took -0.139831 -0.278677 0.35843 -0.046136 0.354293 -0.181306 -0.659397 0.220118 -0.0259309 0.021863
answered 0.218236 0.598589 -0.148058 -0.11961 -0.0419534 -0.0308636 -0.548123 0.190344 -0.321521 0.012722
brothers 0.281203 0.0357356 -0.155342 -0.0445539 0.0732496 0.132601 0.775632 0.324388 0.201852 0.000718789
can 0.548955 -0.0978365 -0.102055 -0.175924 0.107049 0.198301 0.181592 -0.0478616 -0.670572 0.00275594
received -0.238516 -0.116388 0.0600023 0.289924 -0.0303723 0.164642 -0.424273 0.694881 0.129052 0.020094
accordance 0.164741 0.0942855 -0.157266 0.367171 0.731786 0.350892 -0.0563853 -0.136814 -0.0882986 0.00166395
representatives 0.280247 0.360266 -0.203845 0.132651 0.406955 0.205458 0.367407 0.347046 0.39059 -0.00517754
go 0.382153 0.510275 -0.138071 0.271123 0.46198 -0.325863 0.238152 0.0194014 0.139065 0.00430645
seized -0.153185 0.536579 0.00564258 -0.331544 0.415562 -0.23525 -0.474282 -0.113423 0.0431216 0.00674213
attorney 0.180162 0.717537 -0.175038 0.266212 0.21379 0.222007 0.24832 -0.302202 0.0271515 -0.00308367
say -0.0756541 0.250273 -0.0462628 -0.51945 0.0713275 -0.679544 -0.028414 0.0517014 -0.267481 0.00848264
entrusted -0.255059 -0.0584577 0.0179591 -0.364638 0.583258 -0.194038 -0.369432 0.141522 0.375766 0.0141839
gold -0.433416 -0.44327 -0.0473035 0.429026 -0.229672 0.141538 0.0213437 0.330365 0.363795 0.0196363
textile -0.0738628 -0.650813 -0.549472 0.0107169 -0.210092 -0.249648 -0.111409 -0.0354853 0.191148 0.0236598
elamma -0.572788 0.020801 -0.172118 0.387029 -0.12623 -0.536188 -0.210285 0.0173384 0.172235 0.0249151
these 0.0631007 0.035664 -0.0601971 -0.335098 0.172052 0.073356 -0.0837262 -0.828523 0.142622 0.00955429
merchant -0.0237985 0.124532 -0.52695 0.483335 0.11085 0.216731 -0.103057 0.0653388 0.527624 0.0111669
amurištar -0.629454 0.276399 -0.376937 0.166782 -0.0244031 0.199877 -0.296939 0.232522 0.273248 0.00616784
eponymy -0.39741 0.28636 0.351268 0.244995 0.0185049 -0.0668686 -0.0302707 0.134989 -0.659965 0.00998446
witnesses 0.162182 0.616601 0.087653 -0.0528372 0.0683631 0.0898621 0.414694 -0.538055 0.00129253 -1.53332e-05
who 0.340579 0.529035 0.321973 -0.100795 -0.25466 -0.0427383 0.282592 -0.270762 0.403213 -0.00169414
sealed -0.351582 -0.00415313 0.187589 -0.401331 0.168195 0.553689 -0.317852 0.242669 0.267697 0.00630674
against 0.0678847 0.672817 0.229643 -0.172178 0.187897 -0.0672492 -0.388287 0.218097 -0.337739 0.00538797
puzuraššur -0.451361 0.207411 -0.725708 0.0755524 -0.0760739 0.128486 0.113292 -0.19204 0.218305 0.00581859
her 0.528285 -0.21615 -0.127061 -0.148288 -0.287211 -0.367147 0.378744 0.356946 0.193053 0.00800489
transport 0.185781 -0.363843 -0.247089 0.472739 0.253805 -0.0931301 0.187856 0.157823 0.542689 0.0136783
out 0.429863 0.00497237 -0.219345 0.223231 -0.0597852 0.532769 -0.141692 -0.419224 -0.341481 0.0103122
debt -0.191836 0.169417 0.281266 0.514945 0.00249387 0.507626 0.00897874 0.304452 0.346385 0.00914194
iddinabum -0.609289 0.406741 -0.0847636 0.339079 -0.101491 0.18424 -0.105453 0.35413 0.245313 0.00437505
seals -0.150875 -0.412691 0.0364756 -0.211574 0.743439 0.195671 -0.0125383 0.153876 0.18325 0.00389845
had 0.0955775 0.0852602 0.152677 -0.0915864 -0.110981 -0.104262 -0.803037 -0.328108 0.189763 0.0237302
wrote 0.405463 0.25887 -0.336072 -0.595863 0.0589568 0.307493 -0.261448 -0.124388 0.122264 -6.50838e-05
šubēlum -0.439659 0.685532 -0.100949 0.19662 -0.106681 0.12069 -0.329022 -0.0549004 0.226795 0.00608348
up 0.632619 0.242942 -0.312724 0.464298 -0.122629 0.0112549 0.0461085 -0.322201 -0.0750812 0.0122706
until 0.621217 -0.38833 -0.106911 0.012048 0.322986 -0.242864 -0.383754 -0.16917 -0.0903628 0.016268
ennasuen -0.328047 0.682337 -0.27632 0.338665 -0.252436 0.229063 0.0408742 0.012959 0.135636 0.00426951
thus -0.286021 0.0646588 -0.160142 -0.619843 -0.0434291 -0.571406 -0.155268 -0.0666514 -0.178245 0.0103617
day 0.47648 0.0780866 -0.218974 -0.383169 0.229727 -0.267164 0.358294 -0.00278648 0.457012 0.00185745
presence -0.513638 0.0839596 0.407199 -0.0102816 0.578576 -0.333696 0.0522984 -0.0998652 -0.0108418 0.0105352
may 0.428242 0.0102323 -0.140427 -0.167942 0.280299 0.238388 -0.104717 -0.0295122 -0.709122 0.0056962
talent -0.264563 -0.524436 -0.0995451 0.0736399 -0.119454 0.388174 -0.441464 -0.103763 -0.383517 0.020102
word 0.598478 -0.10377 -0.604593 0.103996 -0.200536 0.205648 0.20454 0.0628241 0.169051 0.00753272
claim 0.0742293 0.596214 0.27339 0.249477 -0.201609 -0.215065 0.284527 0.38993 0.26085 0.0114253
ennānum -0.556483 0.31652 -0.624952 0.229341 -0.0140737 0.136552 0.131783 0.104085 -0.0697759 0.000773248
did 0.516508 0.0902496 -0.311774 -0.225536 -0.0448022 -0.0376734 -0.47629 -0.148692 -0.45602 0.0159046
aššurimittī -0.803027 0.171951 -0.137942 0.266549 -0.22704 0.147294 -0.0225627 -0.259681 0.0582812 0.0106336
add 0.0694111 -0.0150389 0.250254 0.615449 0.088855 -0.251905 0.0180046 0.504618 -0.321252 0.0124388
were 0.0652913 -0.249804 0.209883 -0.246864 -0.0342638 0.192864 -0.67441 -0.39522 0.213824 0.0191619
rest 0.116517 -0.554105 -0.117088 0.50159 0.233336 0.188698 0.254748 0.251811 0.285196 0.012446
proceeds 0.0281994 -0.491589 -0.506804 0.310892 0.207052 0.40097 0.128575 0.125968 0.236527 0.0121469
care 0.319515 -0.145801 -0.503635 -0.108108 0.0338702 0.480286 0.165568 -0.182299 -0.453289 0.00568871
itūrilī -0.450137 0.32332 -0.503395 0.394836 0.0225069 0.242839 -0.331896 0.0929562 0.0307666 0.00893561
no 0.737511 0.166853 0.0231034 -0.254647 -0.104796 -0.131968 0.146991 0.46187 0.0568336 0.0013124
aššurṭāb -0.75774 0.195388 -0.0643597 0.100701 -0.078057 -0.0651579 -0.135389 -0.210619 0.447986 0.0137012
within 0.105334 0.0975814 0.118282 0.368998 -0.398399 -0.347077 -0.26374 0.370589 -0.460144 0.0206435
man 0.383794 0.289163 -0.0625452 0.473469 -0.38053 0.121097 0.512841 0.04955 0.0478986 0.00948252
set 0.732051 0.359397 0.0860695 0.388179 -0.0219613 0.197711 -0.0170013 0.0981989 0.1913 0.00455482
investors 0.226786 0.430974 0.130182 0.244101 0.209601 0.616256 -0.0531847 -0.106139 0.368654 0.000517688
two 0.34677 -0.440755 0.158657 -0.153442 -0.479938 0.154235 -0.3772 -0.345007 -0.065204 0.017082
saying 0.515463 0.284392 -0.606693 -0.0713936 -0.130726 0.175638 -0.152495 0.0833129 0.317704 0.00770708
letter 0.283611 0.375769 -0.274269 -0.309956 0.248814 0.0714952 0.279519 -0.461719 0.369387 -0.00133315
šukūbum -0.64681 0.463705 -0.109829 0.340174 -0.0717065 0.0845402 0.234833 0.177229 0.212729 0.00034534
lāqēp -0.797953 0.182139 -0.416952 -0.000993601 -0.142319 0.212896 0.00964033 -0.064277 0.0318607 0.00324992
brings -0.216871 -0.341476 -0.121731 -0.460359 0.409067 0.0882359 -0.0470568 0.537956 -0.159487 0.00923635
rate 0.0302511 -0.510364 0.198716 0.705684 -0.165431 0.0804714 0.138924 0.0365575 -0.189864 0.0143818
week -0.423549 0.286544 -0.126267 0.615454 -0.115944 -0.115054 -0.222981 0.123493 -0.369943 0.0182291
aššurmalik -0.609234 0.525247 -0.260986 0.0776609 -0.303707 0.251648 -0.113822 -0.11314 -0.0663332 0.00512202
wool -0.0466683 -0.402855 -0.506932 0.10398 -0.0665937 0.562985 -0.16298 -0.307791 -0.0885184 0.0149726
due -0.504531 -0.162233 0.370225 0.135976 -0.389591 0.25916 -0.186243 0.385174 -0.219615 0.0164144
made 0.452995 0.166452 0.326233 -0.466876 0.180977 -0.0682842 -0.350937 -0.313747 -0.27379 0.00545036
further -0.347047 -0.540863 -0.197686 0.239712 -0.095201 0.368006 -0.228952 0.331958 0.26571 0.0161005
black -0.312554 -0.789318 0.0735169 -0.340741 0.142739 0.0727497 -0.164305 -0.0751877 -0.0156086 0.0108484
owe -0.0379815 0.00191049 0.106455 -0.163731 0.0517479 0.0426415 -0.286371 0.78442 -0.349124 0.0142041
why 0.453941 0.224801 -0.392301 -0.273155 -0.173663 -0.133215 -0.0377561 0.483944 0.345293 0.00685002
caravan 0.266753 -0.230148 -0.224031 0.675802 0.0401251 -0.0296953 0.471868 -0.103242 0.133334 0.00959967
together 0.477466 -0.0809927 -0.138694 -0.0613666 0.618007 0.330594 0.160244 -0.222145 -0.260436 -0.00519219
clear 0.468561 0.406402 0.156358 0.0235306 0.615027 -0.0372742 0.1796 0.199768 -0.187361 -0.00562662
quality 0.0583706 -0.668802 -0.425389 -0.0318689 -0.147006 0.220223 -0.402981 0.1065 0.110326 0.0181693
capital -0.229333 -0.121127 0.506023 0.242106 0.171518 0.476912 0.388577 0.196586 -0.239926 0.00267862
sell 0.516173 -0.483101 0.0111077 -0.0471583 0.281737 -0.300685 0.218767 0.405302 0.0948576 0.01188
own 0.1887 -0.194917 0.123457 0.206495 0.332588 0.197381 0.635792 0.323804 0.293155 0.000510326
dagger -0.280749 0.431255 0.156929 -0.223081 0.120155 0.0424591 0.682946 -0.258423 -0.00180396 -0.00803379
am 0.42316 0.036652 0.0979237 -0.678975 -0.268428 0.0293979 0.181205 -0.228811 -0.289818 0.0033926
after -0.0105146 0.081411 0.129385 0.409559 -0.23561 0.0633888 -0.779076 -0.0408418 0.0656015 0.0251306
thereof -0.342183 -0.629885 -0.235376 0.0881022 0.0559952 0.0423323 -0.351726 0.0195418 0.424708 0.0201121
any 0.679998 0.0988078 -0.212619 0.420437 -0.301487 0.13894 -0.0538387 0.270519 0.139547 0.013867
testimony -0.177995 0.0679101 0.11282 -0.178513 0.389159 0.0229177 0.622089 -0.473991 0.177228 -0.00872445
name -0.133873 0.225739 0.254983 0.498658 0.49545 -0.190194 -0.274049 0.358977 0.101573 0.014366
ikūnpīya -0.427052 0.245832 -0.606089 0.267212 -0.324032 0.148765 -0.105957 0.240065 0.131724 0.0103984
sold 0.180072 -0.33644 0.113037 0.0858175 0.0860976 -0.198979 -0.597448 0.447026 0.314625 0.0210663
added -0.294735 -0.306846 -0.125039 0.498122 0.233461 -0.293415 0.0290066 0.312633 0.446067 0.012605
available 0.388861 -0.464328 0.00187001 -0.174285 -0.29362 -0.0757815 0.415447 0.320279 0.350391 0.0057447
since 0.635774 0.416602 0.173269 -0.152887 -0.463398 0.187189 -0.137049 -0.0426797 -0.0611079 0.00562335
matter 0.311718 0.657665 0.336239 0.281466 -0.225634 0.190678 0.0208026 -0.24355 0.173128 0.00171001
expenses 0.0592545 -0.552371 0.212759 0.53131 -0.0155865 -0.333892 0.0746829 -0.120618 0.340038 0.0207522
both 0.267695 -0.498582 -0.283351 -0.020584 0.560201 0.311632 -0.163409 0.109523 0.202231 0.0012786
very 0.696411 -0.216781 -0.312077 -0.277038 0.313589 0.106485 0.077637 -0.23588 0.169568 0.00110975
instructions 0.412181 0.0689053 -0.536576 0.350358 0.460372 0.213824 -0.0611153 0.0138595 0.214206 0.00761746
keep 0.42907 0.429034 0.0516236 -0.677238 -0.171239 0.122092 0.0552634 0.11978 -0.107968 -0.00076584
weeks -0.0547926 0.0579013 -0.0439147 0.622841 -0.482439 -0.193824 -0.0529239 0.405485 -0.197942 0.0219321
sons -0.0732975 0.738061 0.205374 0.176073 0.0107278 0.110391 -0.0849829 0.492527 0.0916735 0.00354104
aššurs -0.142874 0.399474 0.0893826 -0.278713 0.0847703 0.112327 0.652792 -0.411635 -0.00166745 -0.0128819
kuliya -0.316524 0.309739 0.112937 0.0213417 -0.177913 -0.481736 0.537301 -0.331698 -0.0956112 0.0114546
buy 0.382156 -0.552319 -0.238474 0.0153124 0.291517 -0.265064 0.133844 0.423855 -0.168566 0.0137314
case 0.344076 0.632412 0.362267 0.190333 0.0595609 -0.129293 0.186579 -0.248568 0.308489 0.00435013
aššur -0.187517 0.151796 0.0591225 0.028708 0.0726706 0.498184 0.513059 -0.158392 0.521821 -0.00278658
possession 0.133066 -0.142428 0.253235 0.254715 0.409183 0.175958 0.0145995 0.652649 0.287819 0.00374538
iddinaššur -0.72828 0.273579 -0.233822 0.123484 -0.361106 0.261834 -0.163356 -0.0690004 -0.0251278 0.0109379
amuraššur -0.709807 0.360665 -0.203722 0.320015 -0.288032 -0.136075 0.0779893 0.101904 0.104543 0.011215
certified 0.0289218 0.225477 -0.0467448 0.43363 0.147966 0.726243 -0.0997583 0.188563 0.210596 0.00229225
donkey -0.245042 -0.665599 -0.202608 0.0774833 -0.158402 -0.374607 0.0588895 -0.361979 0.181021 0.0240375
outstanding 0.390339 0.0842947 -0.133756 0.03768 0.0550775 0.448051 -0.233965 0.633605 -0.200391 0.00700812
months 0.108297 0.105377 -0.0956816 0.346857 -0.642857 -0.30472 -0.264811 -0.141054 -0.345086 0.0260421
maid 0.296977 0.00139136 -0.121201 0.0806657 -0.0122753 -0.11513 0.534327 0.504758 0.458058 0.00181635
leave 0.550784 0.265176 -0.22984 0.100976 0.192819 -0.462303 0.165058 0.248057 0.340823 0.00893925
lapis 0.198532 -0.184177 -0.131181 0.489973 0.179338 0.274495 -0.32458 0.573916 0.00472132 0.0171158
bēlumbāni -0.39854 -0.14109 -0.630471 0.0206888 -0.505732 0.160731 0.152808 -0.069518 -0.0738109 0.0135485
personally 0.414014 0.222093 -0.474413 0.540626 0.0122934 0.0073202 0.110496 0.271772 0.261413 0.00789253
ilībāni -0.782312 0.192883 -0.252394 0.13964 -0.0825003 -0.272923 -0.108512 -0.284554 0.0213906 0.0128189
hear 0.544063 0.225909 -0.198565 -0.534816 0.442858 0.0452347 -0.0272273 0.021146 0.174053 -0.00223141
write 0.656476 0.161186 -0.226334 -0.0401016 0.210613 0.117727 0.4523 0.334192 0.118037 -0.00617963
each 0.181945 -0.604744 0.487001 0.349675 -0.283696 -0.0534559 0.171383 0.124795 -0.0876381 0.0143159
assembly 0.207324 0.572751 -0.018718 0.294018 0.408465 0.0492204 -0.0908586 -0.50242 0.0351351 0.00134972
those 0.151907 -0.198496 -0.192303 -0.204874 0.0954646 0.381976 -0.258622 -0.630869 0.333011 0.00983078
plus -0.275753 -0.703594 0.104492 0.00583425 0.00149927 0.488799 -0.0150794 0.247034 0.112768 0.00947521
working -0.344179 -0.348695 0.112138 0.0961063 -0.13438 0.464007 0.578581 0.0451589 -0.230304 0.00408012
taken 0.163551 0.124219 0.232081 0.0982519 0.136 -0.20948 -0.529866 0.453652 0.459204 0.0188104
aluwa 0.211183 -0.209703 -0.791318 0.0462948 -0.124759 0.204129 0.188199 -0.205611 0.198649 0.00989107
back 0.526066 0.297622 -0.200503 0.266705 -0.188499 -0.377151 -0.113964 -0.306987 -0.355711 0.0158929
men 0.462484 0.304739 0.00575963 -0.140864 0.00754749 -0.073306 0.377428 -0.468609 0.438185 0.00279555
grain 0.322676 -0.348105 -0.284422 0.294813 -0.356068 0.177694 0.162054 0.545518 0.0790845 0.0151647
urgent 0.69906 0.0629882 -0.339567 -0.224832 0.0960214 0.376285 0.0942456 0.0366626 -0.293395 -0.00350473
claims 0.356338 0.0995913 -0.152578 0.477044 -0.32196 0.447975 0.35094 0.21503 0.148493 0.0101886
pilahištar -0.672444 0.240081 -0.43533 -0.237043 0.0455545 -0.266996 0.0892134 -0.0836322 0.249463 0.0042208
lazuli 0.109795 -0.242456 -0.470578 0.521438 -0.00212893 0.552022 0.00523916 0.0789564 0.0953696 0.0134399
wife -0.540554 0.156407 0.281551 -0.100258 -0.170254 -0.152078 0.0220428 0.418805 0.501845 0.0126015
aššurnādā -0.742634 0.362182 -0.163343 0.109653 -0.144412 -0.0906224 -0.0589016 -0.334975 -0.202357 0.00811877
single 0.584129 -0.371986 0.0886027 0.055792 -0.241386 -0.223555 0.253377 0.00422459 -0.476911 0.0156054
does 0.343845 0.113444 -0.105196 0.158162 -0.245585 -0.0529956 -0.408124 0.128995 -0.675561 0.0176471
purchases 0.138425 -0.0182685 -0.442683 0.439591 -0.118991 -0.248609 0.458749 -0.405581 0.12429 0.0159954
slave -0.151451 0.0254048 0.540313 -0.29662 -0.324514 -0.0578155 0.0382906 0.242594 0.553999 -0.008092
ennamsuen -0.703463 0.25723 0.315338 -0.146746 -0.0265994 -0.43084 -0.0263974 -0.182562 0.0498542 0.0118543
reckoned -0.457167 0.0727913 -0.156912 0.510198 -0.200103 0.151051 -0.323494 0.228811 -0.40561 0.0153341
well 0.45914 -0.285093 -0.0557909 -0.311608 -0.284187 0.33137 0.361004 -0.0680267 0.413799 -0.000865131
given 0.0167095 0.101944 0.259164 -0.22668 0.0394645 -0.450349 -0.3691 0.489555 0.394408 0.02051
cost -0.307041 -0.860068 0.208739 0.0805494 0.093653 -0.014346 0.0309187 -0.00214476 -0.10652 0.0103458
sacks -0.147757 -0.588813 -0.102831 -0.0712004 -0.577658 0.103404 0.0506138 0.367316 -0.139428 0.0148281
servants 0.561855 -0.421221 -0.416316 -0.050241 0.320315 0.0356816 0.189695 0.00792189 0.30339 0.00548532
adida -0.127609 0.2761 -0.734772 -0.380766 0.115469 0.191997 0.119465 0.183351 0.137828 -0.00554161
either 0.489884 -0.445455 -0.421017 0.396937 -0.246251 -0.0245393 -0.109878 0.18195 0.121938 0.0213739
please 0.424111 0.177798 -0.0366759 -0.498046 0.114308 0.335231 0.0598354 0.321219 -0.444641 -0.00253789
abušalim -0.467538 0.32648 0.0960872 0.204026 -0.593076 -0.28165 0.0391218 0.0674333 0.276098 0.0146624
much 0.448945 -0.237381 0.0361911 0.235357 -0.481015 0.354718 0.377304 0.126258 0.237942 0.0103472
where 0.868205 0.027478 0.0344606 -0.102101 -0.0185198 0.308498 0.0933058 -0.151211 0.149821 -0.0014354
durhumit -0.0673842 -0.209379 0.0795394 0.166818 0.348679 -0.113605 -0.297226 -0.735893 -0.137233 0.0166822
servant 0.252411 -0.218572 -0.355163 0.315318 0.515259 0.0462276 0.457257 -0.263728 0.0311721 0.00141703
verdict -0.0663018 0.451469 0.114064 0.663283 0.242806 0.270027 -0.000431872 -0.288474 0.106348 0.00276576
over 0.449024 -0.109431 0.153528 -0.157494 0.0457438 -0.646204 0.159581 0.0314951 -0.41904 0.0122359
some 0.45054 -0.556213 -0.313131 0.432071 -0.0916604 0.199923 0.0602278 0.209222 0.0603506 0.0170094
written 0.312645 0.361005 -0.304124 -0.230738 0.143855 0.0742178 -0.249683 0.356078 0.541855 0.00360508
missive 0.228285 0.364729 -0.422743 0.0953344 0.276067 0.436787 0.0737252 -0.326563 0.367949 0.000849032
every 0.292392 -0.420168 0.167724 0.0485134 -0.223238 -0.249858 0.610054 0.164954 -0.274084 0.0139707
first 0.354654 -0.477464 -0.460438 0.121506 0.276699 0.065643 0.479681 0.034982 0.0081378 0.00772615
down 0.172156 0.120699 0.0800765 0.0875698 -0.477616 0.354321 0.0410122 -0.490716 -0.464463 0.0159921
seize 0.459807 -0.0145224 -0.273804 -0.0822285 0.343644 -0.403307 0.0484235 0.43739 -0.343347 0.00564409
deposited 0.154132 -0.487443 0.382101 0.0955869 0.269435 -0.073829 -0.40959 0.25235 0.394081 0.01509
damiqpīaššur -0.291002 0.0541328 -0.7819 -0.211689 0.0485717 0.294519 0.00572323 -0.247739 0.0365579 -9.95095e-06
manmahir -0.284504 0.113378 -0.668075 0.154595 -0.161109 0.386339 -0.334038 0.0764603 0.181805 0.00783285
remain 0.261757 -0.233978 -0.16786 0.217072 0.457885 -0.144616 0.245904 0.510722 0.353859 0.0119547
proceedings -0.0765173 -0.0951187 0.0363871 -0.16315 0.42522 -0.272503 0.222208 -0.707667 0.15455 -0.00392492
aššurtaklāku -0.743893 0.163518 -0.158605 0.271336 -0.273844 0.175369 0.299043 0.172649 -0.0458282 0.00581063
release 0.438756 0.239309 0.182172 0.150517 0.511885 -0.346363 0.0619082 0.432301 0.0996832 0.00585668
year 0.0486748 0.0162339 0.109065 0.302935 -0.686461 -0.13873 -0.0327838 -0.0942103 -0.511044 0.0218794
tariff -0.179168 -0.307019 -0.290324 0.456266 0.120007 0.140307 0.218129 0.11232 0.604166 0.0104208
iron 0.228502 -0.101876 -0.201055 0.695212 -0.252363 0.066127 -0.455275 0.0116532 0.110304 0.0265081
worth -0.109472 -0.754739 -0.256862 -0.113819 -0.102952 0.10726 0.207109 0.399402 0.0777003 0.0139278
share 0.201273 -0.462194 0.63866 0.246197 0.0998607 0.213709 -0.180796 0.273858 0.0818286 0.0102652
amurrumbāni -0.559295 0.520529 -0.0831118 0.0116076 -0.103547 0.196722 0.297353 -0.345248 -0.232806 -0.000599549
duty -0.235217 -0.442472 -0.203099 0.678498 0.00507151 -0.10644 -0.0760152 0.0435815 0.34406 0.0156849
import -0.383316 -0.453943 -0.233863 0.61765 0.110818 -0.138814 -0.116141 0.0610136 0.235088 0.0174116
raise 0.16678 0.778394 0.338371 0.113265 0.0215667 -0.234195 -0.106408 0.266881 -0.0380413 0.00561517
kuziziya -0.458604 0.0547932 -0.638683 0.166866 0.00791624 0.368425 -0.303738 0.00641996 0.135459 0.00705195
message 0.407872 0.474948 -0.54821 0.195512 0.220956 0.115225 0.253773 -0.0711306 0.193563 -0.00139922
small 0.165366 -0.685036 -0.293394 -0.272321 0.0557277 -0.0392846 0.258872 0.065784 0.39782 0.00995863
settled -0.0331694 0.351721 0.463754 -0.258035 0.132206 0.0301815 -0.55171 -0.370654 -0.120977 0.0120176
aššurbāni -0.662516 0.238526 -0.391351 0.0312585 -0.271966 0.387743 0.0954831 0.0771355 0.126507 0.00253065
god 0.170117 0.132 0.219792 0.0141574 0.195001 0.35352 0.513017 -0.597257 -0.0265558 0.000144074
šalimwardī -0.0366064 -0.306104 -0.777127 -0.320261 0.191386 0.212168 -0.00327345 0.0811384 0.0707641 0.00350249
lord 0.452117 0.320257 -0.173146 -0.240892 0.157136 0.295911 0.586624 0.201939 0.0193533 -0.0090861
anything 0.510419 0.315122 -0.251379 0.277515 -0.56992 -0.128029 -0.00398322 0.177602 0.139276 0.0163654
now 0.628016 0.416753 -0.109061 -0.123267 -0.321695 -0.13848 -0.122687 -0.284549 0.294686 0.00611101
heard 0.210589 0.489059 0.218623 -0.501273 0.284528 -0.169955 -0.079478 -0.185842 0.399316 0.00110799
aššuršamšī -0.594482 0.380433 -0.358265 0.177153 -0.0941988 -0.330519 0.264245 -0.209836 0.106213 0.00663303
specifically -0.301873 0.255291 -0.653241 -0.404956 -0.00592703 -0.00463527 -0.0432869 0.379303 -0.0205571 -0.00390641
hold 0.443789 0.328591 0.151242 0.453039 0.257272 0.221321 0.15116 0.41533 -0.216714 -0.000361437
barley -0.165624 -0.292256 0.294823 -0.0077131 -0.490352 -0.164319 0.268296 0.578501 -0.0460039 0.0129663
get 0.785712 0.121994 0.207334 0.166109 0.125687 0.046953 0.366973 0.162493 -0.163598 -0.00193686
bringing -0.0905214 -0.193775 0.032886 -0.593457 0.225577 -0.0162022 0.272325 0.596645 0.00651148 0.00493539
because 0.294073 0.241968 0.428804 -0.449686 -0.0323072 -0.230859 -0.337475 0.013413 0.431004 0.00836015
harness -0.178459 -0.729309 0.121279 -0.0368875 0.206222 -0.104529 0.229561 -0.0318119 0.452158 0.00885759
wahšušana 0.341048 -0.288543 -0.543664 0.213311 0.153561 -0.126995 -0.1432 -0.33183 0.415342 0.0169808
palace 0.264856 -0.212701 -0.00104529 0.439921 -0.0354837 0.0653615 -0.419861 -0.59609 0.158043 0.0195698
šuillil -0.521162 0.516952 -0.383761 0.250908 -0.25608 0.290538 0.0473008 -0.00726079 0.0472212 0.00656839
merchandise 0.359644 0.0314717 -0.312342 0.143903 0.367378 -0.122684 -0.0479155 -0.20148 0.66014 0.0109432
aliabum -0.646475 0.397806 0.271443 -0.0972632 -0.0239734 -0.216199 0.3024 0.304926 -0.117119 0.00543728
would 0.555275 0.114273 0.096996 0.0909146 -0.130197 0.030154 -0.452903 -0.310328 -0.474195 0.0139928
she 0.548154 0.0729631 0.0200554 0.0161698 -0.308531 -0.439345 0.269492 0.111557 0.457458 0.00695428
promised 0.206696 -0.0324235 -0.0221737 -0.058792 -0.146979 -0.304504 -0.7434 0.214771 -0.318675 0.0236958
washed -0.176827 -0.376502 -0.224705 -0.132042 -0.0415494 0.557981 -0.501114 0.16848 -0.213721 0.0119505
arrive 0.755528 -0.0653204 -0.152042 0.247391 0.322772 -0.336862 0.134388 0.0438253 0.100273 0.00691421
journey 0.43106 0.19606 0.0147872 0.30913 -0.328562 -0.121355 0.398094 -0.292057 0.440079 0.0136322
puzurištar -0.757773 0.380881 -0.0249813 0.208425 -0.108918 0.18534 0.0649846 0.304653 -0.0616988 0.00217336
behalf -0.312831 0.510163 0.230727 0.490803 -0.233148 0.0873948 0.268356 0.107255 0.304366 0.0101461
half 0.0815139 -0.520488 0.411989 0.0290789 -0.283507 -0.162633 0.0747988 0.532431 -0.2004 0.0112101
iliya -0.651456 0.250036 0.0439385 -0.0761829 0.0962579 -0.341556 -0.138235 -0.106586 0.494578 0.00933015
myself 0.42458 -0.0128622 -0.185743 0.180842 -0.255687 -0.321765 0.0635718 -0.658355 0.152608 0.0153285
šukkutum -0.432947 0.0566332 -0.488665 0.396789 -0.363547 0.120881 0.109349 0.323396 0.19649 0.0140863
daughter -0.254705 0.499349 0.300722 0.0194657 0.173517 0.00100117 0.0457721 0.595785 0.305833 0.00292503
stating 0.0528445 0.477576 0.238637 0.421497 0.197081 0.496721 -0.318984 0.184991 0.0124064 0.00413708
receive 0.215534 -0.183838 0.1374 0.458446 0.386551 -0.408741 0.0522724 0.494258 0.0539502 0.017056
time 0.408026 0.0137932 0.297535 0.651002 -0.381172 -0.0962365 -0.20292 0.097507 0.0584834 0.0193213
issuarik -0.445895 0.45256 -0.0193874 0.233794 0.0790902 0.184466 -0.133107 -0.0465356 0.607753 0.00691083
came 0.234193 0.653274 0.0334801 -0.345213 0.331373 -0.110772 -0.341111 -0.137795 0.19204 -0.00154404
account 0.108167 -0.171008 0.472455 0.421931 0.173621 0.227614 0.223217 -0.214434 0.509859 0.00577036
away 0.210927 0.201566 -0.368054 0.192889 -0.0784011 -0.375405 -0.218094 -0.643603 0.0822159 0.0163767
šalimaššurs -0.0433691 0.581361 -0.216217 0.395149 0.148574 0.511498 -0.222625 0.0452513 0.114655 0.000501935
office 0.00161502 -0.258745 0.266352 0.572986 0.246291 0.160608 -0.234346 -0.495758 -0.139166 0.0194943
aššuridī -0.718447 0.552034 0.0293432 0.187131 0.0460189 0.0393817 0.0539959 0.220206 0.0409046 0.00128997
wheat -0.0987407 -0.440141 0.182016 -0.101981 -0.54326 -0.228374 0.203261 0.493119 0.021996 0.0139321
arrived 0.564461 0.179648 -0.149111 0.0792007 0.27601 -0.191008 -0.23419 0.0204252 0.583417 0.0105403
days 0.373171 -0.0526353 -0.191314 0.236423 -0.546079 -0.432126 -0.0983603 -0.0347143 -0.377858 0.0261386
into 0.493304 -0.102236 -0.210374 0.191771 0.610304 -0.180937 -0.312557 -0.144628 0.176203 0.00991588
ataya -0.6497 0.2244 -0.358553 -0.0265135 -0.365087 -0.304842 0.0647119 -0.23421 0.111855 0.0135294
follows 0.158355 0.315146 -0.401415 -0.284001 -0.521552 -0.139005 0.0741248 -0.261034 0.388262 0.0119389
apart 0.131243 -0.294491 -0.359774 0.070433 -0.264329 0.480002 -0.237323 0.344153 0.406824 0.00936187
entrust 0.0856936 0.0215398 -0.0440513 -0.217998 0.701832 -0.354431 0.170393 0.41338 0.0650105 0.00468938
šunūnu -0.316234 -0.0855032 -0.654304 -0.271525 0.0461374 0.287337 0.194491 -0.234035 0.323907 0.0015486
iddinsuen -0.796061 0.307697 0.281586 0.183725 0.106725 -0.155433 -0.0351784 -0.109126 0.151191 0.0083967
too 0.667308 0.0167331 0.0691713 0.121551 -0.181929 0.111671 0.608408 0.127152 0.00913811 0.00020484
still 0.48664 -0.104549 0.445588 -0.166526 -0.493244 0.316183 0.177441 0.158448 -0.145289 0.00313379
cleared 0.431297 -0.0705309 0.240179 -0.387047 -0.0635454 -0.202589 -0.486642 0.16711 0.41757 0.00963538
šuaššur -0.782012 0.268836 -0.0559184 -0.208403 -0.16726 -0.171781 0.350524 -0.00928614 0.0257791 6.61367e-05
šēpištar -0.0938873 -0.205338 -0.618263 -0.370957 0.102622 0.540332 0.125614 0.0311833 -0.0338885 -0.00289811
indeed 0.584516 0.643958 -0.0597797 0.166791 -0.262257 0.101978 0.0852324 0.146475 0.112765 0.00461705
assist 0.392664 0.393644 -0.17757 0.044335 0.444301 -0.19025 0.336451 0.442175 0.0644047 -0.00315227
excise -0.292136 -0.454329 -0.0866791 0.456083 0.0860358 -0.38571 0.152989 0.179469 0.405209 0.0183262
term 0.266589 0.228446 0.445589 0.491584 -0.327058 0.0146356 0.187121 0.41979 -0.0497011 0.0119219
aššurmālik -0.790102 0.119186 0.0889512 0.184607 0.228612 -0.382078 0.0488596 -0.15851 -0.031347 0.012265
respect 0.0962736 -0.0982811 -0.683682 0.230374 0.18328 0.419212 0.191705 -0.209432 0.24137 3.55355e-05
gate -0.0419347 -0.0126082 0.127999 0.0286119 0.196268 0.41714 0.271346 -0.685636 -0.312452 0.00391807
sister 0.415793 0.474957 0.0766252 0.0256667 0.431448 0.0780876 0.225117 0.342788 0.354329 -0.00765948
went 0.221277 0.329384 0.020528 -0.0577588 0.511006 -0.511301 -0.158965 -0.410121 -0.0694891 0.00820564
know 0.763236 0.0517685 0.101108 -0.331213 0.0728425 -0.0328953 0.173697 -0.145814 0.379177 0.000834297
inform 0.575354 0.129332 -0.510976 -0.302447 0.0296721 0.0425552 -0.0432453 0.354636 0.260882 0.00157838
whether 0.596376 -0.104503 -0.441998 0.159831 -0.250863 -0.00178233 -0.0455373 0.379804 0.313234 0.0125053
uṣuršaaššur -0.780027 0.163079 0.153829 0.0934134 -0.135626 -0.0930425 -0.232975 -0.0689874 0.386751 0.0139206
današšur -0.363092 0.235058 -0.474535 0.0256226 -0.222002 0.177602 -0.437303 0.418142 0.160056 0.00836147
bought 0.198564 -0.597198 0.428211 -0.237791 0.17814 -0.192022 -0.361732 0.220431 0.0753688 0.0140113
puzuranna -0.436105 0.773935 -0.111377 0.0406541 -0.019435 -0.0662554 0.30693 0.0644555 -0.0448278 -0.000393401
hinnāya -0.623567 -0.0384395 -0.0873381 0.166743 0.136428 -0.573613 -0.316445 0.0738358 0.101096 0.0211671
less -0.387429 -0.525848 0.139123 0.0985541 -0.527016 -0.0989435 -0.0841898 0.367284 -0.0225141 0.0217323
words 0.454545 0.461217 0.269871 -0.100902 0.148172 0.0283942 0.188314 -0.465759 0.341604 -0.000824629
today 0.850463 0.110178 -0.035924 -0.0390904 -0.272123 -0.211191 -0.182359 -0.129687 -0.0719527 0.0104373
accounts -0.125703 0.433389 0.136322 0.251943 0.0215715 -0.218981 -0.276549 -0.644319 0.212547 0.0196471
kurubištar -0.737264 0.175605 0.00613216 0.227525 -0.308741 -0.266191 -0.200822 -0.217321 0.141225 0.0178193
affiliated 0.0742636 0.032854 -0.0736635 -0.195984 0.187121 -0.1612 0.599499 -0.444679 -0.451813 -0.00049302
šuanum -0.729011 0.354583 -0.00428874 0.00545933 -0.136869 0.0782606 0.357834 0.159355 -0.267946 -0.00107606
šusuen -0.614334 0.172639 -0.323525 0.434161 -0.328476 -0.120719 0.200033 -0.0763391 0.172752 0.0124807
purušhaddum 0.125663 0.0158618 -0.799348 0.357386 0.230845 -0.138186 -0.0222353 0.00595368 0.19253 0.00787515
jar -0.447202 -0.319496 0.0582837 -0.458813 0.0298339 -0.283127 0.0414675 0.524655 -0.120045 0.00608415
ištarlamassī -0.134863 0.0397683 -0.529809 -0.201858 -0.0725589 -0.0798992 0.264166 0.617029 0.272006 0.00636278
votive -0.140754 -0.24018 -0.0430454 0.399646 0.143249 0.645785 -0.00948511 0.293324 0.340561 0.00732679
how 0.461516 -0.0723305 -0.272507 -0.120653 -0.492486 0.564883 -0.026552 -0.136551 0.0461828 0.00963945
lords 0.326471 0.171317 -0.0977152 -0.236333 0.289629 0.308218 0.63863 0.308324 -0.00869831 -0.0105079
least 0.303529 -0.547201 0.114248 0.389172 -0.146704 0.203836 0.422124 0.109847 -0.279653 0.0120114
way 0.347566 0.0958004 0.590892 -0.161482 -0.0707079 -0.359492 0.336839 0.203683 0.306572 0.00821627
without 0.686298 -0.0282055 -0.102033 -0.01848 0.0932643 -0.0504318 -0.590682 -0.117608 0.190181 0.015919
aššurbēlawātim -0.748955 0.0957473 -0.0516591 0.124172 -0.0992127 0.266899 -0.304608 0.164351 0.336533 0.00778046
attention 0.473356 0.0335799 -0.492993 -0.00374866 0.0401463 0.456085 0.0216084 0.137737 -0.440775 0.00588953
lead 0.270363 -0.122239 -0.118603 -0.529359 0.544694 -0.314589 0.221203 0.198903 0.144976 0.00322672
fine 0.161322 -0.729719 -0.397845 -0.0739837 -0.0827856 -0.1575 -0.205616 0.303771 -0.0594474 0.0186717
other 0.755005 0.0379273 0.526961 -0.17996 0.0951326 -0.00628984 -0.144235 -0.0358383 -0.00363361 0.00129985
held 0.267437 0.0283497 0.411101 -0.124206 -0.389475 -0.428839 -0.33846 0.390468 -0.130901 0.0181618
even 0.784651 -0.24412 -0.0717682 -0.0909774 -0.257789 -0.344657 -0.0120188 -0.134559 -0.116625 0.0157517
years 0.221875 -0.0492734 0.350308 0.0968608 -0.696206 -0.209196 -0.296733 -0.107276 -0.245941 0.0242986
trader 0.0706988 -0.108561 -0.0394229 -0.0879825 0.014565 -0.309396 0.660106 -0.384827 -0.405217 0.00815534
aššurištikal -0.715248 0.329602 -0.287849 0.215204 -0.335793 -0.0610196 -0.0408408 0.147094 -0.132632 0.0109146
representative -0.225502 0.567345 -0.0154439 -0.0262475 0.469071 0.208221 -0.184146 0.326078 0.335556 -0.00252516
šuhubur -0.475734 0.162197 -0.390047 0.409093 0.0437981 0.37109 0.10501 0.409668 -0.0421179 0.00121621
lady 0.079619 -0.131044 -0.225284 0.0819471 -0.498708 0.061039 0.44293 0.114557 0.573313 0.0104366
amuršamaš -0.876072 0.035659 0.0961213 0.064824 -0.231248 0.0303554 0.0402797 0.266548 0.0738695 0.00660623
aššurrēī -0.859819 -0.129604 -0.131399 -0.0148248 0.14864 -0.210143 -0.185897 -0.128446 0.145122 0.0123123
angry 0.782705 0.0292164 0.032795 -0.142519 -0.34967 -0.0698897 0.236574 -0.10826 -0.278679 0.000722491
amount 0.333983 -0.198467 0.188388 0.536956 -0.297105 0.00360946 0.161918 0.475514 -0.254789 0.0153919
aššurlamassī -0.608899 0.0361888 0.180839 -0.133786 0.190952 -0.53337 0.153367 -0.149163 0.323732 0.00979701
balance -0.075494 -0.197319 0.389817 0.573912 -0.0211961 -0.52681 0.0422581 0.260254 0.071843 0.0209729
burušhaddum 0.0629359 0.0579383 -0.212385 0.244355 0.469429 0.0222652 -0.320481 -0.654839 0.0826196 0.00997254
thin 0.0874372 -0.621872 -0.555314 -0.247988 -0.00428641 -0.130327 -0.225064 0.244379 0.0340607 0.0139828
according 0.199259 -0.146571 -0.0114303 0.63704 0.342339 0.200945 -0.383852 -0.15468 -0.284851 0.0161117
oath 0.0717134 0.606067 0.44963 0.188305 -0.117611 0.0244687 0.330632 -0.300898 -0.262517 0.00226438
act 0.729934 0.261955 0.0357984 0.16775 0.284473 0.190747 0.369018 0.145951 0.0216348 -0.00591625
spent 0.112057 -0.532408 0.309489 0.0222871 -0.157815 -0.165122 -0.394234 0.0976538 0.519068 0.0185128
dadiya -0.601258 -0.255852 -0.254238 -0.147159 0.179907 -0.496977 -0.308829 -0.0390557 0.0599152 0.0176348
order 0.315836 0.504233 0.102014 0.30165 0.447942 0.0163086 -0.0145233 -0.411068 -0.254687 0.000767198
ababa -0.116464 0.691267 -0.279246 -0.121695 0.257953 0.383409 0.0526674 -0.226739 0.212854 -0.00865962
plenary -0.152713 0.170098 0.0900433 0.286317 0.42525 0.0612152 -0.2256 -0.701552 0.062852 0.00245402
placed 0.072445 0.038721 0.551177 -0.185435 0.393288 0.17849 -0.231672 0.00572092 0.544365 0.0041557
fee -0.314383 -0.234462 -0.171124 0.528954 0.22801 -0.164116 0.199367 0.0608221 0.544247 0.0111313
wrapping -0.340613 -0.696167 -0.0867883 0.113198 0.197011 0.0210924 -0.143432 -0.232149 0.396175 0.0153744
arrives 0.475831 0.328238 -0.245806 -0.367582 0.451494 -0.24831 -0.0373751 0.0233134 -0.316453 0.00163976
nothing 0.541908 0.323003 -0.101457 0.130403 -0.511396 0.0546643 -0.2559 0.0931007 0.36071 0.00798607
including -0.165605 -0.705001 -0.0261063 0.0983636 0.236836 0.302242 -0.220523 -0.259433 0.301909 0.0127876
annaanna -0.241667 -0.0807597 -0.658585 -0.350977 -0.0614265 0.17097 -0.171943 0.242843 0.379819 0.00411672
irišum -0.682209 0.0206407 -0.25662 0.228246 -0.511742 0.0346234 -0.183731 -0.0725541 0.117761 0.0153705
separately -0.518979 -0.591645 0.193953 -0.0836042 0.236834 -0.398529 0.113025 0.000758113 0.0949411 0.0117325
among 0.447778 0.19912 0.221936 -0.480332 0.479559 0.347826 -0.0991047 0.0812886 -0.1017 -0.00697163
ilīdan -0.359056 0.439469 -0.460468 0.0912002 -0.251388 0.42186 -0.287751 -0.0633339 0.153707 0.00558005
terms 0.233333 0.165284 0.513094 0.107328 -0.497539 0.322395 0.366899 0.204656 0.0407124 0.00784585
overland 0.0667143 0.217124 -0.148179 0.673078 0.502811 -0.257283 -0.0938113 0.127752 -0.109484 0.0115814
partner -0.0293895 0.409092 0.646905 -0.283491 -0.0212868 0.140154 0.0876758 0.0818291 0.437754 -0.000410211
soon 0.384205 -0.180707 -0.236775 -0.125097 -0.337761 0.0998924 0.627218 -0.300207 0.15253 0.00477765
ṭābṣillaššur -0.39649 0.0394671 -0.562047 -0.101984 -0.300643 0.284815 0.404671 0.264673 0.0270239 0.00218886
while 0.657322 0.0936167 0.197092 -0.589016 -0.023126 -0.0275848 0.252298 0.106848 0.0396084 -0.00726713
confirm 0.230324 0.442976 -0.0449078 0.0265237 0.357652 -0.460951 -0.371461 0.375632 0.0986193 0.0129851
three 0.380811 0.0208789 0.0381733 -0.420509 -0.544033 -0.408711 -0.0294615 -0.249694 0.178964 0.0157334
affair 0.143442 0.405023 0.699858 -0.0211509 0.0436818 -0.106603 0.0643134 -0.35468 0.273237 0.00512341
deducted 0.0375959 -0.258869 0.296555 0.368599 0.0233144 0.194326 -0.701976 0.164578 -0.130752 0.0238519
hahhum 0.137044 -0.465034 -0.464957 0.223177 -0.202271 0.113375 -0.0894765 -0.529572 0.195152 0.0168745
food 0.0416493 -0.401589 0.531852 0.0791903 0.154033 -0.376519 0.31273 -0.374568 0.163734 0.0128573
died 0.204621 0.391425 0.400319 -0.312648 0.146584 0.0950449 -0.480782 0.154677 0.382823 0.00545328
lamassī -0.35909 0.373528 -0.580725 -0.489039 -0.11795 0.136149 -0.143082 0.0390205 -0.0142353 -0.00240826
favour 0.557559 0.308873 -0.175491 -0.24559 -0.0628356 -0.351589 0.44263 0.229063 0.150059 -0.000347971
return 0.379923 0.274015 0.00340142 0.321724 0.120765 -0.291939 -0.042814 0.671606 0.0665846 0.0109236
ahuwaqar -0.837383 0.202058 -0.0353271 -0.152252 0.0412931 -0.177382 0.306754 -0.141307 -0.0332492 0.00166323
swear 0.189625 0.474442 0.249762 -0.0211749 -0.0852712 -0.273397 0.65441 -0.153559 -0.169509 0.00535474
annina -0.463963 0.207446 -0.633649 0.219595 -0.374622 0.13442 -0.0425213 0.0412414 0.167561 0.00849139
staying 0.454705 0.170506 0.161794 -0.324228 -0.0765636 -0.424482 0.295302 -0.178899 0.463099 0.00115216
lost 0.502474 0.0208069 0.294219 0.477947 -0.044544 0.145292 -0.378775 -0.0852635 0.385729 0.00938717
lāqēpum -0.599301 0.34764 -0.47326 0.0182548 0.0276005 0.0783009 0.0430842 -0.394719 0.182261 0.00372795
dark -0.368626 -0.604079 -0.0836019 -0.180498 0.287243 -0.15591 -0.391183 -0.193272 0.229693 0.0140931
bēlānum -0.652074 0.0948234 -0.358707 -0.0680207 0.185015 -0.322747 0.226248 -0.324567 0.192614 0.00651549
pūšukēn -0.653322 0.443112 0.161791 0.318771 -0.0714508 -0.0023855 0.288385 -0.207849 0.148736 0.00837414
yourself 0.725353 0.0494133 -0.351771 0.0689987 -0.154897 0.098005 0.399681 -0.121498 0.198866 -0.000102246
šalatuwar 0.447321 -0.23157 -0.110967 -0.0110234 -0.263221 -0.198141 -0.343527 -0.596051 0.185059 0.0112445
creditor -0.196251 0.341543 0.0276673 0.755538 -0.0772941 0.199232 0.256653 0.126791 -0.176608 0.00933232
enter 0.606215 -0.0186029 -0.088208 0.31008 0.433263 -0.339055 0.140916 0.268522 0.170074 0.00834878
open 0.643861 0.22621 0.300362 -0.176256 0.478345 0.255978 0.0575652 0.142206 -0.0200045 -0.00711267
ikūnum -0.70448 0.361415 0.0719737 0.081273 -0.390224 -0.118781 0.184397 0.026201 -0.256798 0.00690381
tax -0.0960141 -0.415114 0.159748 0.600452 -0.0885141 -0.47647 -0.172721 -0.214059 -0.037197 0.0246011
hanu 0.037033 -0.118768 -0.702541 -0.00603935 -0.092423 -0.0480721 0.0973824 -0.205707 0.557262 0.00754551
whom 0.433305 0.413655 -0.160899 -0.11479 -0.480722 0.16634 0.291334 0.0572058 0.383619 0.00276658
customers 0.344762 0.405889 0.124332 0.057849 0.161147 0.65977 0.206138 -0.287557 0.045536 -0.00855844
iramaššur -0.67966 0.333251 -0.16396 0.209126 0.237283 -0.355099 0.0463636 -0.276562 0.0120443 0.00130386
collect 0.668278 -0.202544 -0.0931193 0.174068 0.31018 -0.0184591 0.272012 0.448932 -0.00960408 -0.00212747
checked -0.17177 -0.408693 0.151894 -0.337357 0.64246 0.10981 -0.342724 -0.079548 -0.0631265 0.00968086
zukuwa -0.470211 0.0908409 -0.701877 -0.0882082 -0.107409 0.272366 -0.139692 0.195175 0.160119 -0.000151611
assets 0.447657 0.0106111 -0.0819543 0.0276855 0.465535 0.578739 0.152395 -0.303611 0.115465 -0.00860276
twice 0.376196 0.0697986 -0.610919 -0.0532331 -0.364846 0.0740368 -0.228626 0.263469 0.326168 0.0096754
become 0.357563 -0.0389787 0.470904 -0.160929 -0.419804 -0.291851 0.0489218 0.47085 0.133773 0.017694
lamassutum -0.571879 -0.162324 0.00455283 0.011042 -0.407107 -0.326234 -0.438007 0.0548758 0.255724 0.0211099
mother 0.090821 0.000700667 0.490644 -0.552969 0.154494 -0.00528158 0.201571 0.221828 0.465776 0.000571885
aššurrabi -0.435123 0.252678 -0.213411 -0.183437 -0.362487 0.39534 0.379321 0.18922 -0.300022 -0.00524489
ready 0.566539 -0.0699886 -0.13398 -0.201904 -0.279063 0.57598 -0.047153 0.0465159 -0.310375 0.00151917
place 0.404006 -0.124792 0.255602 0.131919 0.717429 0.0105899 0.259092 0.215268 0.00646412 -0.00033896
sworn 0.0776315 0.696717 0.383565 0.0102779 -0.240101 0.330293 -0.0978154 -0.268684 0.105054 0.00406447
listen 0.609705 0.355507 -0.212719 -0.566026 0.125168 -0.0921951 0.12502 0.05512 0.0197496 -0.00539901
delayed 0.770283 0.22108 -0.0880568 -0.427049 -0.154097 -0.194222 0.0297571 0.118682 0.0499015 -0.00127882
agreement 0.355197 0.38565 0.267571 0.38028 0.124443 0.20077 0.329536 -0.40444 -0.263319 -0.000976039
inahilī -0.132417 0.528898 -0.600089 -0.151302 0.248403 0.205639 -0.323422 0.0209011 0.0698371 -0.00726071
deposit 0.511664 0.011642 0.30002 0.333681 0.312828 0.0375901 0.383432 0.363844 0.217318 -0.00727333
earlier 0.136653 -0.214281 -0.419079 -0.308471 -0.246937 0.0835134 -0.421434 -0.435287 0.327143 0.00902164
slavegirl 0.207591 -0.185015 -0.346483 0.255376 -0.602461 -0.185969 0.0477867 0.295166 0.365021 0.012887
satisfy 0.27699 0.427191 -0.115212 0.437424 0.493854 -0.336641 0.251642 -0.023797 -0.069349 0.00488437
mannumkīaššur -0.273699 0.179728 -0.612852 0.122012 -0.22734 0.323183 0.0758657 0.462311 0.12012 0.00206985
rule -0.191797 -0.00732502 0.185079 0.603374 0.35931 0.231947 0.142917 -0.246143 -0.425155 0.0049737
belongs -0.17456 0.0300201 0.26008 -0.380464 0.355754 -0.331614 -0.613257 0.066836 -0.117498 0.0157418
elāli -0.361169 0.726373 -0.152908 -0.116791 -0.202534 0.226312 0.315268 0.0915328 -0.0928618 -0.00585496
absent -0.156687 0.443078 0.448788 -0.207485 0.0251053 0.259434 0.229435 0.00371249 0.549705 -0.00489606
once 0.314834 0.0202837 -0.647382 -0.104917 -0.310331 0.284598 -0.16867 0.2629 0.290843 0.00631897
questioned 0.236888 0.682278 -0.271826 -0.451978 0.180696 -0.0949603 -0.238224 0.0436695 0.0395314 -0.000416492
satisfied 0.189504 0.149794 0.463758 -0.362192 0.348089 -0.221569 -0.549353 0.081172 -0.0205494 0.00585887
uku -0.320111 -0.0247452 -0.761357 -0.136321 0.373754 -0.043126 0.215466 -0.0756913 0.0292804 -0.00282233
šamašbāni -0.496416 -0.207389 -0.375517 -0.490169 0.00547008 -0.16373 -0.441332 -0.0180806 0.0145302 0.00980512
orders 0.485079 0.100824 -0.211711 0.3664 0.341504 0.534854 0.223193 -0.0565706 0.110297 -0.00448344
ask 0.418319 0.0260224 -0.405031 -0.0981178 -0.0598363 -0.444838 0.496586 0.297635 0.0177564 0.00580091
messenger 0.0283487 0.180102 0.274787 -0.373743 0.475459 -0.196163 0.425751 -0.352046 -0.260089 0.00189512
passed -0.0931516 0.315293 0.36489 0.557779 0.0488555 -0.0359384 -0.565105 -0.0644448 -0.0191637 0.0160163
says 0.107698 0.306063 0.123609 -0.664774 -0.166779 -0.459296 0.103289 0.119241 -0.247467 0.00157797
eponym -5.2739e-05 0.510135 0.126711 0.383574 0.193211 0.0210308 0.187785 0.165717 -0.598618 0.00275406
inn -0.0943397 -0.683182 0.146851 0.213816 0.276863 -0.0687496 0.072715 -0.500549 0.087888 0.0118064
statement -0.00484088 0.582069 -0.00283657 0.0852444 -0.300449 -0.024623 0.574348 -0.345224 0.0189565 0.00585557
addition -0.289662 -0.423213 -0.0344813 -0.209467 0.491862 0.0166253 0.279736 0.187955 0.470284 0.00145762
entered 0.148714 0.199432 0.125081 -0.0172955 0.71833 -0.0613719 -0.498038 -0.101812 0.155247 0.00210527
ahšalim -0.647308 0.0920446 -0.215951 -0.253516 -0.122675 -0.547325 0.0592132 -0.160908 0.128177 0.00971118
behind 0.0686126 -0.0329119 -0.2539 -0.293433 -0.0812867 -0.0209745 -0.540551 -0.365668 0.529971 0.00719648
oil 0.00713983 -0.698084 -0.369331 -0.45425 -0.0383453 0.0337253 0.217407 0.0415537 -0.119767 0.00807116
payment 0.020444 -0.406217 0.17445 0.705779 -0.26419 0.0688694 -0.0363456 -0.142239 -0.300711 0.0208329
extra 0.286934 -0.53753 0.212273 0.568723 -0.0616967 -0.170493 -0.0566479 0.337175 0.0366484 0.01809
king -0.0853451 0.618858 0.041296 0.432242 -0.0141676 0.251026 -0.104268 -0.442649 0.197719 0.00784225
wages -0.240995 -0.470656 0.370826 0.382545 0.112649 -0.334446 0.387639 0.094349 0.197106 0.0146947
alulaya -0.594249 0.154416 -0.298435 -0.103964 -0.198508 0.357841 -0.190155 -0.250386 0.389048 0.00664569
full 0.347326 -0.228722 0.194545 0.647069 -0.43717 -0.091239 -0.177861 0.122495 -0.113045 0.018415
only 0.635511 0.0937332 0.082479 0.115575 -0.614602 -0.0489033 -0.135843 0.252965 0.0414511 0.0121244
jars -0.173756 -0.68998 0.26614 0.00171884 -0.445445 -0.198026 0.167866 0.150399 0.167528 0.0133637
tumliya 0.120451 -0.0725705 -0.00872913 0.12856 -0.524801 0.525573 -0.0979277 -0.0999463 -0.512984 0.0166198
possible 0.394808 -0.273802 -0.268329 -0.17093 -0.396077 0.116654 0.557226 -0.226605 -0.148003 0.00536956
ālṭāb -0.510647 0.385215 -0.0953451 0.218918 -0.0507766 -0.614209 -0.196057 -0.0638301 0.0823425 0.0101934
jointstock 0.075088 -0.0406348 0.317054 0.336331 -0.0847394 0.689063 0.347369 -0.105346 -0.214981 0.00529367
times 0.559117 0.00706754 -0.399365 -0.322719 -0.263089 -0.0544422 -0.351788 0.0115644 0.346795 0.0109845
offerings -0.0533388 -0.404342 0.119694 0.316698 0.0638132 0.690282 0.128363 0.117933 0.300242 0.00801039
abiya -0.582553 0.347751 -0.247301 -0.222456 0.362763 0.0169504 0.209539 0.114565 -0.375359 -0.00640674
sue 0.473449 0.593691 0.257573 -0.11776 0.333822 -0.227431 0.281634 -0.0485685 -0.0656092 0.00187312
wherever 0.567323 -0.00327284 -0.184719 0.0828864 -0.1566 -0.368583 0.13355 0.0172296 -0.589149 0.00726432
later 0.475016 -0.0728379 0.372692 0.424052 -0.134237 0.0379398 -0.530237 -0.162865 0.123035 0.0091761
stay 0.674172 -0.0777117 -0.011084 -0.129484 0.264863 -0.396243 0.270978 0.321017 0.13392 0.00209097
hurama -0.0319282 -0.373125 0.0928502 0.350894 0.176594 -0.419637 0.00677536 -0.625821 0.0585512 0.0156524
stand 0.48487 0.334857 0.0903718 -0.0492415 0.484806 0.0140357 0.221464 0.497873 0.00659956 -0.00958249
yourselves 0.457726 0.187515 -0.307253 0.211253 0.155136 0.307842 0.330869 0.0566262 -0.5214 -0.00467247
yet 0.551596 0.108941 0.214282 0.0540035 -0.418022 -0.161152 -0.51102 -0.0423773 0.24456 0.015279
agreed 0.556941 0.114019 0.0381726 -0.0817991 -0.451741 0.504377 0.220859 -0.142426 -0.189829 -0.000987436
show 0.776253 0.379717 0.0114992 -0.0664572 0.0146588 0.133536 0.141238 0.317092 -0.147122 -0.00361371
produce 0.535378 0.235631 0.0368609 -0.0612223 0.382909 0.0445229 0.56332 0.280865 0.00526244 -0.00796942
see 0.599155 0.175115 0.221029 -0.0452501 0.265406 -0.0500149 0.48476 0.333289 -0.188124 -0.00544712
along 0.564061 0.0904107 -0.303343 0.24422 0.083418 -0.161335 0.0521058 -0.47302 -0.391916 -1.33182e-05
grains -0.387098 -0.742151 0.138655 0.228556 -0.131827 -0.0753582 0.140976 -0.0147762 -0.286042 0.0169508
kukuwa -0.43455 0.190217 -0.328236 0.17337 -0.335667 0.334284 0.387364 0.388205 0.013685 0.00300811
purchase 0.401459 -0.482683 -0.425843 0.278468 0.215256 0.0595144 0.243781 0.147992 -0.331873 0.00765579
delay 0.627257 0.0831519 -0.146464 0.0220218 -0.024195 -0.525724 0.194109 0.353946 -0.181545 0.00692888
kura -0.669001 0.225188 0.011323 0.300282 -0.470952 0.0206816 -0.167057 -0.171261 -0.181774 0.0097391
bad -0.0440354 -0.483565 0.0828148 -0.171667 -0.236552 0.452307 -0.553604 0.122405 -0.16311 0.0104834
kuburnat -0.18458 0.102853 -0.304075 0.253081 0.342531 -0.165904 -0.054054 -0.719483 0.0796962 0.0111732
credit 0.294888 -0.276129 -0.191494 0.216512 -0.112487 -0.221296 0.480181 -0.0278011 0.578431 0.0142322
ago 0.182232 0.00609859 0.0964038 0.0216665 -0.749225 -0.227086 -0.205834 -0.368239 -0.176363 0.0270708
scribe -0.615649 -0.0333209 -0.00876741 -0.214024 0.369108 -0.161359 0.116247 -0.541147 -0.0171408 0.00523991
track 0.730256 -0.0595491 -0.111406 0.158644 0.0763084 0.414389 -0.240889 -0.0917561 0.289692 0.00750606
narrow 0.736999 -0.0872353 -0.165358 0.131269 -0.365313 0.284627 0.0991324 -0.178089 0.226382 0.0115299
hands 0.372595 -0.150734 0.273312 -0.00408238 0.742376 -0.0643032 -0.231282 0.179365 0.105931 0.00209143
second -0.0797741 -0.755177 0.388738 0.189068 -0.0467203 0.260388 -0.253282 -0.0124449 0.00218802 0.0115805
put 0.484849 -0.445179 0.243573 -0.0854549 0.36146 -0.394444 -0.0466718 0.286225 0.159203 0.00733738
comes 0.240704 0.24131 -0.165565 0.332469 0.235577 -0.636914 -0.260782 0.0919641 -0.298088 0.0133202
value -0.209163 -0.720696 0.215833 0.357733 0.00820988 -0.271886 0.120009 0.00106603 0.255858 0.0197505
concluded 0.163275 0.351365 0.405622 -0.215083 -0.183278 0.273041 -0.467821 -0.413295 0.155842 0.00198788
lulu -0.438088 -0.0092005 -0.535767 0.148745 -0.323641 0.26853 0.176328 0.37625 0.20144 0.00319159
sale 0.313106 -0.776763 -0.109073 0.061577 -0.145897 -0.0231927 0.153559 -0.00907507 0.36973 0.0100582
present 0.433105 0.251594 0.229447 -0.193853 0.112888 0.140929 -0.447831 0.433969 0.348792 0.00387608
loan -0.558 -0.0346656 0.209518 0.13035 -0.39376 -0.153577 0.281242 -0.204403 0.46125 0.0153885
guarantor -0.176071 0.390541 0.26938 0.292012 -0.559886 0.255987 0.11127 0.20352 0.332916 0.00581948
ušinalam -0.0218078 -0.0342118 -0.411254 0.287717 0.227439 -0.346662 -0.269569 -0.611916 -0.0581997 0.00943233
reach 0.581631 0.225799 0.191841 0.353293 0.0408493 -0.185466 0.530191 0.161125 0.0349364 0.000226933
akuza -0.714899 0.358663 0.132093 -0.0399357 -0.137256 0.377328 0.209613 0.128112 -0.149841 -0.0160446
profit 0.505878 0.00599523 0.234728 0.533145 0.0206716 -0.121211 0.306158 0.106158 -0.41805 0.00527666
answer 0.590655 0.211819 -0.131857 0.176476 -0.114296 -0.592365 0.188485 0.108158 0.205545 0.00938857
aliahums 0.00783152 0.0333007 -0.272696 0.0276432 0.549873 0.426267 -0.511138 0.010214 0.236723 -0.00126747
whatever 0.509461 0.0568473 -0.448901 0.173541 -0.377246 0.24722 0.135533 0.176079 -0.382024 0.00326364
became -0.0416123 -0.44638 0.432496 -0.218474 -0.49802 -0.387992 0.0520493 -0.200606 -0.0691602 0.018868
led 0.158209 -0.0887843 0.0239402 -0.227641 0.681667 -0.323303 -0.317945 -0.141312 0.318256 0.0117575
borrowed 0.0262607 -0.0976504 0.336837 0.630678 0.0271365 -0.359916 -0.456338 -0.000577031 -0.0885702 0.0292673
guard 0.53599 -0.410876 0.0802175 -0.261558 0.350954 0.218964 0.264166 0.322881 -0.146321 -0.00281781
instruction -0.0639429 0.0835138 -0.136629 0.664163 0.46949 -0.160331 0.191255 -0.351598 -0.0170688 0.0139106
witness 0.0819929 0.298038 0.0946659 -0.455631 -0.160499 -0.169551 0.634675 -0.337671 0.00919377 0.000332393
yes -0.0126342 0.4688 -0.453053 0.206027 -0.09094 -0.169074 -0.43281 -0.0391398 0.433034 0.01534
anatolian -0.0453826 0.137589 0.730187 0.313632 -0.127565 0.150128 0.0986231 -0.273634 0.332765 0.00838729
girl 0.202676 -0.120502 0.041455 -0.0831907 -0.288319 -0.0107234 -0.149858 -0.0234267 0.835222 0.00960035
transported -0.183599 0.119345 0.0313612 -0.672343 0.0605461 0.218095 -0.245099 0.0798564 0.513262 0.00845686
five 0.532745 -0.113986 -0.195664 -0.349186 -0.2368 -0.305631 -0.366254 -0.0242892 0.384312 0.0112404
hinnaya -0.0221229 -0.055863 -0.369127 0.548759 -0.136725 0.37392 -0.28591 -0.275729 0.342331 0.018215
akkadian 0.0206915 -0.763277 -0.455871 -0.260827 0.0372527 -0.131893 -0.094422 -0.0598549 0.0863561 0.0134903
report 0.502012 -0.0252356 -0.536321 0.208515 0.0787889 0.246813 0.428569 -0.0247871 -0.243847 0.000872316
being -0.263438 -0.306616 0.614103 -0.197112 -0.189168 0.326322 -0.273253 0.28957 -0.0946062 0.00986986
obstruct 0.52816 0.685694 -0.0607568 -0.102744 0.0720492 -0.257772 0.080011 0.214756 -0.138837 -0.0035434
hand 0.404588 -0.679137 0.403752 -0.0341015 0.097961 -0.101505 0.155271 -0.0327927 -0.262912 -0.000896378
missives 0.0551016 0.439167 -0.383376 0.0666184 0.504603 0.390746 0.196633 -0.0270342 0.306503 -0.00841807
importtax -0.154969 -0.60388 0.22953 0.274959 -0.0380987 -0.182668 -0.22193 -0.468159 0.249382 0.0191922
ummīišhara -0.46391 0.042506 0.281508 -0.325412 0.138641 -0.563208 0.193923 0.154406 0.299094 0.00750301
mind 0.593601 0.574006 0.0977138 -0.0704757 -0.232938 0.0447605 0.132768 -0.228593 0.286844 -0.00360969
responsibility 0.108481 -0.173578 -0.264707 0.179744 0.465078 0.273814 0.302825 -0.472743 -0.355597 -0.000169714
travel 0.272754 0.0805006 0.223244 0.465638 0.242083 -0.520273 0.357453 0.0141335 0.276261 0.0104019
atata -0.817146 0.297765 -0.0711557 -0.358958 -0.119865 -0.00321054 0.109722 0.000665881 -0.00524721 -0.00359691
fodder -0.0527731 -0.821917 0.295055 -0.102511 -0.0658615 -0.0677354 0.218495 -0.180069 0.186499 0.00499332
safe 0.265485 0.244344 0.0556811 -0.31428 -0.00577489 0.599683 -0.112145 0.398871 0.336088 -0.0162259
friend 0.575841 0.0526195 -0.199526 -0.456535 -0.246786 0.15162 0.042149 0.473388 0.0451411 -0.00425625
plur 0.682342 0.533001 -0.286758 -0.108098 -0.0713682 0.0747441 0.0811465 0.163301 0.149521 -0.00914875
innaya -0.502382 0.422568 -0.11949 0.442635 0.17051 -0.0681088 0.0655612 -0.0112609 -0.463283 0.0077062
opened 0.425921 -0.0453385 0.427415 -0.355381 0.489987 0.0378849 -0.353116 -0.148979 0.105807 -0.00325964
karum -0.255314 -0.216553 0.327082 0.0121 0.580058 -0.156104 0.275833 -0.261241 -0.398768 0.00125554
paternal 0.57464 0.26475 0.435086 -0.0733394 0.385746 0.315078 -0.0802061 0.0294367 -0.22781 -0.00583898
enahilī -0.625191 0.255637 -0.298865 -0.274496 -0.0210437 0.248693 0.052082 -0.386474 -0.255805 -0.00522017
bronze -0.140612 -0.716415 -0.116653 -0.314325 0.235955 0.255015 0.143917 0.32525 0.0469197 0.00359977
container -0.103447 -0.356771 -0.128738 -0.462641 0.562397 0.355406 0.176119 0.00326462 0.215465 -0.0039532
sheep -0.162328 -0.629716 0.319054 0.00780064 -0.514731 -0.149632 0.2659 0.00877337 -0.103388 0.0089613
favours 0.568111 0.353511 0.240723 -0.0776233 -0.311271 -0.080677 0.208545 0.449251 -0.187989 -0.00349125
anyone 0.57054 0.56252 -0.182003 0.122081 -0.309074 -0.19063 0.260854 -0.0292291 0.118059 -0.000299872
ikūnpīaššur -0.795 0.384732 -0.208235 -0.0141266 -0.0174917 -0.0732873 -0.00873676 0.246399 -0.153484 -0.00374425
security 0.0524682 0.369477 0.0599979 -0.432085 -0.636357 0.124949 -0.103992 -0.145235 0.319958 0.00510524
booked -0.0328365 -0.07091 0.572944 0.0562126 -0.217169 -0.034451 -0.0807107 -0.355003 0.597765 0.0101018
mine 0.576597 -0.345868 0.137539 -0.360521 0.356417 -0.127111 0.288072 0.223297 -0.125631 -0.0176218
alone 0.484033 0.153938 -0.238366 -0.569385 -0.366777 0.0266998 0.348409 -0.00806614 0.0223298 -0.00200678
sukkalliya -0.780007 0.222151 0.0433191 0.324067 -0.283894 -0.0126012 -0.225771 0.0594074 0.083522 0.0143497
reason 0.697447 0.00357976 0.0588166 -0.32609 -0.41738 -0.325346 0.123424 -0.0970654 0.0494498 0.00442257
truly 0.457893 0.35807 -0.070172 -0.300328 -0.0262484 0.261255 0.100372 0.61326 0.0254191 -0.00713894
many 0.398315 0.0402275 -0.129512 -0.659653 -0.18745 0.309995 0.0136499 -0.10097 0.368348 -0.00632999
turn 0.563007 0.357478 0.0635355 0.143141 0.309107 -0.39294 0.400564 0.129488 0.0211896 -0.00376081
during 0.146538 -0.339908 0.510195 0.478242 -0.0293995 -0.200412 -0.457245 -0.0520987 -0.0245609 0.0238358
zuba -0.722665 0.133796 -0.141167 0.246479 0.35581 -0.0886392 0.174525 -0.179781 -0.292063 -0.00556117
returned 0.0250083 -0.0991839 -0.324828 -0.1954 -0.0219298 -0.485421 -0.632817 -0.242584 -0.140978 0.019268
iddinabums 0.0430099 0.494994 0.258732 0.169078 0.0948352 0.480548 -0.376889 0.278118 0.287156 -0.00263278
šuli -0.666869 0.479527 0.151416 0.340882 0.10998 -0.248828 -0.127454 0.0498807 -0.02471 0.00987521
šumiabiya -0.633671 0.25281 -0.0677895 0.0440977 0.59892 0.0844361 0.18219 -0.139811 0.104342 -0.00764258
lawsuit 0.341449 0.578116 0.225686 -0.177385 -0.364164 -0.088696 0.119852 -0.151429 -0.428729 0.00319384
furthermore -0.467767 -0.426212 0.0750132 0.0775162 -0.196884 0.311394 0.507622 0.283844 0.0696367 0.00457953
ilīālum -0.813548 0.0566497 0.310916 0.137538 0.172036 -0.229712 -0.0908903 0.0508448 -0.194502 0.00760855
uraya -0.542385 0.675591 0.0266641 -0.0794148 -0.0267642 0.175423 0.194715 -0.199312 -0.200926 -0.00883485
court 0.397489 0.567882 -0.00328932 -0.115323 0.0195065 -0.299149 0.0980312 -0.464637 -0.289973 0.000499604
refused 0.521128 0.45806 -0.320188 -0.0770896 0.067986 -0.13968 -0.360084 0.139892 -0.364978 0.00518624
ilištikal -0.574751 0.0254153 -0.387857 -0.370306 -0.379468 0.0270004 -0.268244 0.228051 -0.101173 0.00429179
copy 0.155102 0.38092 -0.274186 -0.207446 0.127912 0.540711 0.223493 -0.373789 0.318468 -0.0036838
indebted -0.131165 0.0317896 0.0536594 -0.139174 -0.747579 -0.394087 -0.288807 0.0732199 0.162521 0.0239208
decide 0.758306 0.120613 -0.115786 -0.107667 -0.130999 0.231977 0.386338 0.188621 0.182269 -0.0100454
merchants 0.537285 -0.284255 -0.031534 0.650857 0.139487 0.230949 -0.0214388 -0.161552 0.0791284 0.00543952
worry 0.585196 -0.187734 0.153012 0.00838207 -0.582 0.0157362 0.352689 0.172297 -0.0147465 0.0097537
aššurennam -0.479998 0.148074 0.18072 -0.4089 -0.180517 -0.255569 0.363978 0.126048 -0.438257 0.00154659
already 0.474677 0.269822 -0.160139 0.207819 -0.325589 -0.0828243 -0.314445 -0.0635937 0.550131 0.0120009
front -0.163283 0.0324665 0.671865 -0.187524 0.277525 0.305812 -0.245788 -0.0486022 0.375104 0.00129365
remains 0.344922 -0.398064 -0.0266684 0.373273 0.328732 0.384471 -0.138367 0.440397 0.0260427 0.00733726
adadbāni -0.729111 -0.0387663 -0.125876 -0.292695 0.198891 -0.319912 -0.104428 -0.294093 -0.172516 0.00708209
jointly 0.263252 -0.125865 0.502302 -0.364811 -0.366197 -0.00261022 0.317071 0.382724 -0.184913 0.00637033
aššurrēṣī -0.553002 -0.0908439 -0.2504 -0.251975 -0.281315 -0.487296 -0.254688 -0.220397 -0.1502 0.0101024
reached 0.566111 0.651149 -0.102586 0.00229527 0.0780772 -0.100014 -0.0740934 -0.339301 -0.121253 -0.00165116
released 0.441387 0.034877 0.430835 -0.150709 0.310192 0.246432 -0.261428 0.450111 0.231308 -0.0104738
uzua -0.754978 0.257991 0.353075 0.287041 0.0148565 -0.0948571 0.209261 0.0759853 0.0891902 0.00762415
instead 0.356685 -0.398407 0.128194 -0.361653 -0.622331 -0.135854 0.0193152 -0.0616455 -0.216219 0.00942897
detain 0.621545 0.334723 0.0792726 -0.477187 0.203393 -0.217631 -0.235296 0.142724 -0.0847168 0.00320234
total -0.0527554 -0.598978 0.266824 0.330813 0.311909 0.425668 -0.06841 0.255401 -0.0371138 0.00245314
check 0.409461 0.0275015 -0.240201 -0.356903 0.39802 0.345475 0.115445 0.465556 -0.157049 -0.010996
extrafine 0.0058221 -0.675356 -0.408708 -0.154298 -0.106644 0.34174 -0.317163 0.132713 -0.0150989 0.00982196
azu -0.516084 0.0639231 -0.669414 0.0203277 0.107858 -0.255725 0.252691 0.137608 0.144115 -0.00388546
kept 0.497695 0.324428 0.380638 -0.578705 0.013925 -0.0478508 -0.169833 -0.184847 0.05346 -0.00420807
clothes 0.173283 -0.732797 0.194152 -0.0259942 -0.139163 -0.10166 0.355103 0.199334 0.305703 0.00419514
šalimbēlī -0.191975 -0.499786 -0.5932 -0.150617 0.0947893 -0.289966 0.372449 0.000716757 0.00731734 0.00702109
salliya -0.387757 0.546512 -0.26216 -0.303213 -0.282861 0.323761 0.0757288 -0.0765961 0.302979 -0.00511904
garment 0.294095 -0.412261 -0.268092 -0.312123 0.167618 -0.525845 -0.278356 0.123907 0.256452 0.00598675
agent 0.243289 0.351249 -0.141241 -0.033274 -0.599758 -0.0535081 0.255351 -0.501138 0.00707244 0.00173249
iddiništar -0.701146 0.454745 0.283811 -0.133585 0.254334 -0.200996 0.0612957 0.0740412 -0.038506 -0.00346663
same 0.00306351 -0.0956142 0.302776 -0.09726 -0.341063 0.658432 0.104157 -0.441901 0.115172 -6.21226e-05
abarnian -0.00963047 -0.835875 -0.117751 -0.293327 -0.191097 -0.169841 -0.177846 -0.0595885 0.0173855 0.0110895
asked 0.0192799 -0.0351175 -0.168254 -0.320554 -0.359978 -0.385075 -0.634616 -0.0497837 -0.231731 0.0181837
losses 0.133836 0.13662 0.84398 -0.100328 0.289519 0.139491 0.181022 -0.0407715 -0.0178113 -0.00455126
offering -0.0105751 -0.231972 0.147301 0.293242 0.0982774 0.751242 0.0140334 0.291272 0.242848 0.00219394
hall 0.188213 0.470798 0.229625 0.6166 0.12391 0.317074 -0.245877 -0.117166 0.101253 0.00341148
sack -0.318957 -0.453841 0.296212 -0.144585 -0.58666 -0.247258 0.183637 0.175558 0.0481817 0.014152
shipment 0.187834 -0.692121 -0.0614961 0.0981381 0.278519 -0.00357383 0.119638 0.148733 0.497068 0.0107787
fem 0.393411 -0.0942318 -0.599331 -0.396748 0.165343 0.0935092 -0.0693354 0.385427 0.152234 0.00095965
expense 0.179506 -0.599303 0.578541 0.350766 0.090823 -0.0691763 0.179723 0.0053549 0.0532125 0.0101369
weight -0.349768 -0.331745 0.721024 0.15226 0.0182474 0.306898 -0.0876303 0.0511475 0.128453 0.00912526
hire 0.371931 0.348734 0.27347 0.373728 0.235762 -0.450129 0.267523 -0.25463 -0.144841 0.00240153
instructed 0.429489 0.149017 -0.244616 -0.659878 0.0265314 -0.395441 0.0662115 0.148663 0.0870575 -0.00509153
free -0.441229 -0.212899 -0.0568498 -0.279521 -0.662637 -0.0592065 -0.255166 -0.160689 0.158679 0.0225334
aššuremūqī -0.596492 0.508366 -0.290601 0.0574738 0.00994733 -0.261736 0.2196 -0.265435 0.120923 0.00834363
amuršarrassa 0.065829 0.161577 -0.717912 0.413668 0.0933052 -0.231529 -0.0864626 -0.184722 0.260238 0.0111975
ewarimuša -0.208197 -0.412388 -0.673326 -0.0990657 0.125603 0.259702 0.303777 0.15513 0.133131 -0.000440754
settle 0.150061 0.38757 0.00535353 -0.116575 0.553614 -0.0732926 -0.362071 -0.477193 -0.15752 0.00448791
dadaya -0.411151 0.491437 -0.394899 -0.0215891 -0.0231437 -0.188301 0.410415 0.0817084 -0.34282 0.00254839
kutānutextiles -0.229417 -0.660053 -0.178004 0.118595 -0.217046 0.0718161 -0.326316 -0.366473 0.237557 0.0215496
illilbāni -0.804674 0.0441194 -0.164313 -0.0496928 -0.0726116 0.0909275 0.432499 0.171907 -0.0237583 0.000532884
invested -0.562271 0.0207517 0.033795 0.0854933 -0.0308497 0.139946 -0.551154 0.452434 0.179161 0.00954899
ilīašrannī -0.637018 -0.153646 -0.24564 -0.297852 0.100329 0.325565 -0.03602 -0.248114 0.376294 0.000582992
mannumkīiliya -0.277031 0.021873 -0.616749 -0.196961 0.0507095 -0.0222951 0.504355 0.361545 0.0479618 -0.000431954
package -0.115092 -0.496821 -0.243209 0.339458 0.36619 0.357944 -0.421595 -0.119016 0.0240307 0.00261583
cover 0.0603777 0.0427065 0.145031 0.510089 -0.209114 0.406563 -0.342295 0.420263 0.287884 0.0157572
kūnilum -0.604609 -0.262187 0.0712602 0.120074 -0.125565 -0.473039 -0.172717 0.0603013 0.409985 0.0131407
fees -0.0215409 -0.52114 -0.113448 0.719916 0.0721267 0.0172854 0.0461601 -0.0219064 0.276615 0.0169195
envoys -0.110197 0.29703 0.143056 0.186153 0.357133 0.220306 -0.137566 -0.640809 0.337909 -0.000928946
balanced -0.31305 -0.447403 0.520658 -0.333369 0.124547 -0.166435 -0.21315 0.241008 -0.248802 0.0155046
like 0.589692 0.0463024 0.226702 -0.517596 -0.175129 0.00879335 0.417425 0.0418305 0.149349 -0.00715063
ibniadad -0.474756 -0.206603 -0.274577 0.120878 -0.278134 0.407696 0.431329 0.0584377 -0.313035 0.00567851
slavegirls 0.511941 -0.392873 0.141891 -0.00687356 -0.0158984 0.399974 0.385385 -0.0339627 -0.379501 -0.0115807
yours 0.658697 0.240364 -0.265052 0.0606397 -0.382729 0.193811 -0.109459 0.220181 -0.299127 -0.0105901
bags -0.193342 -0.877966 0.0680946 -0.168355 0.168837 -0.0594389 0.0574454 0.1602 0.0235512 0.00873312
ship 0.560865 -0.414824 0.0998981 -0.0640029 0.368431 -0.172726 0.134985 0.460738 -0.00139941 -0.00116935
obtain 0.554933 -0.0740267 0.010003 0.35714 0.487693 -0.0877521 0.224494 0.0339939 -0.391832 0.00682011
belong -0.137925 -0.31907 0.0856499 -0.483611 0.29557 -0.208471 -0.276072 0.520757 -0.18729 0.0155373
writing 0.331933 0.225796 -0.295221 -0.569672 -0.512085 0.119183 -0.0362873 -0.113862 0.166792 0.00305499
next 0.432334 -0.335002 -0.331121 0.355393 0.435432 -0.100659 0.385888 0.0860634 -0.0417791 0.00546953
trip 0.469696 -0.153283 -0.308887 0.394344 -0.0406215 -0.311703 0.140829 -0.522424 -0.0536686 0.00752513
else 0.57324 0.32755 -0.140199 0.325443 -0.251688 -0.477817 -0.159662 0.109532 -0.0914293 0.0104046
shipped -0.136123 -0.2744 0.0582567 -0.157781 0.52882 -0.502196 -0.376306 0.121696 0.259292 0.0121914
top -0.12741 -0.236261 0.296025 0.596707 -0.0529705 0.506747 0.321242 0.0625364 0.0119774 0.0101654
bloodmoney 0.480061 0.596202 0.0982105 0.126226 0.260754 0.239507 -0.176236 -0.341015 -0.129646 0.000970786
mamma -0.168159 -0.106503 -0.307295 0.589521 -0.0310094 -0.206093 -0.416085 -0.423269 0.0304501 0.0178946
funds -0.343317 -0.592166 0.338105 0.0264966 0.290948 0.136123 0.374131 0.154565 0.211513 0.00164458
long 0.708419 0.0106255 0.340988 -0.251602 -0.271353 0.334235 0.0853516 -0.142268 0.108291 -0.00508249
ušinalams -0.37986 -0.278061 -0.408179 0.0379486 0.198706 0.580029 -0.207353 -0.117775 -0.259932 0.00407194
official -0.274483 -0.557013 0.314014 0.433984 -0.0996134 -0.0741531 -0.03641 -0.314175 -0.314061 0.018365
responsible 0.409433 -0.367716 0.447429 -0.15846 -0.116619 0.0202065 0.23858 0.268845 -0.467651 0.00205153
manana -0.682698 0.418461 0.0547861 -0.214229 0.0488768 0.170022 0.360609 -0.121724 -0.197705 -0.012934
swore -0.107479 0.511987 0.690706 -0.0020865 0.0522269 0.165947 -0.00179538 -0.313229 -0.136502 -0.00237174
packet 0.307445 -0.453967 0.569757 -0.0497244 0.310842 0.019508 -0.404597 0.0442788 0.0520306 0.00923015
road 0.647406 -0.14881 0.0362026 0.494962 -0.263862 -0.123976 -0.180936 -0.166844 0.260147 0.0127165
šutammuzi -0.0786468 0.668504 -0.574452 -0.218845 0.113315 0.145544 -0.0472787 0.12423 -0.124504 -0.0115009
idnaya -0.39952 0.317263 -0.326894 -0.374263 0.114092 0.483474 0.342937 0.0114555 0.145192 -0.0138387
dānaššur -0.663861 -0.278472 0.0263968 0.215412 -0.00209736 -0.471144 0.0329051 -0.0687296 0.321377 0.0172489
discuss 0.327595 0.621244 0.00467752 0.285422 0.425863 -0.0665541 0.367139 0.00288331 0.0138178 -0.00806068
containers -0.216767 -0.15446 0.0453807 -0.289514 0.356844 0.727792 -0.103284 -0.113473 0.216086 -0.00717683
harnessor -0.334869 -0.30036 0.509544 0.156537 -0.216745 -0.00140801 -0.33949 -0.315378 0.36849 0.0149108
elaya -0.119499 0.509032 -0.673145 -0.356686 0.00337877 0.0847982 -0.065208 0.114881 -0.137637 -0.00728024
tūramilī -0.85397 0.277204 -0.0197303 0.00533955 0.00428836 0.101099 -0.25697 0.126525 0.129473 -0.00146041
save 0.615096 0.0356611 0.10883 -0.382612 0.0814504 0.314204 0.443997 0.13176 -0.187347 -0.0174184
fact 0.274226 -0.00694511 0.0857039 -0.134086 -0.050447 -0.211078 -0.190503 -0.302494 0.771724 0.00301365
four 0.321108 -0.150258 0.0544449 -0.586208 0.28712 -0.0982801 0.193537 -0.265641 0.460395 -0.00425112
collected 0.105868 -0.264474 0.190556 0.324818 0.359609 -0.615431 -0.31868 0.0861287 -0.188271 0.0201521
lest 0.776097 0.00471816 0.00966411 0.0759017 -0.00306554 -0.306724 0.044131 0.12881 -0.428491 0.00561332
convert 0.643731 -0.353841 -0.188297 -0.0675608 0.504961 -0.0532245 0.0170747 0.223134 0.12647 -0.00154225
clothing -0.348808 -0.380615 0.684979 0.177099 0.132672 -0.0194603 0.0830804 -0.0239341 0.319773 0.0105369
šummalibbiaššur -0.470723 -0.379496 -0.493003 0.347632 0.00220287 0.0178145 0.312823 0.0972039 -0.244794 0.00740297
lot 0.554937 0.415985 0.0973421 0.315208 -0.363139 -0.247346 0.0665193 0.210429 0.260193 0.00416079
could 0.566149 0.174446 -0.00801272 0.0183637 -0.246637 0.203244 0.0130932 -0.227474 -0.618545 0.00714807
making -0.135109 -0.345417 -0.0659313 -0.122024 0.130719 -0.675613 -0.120615 -0.257343 -0.403379 0.0176111
suennādā -0.704293 0.33541 -0.284402 0.101968 -0.10121 -0.0848223 -0.0961729 0.00246979 0.422626 0.00262409
storeroom 0.216962 -0.233967 -0.366859 -0.0802241 0.69778 0.223768 0.159386 -0.00589176 0.284917 -0.00282064
himself 0.135798 -0.0032117 0.535184 0.0469702 0.0117179 -0.490352 -0.0966956 0.293885 -0.482136 0.0150185
debtnote 0.220251 0.0069359 0.393902 0.0636911 0.387957 0.299294 0.62415 0.203561 -0.00911609 -0.0133343
pass 0.0760946 0.158957 0.046016 0.555484 0.487625 -0.442305 0.0675351 0.316349 -0.0238292 0.00946643
tithe -0.0492023 -0.129366 0.223961 0.796472 0.126828 -0.033856 -0.201723 -0.321452 -0.120387 0.0169719
loans 0.298857 -0.132483 -0.0672344 0.251128 -0.522179 0.553644 0.291265 0.0869893 0.185956 0.0123883
assurmalik -0.559433 0.172979 0.4722 0.169936 0.266269 -0.196798 0.328525 -0.288525 0.0515441 0.00505303
gods -0.110691 0.0600549 0.831295 -0.0693375 0.088953 0.158025 0.260061 -0.154127 0.236904 -0.00654208
copies 0.124499 0.120728 0.0220203 0.00514281 0.388951 0.801438 0.158829 -0.181986 -0.0130158 -0.00887984
look 0.6517 -0.296275 0.0521565 0.250475 -0.105137 0.189619 0.453294 0.0528283 0.25783 -0.000639312
abaya -0.162829 -0.183918 -0.511297 -0.505102 -0.144167 -0.0784713 0.523946 0.0644376 0.0238256 -0.0123527
overdue 0.098962 0.191391 0.341495 0.0542891 -0.651581 0.241554 -0.153161 0.367714 -0.263664 0.0137784
šalimahum -0.56859 0.463064 -0.117796 0.117759 -0.183737 0.231963 -0.438384 -0.158524 -0.166684 0.00683684
holds 0.0147161 0.46565 0.214806 -0.270519 -0.0698558 0.209184 -0.519895 0.458681 -0.125254 0.000393508
alive 0.408176 0.112951 0.43572 -0.433017 -0.11809 0.191156 0.0191554 0.141596 0.510495 -0.00681386
meet 0.46473 0.3097 -0.392874 0.0738248 0.107817 -0.424497 0.169028 -0.243601 -0.374987 -0.000334046
express 0.499204 -0.322215 -0.183274 0.259042 0.0879459 0.235903 0.610092 -0.0260304 -0.0379829 -0.00173121
wašhaniya 0.140002 -0.058816 0.160179 0.0818973 -0.0566696 -0.150436 -0.243442 -0.658535 0.540166 0.0111716
pins -0.202704 -0.706073 -0.20075 -0.370917 0.0826658 0.221162 0.215656 0.227155 -0.158773 0.0014011
memoranda 0.00854613 0.468472 -0.293055 -0.0122185 0.0464147 0.646206 0.191382 -0.298356 0.184996 -0.0117111
memorandum 0.412698 0.217034 0.0162348 0.466223 0.265398 0.41829 -0.0760042 -0.128572 0.428912 -0.00527682
šulaban -0.577775 0.399527 -0.0982037 0.0111442 0.335812 0.265281 -0.0695062 0.0283274 0.453306 -0.00554203
aššurdan -0.730819 0.395284 -0.281238 -0.322531 0.0906336 0.12979 0.000863889 0.116965 -0.0156041 -0.00826156
ṣilliya -0.281298 0.280768 -0.434332 -0.0719873 0.361244 0.536686 -0.237499 0.0658618 0.229362 -0.0152394
amounted -0.176942 -0.714466 0.262596 0.357027 0.130465 -0.136149 -0.0137453 -0.182066 -0.290855 0.0169612
breads -0.77547 -0.0811264 -0.0946621 -0.0859467 0.0112642 -0.41167 -0.214218 0.0298636 -0.256637 0.00705604
idnāya -0.805618 -0.111454 0.140928 0.0898526 0.209873 0.232901 -0.0605583 0.21742 -0.266679 -0.000860746
question 0.496363 0.697256 -0.11901 0.261842 0.153965 -0.198088 0.141189 0.0837753 0.00720925 -0.00742809
ennamaššurs 0.0536965 0.45304 -0.287867 0.443344 -0.154765 0.271202 -0.320851 0.338254 0.286631 0.0052071
acorns 0.0950911 -0.481094 0.112012 -0.192642 0.230682 0.0650534 0.435536 0.577667 0.0930009 0.00641443
shoes 0.183519 -0.614407 -0.414356 -0.363588 -0.204974 -0.00253518 0.114407 0.114993 -0.330135 0.00964442
kudātum -0.389644 0.308343 -0.729738 0.00249909 0.100995 0.170507 -0.24986 0.108155 0.0785859 -0.000779362
investment -0.0865167 0.140453 0.496258 0.583483 -0.454014 0.0501418 0.0261047 -0.203748 0.128755 0.0178309
produced -0.0661705 0.433202 0.431438 -0.215491 0.301367 0.439026 -0.195746 0.35031 0.124279 -0.0145281
testament 0.0923848 0.36876 -0.0778684 -0.0141426 0.316647 0.712363 0.0354129 -0.271722 0.223702 -0.00996125
damqaya -0.193455 0.145104 -0.783836 -0.16707 -0.0730586 0.306028 0.168668 0.242098 0.0815126 -2.2912e-05
zalpa 0.0198029 -0.0941258 -0.560248 0.249852 0.50371 -0.101702 -0.099421 -0.470535 -0.042987 0.00508556
colonial -0.0461397 -0.381048 0.382276 0.420263 0.165037 -0.112151 -0.50304 -0.324932 -0.0909571 0.020185
tuhpiya -0.256677 -0.254384 0.536638 0.0910443 0.0333561 -0.552664 0.0138965 -0.374069 0.102143 0.0141826
carry 0.574254 -0.131946 -0.145994 0.238625 0.414697 -0.401615 0.0155784 0.319643 0.183774 0.00630466
refuses 0.318526 0.373675 -0.318316 0.0237583 -0.0892966 -0.126408 -0.0862301 0.0768938 -0.707837 0.00430676
missing -0.128606 -0.570332 0.295731 0.385465 0.103983 0.319738 -0.15551 -0.0861986 0.404628 0.0139205
hearing 0.485963 0.338495 -0.202778 -0.552047 -0.30759 0.246408 -0.171941 -0.129151 -0.00434302 -0.00444781
burušhattum 0.0911943 -0.48055 0.0652741 0.433157 0.191981 -0.538176 -0.225001 -0.264789 0.0683247 0.019109
garments 0.0970682 -0.707929 -0.293325 -0.269795 -0.0244419 -0.383089 -0.0339442 -0.267083 0.054548 0.0139738
approach 0.158619 0.681851 -0.148748 -0.458691 0.256983 -0.313793 -0.0332591 0.0500632 -0.084414 -0.00845532
šātanna -0.479955 -0.0368917 -0.594048 0.0870397 -0.33987 0.0156447 0.168727 0.0101178 0.396143 0.00853816
assurtaklaku -0.482402 0.37303 0.0810242 -0.125367 0.371337 0.378155 0.437101 -0.136769 0.104518 -0.0120705
levied -0.276708 -0.33792 0.0449691 0.0901424 0.546534 -0.366253 -0.10479 -0.414801 -0.250916 0.0132112
baziya -0.786843 0.345278 0.120756 0.0494011 0.0338079 -0.0557287 0.14087 -0.0398451 -0.360981 -0.00221013
accrued 0.139569 -0.0769391 -0.0633957 0.690622 0.112577 0.0313908 0.107808 0.313954 -0.49695 0.00920704
disposal 0.042639 -0.634845 0.364344 0.165054 0.0674235 -0.262506 0.41128 -0.0205953 0.28385 0.0114426
letters 0.0452528 0.247557 -0.00364268 -0.656981 -0.00495047 -0.00876448 -0.0160551 -0.521296 0.338714 -0.00163454
obtained 0.283196 0.421972 0.263448 0.0354675 0.138037 0.0213262 -0.616965 -0.38523 0.0722779 0.00564678
erišum 0.0108465 0.581959 -0.423305 0.0299631 -0.0450806 0.496286 -0.0138408 0.345169 -0.0497836 -0.0115837
aššurṣulūlī -0.636086 -0.377299 0.00632503 0.0892808 -0.0253727 -0.363463 -0.157334 -0.423536 0.0742325 0.0134869
aššurmūtappil -0.286199 -0.536955 -0.304156 0.123189 -0.122524 -0.391932 -0.170418 -0.301239 0.343905 0.0199478
timelkiya 0.0413783 -0.0433093 -0.543751 0.399294 0.354587 -0.204899 -0.407107 -0.185422 0.240206 0.00877252
declared -0.237698 -0.1121 0.236017 0.214794 0.389528 -0.278471 -0.60924 -0.258313 0.194208 0.0133448
ṣilulu -0.450715 0.454509 -0.561338 -0.321346 -0.117902 0.0853052 0.210523 0.0473816 -0.0717868 -0.0105473
ennambēlum -0.362028 0.178388 -0.214786 0.584722 0.106494 0.487517 0.00151099 0.0712024 -0.287823 -0.00632542
uzuwa -0.828647 0.286044 -0.217126 -0.0064077 0.109836 -0.031593 -0.195306 -0.0875112 -0.200739 -0.000767042
asānum -0.273007 0.146731 0.349811 -0.772325 -0.257554 -0.00050451 0.0686643 -0.0185242 -0.0427228 -0.0148919
basis 0.191771 0.539642 0.344598 0.216546 0.235042 0.158909 0.403028 -0.269838 0.276382 -0.0139066
again 0.688577 0.139431 -0.138568 0.134913 0.382552 -0.278954 -0.319207 0.0430824 -0.206407 0.00511255
therefore 0.63432 0.13348 0.454041 0.0330967 0.203653 0.0975919 -0.180619 -0.379683 0.204714 -0.0120249
things 0.466509 0.0897684 -0.092639 -0.46333 -0.164023 0.411217 0.00658575 -0.0155554 0.493621 -0.00445796
lives 0.243458 0.380537 0.412544 -0.557103 0.402182 0.224784 -0.00257512 -0.0232908 0.0392643 -0.00818099
final 0.391841 0.0398817 -0.569349 0.017174 0.387651 0.300786 0.391585 0.103908 -0.0810728 -0.0092187
observe 0.827845 0.0316679 -0.00797639 -0.215278 -0.0358269 0.112559 0.00515074 0.394285 -0.0832037 -0.00773974
amriya -0.772251 0.258463 0.0544047 0.233602 -0.10231 0.241899 0.164482 0.0590902 -0.29795 0.00468367
packets -0.0654939 -0.623652 0.217584 -0.0746401 0.314626 -0.139472 -0.0627794 -0.299018 0.475934 0.0110159
conclude 0.579173 0.514356 0.279997 0.0922122 0.0303861 0.11753 -0.00209594 -0.440762 -0.0763289 -0.00630492
submit -0.05122 0.787784 -0.121497 0.0296817 0.371069 0.256487 0.155144 -0.0767887 -0.159907 -0.0135985
adada -0.75568 0.309186 0.135376 -0.223967 -0.191897 0.0909669 0.0316473 -0.212668 0.288628 0.000362876
wait 0.682146 0.433796 0.187628 -0.153043 0.153901 -0.301943 0.0233157 0.159797 -0.230137 -0.00816106
little 0.549001 -0.570105 0.274766 0.226783 0.159966 -0.180828 0.125452 0.130605 -0.2337 0.0159569
ones 0.203701 -0.783871 -0.249381 -0.31689 0.020247 -0.0128729 -0.239962 -0.150467 0.00280551 0.00910419
acquire 0.648652 0.143574 0.434835 0.0793931 0.260642 -0.161444 0.355897 0.122037 -0.175168 0.000996639
successor -0.564538 0.195262 0.329084 0.228115 0.0534183 -0.042369 0.0563893 -0.208859 -0.56859 -0.00283664
firm -0.0348689 0.556962 0.136256 -0.128768 0.118749 0.580812 -0.265986 0.072555 0.334814 -0.0102977
treated 0.594492 -0.0838081 -0.0166801 -0.575489 -0.373265 -0.145235 -0.0542916 -0.0255676 0.20573 0.00533359
converted 0.420067 -0.498602 -0.248513 -0.0866016 0.365086 0.068028 -0.268041 0.218135 0.373352 0.00984547
third 0.180604 -0.283286 0.649231 -0.00215003 0.0520574 -0.0604016 -0.0150389 -0.10462 -0.577551 0.00214593
got 0.275453 -0.106896 0.100391 0.501081 0.331329 0.289531 -0.500176 -0.140531 -0.26231 0.00786851
matters 0.303748 0.22337 0.0371333 -0.542369 0.102956 -0.0522091 0.263158 -0.577269 0.176762 -0.00525082
kurara -0.566393 0.336418 0.39966 0.178471 0.253312 -0.357334 0.106586 0.0343772 -0.265692 0.00446162
ulama -0.203748 0.0883795 -0.456603 0.167158 0.248073 -0.496092 -0.0903839 -0.521082 0.0879242 0.00743054
traders -0.0206777 0.0421741 -0.0505947 -0.20901 -0.0325013 -0.0717783 0.66376 -0.610105 -0.0657755 0.00812712
great 0.651784 -0.0323447 0.358446 -0.225196 -0.205779 0.298413 0.335011 -0.0691825 0.218011 -0.00663206
returns -0.0584411 0.185027 -0.234954 0.508647 -0.237109 -0.560484 -0.231823 -0.0122796 -0.316476 0.0205205
decision 0.321996 0.0624173 -0.0231111 0.11413 0.00285404 0.564229 0.237625 -0.617479 -0.0482981 0.000648355
anahili -0.4523 0.34896 0.366357 0.468729 0.0614191 -0.203567 0.179146 -0.0850824 0.356858 0.0108238
cannot 0.499374 -0.00824726 -0.0757799 -0.0806278 -0.123762 -0.416835 -0.0504678 -0.197314 -0.623998 0.0110898
safely 0.416484 -0.00364276 -0.305124 0.329413 0.461369 -0.0219531 -0.485396 -0.18669 0.166652 0.00828187
firewood 0.0529548 -0.663951 0.0460909 0.151933 -0.414325 -0.423531 0.259999 0.0797506 -0.0272842 0.00908159
assur -0.0316351 0.297525 -0.0656423 0.262608 0.413844 -0.582461 -0.200397 -0.39452 -0.0837885 0.0142618
imdīilum -0.560836 0.142699 -0.0624421 0.448182 -0.0838968 -0.573633 -0.0888652 0.0584623 -0.082791 0.0152216
following 0.114719 0.192572 0.180964 0.385411 0.465692 0.117049 -0.236825 -0.554988 -0.223376 0.0070004
measure 0.0264398 -0.00882037 0.374304 -0.136894 -0.398004 -0.125347 -0.0821549 0.708134 -0.164904 0.0158336
spoke 0.0933828 0.81341 0.19457 -0.17341 0.141727 -0.309493 0.138376 -0.165993 0.0437445 -0.00377814
export -0.364966 -0.673954 0.0593462 0.334262 -0.208885 -0.287729 0.0857791 -0.0499985 0.234651 0.0200844
abšalim -0.719801 -0.153431 -0.175326 -0.100944 -0.303785 -0.0856456 0.0373965 0.416761 0.204523 0.0129044
reliable -0.0545047 -0.0139908 -0.267826 0.0449915 0.0117698 -0.270977 0.640499 -0.358349 -0.426917 0.00416451
able 0.62965 0.210597 0.000475511 0.0685193 -0.523356 0.256145 -0.220656 -0.0798844 -0.239752 0.0086035
going 0.359723 0.366232 -0.417441 -0.365002 -0.404954 0.113816 0.00166682 -0.379495 0.0295607 -0.00242823
just 0.678927 -0.308163 0.232066 -0.0517566 -0.461623 -0.1339 -0.0236273 0.137794 0.210214 -0.001623
nabsuen -0.765066 -0.260639 -0.234044 -0.260875 -0.000111953 -0.0388282 0.0581782 0.261086 -0.244932 0.000301778
appear 0.290087 0.476255 0.169015 -0.0294655 0.00247675 -0.320705 0.478262 -0.46101 -0.0475636 -0.000216466
smuggling 0.435633 -0.488866 -0.121555 0.160222 0.414968 -0.271121 0.255815 -0.200028 0.271494 0.00370013
agents 0.473579 -0.0429547 0.42489 -0.317605 0.290199 0.352223 -0.0974927 -0.404724 -0.0605409 -0.00832304
encourage 0.777214 0.0297079 -0.311487 -0.29245 0.141697 -0.245354 0.164735 0.111296 -0.0597055 -0.00164355
aššurnimrī -0.402706 0.435005 -0.508423 -0.368629 0.0972485 -0.370458 -0.0168273 0.0376859 0.0656831 -0.00616352
confront 0.462413 0.321979 -0.0126928 0.195728 0.499003 0.0923232 0.00717236 -0.487775 -0.197073 -0.00101498
goes 0.131184 0.402847 0.0121946 0.310021 -0.136678 -0.478646 -0.461962 -0.0191378 -0.36989 0.019977
certify 0.160112 0.291973 0.255167 0.196392 0.712294 0.204875 0.324748 0.0477009 -0.113811 -0.0111463
dont 0.7336 -0.0275599 -0.0700701 -0.325184 -0.213414 0.255705 -0.112764 0.138247 -0.33478 0.000515645
šikkucopper -0.158311 -0.66344 -0.160546 -0.100338 0.0995736 0.343658 -0.483599 0.0703906 -0.148799 0.00893989
offered -0.04687 -0.611538 0.12706 -0.579133 -0.0857613 -0.136295 -0.192097 -0.297749 -0.0954705 0.0122872
envoy -0.125205 0.314656 -0.18784 0.326038 0.232418 0.166302 0.066661 -0.537175 -0.494834 0.00674691
agiya -0.228897 0.457277 -0.158544 0.00553241 -0.606181 0.288444 -0.00188259 -0.0545542 0.38317 0.000821096
būrsuen -0.643099 -0.296527 0.0642272 -0.0623728 0.6103 0.0254311 0.124791 -0.0522512 -0.0247779 -0.00923467
unhappy 0.758228 0.0612926 -0.0262164 -0.128724 0.0734462 -0.0619037 0.48957 -0.156387 -0.17303 -0.0158101
ordered 0.391869 -0.168045 0.0475142 0.158298 -0.633859 -0.191584 -0.469077 0.0256555 -0.117619 0.0194172
cheat 0.723704 0.341332 -0.130231 -0.0220062 0.0606548 -0.255812 -0.00581766 0.269321 -0.325617 -0.00214749
affairs 0.523983 0.229117 0.200802 -0.00577968 0.508437 0.477903 0.190166 -0.0400913 -0.0547419 -0.0128124
harnessors -0.284672 -0.597486 0.0758512 0.124855 -0.196295 0.463817 0.238479 -0.14552 0.31729 0.00140267
leads -0.354616 -0.214319 -0.338209 -0.65813 0.313208 -0.147598 -0.143638 0.140977 -0.112091 0.00901078
ikuppiya -0.722217 -0.109322 0.271753 -0.0432323 0.423405 0.27348 0.204859 0.00114387 0.0547132 -0.00199739
ennumassur -0.585468 -0.0973359 0.45227 0.137836 0.22271 0.305053 0.409073 0.0310102 -0.109911 -0.00599605
investor 0.0269124 0.681928 0.173523 0.494298 -0.290586 0.165324 0.108566 0.136263 -0.113208 0.00411513
yield 0.146191 -0.770622 -0.151703 -0.236207 0.154632 0.171575 -0.126917 0.187823 -0.311778 0.00581564
iddinkūbum -0.585685 0.333556 -0.384584 0.355866 -0.107987 0.364022 -0.0729957 0.0441712 -0.148468 -0.00392504
roadtax -0.00943915 -0.664694 0.431469 0.278658 0.0427683 -0.307205 0.16281 -0.243412 -0.0661776 0.0146297
puzuršamaš 0.0513938 0.262172 -0.567153 0.0453213 0.0178122 -0.312777 -0.0661431 0.465895 0.406652 0.00933866
carnelian -0.184149 -0.727802 0.144317 -0.235917 0.11596 0.334196 -0.0736094 0.287852 -0.199038 0.011161
stones -0.263589 -0.405024 0.418016 0.373776 -0.257333 0.46033 0.152004 0.195892 -0.0336105 -0.015939
beads -0.626936 -0.389897 -0.180468 0.0797032 -0.414599 0.295511 -0.0469698 0.209181 -0.11047 0.0102248
sadaya -0.463648 0.766528 -0.00558016 0.0657503 0.102 0.0564696 -0.231836 -0.158169 0.0918295 0.00242876
raises 0.0955689 0.737645 0.156697 -0.0245154 -0.231735 -0.174366 -0.397824 0.0828644 -0.257134 -0.00066278
particular -0.565362 0.0877461 0.133806 -0.480911 0.00137924 -0.390162 -0.295619 -0.0554788 -0.27467 0.00562912
fail 0.597286 -0.00355406 -0.178678 0.106761 -0.135563 -0.417121 0.222187 -0.121507 -0.485701 0.00307644
aššurmuttabbil -0.335491 0.493072 -0.157173 -0.2264 -0.490586 -0.186586 0.0787163 0.380996 -0.179144 -0.00296841
dead 0.435047 0.213043 0.348552 0.130783 -0.459908 0.12019 -0.459577 -0.232936 0.15469 0.0080919
eyes 0.718824 0.133107 0.0552843 -0.0702196 0.13214 0.26139 0.488307 -0.141832 -0.123674 -0.00986785
gone 0.555587 0.471944 0.208294 0.17995 -0.00681311 -0.221992 -0.317336 0.0763345 0.361821 0.0156779
someone 0.475019 0.23202 -0.264138 0.45776 -0.00257938 -0.130002 0.378445 -0.217095 -0.351396 0.00558055
invalid 0.291575 0.662808 0.390525 0.0887677 0.0850274 -0.0620516 0.438281 -0.0118572 -0.110386 -0.00353572
bread -0.0611987 -0.375049 0.0664937 -0.115561 -0.658484 -0.271082 0.417268 -0.00649237 -0.192847 0.00982768
waldiilum -0.335136 -0.0562489 -0.050263 -0.224492 -0.707762 0.138025 0.358259 -0.115009 -0.232989 0.00102315
additions -0.53178 -0.628431 0.0227684 0.286501 -0.223834 -0.218664 0.0208175 -0.0198809 0.203495 0.0185044
sickles -0.400095 -0.69535 -0.17927 -0.0995792 0.201967 0.159807 0.245888 0.294361 -0.0283889 0.00432094
keeps 0.155157 0.871926 -0.144415 -0.0248355 0.132526 0.189835 0.00696047 0.202988 0.0273862 -0.0129566
šaradad -0.583905 0.000631417 -0.40361 -0.269333 -0.0981385 0.29401 -0.293669 -0.214695 0.301744 -0.00437337
bundle -0.44231 -0.632532 -0.0098357 -0.023813 0.36444 -0.0621814 -0.384479 0.0499616 0.132967 -0.00079784
property 0.191933 -0.331032 0.701263 0.0968122 -0.0255398 -0.0190883 0.460379 0.0923779 -0.148841 -0.0015527
hanunu -0.699405 0.295051 -0.340492 -0.180328 -0.105198 -0.158296 -0.0495873 -0.101264 -0.362635 -0.0058476
zikiki -0.344127 -0.0232883 -0.372089 -0.683708 -0.0510775 0.127374 -0.00339671 0.31899 -0.21158 -0.00518512
service -0.0336652 0.28484 0.360792 -0.0483115 -0.707009 0.148311 0.223849 -0.305299 0.0554402 0.00843163
having 0.448335 -0.0788413 -0.321108 0.211225 0.0369463 -0.524018 -0.287968 -0.0689383 0.403934 0.0201357
off 0.250274 -0.38646 0.230166 0.0884783 -0.0539165 -0.502363 -0.570992 0.149467 -0.0395812 0.0212894
cut 0.483533 -0.259198 0.386633 0.257908 -0.243415 -0.250813 -0.489912 0.110456 -0.0130819 0.0163594
minus -0.32645 -0.608944 0.290318 0.173467 -0.394144 -0.0423018 -0.0271858 0.276412 -0.26057 0.0129929
lay 0.19946 0.672829 0.248887 -0.182457 -0.142938 -0.0406143 -0.31725 0.316644 -0.287311 0.0043552
saddlecloths -0.293939 -0.763824 0.267504 -0.374779 -0.107297 -0.00625294 -0.0645084 -0.055111 0.0501299 0.00404137
record 0.0987812 0.366999 0.500132 0.411022 0.328547 -0.0444499 0.448386 -0.0825391 -0.0739962 -0.00840981
ištarpilah -0.662118 0.188945 -0.209418 -0.0310352 -0.537567 -0.251216 -0.0484078 -0.0594662 0.147837 0.0146816
pirikannus -0.0221379 -0.590058 -0.387614 -0.182423 0.253801 -0.16137 -0.216193 -0.434694 0.175709 0.00469746
ibayas -0.256958 0.310066 -0.121323 0.293781 0.43648 0.267612 -0.054982 -0.588592 -0.0828735 0.00699229
provide 0.670082 -0.254916 -0.0571226 -0.131104 0.107457 -0.341799 0.483976 -0.05914 0.00210135 0.00132774
credits 0.256407 0.183918 -0.30745 0.108046 -0.17749 0.712528 0.271343 0.13346 -0.221317 0.000120297
last 0.126197 -0.203921 0.464176 0.0636969 -0.556385 -0.38948 0.113963 0.261328 -0.25002 0.0121398
really 0.542382 0.367597 0.166201 -0.483312 -0.209092 -0.137239 0.0308608 0.362179 0.093211 -0.0141623
hattum 0.395207 -0.538148 -0.503236 0.250067 -0.0279718 -0.330986 -0.137332 0.113713 -0.0251933 0.00877313
indicated 0.33699 0.363324 0.516484 0.346349 -0.232514 0.278831 -0.175286 0.107222 0.294161 0.00382995
corresponding 0.290949 -0.361858 -0.476903 0.464066 -0.0916693 0.419536 0.114862 0.0199614 -0.188677 0.00814874
meteoric 0.273498 -0.108503 0.0633016 0.630352 -0.0337525 -0.333569 -0.520601 0.00883191 -0.0938712 0.0204635
gentleman 0.516592 0.0527174 0.164939 -0.256084 -0.116246 -0.169796 0.643254 -0.070762 0.254427 -0.0050742
kutānus -0.250681 -0.728591 -0.141016 0.160037 0.177232 0.227016 -0.314193 -0.258585 0.0986127 0.00668739
favor 0.52981 0.266118 0.154546 0.0359367 0.108948 -0.343898 0.393325 0.461227 0.125637 -0.0032932
never 0.671369 -0.0905016 -0.225224 -0.389163 -0.0614475 -0.38721 -0.0785822 0.00266208 0.284649 0.001392
station 0.170277 -0.0293921 0.146792 0.273012 0.0176664 -0.128581 0.181225 -0.817246 -0.15917 0.00788051
anatolians 0.181867 -0.0632133 -0.482262 0.207265 -0.300225 0.496791 0.148786 0.0354062 0.457327 -0.00602436
appointed 0.233795 0.455161 -0.270565 -0.30228 -0.493487 -0.389304 0.0120524 -0.245862 -0.083333 0.00808528
peruwa -0.688972 0.321097 -0.349345 0.0186061 -0.0231733 -0.160932 -0.131415 0.395261 -0.0696144 -0.00221043
ten 0.486622 -0.374099 0.138255 -0.549525 -0.117534 -0.0495784 -0.101093 0.068908 0.406393 0.00353054
pn -0.089598 0.131827 -0.653483 0.0524787 -0.450327 0.243595 0.277562 0.0730979 -0.294298 -0.00439321
maṣiilī -0.63807 0.343208 0.28696 0.296168 0.26249 -0.128867 -0.00933759 -0.0219914 -0.347784 -0.00624935
abusalim -0.609519 0.212908 0.397088 0.275723 0.36268 0.278842 0.145756 0.104632 -0.0840169 -0.0128353
others 0.736666 -0.176266 0.160127 -0.23047 -0.319062 0.0393901 -0.354131 -0.119411 -0.0998518 0.00502709
quickly 0.724623 -0.449166 -0.259642 -0.00953465 -0.0257968 -0.00565712 -0.0175863 -0.266138 -0.207714 0.00738466
money 0.409057 -0.375912 0.450824 -0.171959 -0.119267 -0.00903485 0.521318 -0.0767081 0.240574 -0.00585094
formal 0.2893 0.390764 0.529553 -0.257633 -0.431593 -0.235201 0.164162 0.161595 -0.125513 0.0086762
additional 0.0448796 -0.38994 0.559 0.242373 -0.411015 0.0893163 -0.157753 -0.322134 0.241199 0.00719706
fear 0.677777 0.248466 0.260362 -0.269622 -0.0385023 -0.198954 0.105607 0.245434 0.354259 -0.0109852
met 0.429591 0.27923 0.14502 -0.322773 0.0207883 -0.377489 -0.159175 -0.560632 0.114658 -0.0113944
dust -0.391735 -0.359491 0.423314 -0.0688208 -0.1592 0.28901 0.414235 0.295812 -0.236253 -0.0017542
departure 0.0579249 0.150663 0.408834 0.302988 -0.100644 -0.593706 0.288752 0.254337 0.291542 0.0063048
ilibani -0.534076 0.304244 0.521879 -0.155377 0.0165339 -0.0867886 0.121192 -0.0151538 0.449113 -0.00226465
scrap -0.0958827 -0.879336 -0.173774 -0.15652 -0.0681458 0.0766615 -0.212457 0.111329 0.0219696 0.000526387
eye 0.42485 0.284782 0.243558 -0.283572 0.000981468 0.356931 0.581555 -0.0989387 -0.12473 -0.010218
hanaknak 0.1108 -0.460482 -0.174996 0.0563462 0.243747 -0.156251 0.0590651 -0.629122 0.369598 0.00591441
regulation -0.1728 -0.0629317 0.106772 0.647811 0.368152 0.227789 0.0384328 -0.327988 -0.343867 0.00709589
dispatch 0.55087 -0.429256 -0.0558722 -0.0840957 0.30654 0.086688 0.448057 0.166559 0.258976 -0.00817746
priest -0.702357 -0.00332002 0.370431 -0.056502 -0.338944 0.0389138 0.181419 0.248317 -0.242725 -0.00345642
confirmed -0.0109539 -0.174214 0.578177 -0.0703732 -0.228269 0.450704 -0.483666 0.0979223 0.122447 0.00503717
consignment -0.145827 -0.210055 0.22903 -0.425776 0.263733 -0.527595 0.258455 0.404918 0.0580136 0.00384418
colleague 0.25335 -0.258257 0.429678 -0.403546 -0.0224153 0.000509887 0.459891 0.0618086 0.437133 0.00323849
laqēp -0.824294 -0.0463707 0.110222 -0.00144279 -0.0649013 -0.0680668 0.114377 -0.333651 0.285432 0.00613746
adadrabi -0.60661 0.587301 0.00276151 -0.254135 -0.139022 0.124702 -0.213592 0.0586894 0.210978 -0.008225
hired 0.106323 0.588948 0.573931 0.0788754 0.128043 -0.110583 0.0247611 -0.383088 -0.157766 -0.00511587
ibaya -0.37863 0.415821 0.686718 0.0622364 0.0914113 0.0968726 0.164217 -0.215543 0.133868 -0.00427032
broken 0.131402 -0.362325 -0.0210181 -0.322401 0.0261243 0.394151 -0.663766 0.172248 0.00194277 0.00331188
abuwa -0.225412 0.259345 -0.515672 -0.000816577 0.312699 -0.0355793 0.0131152 -0.354809 0.52313 0.000399923
leading 0.277254 -0.261925 0.138585 -0.694021 -0.224293 -0.32446 0.000169581 0.138093 0.255756 0.00898966
aššurgap -0.590644 -0.212239 -0.275363 -0.444064 0.323157 -0.0019602 -0.117223 -0.255417 -0.222697 0.000416529
karriya -0.618133 0.604935 0.0417858 0.234795 -0.178387 -0.100554 -0.0880611 0.201998 -0.112696 -0.0034696
previous 0.115559 -0.297586 -0.270762 -0.29245 0.499071 0.429777 -0.148297 -0.327345 0.244383 -0.00312591
talhat 0.475067 -0.469607 -0.376892 -0.0211423 0.104212 0.00440122 0.109113 0.0724121 -0.52736 -1.85207e-05
profitable 0.322315 -0.477729 -0.466605 0.213137 0.111598 0.00882035 0.377087 -0.0120554 -0.376566 0.0022049
partners 0.563039 0.0512384 0.534178 -0.376908 -0.0645077 0.298503 0.00508469 0.0765195 0.225884 -0.0141396
valid 0.0216794 0.159074 0.529919 0.0947947 0.561645 0.212824 0.219383 0.0014099 -0.396895 -0.0128267
amurilī -0.847076 -0.0176133 -0.0952161 -0.0420031 0.205933 0.068481 -0.232026 0.0478478 0.281479 0.00801052
