10324 10
thisisanumber -3.60108 2.1523733 -4.126348 0.81592435 0.024887003 -1.5242339 -1.1908182 1.9009976 2.0683637 -0.9843738
ana 0.4841933 -0.87851864 0.23471223 -0.003314771 -0.3450217 1.0074439 -1.7059036 0.3928904 1.9654244 -1.893214
ša 2.202152 1.7206075 -2.20126 0.30728412 -1.9574943 0.7093612 0.2120962 -0.9445911 0.16832191 -1.0223309
kùbabbar -1.976841 -1.4656558 -5.445032 1.4442414 -1.4650483 0.177215 -1.4111727 0.806788 2.0965579 2.2870007
mana -4.275 1.3180366 -8.590452 -0.38534147 -1.93035 -0.21675904 -2.4829721 2.0863883 3.415023 0.11091162
gap -4.41851 4.4742427 2.540301 0.37352175 1.393772 -3.0021343 3.9741998 0.09718026 -2.416109 2.3089638
gín -5.928454 0.398518 -7.7008777 2.1551883 -2.4345968 -0.8779058 -0.8306563 4.986939 1.368943 -1.973014
dumu -7.860077 -0.113734454 -1.8878571 -4.1950493 -4.7128224 5.244681 -0.34461844 -4.13399 -2.454241 -8.610118
ina 4.088264 1.3534751 0.20978503 0.62937105 0.08087982 1.5232952 -2.3326924 2.399209 -1.1812204 2.0979078
umma 4.5270915 -0.80618507 1.7008114 -2.624794 6.0342207 -5.037812 -5.3162136 -5.9594665 6.393084 -6.8819747
lá 1.3657511 -3.2453647 3.5364976 3.929444 3.599971 -1.0575253 -1.8887799 1.0929075 -0.6323409 6.5748672
igi -7.533558 0.8539474 -0.16497646 -1.1702751 -5.580937 8.677899 -0.99042666 -3.3626697 -7.3846006 -7.9740005
šuma 0.18359205 -5.0321903 3.2063255 2.0251687 1.2000155 2.172093 -2.3070529 1.6686202 1.3627872 8.012603
lu 9.070527 1.2634127 -2.596105 1.0748035 -1.1585228 -5.218955 4.7023153 1.5484135 -4.770092 2.521583
kišib -14.980947 -2.3924909 -1.0248373 -11.241647 -6.1390495 3.6067913 4.563803 -6.2241483 -12.123821 -12.248583
kima 4.8555193 0.4925439 2.28868 0.657994 -0.0003398932 1.3806312 -0.37161323 -4.2380657 2.0514405 4.0799775
anna 0.6197149 6.8909616 -2.7685556 0.20615281 -2.504155 0.6455068 -0.35630086 5.7547216 7.6860776 1.8038849
urudu 2.2781668 -0.06846266 -6.693175 -5.575431 -0.7229159 -2.7480593 -2.8150978 6.6320505 3.6245656 -1.5780258
ma -3.0322998 1.1871682 3.4999363 0.9162888 3.887445 -5.3183947 1.0689018 -3.3354938 8.007602 -1.6003389
qíbima 2.5856912 1.0695343 0.32457685 -12.902892 3.109563 -8.9579735 1.3522698 -7.5106072 6.768295 -11.718026
ištù -4.209113 -0.44300872 2.0762157 -3.5529528 3.7202005 5.794516 -11.382393 3.9720066 1.507667 -0.6192219
puzur -6.8388276 -1.4008207 -7.038482 7.1507764 5.9540243 -4.8815856 -8.144592 -5.0659614 -3.605346 -14.153793
il -3.097379 -3.2746856 1.7802038 10.656478 -0.8133795 8.726122 -9.925986 8.668459 9.869158 -1.8959116
ata 2.9343455 -2.2327437 3.5789604 6.8190074 5.9143443 -8.067428 2.170854 -6.9496365 4.6122622 6.185728
iští -0.8796349 -3.624025 -1.4271351 -3.9513335 -2.1647055 -1.0691051 2.3616283 1.1788028 2.1267493 1.3950279
gú 0.66536623 4.978851 -8.814574 -7.315788 -0.5310974 -3.3509085 -3.4186928 3.2282126 8.010497 -1.8087356
mìma 4.1541853 -0.99395823 -0.21773015 8.330248 -3.5058777 2.4682364 1.4935082 3.576962 -1.2215835 2.4093266
alimki 7.210966 -0.018863985 0.791644 -1.5522742 -1.3590056 4.7837977 -3.6085687 -1.8493212 -1.9894706 1.4071379
ki -10.407821 0.6403281 -6.7619867 -6.290959 -2.325043 -0.70016146 0.88554347 0.4544563 -1.4371685 -0.67336756
túg 1.0626669 13.007616 -2.7330782 1.5167882 -2.0083144 -3.2676778 2.588909 4.247976 1.9341084 -8.728164
malá 9.458506 0.63600564 -0.53621715 -2.1759064 -0.21935403 -1.7904768 0.3734064 -2.9644783 5.6249294 5.551935
gínta -9.375499 7.774936 -3.5069635 0.28285298 2.677167 3.7260308 -8.289912 6.9992003 2.7238524 9.550019
adí 5.4354906 0.6331379 7.266175 -2.7925303 2.332279 0.50716335 -2.0216687 4.8750744 3.3783734 2.5510974
libi 0.20670769 1.5181134 -4.676109 -1.0669092 0.77579206 -5.2017326 2.4169507 -1.7168145 -2.5513146 2.4495099
šíim 1.1058179 -1.5208541 -7.608068 -0.42533928 -2.1562264 -5.373771 1.8716482 7.622897 3.2611194 -0.6048235
sig 0.5802629 0.8215141 -6.3914685 -4.54759 -1.6304563 -8.473527 4.6487837 4.134809 6.8972993 -3.1744633
qíbi -2.2760153 1.0583271 0.20143871 -16.705778 6.9841385 -18.27545 6.431247 -9.568877 4.5583286 -12.37455
ṭuppáam 7.208565 -0.926158 -1.796001 2.9637794 -4.1551094 4.163013 0.72612584 -9.145779 -0.4057906 3.002126
kàriim 4.118415 5.844407 3.0326734 3.7340484 -1.2234033 7.0149236 -3.9465773 2.2797923 -1.7365361 3.3183458
abi 0.644733 2.3033285 0.64932746 5.29553 4.3555584 -6.1961036 2.7337697 -8.593845 -4.113162 3.1607745
itukam -10.566229 7.2670255 2.6019552 -6.1157207 5.413632 10.010178 -13.91032 -2.4025524 -5.353567 6.161436
iṣéer -11.126963 -5.3301535 -11.04603 -15.998572 -0.48099306 -3.8672137 -1.4780366 -2.7261033 -5.9610667 -3.5820463
úlá 4.863778 -5.56715 0.6698546 6.342106 4.464962 -1.3267785 -5.6538777 0.90658563 -1.7490968 2.699395
amakam 4.2852807 -4.1688232 3.914585 3.1223547 -0.60295725 -1.1287062 3.26311 -1.4411126 3.6165557 4.355348
túgḫia 5.3637524 7.8218136 -0.39642188 0.1361471 -1.9464761 -2.50492 3.5469406 4.5754337 4.394449 2.1123147
ašur -6.158514 8.590895 5.1406684 3.2810931 -3.762457 8.310788 1.9032468 -8.0578785 6.4236655 4.9507055
anakam 6.1643214 -1.9448448 3.411189 0.711409 2.0754077 -1.5248176 -1.2737015 -0.8109116 3.2807136 0.39164096
išaqal -9.631954 -3.9258764 -2.754328 -11.065648 1.253109 6.2986717 -9.255488 3.0277867 -4.6118827 5.383345
ṣarupáam -12.771301 -3.5754342 -10.689687 -2.8397076 -3.5950024 2.0952806 -3.2694173 -2.306423 5.8213463 -0.78971964
anaku 3.5627165 -1.2884625 2.1069152 1.9470446 5.3684397 -2.387293 -4.1122575 -3.1346166 -0.5377444 2.3216577
kùgi -0.93657947 -0.64701897 -9.072365 3.7979343 -1.2795372 -1.2499883 -2.4131846 -1.4481825 3.4683416 0.7796137
išu -10.077101 -7.0745397 0.03708565 -12.111945 4.5355687 0.85845715 -7.8096414 -1.2903336 -6.8061147 -4.924901
šuištar -2.7055078 -1.8424045 0.151225 1.8926028 -2.3890224 5.3604193 -3.6742017 -1.624804 4.966202 -4.8036747
anim 5.9826455 -3.0346835 -3.3353977 7.020389 -5.67961 -1.4081461 4.1703796 4.51983 0.15046681 -8.125036
qé 4.3682666 4.10007 -19.264143 -2.2877858 1.7232653 -10.507646 -2.5138667 -3.4030206 -16.64836 -10.895606
adíin -1.4744722 0.9120808 -3.1164734 -7.286935e-07 -4.314142 0.39618677 0.279457 10.178816 -0.5993263 -10.724743
ašumì 2.7283928 -1.3374171 1.0037297 -0.033178616 -0.38266304 1.5293365 -2.096911 -0.66700256 2.9610941 -1.9430193
limuum -16.343996 12.099191 4.4431796 -11.801698 3.435671 11.926406 -10.413555 -9.697561 -13.218874 -0.8409479
šuutma 5.668938 -2.7202582 2.3066952 5.6059856 5.7153196 -1.1523085 -8.057593 -1.0679733 3.2000337 -3.9866705
im -4.793835 -3.218537 -9.983445 10.941121 8.532218 -5.37601 -11.648722 -7.1217656 -9.072947 -11.757537
aṣéer 5.2686667 2.0262444 1.6170236 0.3203365 -2.540723 0.32004973 3.14277 -2.4130015 3.1022227 0.109044306
anše -0.25265038 7.7695246 0.8170667 2.6799436 -6.796574 2.4299798 5.339937 10.396807 6.179469 -0.004846317
ašùr -4.6544323 10.494941 5.87462 4.325699 -3.585885 7.061102 3.6905024 -8.503702 2.2193186 3.6141663
anakuma 8.435361 0.69607157 3.3754592 2.6926377 6.64053 -5.414912 -4.5548263 -1.5831833 3.9198577 -3.8750381
atùnu 1.1482307 1.3343296 4.588834 -16.609629 -0.63388896 -3.65398 8.690357 -6.2325997 -0.6412884 13.167833
atama 4.637831 1.4984003 4.3273697 2.845981 8.035542 -6.0038867 -5.362931 0.3592654 9.058741 -1.1327128
úṣaáb -14.439234 11.5324135 -8.333709 -4.056775 -3.4423127 12.542674 -8.72918 -3.12426 -12.5287285 3.53384
ṣíibtám -8.812546 4.980674 -2.8697228 3.4466178 1.1304919 7.679626 -7.6988053 1.3860471 -7.253232 12.025996
iatí 3.4516082 1.050395 1.765182 2.7120354 -0.86808604 1.7223625 0.37072366 -6.266978 6.2961845 4.5770817
itu -5.5426717 4.3380322 -8.03763 -15.445925 12.851251 -6.055959 -13.154198 -8.187068 -14.888579 4.4325924
šébi 8.077898 -3.1616056 -13.892235 -5.1028633 2.3531764 -25.153028 14.294908 -5.4527745 -2.6151326 3.8025181
pušukeen -3.1960392 1.5210111 -0.110261574 1.2859396 1.0574305 1.5250115 -3.8592057 -5.162009 6.4041724 -3.4546046
kàniiš 4.864973 0.63995486 6.6558022 -0.6595014 0.36660105 5.766582 -4.492447 3.9183464 -2.3068373 0.00913933
enumašur -1.8401638 -3.893342 -1.6428081 -0.09123746 -4.128086 4.8232665 -1.9070159 -2.259856 6.4436083 -2.9410582
šàba 0.18274927 6.3352146 -10.620236 2.508279 -2.2877798 -1.4251188 -3.2881308 5.127848 3.7824502 -3.890692
kam -13.8989525 7.8263683 18.393894 1.8168656 2.2187688 15.041411 -6.4304805 4.877573 5.6701846 10.820643
meat -1.5062906 9.688238 -4.7254972 -4.989775 1.2085508 -7.3846765 0.7072246 8.662735 0.28284818 -7.3400173
awatim 3.3902931 -1.8673127 7.7821894 1.5303748 3.3161464 4.1880274 -4.951291 -3.3888607 -4.301399 0.096095234
amurištar -3.8592465 -1.0328187 -1.1736674 -0.716855 -2.238071 4.1347632 -2.9717293 -0.22520064 4.5151844 -2.5479364
damgàr 1.2177453 0.3417926 -2.0973787 1.4191847 -1.9165334 3.4770298 -2.1071663 -3.0038788 4.9795575 4.959195
ni -1.2060635 7.0073767 1.3539951 6.013042 2.191735 -5.657751 6.1062727 -5.728567 -5.5571327 3.7725327
kunukia 3.1307507 -0.91175497 -5.660279 2.865503 -7.4196124 -4.114228 8.59342 -1.564567 8.934397 -5.2760396
šu -4.6773267 0.3081809 -0.58731097 6.8716283 0.73496985 -1.0586603 1.3064502 -1.3257359 -1.0157691 4.5368204
aláḫiim -3.750353 -2.7754028 2.4089384 -3.0775187 -2.4092314 3.6880987 -0.6526624 -3.01815 7.513419 -2.4581974
ašurmalik -5.3942676 -1.719711 0.6912698 1.3386027 -1.7011223 5.5339417 -3.5788295 -2.3143966 2.8748593 -3.5307562
šítí 2.2656457 3.7475626 -6.9736185 6.168078 -1.1744316 -1.4261119 -2.4281995 5.0439057 9.24205 4.67864
qátí 1.2119467 5.1236296 -0.33421755 -0.91890395 -1.9262077 2.8969765 -0.10249268 -0.08654828 -2.0523129 1.6859578
inumì 2.7982004 0.26156187 3.873883 0.42331183 0.5625686 1.7280347 -2.6643603 5.2536955 0.2374992 -3.704685
aḫi 2.149527 -4.128072 2.9206874 8.095836 4.572021 -6.3687987 1.0177147 -4.5686607 7.5050154 4.6131616
la 1.0923728 -2.169808 3.6485431 2.4865525 4.7041197 -0.11133881 -4.3813224 1.299096 0.8253278 7.744026
kàruum 5.905209 3.2074864 14.404621 5.2480555 1.717347 10.206401 -7.0230026 0.99924415 -4.995849 -4.642635
dingir -2.8909783 3.6422284 13.019631 0.025379777 -8.582757 20.879436 -3.781179 3.123338 17.200922 8.286432
ḫaamšatim -12.526588 -1.5539193 1.6349031 -9.695499 0.8072148 7.7525687 -8.439519 4.05911 3.906904 5.883197
diri -1.1314675 4.62833 -12.07554 3.4370174 -6.8693 -5.029829 6.8597 -6.300242 10.594983 -2.0026145
ašar 7.112883 -1.9038477 0.6083315 4.378146 -1.8523934 -1.4476275 4.0804086 -1.3837752 0.03738221 6.0088844
nidíin -2.481739 5.4707108 -5.6507735 3.5902 -3.9048457 1.3298118 0.25132534 2.9246294 -4.162963 -7.2265477
aḫama -1.5984057 0.8301715 -9.136199 2.8388588 -5.576944 -0.32445636 2.0778842 3.431782 1.5879755 -1.0864571
ášqúl -5.691105 0.60934883 -4.662758 0.3800087 0.209622 -0.14640129 -5.0067177 12.4459505 -3.4560003 -5.4202394
ḫamuuštim -13.612084 6.359217 -4.563728 -27.837992 -2.3241398 11.133759 -10.812225 1.9898443 -12.455666 -5.093001
kà -2.2355323 4.436424 -1.3933586 10.340032 3.8511498 -5.137961 0.98597986 -5.3883657 1.2137318 4.4987874
manaim -11.346514 8.525113 -2.7906368 0.9192221 1.1797222 7.558367 -7.891992 0.8610884 -2.4787958 11.364233
ašùrmalik -3.7081053 -0.6875844 0.5155244 2.1389935 -2.2160006 5.253972 -2.6962373 -2.0395257 1.7769917 -3.9612274
šunígin -2.2193677 5.5544267 -11.037172 -1.7122506 -3.2822106 -1.3719144 -1.101094 3.8289704 1.3905256 -1.2648456
mamaan 2.9111223 -9.439633 5.123919 3.0542393 0.38026473 1.690718 0.5583527 1.0089359 -7.5957494 6.363413
ṭuppuum 2.078271 -0.56840837 -7.8696547 -1.4695318 -7.8437414 5.663427 1.508562 -7.3003364 -5.6180587 0.44314384
ištar -11.333011 5.981072 4.6557336 -3.4302673 -4.3290386 7.4402223 3.198756 -8.321666 7.8159714 4.8613496
inaa -3.8595994 1.712587 4.5784883 0.52815515 0.89991474 4.5185275 -3.9753163 -4.457942 7.3271422 -1.2722821
šabu 1.3605486 1.5997889 -8.731671 4.183061 -7.129826 1.4200412 2.3700845 -5.859734 3.866938 -4.912662
lam -9.59754 1.6209856 9.005379 11.845515 1.712159 3.3747308 -1.9425876 10.210303 19.306755 11.407785
ibaší 7.138732 -0.18394102 -2.6918445 -0.55498236 -1.0994332 -1.1510122 0.33896923 1.1901072 0.7831073 6.0817733
manata -0.85581565 7.6996717 -4.7866254 -0.8649574 3.9045486 -0.5571409 -7.103211 5.200904 -1.289417 6.0692725
gal -0.20983458 0.83697903 10.454469 -2.3834374 -2.242477 5.5176945 2.862586 5.4668474 -11.659454 -2.0014985
ašurimìtí -6.014243 2.3965485 -0.69569373 1.0386947 -2.4035447 5.742647 -3.2712452 -2.183977 3.5774136 -3.3650227
šaduasú -2.6944644 3.6873133 -13.844785 8.266032 -9.621463 2.0359213 3.1607497 -8.266388 8.880728 -1.0062728
kutani 2.5691154 10.909824 -2.0733016 -0.40718222 -2.057291 -1.3191987 1.3933129 4.4142866 5.914944 -0.94050676
enumašùr -0.63435704 -3.9991257 1.1878546 -2.0341394 -4.4923077 5.175167 -0.52478886 -1.5040148 5.272849 -3.6565478
ḫamuštim -14.369119 8.106231 -3.0508351 -29.299082 -1.4565799 11.666801 -11.67845 0.857261 -12.574657 -5.852908
ašursipa -6.0441346 1.5787821 -2.8434448 0.28589177 -1.2662044 7.3547115 -7.4878693 -2.7262654 4.804153 -0.09151433
kunuki 7.3164725 6.0300446 -6.5073347 -2.247302 -5.625516 -2.5039012 4.480269 -3.6523042 3.6363835 -6.6235566
naruuq -8.748974 -6.2782507 -7.8702993 -3.5394557 1.6298856 -7.257533 -0.09277366 7.195683 -7.2008553 -2.4428527
ennanim -5.8767695 -0.062126495 -0.9669018 0.23877093 -2.5735245 5.1058664 -2.319324 -2.899723 2.2090278 -2.5483139
lilikam 8.465001 -11.3956175 0.53046733 -5.336188 1.0950595 -9.229942 4.623966 1.4080983 7.5855403 4.981869
ennamašur -4.557644 -4.5579534 -1.8046384 -1.6318657 -0.8741366 1.9369143 -3.758677 -1.3114198 8.036976 -3.1773574
ṣíbasú -6.4416623 -3.8768485 -8.300788 -0.6968117 -1.3484569 0.15774506 -0.96995544 -6.8965383 1.3776306 8.36008
ḫubuul -2.5138254 0.42176676 -10.7289295 -7.4753175 -5.694661 2.2008898 1.1545646 -10.20801 -8.889338 -2.5661306
qátim -1.347092 14.435734 -5.3122506 3.2668626 -3.9994657 -0.07100553 2.5951803 4.797244 3.932308 2.8001077
itur -0.72808737 -5.915484 -14.540169 2.5973425 9.441363 -10.531766 -12.023665 -6.639964 -12.885909 -17.472424
aputum 1.077453 -3.5129662 8.373635 1.9642744 -0.20979615 -1.0363405 6.5753665 -2.3337066 1.0776572 8.163907
aniatim 2.335857 -3.6951737 12.385164 3.0555565 5.1581254 5.989968 -8.186491 -1.8810989 -6.9081945 -5.3772554
niisḫasú -5.7084527 1.4526871 -15.908029 5.966624 -3.522511 -7.139133 2.76648 -8.288036 10.209406 -2.7252505
gír 6.5324597 7.292973 3.41464 18.966312 -1.2855657 8.068446 -6.10602 -2.1613283 -16.627861 -15.344521
na -6.76009 5.4661427 1.9348905 -2.9184804 3.2965598 -6.903305 5.265454 -0.9667408 -4.549643 1.5068014
še -10.417746 0.9613388 -6.8434963 4.0643864 2.4116964 -3.5906146 -4.715687 9.722674 -2.0762572 -5.0438995
láqéep -4.7242274 -0.35561326 1.2935864 1.2037698 -3.6198313 6.459572 -1.8334 -0.11766792 5.324951 -1.9160593
šuanim -6.4853425 1.1748997 0.51734614 1.1398525 -0.8626881 4.3760495 -3.735086 -1.9289253 3.3974178 -5.233447
téertakà 1.9827479 3.0854025 11.856109 10.822257 -0.94872606 4.599257 3.225715 0.344889 9.938731 11.542521
kuatí 6.640191 -1.8393155 2.3645463 3.7338288 1.5844172 -0.15198027 -1.8448193 -4.0802703 4.02693 3.381205
šubelim -5.004698 -1.4364498 -2.2298026 1.8797033 -3.5632153 6.785165 -3.6144426 -2.1591845 1.1226696 -3.0460584
išaqúlu -9.930274 -4.2916603 -2.3800519 -11.203158 0.36305475 4.3963003 -5.666331 6.505504 -7.363603 6.463039
šéep 4.6485023 11.388177 -1.4734293 -1.0357342 -4.3077207 1.5411363 2.6599905 -2.7195606 5.4325204 -2.303209
díin 8.180953 0.7031335 -1.5221248 -1.6556342 -0.5165867 -2.360865 1.0117584 -1.0528626 -2.5559425 -0.17787048
aláhiim -0.71705616 -5.613855 2.2737813 -4.6999393 -2.8368287 1.5683258 0.72864276 -3.9262562 10.458219 -3.4954925
ašùrimìtí -2.7695901 0.8088978 -0.93160576 3.59843 -1.6921967 5.339631 -4.401889 -3.4576123 2.1322496 -4.8644323
ašurnada -6.6244516 1.1087987 -0.27709314 0.5900064 -2.8535786 5.583469 -2.0874093 -1.3923206 4.042398 -1.4239829
anšeḫia 2.004285 7.054883 0.7643503 0.5896965 -5.118839 0.043632682 5.770617 8.730352 5.648643 2.8354514
kù -5.401742 1.8253082 -5.463473 1.257776 -0.28329802 0.62306505 -2.8840764 0.82435566 2.8053622 2.4118867
išqúul -3.9062595 -3.7181222 0.66140914 -4.2257037 1.5977727 5.8252316 -7.1036963 5.1374454 -4.765768 12.078285
ili -2.2638388 -5.1509233 6.0719085 7.515368 -4.305377 9.937678 -5.401772 8.934816 12.749457 -5.6955037
mìim 5.343286 3.9807158 6.774823 1.1155263 -1.3299756 5.411617 0.060513005 4.074107 -2.2476652 7.5704627
kurubištar -5.8443985 1.9142963 -0.01725887 0.56476533 -1.0938635 5.6094656 -4.9592338 0.55426 4.255792 -2.4460418
tim 0.14751193 3.023606 -0.92677915 2.2806075 0.35174957 -6.496736 4.9102917 4.210993 -3.4592092 -3.3301044
waaḫšušana 5.213866 1.1897553 4.0173025 -1.9038527 1.759554 2.3830054 -5.0908194 5.9714413 1.907211 0.4286665
égallim 6.426406 9.957225 5.547828 1.2177119 -0.44196293 2.15156 0.47212973 7.0010405 -0.8244325 3.4577515
alqé 0.12591508 -1.7501422 -7.723749 0.4970138 2.9583058 -3.2209675 -6.323536 2.0630085 -0.3461515 -0.66400194
ṣéer 2.276355 -1.5607781 1.2196281 -5.453962 -1.9543662 -0.16977973 2.178396 -1.230602 0.6972331 -2.438119
lilikamma 13.419704 -12.986924 1.7046916 -2.0928738 1.7036034 -11.391952 6.195708 -0.28413793 4.112349 3.5979376
kutanu 0.55667037 14.884405 -5.6542907 -3.4987504 -5.3341584 -3.505996 6.3009033 1.7241471 4.7953525 -4.755487
bani -2.1897213 3.2349777 -15.182025 0.99306875 0.3599811 -3.75288 -3.2599914 -11.546169 -16.064848 -10.762482
ta -3.47885 5.2480097 4.2807264 -0.33654752 2.9027634 -6.1956367 5.9005375 1.2755913 -3.193346 3.8245125
kùki 0.6715197 -0.54656863 -6.873462 2.907457 -0.2009532 -4.0971394 -0.07408759 -0.54754627 2.440319 -0.16513468
ikunim -6.867588 0.12733576 -1.2936246 1.1222565 -1.9775889 7.6781116 -5.513365 -1.7143208 0.10510223 -0.7973162
taášpurani 6.97087 2.6144052 3.021788 -3.4494493 4.9261074 -5.352816 -2.4297833 -0.9188517 4.4669914 -3.241277
ibašíú 9.218477 1.7980719 -3.4951017 -1.0040505 -3.1963315 -3.7461457 5.651318 -2.046299 -3.2566788 1.6695017
šunuma 5.735081 -1.0973697 2.1640706 1.3709165 4.359036 -0.4459599 -5.5651135 -3.715017 -0.86770254 -1.9647284
eláma -2.1924562 -1.2322663 -2.6020467 -2.5508497 -2.657453 5.052502 -5.541373 0.8032874 5.3512206 -6.3655453
eziib 4.838041 0.31570137 -3.8391635 -3.291837 -1.573026 -3.9791017 2.2702684 1.6646566 -2.0497417 -4.135644
du -4.1743693 -5.2317176 -4.8744726 4.5773373 0.7873636 -8.722387 5.187725 -6.383745 -5.047382 -8.480717
šalimašur 0.24036027 -4.3909583 -2.0078511 -4.2356524 -3.303775 8.925849 -7.3614163 -2.7860396 1.1784459 -2.0297196
ennasúin -3.2089252 -3.0884874 0.002316878 -0.5379095 -1.8818113 6.323281 -4.479491 -3.4553921 2.110123 -1.4359368
túgkutani 0.4052861 9.913399 -1.8612087 -1.8165865 -0.85729545 -0.63532954 -1.107743 5.362173 3.0950885 -4.8767233
mìšu 1.9009267 -0.4380076 3.2352962 -3.3479242 4.7707434 -2.2188737 -4.0889864 0.21823777 5.3951917 2.5208082
ṭuppìim 2.3199463 4.035117 0.26955828 1.0528767 -2.8962011 5.4528995 0.7880738 -8.974197 -5.2813983 5.181859
šalimašùr 2.5577886 -3.156312 -2.1198773 -0.72356117 -4.688012 9.893453 -7.165728 -1.8806564 1.9731615 -4.012227
abini 10.245826 5.2453766 -1.9871166 -0.9929353 -0.6232761 -0.6646976 0.9215098 -7.6326013 -5.618968 3.4470508
amurdingir -2.5766022 1.9325017 2.441146 3.0031114 -1.1431941 4.05637 -2.317845 -1.3115159 6.3572564 -2.9090846
túgkutanu -0.99023515 17.571121 -5.779569 -4.381592 -3.3005629 -2.5461497 3.3475142 0.042615134 0.619975 -6.284591
šímìim 1.6845697 -1.6346033 1.046763 5.765007 -2.6159465 0.26898986 2.4731286 9.040255 -1.2796683 1.4438449
ikupía -1.3497328 -2.348955 -1.1178732 1.213457 -2.4159076 3.29186 -2.5555975 -1.8934385 5.3140206 -5.217802
ašùrnada -5.3046436 0.68801576 1.1453398 -1.5778027 -1.3564903 3.9807906 -1.7023988 -3.6691027 5.2025137 -0.83191365
qéú 5.7477417 3.2344644 -17.131918 -0.37581748 2.675726 -8.7309475 -3.7333179 -3.64502 -17.936897 -6.4528847
bi -0.60249126 4.338343 -2.4927142 0.25517732 3.9351647 -9.299979 3.7612324 0.06424254 -8.374201 -0.30291486
naášakum 3.2799592 -0.208226 -7.6980906 1.0160625 -3.4648228 -7.6703944 5.414046 -2.5402663 7.498651 -8.509994
awaat 1.2821032 2.192244 4.8758116 0.7586762 2.686577 10.163505 -8.79879 -4.088954 -6.209161 16.387068
ennasúen -5.31701 0.36179182 0.35447082 1.1092565 -0.085322544 2.4658222 -2.1536536 -3.9537935 1.6718546 -3.0405233
abušalim -3.1539776 -1.7618207 -0.08196178 2.322113 -2.978267 4.2339587 -0.8202176 -1.2938612 2.9221091 -1.5635635
ṣíibtim 0.07160901 -0.21700391 -5.9681454 3.390768 1.7831818 2.4849865 -7.325371 -2.8437052 0.61148757 8.293016
ṣarupuum -15.345777 -0.9853303 -9.219538 -6.2395015 -3.5282376 2.878818 -2.7502007 2.941739 1.8246918 1.6841718
šumì 2.7365928 1.4776654 -4.535046 -1.6723218 -1.6842709 3.2312412 -3.1062272 -6.55758 0.40762925 2.7628646
išqúl -5.2109976 -0.9159133 -1.8017023 -5.6422515 3.2946587 3.725617 -8.672136 5.0574045 -2.4613585 12.658104
ikupìa -2.042675 -0.6448756 0.06915916 3.5084624 -3.4851255 2.7882102 1.498409 -3.2982674 2.617153 -3.0198958
ašurdu -2.7036777 -3.2887359 -2.4812472 0.3336561 -5.3087864 5.5730524 -1.429292 0.29344544 4.2387433 -3.22227
dug -9.961278 -6.067674 -3.9363623 -0.09570927 1.2256137 -8.333583 2.520133 10.374147 -3.5388684 -5.117434
amurašur -6.4500103 -2.1749496 -1.6665785 -0.028230008 -3.2830687 5.689243 -2.084432 -2.6442811 2.8178306 0.09357433
šálmaašur -0.67387635 -6.3761835 -0.41909188 0.00795181 -2.5678105 3.605213 -1.8177434 -2.712527 2.0844836 -2.5913773
úšébi 11.052169 -0.54441816 -11.200857 -0.86367905 3.842347 -17.348417 4.3905697 -3.0411758 -8.122239 -7.645473
ṭuppušu 1.3699914 -4.988507 -9.3589945 -1.316566 -2.9873023 4.3989115 -4.9284863 -7.730272 2.279191 8.319135
úkàal 6.0171194 -3.7547858 -5.9139886 0.32516614 0.34936675 0.58060336 -4.448491 -6.0198846 -4.6128254 2.8388145
ama 3.0563035 1.8805469 5.1613803 1.7745981 2.452956 -1.4108659 0.91660744 -5.6481194 1.6629455 0.40885273
iḫiidma 1.7223793 -2.1693945 4.190183 3.0547137 0.74658614 -4.0009985 5.3666425 -2.7728438 5.5380135 7.6197987
idísúen -6.240066 1.3246757 -0.024533734 2.3519971 -0.25605378 2.5783987 -2.2863479 -2.6849434 3.9323828 -2.3959055
me -0.8286454 0.9528636 3.7751033 -5.5875545 3.8098571 -1.7868918 -1.430327 2.9632251 0.30607176 6.2181315
baáb 8.292647 -0.2155772 -9.446292 4.6421967 5.0745726 -6.6225963 -5.7077785 -5.83893 -16.592583 -9.036696
súen -9.278561 5.9559464 4.1874166 -7.139623 -4.983718 4.6410437 5.771439 -5.0529294 7.4028215 3.0159094
šuatí 2.5398438 -4.362076 -0.74873376 3.1697047 -1.7612643 2.520705 -0.48218077 -4.113276 -0.6068339 3.6758468
belí -0.3596466 -2.4910278 5.0325904 10.135499 6.735909 -6.947022 1.013404 -6.3979244 4.254314 6.771172
nikàsí 2.183648 7.370611 -0.99614143 1.9477806 2.6876693 3.8434796 -8.674241 1.3555992 -0.96399206 -0.13756423
šíbutíni -3.8485124 15.685211 1.7077397 12.040861 -10.901619 14.433648 -0.3000968 -7.476292 -10.995767 -22.118109
idíniatíma 8.665287 15.972869 17.750854 19.293129 0.027218604 15.422304 -8.681772 0.3840521 -15.868572 -13.568692
idíin 2.7646728 -3.9873762 -5.371706 -3.4269357 -0.85547715 -1.1342775 -3.0360487 1.7180761 -3.179523 -6.5096793
elálí -3.7246487 0.5862433 -0.3721948 -2.0139048 -2.3724463 3.914184 -0.8992781 -2.611472 0.78110325 -1.3649247
dínama 4.0226746 -4.6617227 -1.9137377 -6.876708 -6.610466 -3.4503963 9.689533 2.4445217 5.2040615 5.388671
luqútim 9.308947 6.1944366 -1.1742685 -1.3656021 -4.3075476 4.033075 -0.6940625 -0.38062146 5.1331835 2.0290394
niil -0.25847113 -4.6504283 -3.7309446 10.058092 -2.53619 10.170713 -11.496322 7.2904725 10.629649 5.196035
šímaam 5.3757973 1.2530401 -0.96696293 2.448322 -2.6167574 -0.035765998 2.238654 2.6568027 7.64503 10.015894
ninda -9.205803 1.5193789 2.7771242 -8.873466 4.3262005 -3.6517947 -3.6655147 7.987739 -4.831694 -13.517047
amurdutu -9.192675 -4.435606 -2.4946525 2.7811837 -1.5926049 4.0794916 -3.1330185 -3.7498834 2.167102 -1.5480864
šusúen -5.933808 1.6752691 1.8522439 -0.017367683 0.7651967 1.7861999 -1.6843516 -3.1700866 1.6652675 -2.815439
agap -3.813629 4.0368233 5.061014 0.49227336 1.2149894 -1.23139 3.501345 -1.0741417 -0.4494162 1.6052793
idíabiim -2.1867197 -4.2887936 -3.6080198 -2.601176 -3.6824262 6.4835463 -4.779723 -6.761947 0.7529414 -5.2215576
rabi 2.890946 1.8044286 8.0142145 -14.018109 -3.3846915 4.4118648 4.286361 1.3729738 -7.1828246 1.9147768
buzazu -0.435488 -6.1288 -1.9374807 5.995125 -0.3113621 1.7910289 -4.2529144 -2.6347861 2.97979 -5.0549493
ṭuppí 7.608229 1.2801393 3.6800563 1.5833375 -4.0412207 2.415896 4.6131597 -6.931506 2.138601 1.6625564
kunuku 2.0516493 13.371421 -10.267805 -6.1992764 -5.133289 -2.243277 2.300779 -1.9627712 5.0398135 -3.4892116
išuú -2.877224 -8.154845 -2.0116777 -5.2271113 1.224713 1.2484189 -4.451982 -2.3574786 -5.7074795 -0.87587357
idíašur -4.8847847 2.4309318 0.39063093 0.5734977 -1.6526765 4.553385 -2.0963051 -1.2617712 2.7498937 -0.8968001
ašuridí -3.258644 -1.9362079 -0.19617225 -2.2603416 -2.849065 5.0611644 -1.8202287 -2.8218865 2.0483499 -1.228794
ìlíalim -3.9498763 3.4150515 0.31059185 -1.0026255 -2.1210399 5.5405207 -2.9860902 -1.7904346 3.6954625 -2.385969
ṭuppíim 4.836292 2.9920902 0.46841443 -2.0240705 -2.1593747 5.2918844 -0.3833798 -10.065715 -5.307755 5.922299
luqútám 6.7463436 1.9148514 4.2437215 3.3639133 -2.6565776 4.3844404 0.5729676 -3.050593 3.838931 2.2435224
abia 3.1119635 -0.56390786 -2.7202094 3.3494325 0.9128568 1.3278952 -3.0640056 -9.613863 -3.7199824 1.6320364
ublam -0.63030565 3.2030375 -10.194176 0.34313342 -0.4204108 -7.245715 -0.031869933 -0.6338476 5.2950935 -8.660962
lášu 3.4475634 -3.6214 3.7915905 1.5600573 0.41636372 -1.0927196 1.358074 3.3552194 3.4583037 6.0190105
denlílbani -4.2151203 -1.0200989 -0.21095772 0.318787 -2.7259133 5.131832 -2.8310025 0.32625088 4.7973514 -2.57248
qáqáad -6.7379203 -1.1241382 -8.252006 -7.8727818 -3.9229226 4.948598 -0.37555793 -1.5983351 -18.312698 11.436168
ašurbani -5.0844326 -1.2032973 -0.5058024 1.5829263 -3.0148222 5.734161 -2.8737643 -1.2538421 3.656175 -3.8727283
mee 0.038487487 1.3719064 7.255784 -6.0377226 5.7939396 -1.7722101 -2.49659 1.9702015 1.9280531 7.0681157
ṭuppì 4.214241 2.9330864 0.89479995 2.7232509 -2.8654149 -0.41927412 6.214019 -9.326972 -0.015721004 4.7035704
idíabi -9.659415 3.785811 11.834625 -8.1088085 -9.691623 12.710642 8.223717 -2.0945835 6.4307356 6.6603737
mìnam 4.016772 -1.1616924 5.362195 6.1858926 6.9614325 -5.4699855 -1.6922386 -5.5390725 -0.4148387 -1.3482305
aḫšalim -1.340014 0.8239111 0.024129098 2.6204283 -1.4366721 4.062137 -3.382822 -0.8422645 4.6640778 -3.0225158
atata -4.62245 -1.2652066 0.36683172 1.3927575 -2.66206 3.651023 -0.40306774 -0.62148553 -0.28183767 -4.147455
taášpuraam 4.820275 8.388187 0.719158 -1.2020333 7.3350453 -6.969159 -4.6191654 -3.9843528 8.417873 -1.4690703
úzua -6.2822165 -0.62957597 -1.3529367 4.3318167 -3.3124084 5.2210746 -2.1343098 -1.0856591 2.8149538 -4.7121954
šébilam 3.5302792 -2.709447 0.17564656 3.1478934 -0.17318025 -5.338032 4.6229587 0.7996107 7.799993 6.818798
ašùrdu -4.0215034 -1.0242543 -1.1093209 1.4324217 -1.932473 1.4497142 0.041130465 -2.6954303 3.9663181 -2.9115083
šudenlíl -3.255789 -3.2932277 -1.3089776 -1.2685131 -3.0514317 4.2259955 -1.7679273 -2.4810164 5.323312 -0.5843596
današur -3.2677133 1.4773879 0.26790357 2.9431708 -2.2371888 3.198395 -0.9053872 -1.1133747 7.4309864 -1.3533146
rakiis -9.251258 -0.6620243 -1.3425565 -2.3129234 -5.3549395 6.8866525 3.5061026 -4.340109 -14.843035 6.480781
ašùrbani -3.4645934 -2.0295928 1.1922096 3.5015318 -3.7627597 5.343212 -1.3517638 -1.5585495 2.719626 -7.7578745
iṣbaatniatíma 1.0895256 -1.021003 0.85885274 -12.21359 4.0193243 -4.135015 -3.9056933 -11.032202 -1.569513 -15.919411
mala 3.8656147 0.90061104 1.4402919 -1.8030411 1.8534266 -0.946915 -1.4853039 -1.0620059 4.4386697 5.3062577
kura -3.5229366 -1.2530019 -1.4501173 2.5475614 -1.8174667 3.7500181 -2.741938 -0.03937237 1.4933186 -2.0154476
imdídingir -2.5728328 3.0349438 2.2297406 1.4895685 0.27798715 4.534484 -4.470779 -2.8067899 5.2554474 -2.1715157
ápqíid -1.0932008 4.5575914 -2.6192307 0.9543202 -9.558204 2.5705082 7.2164507 -1.7200229 -0.5267578 -12.6748
láma -0.7084235 -1.1688472 8.233062 3.2109787 0.4898882 2.860587 -0.95997554 7.18058 12.3267355 7.3811693
mu -1.7361037 0.1926868 -3.7710862 -10.406541 11.5652 -8.726874 -8.387848 -1.8363057 -8.513415 4.0143895
šukubiim -4.5729017 -2.8118005 0.08221545 0.33414114 -4.2450347 7.211183 -2.498891 0.008280446 2.4145625 -2.4472704
idíištar -4.0988393 -1.2580154 -1.0565743 1.6051174 -1.0390788 4.4888763 -4.3504 -0.52972764 0.91526175 -2.5225217
ištéen 1.7008134 2.7288592 3.4745042 -0.60980946 1.4402134 -1.2765533 2.1121423 1.6763834 -2.9813933 7.3476276
lánim -9.895136 -0.5902323 10.614155 1.1293895 -5.5100517 8.321739 4.278257 6.514085 19.853882 13.377214
meere 1.5272045 -5.148178 0.081356645 -6.388916 -1.5305245 1.9495128 -0.7066657 -5.6410165 -4.484432 -3.8789744
dam -1.1299555 -7.312797 3.0015926 -3.0788531 -1.3505627 -5.0216503 6.5414605 0.4730252 0.05817524 -5.8764873
aḫuúa -0.34463942 1.050916 7.284691 -7.2684603 -2.9632313 1.8359607 7.145049 -4.523874 2.6250346 9.295153
šuut 2.0022516 -4.910675 -0.8253231 2.5435853 0.54840577 2.7564473 -4.074577 -1.2079117 -2.7380981 4.3323107
sígḫia 3.9321887 -0.21399832 -4.730467 -1.5828505 -2.1878698 -2.6639395 0.4062425 6.789593 2.218267 -1.9903703
idíašùr -4.8582606 1.8624889 0.13014434 1.4679805 -2.6845872 4.810408 -1.2535449 -1.2858478 2.4437902 -2.5203738
awilim 5.5552163 -0.7360955 4.3970623 6.075825 3.0786583 -1.2417301 -1.2211087 -0.71844476 0.36182576 3.495716
kùbabbarápkà 2.2146013 0.29204047 -1.4032584 6.7489915 3.3504553 -2.530463 -3.7088037 0.36119732 7.1695538 5.551671
dínam 6.116394 -6.591978 2.4656456 5.638837 2.3879378 4.3489165 -8.855909 -1.0542556 -2.6476116 -3.8707776
téertíkà 7.68952 5.4470797 1.3696245 2.318557 2.130551 -1.5819591 -2.2300518 -0.10931665 7.7359877 4.375192
tí -1.7673259 4.4700236 3.5164628 0.04805634 2.008293 -5.2532396 5.7861195 -1.7680815 -4.6016665 1.8129606
téertí 5.6489863 2.350493 8.03604 -2.9109805 1.8240873 0.4687296 0.010247932 -0.08212648 5.3061905 4.761024
išqúlu -3.6750367 -0.9593559 -1.0131174 -3.0650785 2.2844079 1.8168464 -4.4585257 6.1168303 -6.2693815 11.374275
dadaa -1.4487709 0.89640474 1.1363913 3.1189454 -4.008396 3.1826513 1.5091376 0.2588222 4.129891 -4.335962
qádum -1.3362033 6.7618475 -8.41376 -2.5725927 -2.267783 0.10898568 -2.0256338 3.1890712 -2.2401915 -1.1301341
šeam -4.023848 -6.5811367 -1.6263977 -1.9627268 2.6515737 -5.7242985 0.050192818 8.397358 -3.954237 1.7791369
ennamašùr -3.1819906 -4.2503905 -0.5853145 0.46971196 -2.1433153 4.0733175 -3.519203 -2.2604072 7.245115 -4.172792
ašítíšu -10.814937 -11.169137 -3.1451812 -0.67933476 -1.3867679 -2.298603 2.46592 2.8265083 -8.138416 -1.5694915
gapma -3.5265665 4.8359704 6.008709 0.7535451 3.3972974 -4.0588675 3.75092 -1.5370455 -0.140775 1.5014067
iḫdama -0.32759926 -0.49522248 5.200352 -6.0557127 -3.8485463 0.75096303 8.136223 -0.9019835 2.7188718 11.708272
túghia 6.351674 4.0166316 -1.8976411 -2.2409368 -3.95165 -2.9495637 4.9888372 4.742143 3.793925 -0.73681444
imdílim -2.897133 3.9388385 1.0214763 2.4764087 0.7978159 3.8956127 -5.5811033 -4.349053 8.890303 -2.6090586
šaášqíil -2.8312259 -6.711374 -5.416097 -0.7922088 1.943244 -10.213054 5.678881 -6.792164 0.61626214 5.4229674
belúmbani -2.669682 1.0053166 -0.048762593 1.6729779 -4.8447604 3.6897871 2.1815286 -0.93307567 5.8235793 -1.0378731
šíbi 5.0833974 -0.41879946 -0.23424795 0.5258097 -0.3582519 2.9734373 -2.0284905 -7.1385655 -3.9476702 3.4200287
tùšébi 10.474854 -0.015394299 -11.989411 0.6439248 4.6994443 -21.646135 7.7435117 -4.956479 -4.770121 -4.2587523
awatám 6.0557227 -2.9106925 6.3702583 1.1885365 5.3343425 -1.1023499 -3.3634846 -3.105544 -3.173273 2.4702737
naášakunutí 2.2606027 -0.099962756 -4.7818513 -6.317937 -8.472483 -3.4369504 11.07577 -3.6482258 3.9373553 -2.8391857
mìšuum 4.863436 -4.432314 3.2584076 0.4102598 6.7838297 -6.6881757 -2.333725 -1.2225341 1.1061394 1.5623343
ahama -1.1440864 -1.6138318 -9.748244 0.4034079 -6.4076133 -0.10673824 2.3733094 3.3776984 1.5253439 -0.5957851
ašurtaakláku -5.1201468 -1.1939588 0.9006154 1.3936287 -3.89252 6.3559384 -1.2392161 -0.83050215 5.864115 -0.0997765
šíamatim 4.27692 -0.89011115 -1.729256 4.4475217 -2.2227914 3.3086445 -3.7163744 1.0874783 4.2882247 -3.7415576
današùr -1.4122728 -0.04134439 0.8097765 2.2895472 -3.3426583 3.3327465 0.27983108 0.15965874 5.2515607 -3.0762274
li -3.0866604 3.649651 3.8844314 1.1728442 1.2152466 -4.595707 6.7221704 1.4854769 -6.8075914 3.3267934
ku -4.4517045 6.1472135 6.6917095 0.9184048 3.6871529 -5.182904 4.6846075 1.8370192 -2.1883838 1.1304754
buruušḫadum 5.6366744 3.9353156 5.777998 -3.7677708 1.3214785 2.9650338 -3.9926894 4.841728 3.3354557 1.1524733
limìim -2.1275587 5.815346 -3.8982482 -4.1635456 0.16158287 6.053505 -7.383453 -3.8464465 -2.5256367 2.4032195
iláqé 1.3157119 -3.9136453 -6.4475775 0.75954777 -2.4209094 3.1773427 -4.023518 3.780623 -6.4321547 1.470232
šukubi -10.76809 4.4241962 11.643905 -8.719753 -11.296633 13.024506 9.88783 1.358363 5.439559 6.87288
ṣalámu -0.8613047 10.987844 -6.294292 -0.12562531 -10.668157 -1.3994802 10.4523 9.688628 2.817714 -2.5873516
itbulu -8.636007 10.934382 -11.3965435 0.0445608 -7.850973 -1.2399833 6.59351 9.0563965 -2.020789 4.042168
buzutaa -5.1681156 2.8182566 1.7502409 0.37107953 -0.48716468 6.7792096 -6.1871667 -1.1442684 4.490187 -3.695338
libakà 6.7157006 0.36952972 4.49329 12.826644 5.6221437 -6.025352 -0.002957095 5.468741 -0.08275395 8.287519
dutubani -5.2079573 -2.4185054 1.5868105 2.9916868 -1.8756028 3.037701 -0.6243171 0.79467976 3.2857404 -2.8791127
šuḫubur -3.9490404 1.4334751 -2.0947032 3.242655 0.4725242 2.5794504 -4.83756 -4.5124855 4.093211 -3.2862217
kuunkàma 2.4283326 -4.0628424 -0.6170404 -4.8372135 -7.963066 -1.8508723 11.882016 0.17506419 4.8182573 9.412122
qátíšu -1.5035614 3.879631 -2.539721 6.0892825 -6.3628273 5.279957 0.5407067 9.120889 2.7748134 -0.03319616
ani 1.3057015 2.1521237 3.9921124 2.8749774 4.0181346 -2.8871317 -1.2402104 4.172409 1.0927148 1.6186703
ṭur -3.2114313 -10.708706 11.351087 -3.2645903 -2.4492779 -4.436133 10.908016 7.6891975 6.841229 1.0286722
aláḫuum 0.6325969 -1.771842 -0.099699564 -2.285026 -1.8216454 2.212655 -0.6867429 -1.0776368 -0.1321226 -1.4680233
idínam 1.2652243 -4.30724 -6.837995 5.7707224 2.5235014 -2.8817873 -6.3607135 1.6686658 1.0197232 -3.842985
adíi 2.7904603 3.411172 2.721509 2.9541173 3.1306698 -1.8387609 -1.8619096 1.0485357 1.725099 -0.3090304
ašurgal -1.5324123 -0.39949456 1.3204821 1.5786393 -3.1693966 3.9765139 0.15377082 -2.662832 3.830486 -3.0428483
šálmìšunu -10.399696 -0.62670636 -5.6116157 -4.794024 -6.446897 6.568705 2.869343 -1.8222839 -15.304843 9.408084
kunukini 2.0537179 3.3121932 -5.664672 2.0448155 -6.1435156 0.8668948 2.0275438 0.817761 9.517397 -2.9545865
abuni 5.0179167 0.23931354 -4.6979246 7.784971 4.000038 -2.720613 -5.1602654 -4.743006 -4.456888 0.9298938
šulábaan -4.1435223 3.784802 -1.0637108 0.21394554 -3.766723 5.5872254 -1.6026576 -3.3161001 2.1329045 -5.4331436
ašurbeelawatim -6.539589 -2.1649587 -2.9967816 -0.34685612 -4.9857287 6.6107173 -2.4962783 1.5152808 2.2411637 -2.217212
rubaim 2.1995795 0.99645 3.498888 1.5135646 -0.4915968 2.866531 -0.8788206 1.7904426 -6.2657957 -2.6004212
úṣúbu -10.803232 8.851306 -6.899365 -3.7070932 -2.0398424 6.8264427 -4.6214905 0.8060098 -13.598018 5.34911
kunuuk 7.6138678 2.1649277 -5.578818 -2.7111316 -5.6005034 1.4880115 3.199791 -10.88644 -6.5993514 -2.6207352
ali 3.7844107 0.27276307 4.329649 4.4369135 -1.8926208 2.803142 2.635314 -1.0340797 -1.7869828 5.12733
kulumaa -0.3820134 0.06841408 0.13111554 5.5193734 -3.238675 3.0911953 0.21466666 0.12635462 5.384671 -1.630456
šununu -1.3567586 1.3886803 1.2442331 1.9202551 -1.9923732 3.367631 -1.6586806 -0.5178436 7.6100464 -3.2299838
tadíin 0.32488754 0.7274973 -6.691704 0.84776855 3.1582234 -7.3590918 -1.8870277 2.732434 1.6726928 -1.204307
luublam 4.285982 -6.634893 1.9632542 -3.5226219 -6.1157265 -2.9493709 9.904776 -0.8193121 6.520607 -0.49565342
ḫaarmìim 0.03136265 -0.7745952 -8.764308 -0.817201 -4.677879 6.50134 -3.4094071 -12.812094 -2.111257 5.192662
irade 5.702612 6.615846 1.1161517 1.7912819 -6.930569 -1.7548755 10.144864 -0.94777495 2.1620502 -7.1516953
tur 9.202737 0.20962393 -2.1405458 2.995973 6.6451626 -2.543222 -12.486732 6.442364 -4.874652 -12.509567
díinma 5.0451035 -5.2155466 -3.0286694 -1.4066856 -4.2073565 -6.1691713 8.550538 -2.5412147 6.168554 1.4896154
ikribi 0.1934648 5.122945 -6.2190576 5.279658 0.17723767 -5.6478524 2.1717436 -2.5281193 -1.7306962 -3.8031213
qátía 2.025708 1.5340075 -0.9900669 4.7125187 2.804588 -5.124317 0.58784246 3.5752015 0.2257732 4.9529805
amurašùr -5.3245687 1.6710579 -1.6034982 0.43379983 -3.0919068 4.6633143 -0.9400287 -3.3139074 -1.772802 -4.105062
maam 2.673343 -0.9886966 3.157074 -0.73988074 6.8971424 -4.247831 -3.623364 0.9314046 -5.223183 3.0253062
ašurdug -3.6576443 -0.57453024 1.9171027 0.14319795 -3.0315554 6.820902 -2.5407991 -0.3184307 3.2501194 -1.8566166
šanaat -2.7030265 -0.92624617 1.4967915 -6.649926 3.2740169 3.5402293 -6.9249024 1.9810957 -2.483122 7.3640347
kùbabbarápšu -0.3413793 0.4675615 -7.001989 0.77865 0.7428494 -1.7738909 -3.1101248 3.1623693 0.17047052 5.586319
ide 5.151047 -2.0975807 2.6613047 6.7475023 4.9240665 -7.0365367 1.8867788 -1.4600712 -9.545223 -0.894948
ḫaḫiim 2.8319962 3.246851 3.7487261 -0.91139567 -0.00016842867 1.9741993 -1.0978553 4.5146747 -0.31336358 0.5820359
alikiim -3.748165 -7.321103 4.198699 2.2141519 -3.3666654 -4.6479163 10.463973 3.1634538 13.007408 11.676275
ašùridí -3.2548826 0.83778983 1.6331451 -3.8603597 -4.8502827 6.1265707 0.74305755 -1.0009038 0.55649936 -2.7220044
abikà 7.8866453 2.3699734 -0.70879537 5.1916924 2.8542929 -1.7645031 -1.5820262 -11.037199 -3.9728255 2.9397237
šukubuum -1.4830335 0.38037184 0.07492042 1.6344472 -2.2256238 4.3798127 -2.8752196 2.8713288 2.005739 -3.6582093
kulia 1.1278381 -6.24143 2.6890578 5.7130857 -3.3301437 5.2138963 -1.1058398 -2.3239474 4.4129977 -2.817412
adíni 5.132846 0.45203573 3.8997886 4.638924 2.24582 0.4691794 -3.1546504 5.6289597 1.0288047 2.4908884
agu -11.261255 1.1233295 5.2916265 -3.44362 -0.27486554 1.8997254 1.7896924 3.398525 0.8143696 -0.11128815
igap -2.8161054 4.636462 3.6357443 -0.2861497 1.336358 -0.9029007 2.6321807 -1.724825 -2.495083 3.0597665
ší -1.8212347 2.2237194 5.4598165 4.0140147 1.883875 -4.9296145 5.966131 1.8647921 -2.261176 2.2271142
talqé 3.2098148 -3.0547292 -6.498323 5.382249 3.2421756 -4.5726347 -5.6671634 2.2454007 0.22713916 -3.975632
awatum 5.1296945 -1.3636104 7.18667 -0.34176412 1.6836065 2.566899 -1.2119018 -0.13909985 -3.1844947 5.473263
niiš 9.64069 -2.5469422 0.526433 -4.1300335 0.40482655 7.3750153 -9.436339 -5.577994 -13.226541 -4.5275917
ìlídan -2.50819 -2.5269494 -3.173662 -2.027394 -2.3013792 5.242499 -3.3369799 -4.8611784 -3.3320684 0.28331774
gu 2.9984958 -5.4262843 -3.6612415 1.1913822 -1.4851116 -7.405785 7.2272205 2.2431812 -10.048877 -0.83806145
dutuši 4.188693 4.1750083 11.372116 1.4015985 -3.5376453 4.249174 6.386607 -2.200623 4.242475 4.0601697
dmartubani -6.074115 -1.5359552 2.4249823 -1.1107904 -1.0502604 4.8472495 -3.0112364 2.1046362 0.9193437 -2.8391142
pánia 1.6253741 -4.1469297 5.8117614 1.7793425 0.17700393 -1.9037735 2.68906 6.783167 6.9289775 5.386213
kurara -3.7964547 0.18595824 -0.37363166 0.88913006 -2.3192563 2.9880354 -0.57881916 -1.6615441 2.7042246 -2.6407614
ahi 2.6793108 -6.941989 1.9583604 3.420107 3.441227 -6.44467 1.5504504 -4.314507 7.3277197 3.3847418
za -10.272771 3.873342 5.66495 -4.2661724 2.514497 -1.020948 1.851253 2.5221698 -4.1779447 0.42678225
ba -5.7970877 6.6157446 3.9327652 0.4512207 4.625518 -7.975861 5.549905 1.8710979 -4.439589 4.224335
atùnuma 7.1302915 1.2122324 1.1158142 -6.591305 3.204376 -0.5573011 -4.478571 -6.183867 6.2360787 4.762178
ṣúḫari 1.4317915 -0.5800099 7.689905 5.779988 -1.9604928 0.06894255 5.163512 6.949657 5.024284 2.5944622
kùbabbaráp 3.5394506 -0.7001838 -4.8508153 -0.1418361 1.6788561 -0.46371374 -4.216639 -8.246661 -4.6507473 -0.979395
meerú 2.9269023 -5.317197 -0.28579783 -5.9310284 1.438225 -0.1638362 -3.0962703 -10.372035 -8.265206 -8.793063
luqútum 6.12486 3.7266104 4.211068 -0.026372295 -2.9376225 6.6368637 -1.3511491 -0.85989153 6.1222315 6.1602917
nénuma 7.5974283 1.5652583 1.5421053 -2.9029064 4.6963735 -2.531154 -4.1495037 -7.8466277 1.0248778 -0.9947469
ḫinaa 0.9820425 1.556542 -0.59132147 0.94990295 -1.6689585 4.2767687 -3.81118 -0.051551215 5.3304567 -1.083513
kuzizia -1.8986403 -2.6332371 -0.9658327 0.51792926 -3.4890976 4.2220683 -2.2327542 1.1473193 7.5154686 -2.797519
šubelúm 2.2610352 -4.715052 -0.35298395 -1.8928422 -2.6632845 4.9572363 -4.235069 0.6990918 3.674688 -3.1028812
ìlía -1.5030107 1.6154948 0.8619488 3.6175134 -1.2118927 3.7820423 -2.9636014 0.3220615 2.8896706 -4.673243
diškurbani -2.126713 -1.3601098 0.5596509 2.2142134 -3.941135 3.4453926 1.0444828 0.9156125 1.9073842 -3.6614714
ṭuppée 8.037913 3.3755927 1.309998 1.0841413 -4.1201673 1.3555228 5.3965 -8.305752 -0.9415362 3.022571
aniútim 7.70459 -3.697806 2.5967019 4.840993 -4.735514 4.7888293 1.1922743 -0.3299011 -2.010589 -2.5152683
qáatkà 8.211105 -1.3855344 -3.988774 2.4485226 -0.1888613 -1.1098249 -1.9090614 -1.3223761 0.89676774 3.5803487
dadía -1.5244008 0.8389856 -1.9323834 -0.17478867 -2.1327906 1.4586929 -0.86301196 -3.911059 2.9051518 -6.1861033
šuumšu 4.309808 -6.080825 1.0535123 6.8021936 0.9817955 1.3975888 -2.9143763 -0.98185605 -11.227879 -4.2444706
kunukišu 5.4742208 -3.5617585 -3.9896111 3.5648425 -5.6936517 4.407766 0.11198768 -3.295178 1.0252733 1.164757
tíirtakà 2.4683342 -1.0955651 14.797089 6.6039467 -2.7937062 4.814488 5.4096403 3.011824 10.494599 7.593663
páni 3.8563197 -0.5024264 0.31295052 4.2966557 -0.18413644 -0.089200094 -0.66004163 0.99728847 0.93970525 -0.4789494
ḫaranim 4.840884 3.0745268 2.0325665 5.320873 -1.0461872 3.658225 -2.8613853 7.00805 1.9586451 2.2265196
kunukikà 5.4717813 1.091986 -6.175128 5.4602766 -0.7096652 -3.9711976 -0.0720016 -3.6935666 5.7799516 -2.4242022
ubláni 3.954028 5.0791583 -3.9522967 -1.9354587 -2.4872308 0.6373093 -0.9308393 -0.5816302 1.9204632 -4.127999
qéma 6.6315026 2.8377354 -17.141798 -0.13749088 3.1320324 -8.958734 -3.8873415 -6.29382 -14.739008 -3.9872255
támkàriim 3.3611097 3.3776283 -2.640636 1.1413503 -3.5503871 1.5349933 1.6832107 -4.1274114 6.5846534 4.2764254
šálmaašùr 4.010309 -2.8258386 0.74617714 3.3977704 -4.327004 5.015522 -0.44638753 -2.5242362 -0.55156887 -4.7617464
šurutum -2.2410166 19.440346 -7.482748 -0.71766573 -2.417353 -2.7625499 1.0615149 1.8806031 1.3762779 -5.5465693
súea 1.0532789 -5.2651367 -5.0509906 5.5840607 -1.8799789 1.4855902 -3.273419 -4.259523 2.4113615 -4.448675
ga -6.880746 2.9503353 4.4120116 0.94970816 2.7656875 -5.1850333 5.0928664 0.50876844 -1.6097839 1.9084159
liwitim 0.99085695 21.892086 -5.7017937 -2.7207847 -7.543385 0.55010027 5.4744105 5.7061343 2.226993 -0.9024345
gig -10.4983635 -7.9690123 -5.725874 2.2933178 1.1025656 -5.2611537 -0.622663 11.6603155 -4.719328 0.70652926
ḫumìit 3.4970336 7.8976746 13.215422 -17.073141 -2.9715762 4.900811 5.21585 4.7679386 -1.0845319 3.2924938
dubsar 0.2531517 1.0310769 3.4451268 0.64674604 -5.245438 6.419763 0.78416914 2.975259 -2.261367 -6.6825714
lulu -4.624747 -0.7013756 -0.73540527 1.6614366 -3.5045457 1.27379 2.1069229 2.274311 3.7374744 -2.667701
ìr 0.87711746 -4.167406 -1.7559354 -1.6776534 -1.0615168 -1.2010791 0.48718956 0.79139596 -3.703916 -3.9673252
beel 2.6231105 -2.4601061 1.3982582 3.4127526 1.3608762 1.4413152 -2.0794356 0.10402643 -11.441064 0.8608728
šunu 1.3583331 -2.1946707 1.0754032 5.6757393 -2.6345396 3.0039818 1.5202625 -0.164601 -1.986014 3.9797988
šínišu 9.011328 0.22137657 5.7310653 -8.1353445 4.037274 -3.5653021 -1.5882554 0.18181685 4.1219006 3.3626335
ašurdutuši -4.376542 -0.28803533 0.82439256 1.1994734 -3.692779 5.0029316 -0.5604004 0.48979712 5.00074 -2.015127
adída -0.18941627 -4.8015356 4.328115 -8.799388 -2.1970441 0.02411255 2.8204536 -3.3057058 5.5494666 -4.1840086
únusúnu -0.65476114 5.994773 -1.2134755 1.0408763 -12.071098 2.433473 10.761352 11.057336 3.6670005 -3.1289737
ùlá 2.6893783 -4.4012427 1.7038668 5.1509557 3.1635256 -0.6677839 -3.6294816 -0.75716376 1.636962 2.5073128
idí 1.1372734 1.897311 -0.2557263 -0.1615191 1.4847484 -1.3999096 -0.9194575 0.23646933 -2.5121815 -0.20795491
úṣúuršaašur -3.718731 0.47029257 -3.3032658 1.662844 -1.8448646 4.368518 -4.1991563 -1.057176 0.00474778 -3.3089843
dingirbani -2.2788677 -0.27952605 0.074925095 -0.48872316 -0.68112195 1.3917471 -0.8072791 -1.7193339 -0.12173625 -2.8735588
qíbíma 0.26773548 2.9610815 3.8390834 -9.449204 3.8189461 -5.284349 0.08175961 -4.6586576 1.5798453 -9.878845
úul 2.2272508 -2.3177257 0.7678364 7.186906 3.6773293 -2.7669735 -1.8946198 -0.70155203 -0.82173216 3.4671807
ašùremuqí -3.4719312 0.34579456 0.73034537 3.2155125 -1.3485554 6.1498995 -5.2069473 -1.441733 3.9287143 -4.576175
atalkam 11.549984 -0.60847104 8.268398 1.4830265 3.0240293 -11.201005 9.631103 -1.8086429 -2.3383234 -2.0718327
anitum -0.7150655 -3.8107755 1.4454985 1.1739762 -2.9137478 7.400532 -0.8337091 -8.813518 3.9398239 15.817599
ašùrsipa -4.725411 1.5838023 -1.476572 1.1718086 -1.2293379 5.522928 -4.1229496 -6.42186 3.3173158 -0.019979494
imua 3.732496 -7.1031375 3.6277466 0.36743832 5.7040997 -0.36492738 -6.8060536 -0.5160827 2.2787209 7.054511
libikà 4.7944474 -0.8514144 -2.7255082 3.4271886 2.256891 -2.2029655 -3.008466 -0.12004284 1.6155117 5.3236537
ìgiš -5.6430874 -1.3565146 1.351155 4.561675 0.10520084 -5.174401 4.6978083 8.32197 2.8380058 -0.15727326
aniim 6.5553713 -2.438721 -2.9792998 2.5290627 -2.93714 -1.9406337 2.3255327 2.8029015 -1.2963156 -2.0235806
naší 4.476592 -1.7038403 -1.6390568 0.29722214 -5.4174333 -1.8164223 6.7126713 -0.6817432 0.39020774 -4.199716
meeḫraat 2.4559705 4.662058 -3.2024243 0.43433756 -5.7646947 7.634269 0.16629791 -9.021936 -1.359091 7.7724442
tum 2.001723 4.7821994 0.6120739 1.6109747 1.5355785 -6.6497545 4.9568014 2.7459354 -4.309048 -0.16636394
itùru -0.60655355 -9.471096 1.4178885 -0.28870195 -0.099709176 5.80762 -5.9256945 1.596063 -9.46891 -0.93922263
úzni 5.815151 -5.409911 10.873566 8.829304 -2.475073 -0.75674456 8.732061 -4.3397517 5.2428904 2.32655
úbi 3.7344985 3.270935 -12.794481 2.3903284 -0.69559836 -10.589203 3.5980136 -6.5539756 -12.906548 -17.684345
ašùrtaakláku -3.2415497 2.9762495 0.4423915 -1.5702361 -2.7450304 5.8747177 -3.168023 -0.24566513 8.309678 -1.0035213
akidíe 5.7657456 9.31658 0.48879167 -1.57674 -3.5436645 -7.416128 9.95501 4.091443 4.692115 -4.7806616
pánitim 3.3611994 1.3648362 -1.1995847 -0.25430042 0.2950657 0.9384737 -3.7013261 2.7126622 4.194539 1.4746125
maalútim -7.5863743 -0.56393903 5.4967465 -6.2137647 7.6864176 3.3137417 -10.448981 7.961942 3.3191395 21.717422
úbiil 2.629124 0.035809595 -3.8493896 -1.6218798 -4.7817745 0.65480375 1.3902224 0.5927074 -0.31987047 -8.424782
šuašur -3.2788086 -2.8947992 -1.9412475 -2.901875 -4.762914 5.2223644 -1.0914261 -0.9197136 0.7388705 -4.262262
ezibu 7.6587152 0.87516016 -1.780036 -3.7937865 -1.3838866 -5.056031 3.939335 0.75360966 -3.1854122 -5.134072
aḫuwaqar -0.61658174 0.4434929 2.2340355 2.2251136 -2.6376634 5.406526 -2.133466 0.04734829 3.2676876 -4.1793785
ašùrgal -0.17519142 -2.3986442 2.8597062 5.324606 -4.1064053 5.6482644 0.016384033 -2.0920477 1.7611904 -5.3812056
šíkam -1.853616 -3.5997021 -7.9210978 -4.5981565 -0.20041181 -4.2816596 -3.4280288 8.731663 4.949062 -4.1824503
šíatí 6.5393276 -1.5477026 4.988101 3.2895 -0.6490912 3.9665482 -1.9033177 0.42296734 2.855895 3.1129787
ḫaarmaam 5.372561 -2.4909413 -8.716117 2.087469 -3.0718203 4.176348 -4.421055 -12.034155 0.80914915 5.8192277
awilúm 4.036916 -2.7189991 4.5617323 3.0690455 3.7499936 0.51523954 -3.6170516 -0.4282759 -0.52238405 5.18844
iṣéria 0.4567501 -4.3576097 -1.5029458 2.8787742 4.3027086 -4.72195 -0.8631129 -0.8487413 -5.960702 6.749459
beúláat -8.348664 3.4719453 -10.071713 -0.42992076 -8.623805 3.315366 4.500571 -2.7089438 -6.192931 -2.8213046
idíabuum -2.2071826 0.06628665 -3.51684 -0.10032451 -2.526637 5.039012 -4.3239903 -0.48382178 0.14833598 -2.4902003
niisḫatim 3.6326864 11.319764 -4.6362457 8.839607 -1.1323195 1.7863137 -4.296816 6.9558167 -0.30216768 -1.8986447
pánimma -1.0348289 -4.6796317 1.4122975 1.1137786 -4.681197 -1.2225984 7.5182924 3.2291257 9.216388 10.229661
ìlí -8.531664 6.8381095 3.5921016 4.6949234 0.10902923 4.739602 -0.39003217 -8.227201 4.175084 4.131827
ištía 5.9944906 0.36687836 1.5098276 6.5178337 4.184825 -1.6572615 -4.606628 2.8374 -0.95364904 0.9988079
nénu 8.949048 -4.2408733 1.2162571 3.3743098 2.6293685 -1.6881676 -2.5044684 -5.3630395 -2.4547548 -0.0056663076
iláak 2.989353 -2.4083493 -0.41291103 0.7155048 0.6569754 2.8637226 -4.2303953 0.16049364 -2.4643803 4.584945
manaum -4.321698 0.07803247 -6.046793 1.7342141 1.1780547 3.9334052 -7.575079 0.27131093 -2.5309362 6.9883223
kùbabbarpìkà 1.4780246 6.321707 -4.4437804 8.034856 1.7495662 -3.5137293 -1.6130046 2.500576 5.123486 4.863977
itùar -1.8723099 -8.605094 -0.43190548 -1.3701742 -1.1064522 3.9276714 -3.3651803 0.83962095 -7.7775 -1.4180143
ummeani 5.913345 0.74757266 -0.030175265 -3.2516885 -3.9264145 3.423459 2.536455 -8.782192 -3.6550803 2.8828773
idínu 2.328403 1.8401086 -0.7072203 -1.7316117 -0.5954457 0.29547992 -0.6126056 1.0845512 -5.2471495 -3.8563342
aḫišu -2.249809 -4.962886 -3.3200698 -3.0788205 -2.327939 3.555542 -3.1276789 -1.6885364 -3.849583 -4.06098
anina -2.2509716 -6.151007 -2.5276997 -0.87530637 -2.8830962 0.7230369 0.6506709 -3.6963236 3.3755417 -2.6138096
úla 4.700684 -3.697329 -1.2130295 3.5789943 3.0890508 -0.7649879 -4.99933 -0.8744619 -1.3541915 2.5164173
ilikam 6.5221395 -6.825049 0.9127213 -2.4273722 3.3898957 -3.1856158 -3.596795 -0.77930367 3.7559993 0.655238
ṭuppìa 3.3620374 1.9745342 -2.2425997 4.401176 -2.7104123 0.0026218337 4.33082 -10.466333 0.8052832 7.0610113
šína 1.3290262 2.3680897 0.9666629 -3.4097059 -2.7358112 -1.5008029 6.0533776 2.5468307 -3.74514 2.9506023
ataa -4.928133 1.2741662 0.4943982 1.7836565 -2.183787 3.706981 -0.79609096 -3.0391033 3.1712658 -3.588431
wedaku 5.2903285 0.32404098 -4.3003325 1.5920984 2.0733051 -9.110801 3.469998 -7.7972937 -6.1826334 -8.402813
kùbabbarpì -1.1229817 -2.0421958 0.32894403 4.111116 3.4351213 -1.8493412 -1.3216134 -4.324367 -0.1414236 6.8105283
ṣúbatí 6.6895256 4.761437 -0.505999 3.4277556 -1.4451554 -2.0559404 3.0515165 1.7314146 0.733426 2.2854748
idnaa -4.449083 0.8905472 -0.5426565 -0.8606821 -3.6540508 3.5173135 0.9120491 -2.203646 3.527122 -1.5171664
liibší 4.586308 -5.922086 0.6139153 -6.751293 -1.557971 -5.986079 6.784107 3.8913493 1.1422044 6.028684
ṭuppákà 4.15101 1.7930365 -2.3506413 0.040384885 2.5757792 0.7489303 -5.2583327 -9.3465 5.730721 6.7313204
dí -4.7818923 4.7029448 2.8250425 1.230204 2.6735213 -5.2360296 5.2044935 -3.7161047 -5.1869783 1.2583451
tašameú 13.648766 -5.7486796 7.9322443 4.6912146 -4.435467 -6.994359 15.1238165 -6.3831086 0.025508845 -0.76328456
enumašurma 4.95108 -3.6137857 1.1841847 -6.4749303 1.2123628 -2.1899302 -2.5784862 -6.854111 8.203603 -7.3015704
šè -4.953571 3.113687 0.78208554 -5.53656 12.080741 -5.9788723 -8.531924 -0.118063 -5.9775453 6.7610593
kùbi -12.028949 15.557255 -13.826528 0.21475662 -1.1257018 -6.5338902 1.5868348 7.7155743 2.1804585 6.025571
aḫua -0.53747994 -0.2134663 6.8496985 -10.062674 -3.2360656 -0.08728195 8.0844345 -2.3005533 5.725746 8.211176
liil -1.1226547 -4.9902215 1.4665636 10.086175 -3.6765435 9.084491 -5.164694 7.2783794 8.631053 5.1238694
aluwa -0.29750633 -4.4891353 4.644498 0.6722697 -6.22238 2.7859423 6.3191853 4.9491286 7.9101996 3.3326938
téertía 2.1767101 1.4067727 5.5712824 -0.9522681 -1.1053165 -0.114505075 5.0600567 -3.741227 6.0271626 9.82221
itukamim -6.3714542 6.778557 -1.3922905 0.08789783 0.7049148 6.72143 -5.953559 1.6585524 -5.831633 11.459832
adíšuum 1.1147008 -1.585477 -3.0249968 3.4818132 -1.2788773 -0.42407176 -1.7141384 7.7494082 0.6004217 -2.5674598
kunu -1.5159795 1.6338443 -1.4566232 2.5264416 2.3038065 -3.6650786 2.76133 -8.481785 -2.404967 10.349307
ašùrdug -3.4682958 1.7542828 2.2186823 0.8489484 -3.1380343 6.378295 -1.8625289 -1.6506796 3.4094415 -3.9828632
égallúm 7.355491 5.3332477 1.0907048 7.645361 2.947312 -1.4981486 -3.5175602 7.1677804 -4.9253893 -0.3069076
ri -6.30171 3.559814 7.0983534 -1.9946201 3.5197594 -6.75847 6.693432 4.8949533 -5.3784623 1.9277617
ṭuppìšu 0.4349526 0.6538014 -5.543697 -0.8049314 -4.1085205 6.472576 -2.7402272 -4.551808 0.4678885 7.792552
aláak 6.237664 -3.0858176 3.8981853 -4.7333713 3.2461283 -3.0003755 -1.347187 -0.20483503 -1.0865029 -0.8832396
lušébi 11.444677 -0.1972851 -11.641293 3.255122 1.1700747 -15.507701 6.921767 -2.0303302 -2.9015903 2.826746
tíšu -2.0201747 -9.155218 -0.6097929 -2.8140564 3.8680828 -3.287248 -4.114115 2.2016203 -3.2126873 -3.1586561
belua -0.64290506 1.6377175 6.6840863 -8.874088 -0.71292627 -0.3076111 5.8168 -3.3888712 1.8084795 10.30231
pìláaḫištar -3.3208425 -2.173985 -0.4900732 3.3592753 -2.7339096 3.9142754 -0.8202407 -3.3559875 4.662926 -0.39450842
dína 0.31447318 0.6924933 -1.0385276 -6.7908297 -4.2229605 -1.9271655 7.3603334 3.633505 -1.2680823 6.456638
kàniìš 3.9280436 2.286013 3.9092402 -0.6147361 -0.05787757 5.803808 -5.0982747 3.062428 -1.3076988 0.6771888
amtám 1.7788684 -11.027554 0.3714838 4.0548735 -0.28911602 -3.3268158 1.6821258 3.6065836 -1.099094 -1.6251554
šatim -5.388972 2.0099595 -5.330813 -2.4727225 2.7821736 2.2593935 -7.2488937 5.0469513 -10.936505 7.1729875
púzurašur -1.4248819 -1.8779471 -1.4070057 5.227441 -3.6937013 3.160451 0.96997833 -4.8874083 0.86254895 -2.647408
damgàrriim -0.27797014 0.35186592 -3.4640346 3.2601233 -1.4138064 2.51211 -2.3646643 -4.1301622 5.2685513 3.7763815
tíirtí 6.438766 -1.1644051 6.1398973 -11.627634 2.3608985 -1.5596439 0.21535034 -4.979999 4.237728 5.815478
aaldu -8.989101 -3.2249212 -2.5308902 1.4371804 0.43596622 2.2043808 -3.7273216 -5.608141 3.528073 -0.25402984
imṭí -5.579638 8.900937 -8.098723 5.186929 2.580849 -3.531237 -5.164314 3.5210311 7.2281127 0.5241696
aláqé 2.1893346 0.61253995 -5.324312 -1.5636162 2.4068377 -1.5011401 -4.7527413 0.31777093 -3.4268472 3.4391026
um -4.4816566 2.8013954 1.244146 2.1357431 3.0499039 -5.4456177 3.3599913 -1.7863044 -1.7548441 1.948622
gi -0.69787395 -8.840743 -4.430653 -0.58099455 5.8878136 -11.478839 0.8920039 -5.2129474 1.2678076 4.6506677
pániimma -1.3404009 -5.1299477 5.4218755 -0.7535483 -3.329912 -2.3263988 8.876578 0.9969137 11.498887 11.329254
idísúin -2.0070474 -1.3526422 -1.4471159 2.3886974 -3.066872 6.53738 -4.029098 -1.3555727 -0.15261751 -3.6615436
zaalpá 4.194794 2.6946115 5.8896933 -1.6789923 -0.5421715 0.36121503 0.81982386 6.383383 3.8046718 -2.786556
amìšaam 5.267519 -5.2818494 8.411501 -0.3499106 -0.11767694 0.948395 0.99883354 3.723959 3.1004803 0.39894298
šukitim -3.695755 -4.3805585 -6.8271976 1.7045048 -4.264757 5.57957 -5.1939664 -1.0069096 5.65478 -2.1371472
aḫiim -1.7883772 -7.710339 2.9619708 14.923883 -0.79678047 5.026845 -0.89251035 2.1892772 -6.1045885 11.104215
adínakum 2.7991009 -2.4282234 -5.130141 2.0085475 4.092781 -6.7049613 -3.5271792 0.48154464 2.4624124 -2.7070582
illat -1.7141272 8.145259 -1.0817333 -5.1145434 -3.422587 5.108527 -2.625137 3.253271 4.661611 -2.775096
qátám 4.8280716 1.312403 -3.242779 -0.32845566 1.2496098 -1.1694415 -3.4709284 -0.35640407 -0.5368251 -0.8692873
alim 4.1139636 -1.6872889 -0.43303806 0.034321904 -0.5502078 1.7100435 -1.8790026 -0.42400035 -4.928482 -0.7092909
idíinma 5.0612926 -0.90423334 0.7834856 -1.5965022 0.07085229 3.7299073 -5.6589127 1.0385302 -7.571804 -7.5512123
am -3.7044237 1.9079472 4.5556893 2.8586884 4.345771 -5.068422 1.9953722 3.2315686 -1.9045213 1.3868227
amutám 3.9357324 -3.3769789 -0.38755998 0.9153552 0.36679405 0.4111281 -3.2303941 2.148177 3.5490878 0.97049797
pèruwa -8.460078 -6.3557744 3.471683 -1.44536 -1.9667778 3.2781887 2.0924096 4.556529 -11.911331 1.3375859
itùwaar -3.548242 -11.529325 -1.343953 -0.71168786 -0.30576766 3.5212414 -4.0353427 1.4681495 -9.135803 2.6806114
píláaḫištar -2.0532851 -2.7564967 0.5785052 0.6007985 -2.2159605 3.7055905 -2.344533 1.7282935 2.1419597 -5.365427
ašurtákláku -2.031211 -3.3213227 -0.11391144 1.2461793 -3.807632 4.502508 0.08297743 -2.0708241 1.7383189 -0.38465056
adada 0.023815155 -1.4213964 0.9153007 2.490642 -3.2529428 3.5138538 0.10864865 -0.04803333 1.6426991 -3.229854
lugalsúen -0.0811392 2.2393327 -0.81384265 1.1312587 -2.3727074 1.5652406 -0.35291818 -1.293596 5.2828703 -4.2753377
bazia -5.5386567 0.14690891 1.6761581 -0.33147588 -2.0722969 5.142477 -1.3406054 -4.69827 3.2228434 -1.6381769
annaak -2.352343 12.722451 -4.173395 2.6260302 -4.368325 3.541048 -0.79246306 7.253399 6.359384 2.8819468
alaḫiim -5.706371 0.68994457 0.39158776 -3.440932 0.26943123 1.0889213 -2.5261571 0.25825956 6.1025434 -2.4934773
luzina -1.3795137 -0.6332615 1.7377222 4.9857407 -0.20053716 3.1510296 -3.282722 -2.4338987 2.7586277 -5.4342813
aḫia 3.0501385 -0.9171317 2.5611093 1.7163513 0.78336674 -0.32070974 0.6896936 -6.2767367 -0.870548 0.42411566
ištíkà 7.287511 0.44305423 3.0498903 9.623708 0.5862085 -0.64754254 0.52634865 -0.23742548 2.7181764 3.437045
awiil -3.7303154 0.10252626 4.906111 5.3966513 3.9052074 -5.3986197 3.2594292 5.631225 -1.5176803 4.6371326
šíta 4.3628883 -2.5700424 -0.4346879 0.22487597 0.33797804 -7.1650457 4.860584 3.6989474 -3.4153433 -3.201465
amria -7.0260477 -2.5607576 -2.2111762 -0.80130255 -4.3407884 5.6846385 -1.7792895 0.53191346 0.65631866 -3.5762105
kàniiški 5.0234714 3.067909 5.454576 -0.31816775 0.59859556 5.171781 -4.7713013 2.0287502 2.5223718 1.5927876
ṭuppèe 7.1739807 0.6649545 0.5860695 2.528363 -3.3383632 0.5863192 4.7534094 -7.1155925 -3.9635506 1.9067588
masíam -0.20108193 -1.4521918 -6.4263945 -10.356286 2.6242304 -8.42279 -1.72519 2.4820294 7.771697 -2.4186995
amtim 1.8242968 -7.2162995 -2.2066078 3.5977426 -0.990119 -2.8361256 1.2419127 3.4595265 -1.7321904 -1.5020181
nadí 3.860102 1.3542776 -7.360711 0.69292665 -2.2606897 -1.2850294 -1.2395979 1.7600307 2.5822737 -0.1919279
amutim 2.8439274 -0.49040473 -3.242195 2.585311 -0.33676296 -0.49411723 -2.6920414 3.4923434 1.2297572 -2.0195317
šíimšunu 3.158901 2.4756753 -4.0161376 2.3947935 -1.8465222 -2.9320474 0.91533387 8.991306 2.4869053 -0.5479552
úkàlu 6.498301 -1.3287092 -0.1754057 -2.0924945 0.33297768 -2.0160267 1.1162217 -4.371026 -4.0869107 0.7095505
kenišunu -10.606646 1.4676803 -2.8059523 -3.331816 -4.7438726 5.5317845 2.686558 -1.7643287 -16.800007 4.907928
sìla -4.296638 1.3333753 1.0093784 7.1833844 1.5063995 -10.166646 7.4904633 10.861745 -0.046565507 -0.6639229
izaaz 3.1225555 -3.350625 -0.1395763 -4.881459 2.4554515 -0.07020703 -3.7306252 -0.9899188 -6.6521163 0.83460563
ášqúul 0.36388892 2.5276453 -1.5880424 -3.3674412 0.40567413 -0.70871484 -2.8536198 8.249063 -2.6644032 -4.2015023
ašuremuqí -1.8883612 0.49707296 1.0947493 0.623418 -1.6006024 2.153715 -0.73184 -1.7278655 4.7786107 -4.7038555
ḫarani 4.862284 0.3460951 12.597207 -0.025205377 1.232602 2.880514 -0.08047357 4.0109315 5.297153 2.1319242
azu -3.6899486 -4.2205176 -0.6483148 3.9105613 -3.1080134 1.5107932 0.7234786 2.8084934 2.580474 -4.187554
kena 6.616655 -1.9584793 -5.9155655 3.830525 5.4619045 -3.781484 -9.894439 -4.3474064 4.067276 -5.548864
šurutim 1.6596754 15.662887 -3.2799964 2.9458957 1.6316485 -2.5657175 -3.3211412 5.866842 2.8289783 -3.895288
dur 10.245805 -0.60569197 -0.68038654 0.7437658 6.264435 -4.0078573 -10.794362 8.389693 -5.8350306 -16.341381
úšébalákum 2.7929535 -2.2956185 -0.94450253 -0.09317054 0.8801008 -3.0689166 -0.90274024 4.251655 6.5037556 1.577083
barini 1.3445606 5.464662 -0.62661994 3.9857767 -2.4546258 0.7472808 2.9527733 -1.0132723 0.6575398 2.9236808
aḫuum 2.5275342 -11.610941 -1.6657634 9.345548 3.7467315 -1.1563379 -5.3895745 -1.8936592 -9.243873 0.7439261
šalimašùrma 4.50142 -1.627835 1.9487213 -3.2358494 1.4933114 0.77200437 -4.6684213 -7.6473403 5.3049407 -7.2514777
púzurištar -5.1659994 0.23225653 2.8337471 2.5152462 -2.8552625 3.2752326 2.00008 -2.9470007 -0.3815895 -5.1151233
ṭuppía 5.7585444 -1.653339 -0.69813865 1.8508508 -2.1074488 0.95509756 2.0418968 -8.155235 0.1338653 5.4170523
tám 2.4072576 4.1751747 2.5029771 3.4357984 1.8858591 -3.798374 2.951753 0.18276428 -6.375405 -1.544856
batíiq 6.743285 -0.016039161 -9.931464 0.06518456 -5.417404 -0.8080731 1.8986534 1.0815467 4.254031 8.416414
kàšíim -7.6528115 2.1995943 1.9722347 -1.8484533 0.39056447 6.1509705 -7.7931786 14.139898 -1.3308243 -1.9710656
ašùrtákláku -2.330652 -3.8622053 1.3230567 1.6009747 -1.655797 1.4448086 1.2654176 -6.6085963 2.9681368 -2.1861267
ḫabulam -3.6499887 -6.0198154 -3.792489 -5.476422 0.79992235 -2.1636283 -1.7530991 -2.0864296 0.3262997 -1.6191989
riiksúum -5.1912813 4.1177135 -8.675204 1.3868358 -5.398449 -2.394562 6.076115 -3.3876843 -0.41305187 -1.6281116
iš -2.433708 2.6090481 2.9570284 3.2756047 1.1104826 -0.7659 1.7837846 0.9038292 -2.1490881 2.8357549
kùbabbarpìa 0.8205024 0.09376083 -4.1655364 -0.37111226 -1.6803346 -1.1275247 2.0487986 -0.5231548 1.3461252 9.720241
súkàlía -5.7691875 -2.4992466 -1.4184613 0.019617401 -0.42206395 3.4382772 -4.527877 -0.3644954 1.4582347 -2.969235
alábi -7.603733 -3.4244068 10.402783 -5.068826 -12.3171 9.201245 13.739852 -0.5553778 5.573368 5.8250594
láni -5.9599137 0.97339624 10.555237 8.68055 0.21339472 6.712107 -3.6170878 8.24663 19.574038 5.993774
enumašùrma 4.836648 -3.8623023 3.2381556 -7.530103 2.4557667 -2.9540653 -1.9773175 -4.9331455 5.571078 -6.0332575
ašamema 4.0831246 -2.8244658 2.4165094 -1.5983633 1.3206828 -1.2583996 -1.489284 2.862625 3.5973582 0.48095402
šabuú 0.5809699 -2.4414763 -7.774049 2.9741545 -4.244824 0.8003331 0.22602896 -4.9116154 -0.6697779 -3.4755828
amurištarma 6.15872 0.75134444 1.4358822 -1.1539348 3.370355 -3.574894 -3.9599228 -2.6671515 9.091683 -6.213909
ṭuppíkà 4.53971 3.1822546 1.4285327 -0.39126515 2.6547422 -0.037005384 -2.7864995 -4.414081 2.527408 5.2239676
ašurmutabi -2.2934072 -2.3363132 -10.864735 1.8219779 4.0919857 -11.466535 0.81425476 -12.728907 -10.078188 -11.483722
hubuul 3.1711338 -0.6387422 -10.612675 -6.6136627 -5.164961 1.6897851 -0.15415043 -8.804501 -7.9007077 -1.9493551
ištíšu 2.3138142 0.76782113 5.416208 3.585068 -0.9526938 4.0752196 -0.64839244 1.8654261 3.6404374 3.3230436
naábsúen -5.8604093 -0.5492026 0.4812943 1.1480137 -0.14560138 2.6774783 -2.0310538 -3.6249888 1.5860761 -1.4991593
mìliik 10.079913 9.88144 3.0571277 0.38686052 1.7449661 -5.855499 4.610329 -5.173129 10.663161 10.375054
annakà -1.0134164 6.963069 -0.61427057 2.0900955 4.542906 -3.3611615 -4.544208 4.7709923 9.485712 3.9065552
aláhuum 3.137649 -5.016798 -0.587721 -3.6330607 -1.5369188 0.41200846 -0.52560866 -0.48458868 0.35054806 -1.9724574
ašurma -3.7618027 7.77958 6.6818533 -5.860456 0.98728627 -0.7361243 3.1480029 -6.4873886 11.821464 2.7396767
dingirnada -5.733765 -3.8635013 -1.8618169 0.034392793 -2.676641 4.752237 -2.7819679 -1.392833 1.4099841 -2.2910314
tíibama 3.0576682 7.5954833 10.092711 7.124898 -1.7062768 2.5254178 7.4229856 -5.6345396 3.505932 12.8581
aḫuqar -5.153499 -2.3237877 0.08802006 3.9711826 -0.89307296 3.9222217 -3.9300377 0.5995183 4.0713825 -3.3208997
dutu -5.181606 4.7791166 2.3767471 -5.5558267 -0.27130932 0.14968935 3.2517178 -7.0691147 3.7395163 4.1728625
išténiiš 3.8800845 1.7456388 -4.643776 -1.6138704 -2.189901 -0.07898671 -0.59168774 2.4579887 2.3301642 2.8954737
ìlíášrani -2.398575 1.008918 0.057273876 2.6995952 -3.977281 3.574786 0.87915236 3.1524901 3.8262975 -0.89928645
géme -2.4143314 -6.8703337 1.7585924 2.6732664 1.0728437 -2.5948925 0.3430409 6.656033 -0.52375716 -1.2798258
šénišu 5.3987412 4.237197 4.2909207 -4.9975286 4.2791414 -3.0489583 -1.8666357 1.0220097 1.9665569 2.4781485
šusúin -6.050857 -2.6828828 1.4189416 0.46195582 -1.3502842 3.0873075 -0.9172437 -2.2012098 4.7779284 -0.9360082
ababa 2.6771317 -8.053803 -0.045320395 -4.864577 -3.229795 2.1070879 0.25238213 -2.1624954 -2.0656047 -3.2384374
da -4.3636785 3.8527107 5.2943597 0.6594196 1.8653312 -3.2053685 4.56327 1.7856648 -3.8917875 0.8921449
isúrik 1.2193091 -7.7446394 -3.8432233 -1.133651 -5.860073 7.3610773 -4.88172 3.2009776 -0.95081717 -6.5055957
ra -2.9459085 4.116229 6.250723 4.1930833 2.5306838 -3.8245907 5.2438617 1.3957855 -4.360494 3.6906223
ṣaḫeer 12.679971 2.39141 9.273251 4.4122977 2.536592 3.087602 -4.620604 -1.6891696 -15.022471 -11.321445
púzurašùr -0.7444741 -2.9991074 3.0738971 3.450275 -1.2059917 0.6104433 1.8220065 -2.9205675 -1.1103697 -6.0263715
niisḫatum 2.105491 11.445592 -3.8490167 2.1926937 -1.091061 -2.8756351 1.9917203 4.4459953 -3.2756588 -0.6513851
láqépìim -4.066648 -1.7549356 -0.14773056 3.0170627 -3.5968924 6.799149 -3.9475935 0.8168729 6.5883923 -3.7375987
šaduatám 3.9635484 4.942044 -2.5631845 2.810872 -2.0528781 4.866019 -5.0586786 4.5079365 0.18230502 -1.0414534
ennanum -0.2518127 0.17551556 -0.6376916 1.3223863 -0.21961644 1.456147 -2.9671109 -2.0196831 5.0572686 -3.735609
ištarlámasí -0.00062131044 -8.194436 -1.110767 -4.859896 -3.1615996 0.45378473 1.3155999 -1.566162 1.8442602 -2.4765828
idaan -0.41808724 -4.012975 -5.6853504 -5.5241203 -1.5722039 0.11895377 -1.1403933 2.8583477 -12.493191 -0.94355303
aṣbaatma 6.977515 -5.728816 -1.6324918 -0.78305435 1.3312286 -0.6063256 -5.398487 -3.067836 2.1689644 -6.059291
šalimaḫiim -5.3381176 1.7764628 -2.1749833 3.7381294 -1.849811 1.9061478 -1.2998945 -0.9076062 5.8307667 -3.2931929
taaḫsíistum 1.003796 6.112531 -2.1971958 6.4059267 -3.7009237 12.533014 -7.461949 -6.6602063 1.2020712 8.672016
idídiškur -0.78501433 1.4059052 2.9200275 5.2987595 -1.7633321 0.9944743 1.9529998 -1.885546 5.7641087 -3.2723477
abaúa 1.97109 3.4304166 1.358528 -7.372539 -1.3755479 2.0348825 1.6317769 -5.489789 2.7566261 10.792455
ḫanu -2.9699755 -5.664678 1.2757654 4.9285083 -3.2656713 1.551832 1.976628 3.5013304 0.8265411 -3.9851935
haamšatim -8.410364 -5.471269 -2.2100956 -8.334239 -0.41202393 6.3045726 -8.148925 2.2128932 5.1635756 5.133329
kùbabbarpíkà 1.0314558 5.357057 -6.4884005 2.0781522 0.25824392 0.6600028 -5.7926393 3.1056378 6.4995394 3.5244486
ataaa -5.1885767 -0.46459797 -3.468137 2.550433 -1.6689335 1.2585098 -1.9054512 -2.5069234 1.4600525 -7.271727
ṭuppìkà 2.5896878 4.871178 0.6433126 0.30090654 4.060576 -0.52995867 -4.872192 -4.188962 6.4194818 4.834597
laqéep -9.76189 2.1072316 -3.0236886 -3.1774678 -1.0874913 6.9770207 -8.075759 -1.5541152 6.021798 -3.03995
úṭátám 0.6259664 -6.4393873 2.2535563 -5.8245254 1.233163 -2.431944 0.51332957 11.688196 -5.4891987 7.330351
ṣéria 3.1343536 -1.2384151 1.7312346 0.66571236 -0.709249 -0.72816896 2.2005417 -1.1575341 2.6313553 3.9456086
anitám 7.0299053 -0.8914429 9.397541 4.8770127 1.5545902 0.5501752 1.4627687 -3.7560222 0.71298736 1.6579698
zupá -5.5560756 -1.8162881 0.749726 1.9654639 -0.5915093 2.8994875 -1.4136585 -2.8323624 -0.015331594 -1.4409636
šunutí 3.1887517 0.43575203 3.2889822 3.0446126 -5.31512 5.806284 3.7953868 -1.458318 -1.7458347 5.373948
kuzalli -7.0384893 4.8780694 2.5528924 -5.7608366 2.455984 10.395579 -11.855043 -4.5627933 -4.5020967 -0.5346375
igri -2.191363 -0.7749356 0.43133107 4.32121 -2.4810781 1.6484025 0.28981373 9.679967 -0.14087449 -1.7509845
meerišu -7.243921 -2.4754705 -3.4920642 -1.3653787 -4.4763865 2.3281505 2.2569222 0.66505337 -3.8173048 -1.1479346
úṣuršaašur -1.6399523 0.2889729 1.6170356 1.7456917 -0.44735715 2.6465943 -1.7608361 -2.6766913 3.3449545 -1.8948065
šaamší 5.112172 1.0884631 9.455267 1.4215715 -3.7127802 3.4126554 5.9773235 0.20505567 2.4375937 3.6104186
anišaam 4.111232 -1.4454883 5.58253 1.5818894 0.7707398 0.4469087 0.2801682 2.129308 6.0903635 7.1769586
šaášqílášu -0.8155623 -9.23176 -7.851436 -2.3615196 -1.8383496 -1.4980549 -0.3494734 -2.2787404 2.2619472 9.261568
annakikà 0.3373427 7.096487 -4.937564 -0.54965156 2.0297291 -3.0641954 -4.60482 7.3329477 9.393394 3.83454
mešu 0.73223984 -0.5524126 -0.0126801515 -8.232072 1.9268923 2.5124166 -5.214598 4.2574244 1.6850106 16.81561
ḫaraan 2.0793228 0.029663377 8.929616 -2.5511224 -1.6544592 2.75343 2.5433693 6.4023137 4.8087726 3.6485424
ṣílulu -6.5346045 1.9539641 4.931885 0.9294971 -2.9448683 10.085608 -3.8808742 -2.4244227 2.4214585 -3.597488
šuuprama 7.207353 -2.962925 2.1114776 5.165468 1.027421 -3.7443128 1.8644836 1.2294515 1.8742464 2.6408346
udu -8.619559 0.035409674 -4.359372 3.1363804 2.0867727 -1.5204602 -5.270573 12.1421175 -7.380146 -5.439886
qábi 2.4581618 -2.8619092 3.3096151 -8.315252 4.7085123 1.0157584 -6.733268 -0.5779536 1.6303902 5.361375
illatat -0.29699227 9.857895 -3.3492908 -6.4863 -2.582613 6.2530007 -5.0562267 -0.51068455 1.8721403 -0.7582606
ḫuraṣanim -4.6255655 2.9734194 0.626806 1.8223317 -1.5085311 4.22009 -2.3114624 -1.7149973 6.1995907 -1.2805352
luqútí 4.7976723 5.3582973 5.4439287 0.29493102 -0.38049683 -0.12717779 2.638134 -0.18819901 8.317191 5.513373
awili 4.091726 -0.08581561 0.05035319 1.8196084 0.64490217 1.5065515 -1.8983959 -0.44860515 -7.1999097 3.182001
tíirtíkà 6.7857604 4.133122 0.51002514 -2.2984376 -0.89730066 -1.6344653 2.2013485 -5.126888 9.401575 6.3198276
atí 1.0211751 -6.9709682 9.522844 3.7240627 3.670161 -2.9071922 3.0973778 -4.6862674 -3.441458 1.440324
ašaat 0.0018553305 -3.7182815 0.06279841 0.54865247 -1.1824615 -2.6505992 1.7416761 2.3068 -0.02248591 -8.89796
šébilánim 2.2044146 -6.8878207 -4.0029163 -5.89888 -5.070856 -2.9567807 6.7652955 2.486759 3.7958364 10.102318
lámasí -2.2520688 -8.786904 -3.9466648 1.3731585 0.8140587 -6.1048226 0.7708722 -0.32247522 -0.64798015 -7.5241733
aṣéria 6.501552 -5.5643177 4.91341 1.2021006 -3.5903223 -1.2887473 6.322033 0.4717486 6.851377 2.0919967
ašurlámasí -3.100929 -0.72294176 1.5321565 0.20549358 -3.6077843 3.134686 1.5735629 -1.4202563 4.530873 -2.8224227
kenatim -4.780925 6.7585163 2.0902686 -0.12498175 1.8745128 8.484905 -8.317693 -4.249738 -6.3450317 1.9648427
šéepištar 7.908612 -4.2133536 -1.3583947 -2.3034303 -6.4669876 -4.4413853 6.993057 5.551681 9.249106 -7.8850317
annaki 2.3555923 3.670498 3.5823755 -2.72258 0.3928996 -1.2054753 1.2014828 4.2969184 8.915361 6.9520802
manukiašur -0.9589661 -5.3567986 -2.3991065 -6.1974874 -4.6523366 2.2446148 0.7408737 1.3012899 5.07766 -0.29134148
šuištarma 1.4563216 -1.0244988 2.1979668 -5.464385 1.5569555 -3.762856 0.17550328 -4.8987436 6.6459703 -7.3533206
tíde 2.4855573 1.6748956 3.56028 -0.85456795 6.6977463 -6.710173 0.7057885 -4.7985396 -2.3621268 7.039395
dninšuburbani -1.5489028 1.7947286 -1.4483266 4.4050508 -1.3935055 1.5233649 -0.83117986 -1.892732 3.2436748 -1.9596514
naášpèertám 4.0740156 -1.0463657 4.119606 2.70613 -0.065825164 -1.2207564 2.9796257 -8.749641 1.4610534 -2.8693688
qású 3.3673794 0.3934673 -4.2244115 0.03231484 -1.477229 2.7493007 -4.0275497 1.7867023 -1.8783283 0.39639547
šuli -5.752327 3.1279652 -0.69892794 1.9302227 -2.2531116 4.831999 -3.0563536 0.83233654 1.8153361 -5.765723
kùbabbarpí 1.1995771 -0.96008307 -0.46962953 2.290497 2.1124582 -1.0333703 -1.9416986 -0.15413383 1.1894919 6.194672
mušu -4.6115203 -2.0487697 -4.592728 -11.429922 3.4535184 1.125457 -7.328661 -4.128815 1.7322868 11.362908
ilikamma 5.9257317 -7.0252595 2.125304 -2.8895957 2.0304062 -0.094481476 -4.309421 -0.2394401 -0.5297091 -3.5150957
aḫikà 3.4305108 -0.78330356 3.5644314 5.2376447 1.2909552 0.6378386 -0.9695009 -2.5621436 0.6402513 0.86082226
meeḫratim 1.4835641 -2.611171 -2.4460337 4.3945913 1.2660984 -2.7395186 -2.1774936 3.2315729 6.390533 1.7120982
ašùrdutuši -3.7115219 1.2745844 -0.2269101 3.8308666 -3.8482413 5.5102153 -1.4139832 1.4866819 4.2607613 -3.0567129
aninim -1.8976455 -2.0518785 0.37156415 0.47040346 -1.3030192 4.5461054 -4.2104073 0.07227112 3.063563 -3.7499204
gapa -3.3362556 4.1449423 3.5758216 1.9503026 0.109873995 0.10454098 2.637483 -0.31625497 0.49609795 2.6343656
matíma 4.9575787 -5.6983337 5.2415915 -0.6125642 6.2273493 -4.3990426 -2.8146179 -0.33811715 0.032222606 3.772914
bu -4.17573 1.9846686 3.8740427 0.85033333 3.7715092 -7.092599 5.60773 -1.7237444 -4.520736 1.7841078
ḫabulu -0.23603664 -0.58869576 -6.2232556 -4.9575753 -0.5922038 0.6184144 -2.9159055 -4.102935 -6.441168 -2.020967
nim -3.3092463 3.0960002 5.333807 0.8665871 0.8452354 -2.218433 4.537618 1.7523024 -1.6878295 0.89733106
puruušḫatim 3.571982 4.576251 3.9055095 -0.5190839 1.6420368 2.7707253 -4.7555637 4.0266757 3.1122904 0.44294932
ublákum 0.058225114 1.4481283 -1.9054542 -3.6338391 -2.3383038 -2.5378387 1.9435818 1.2521343 6.438322 -7.6228423
zi -6.185544 4.70881 5.408639 0.026804274 2.0481791 -4.755461 6.2582293 1.596817 -3.4298787 2.1184514
kunuukma 1.2204672 -5.334003 -3.3695192 4.059646 -3.3377247 -5.308152 6.9136147 -1.2067982 8.864094 4.7624626
idíma 4.2452655 -2.773016 -1.5988911 -0.60289544 -1.7732246 1.8970722 -1.5764216 -0.20551959 0.123354994 0.5037067
ilákàni 3.1444497 -5.403407 7.608693 -6.726152 1.5434186 -0.9478001 1.0056257 3.3039873 4.2194943 5.7256684
láqépíim -5.7459593 -2.6452785 1.5688632 1.1389796 -2.9340918 2.4635317 1.3007593 -2.577628 5.261326 -4.416003
ṣíláašur -11.642538 2.1815488 4.5141406 -3.1899698 -10.041165 7.144754 11.454626 -6.5346475 8.226389 8.678067
šímuum 5.262615 5.6140027 2.9174407 -0.5334044 -2.566607 1.4722139 2.8831713 4.221584 5.0890384 8.343686
kiaam -0.25670743 -4.4309716 6.0333004 0.004854443 4.825349 -3.0547593 -0.87971956 3.1173668 -0.4044437 5.5099645
anaaḫìlí -3.0902123 -2.1137075 1.3894045 5.3544035 -2.7276294 4.6900826 -0.20103921 -5.502366 1.8871641 -2.125948
itùaar 2.030986 -11.67402 -1.2477279 -2.7614703 -1.7044975 3.8605673 -3.8925097 0.9084802 -9.274538 -1.9654092
ṣúḫaraam 0.4580525 -6.5544567 4.401324 3.5301163 0.08971289 -3.8481367 5.060984 2.0941565 1.8232411 1.6529051
naášakuum 1.7865586 0.08323746 -4.9515033 1.499185 -3.1239455 -6.736286 6.0224624 -1.0999432 6.222898 -7.480868
ikupìašur -3.8075707 -1.3620605 -0.35340783 3.2042284 -0.39751336 0.37429285 0.19753608 -4.916748 2.3072913 -1.2166642
pèrua -9.820995 -7.8115478 4.4391212 4.16893 -0.7055269 3.5851362 0.13290589 6.2798405 -8.455595 1.967158
šaqálam 0.195766 -4.4757953 0.24212727 0.8587319 5.5700054 3.1749396 -10.806632 -4.3214087 1.3610982 6.777771
manim -3.6146026 -0.5756471 5.922098 2.0001063 7.254821 -2.7994423 -2.3353682 -5.7804184 -0.21890607 6.0929375
analí -2.343972 4.5712686 3.9630446 3.43788 -3.184087 3.16212 2.6485474 1.2494802 4.8976817 -2.0546107
niishasú -6.1817513 -1.8327339 -16.98788 3.5507376 -4.817212 -4.7942204 0.7341305 -7.6519966 10.628924 -3.7150595
ramìnia 0.40633333 1.1109039 -2.1197639 6.3217483 2.5512335 -0.80892503 -4.564244 3.6343238 2.0516684 2.2209527
atalákam 3.1014254 2.4246914 10.7149935 -5.939787 8.348467 -8.183332 0.15381034 4.3973675 6.60664 2.329305
šeum -7.493845 -5.5170717 -3.7173595 0.48828906 0.36660606 -4.11079 1.6391613 8.550786 -7.6026115 3.6998947
alqéma 4.43755 -0.10062762 -1.4439813 5.6706705 1.5810409 -0.897853 -2.6405249 1.7875817 -2.2859735 2.4919078
ášpurakum 6.98741 -1.6748886 3.7498653 -4.247345 4.3955426 -6.5752625 -0.042569198 -1.0154586 4.7805557 -0.100933984
abukà 0.8000986 -2.82118 -4.537536 3.2437956 4.7881527 -2.134216 -5.843218 -7.0233774 -4.250918 3.3098776
erubu 6.5456295 3.9579334 3.9388828 -2.9153485 3.2607594 -2.4024663 -1.9662182 7.4712586 -1.5879893 1.9724629
šudaa -4.169652 5.3171897 -0.30392408 1.0215447 -0.53821486 7.1590853 -6.134011 -4.740212 1.4182545 -0.99491405
ašùrbeelawatim -1.6983407 -1.0177572 0.097485036 0.99817204 -1.9435432 5.519096 -3.9639552 0.062498234 2.9194689 -1.5943016
šamama -0.14520034 -0.23232743 1.7681894 -2.1033669 -4.5551934 -6.3687406 11.703103 10.507968 9.92377 9.884069
epuul 3.5805035 -5.6528883 -3.0421739 -10.791594 2.058042 -2.9397037 -3.9124622 -10.955701 -3.216885 -9.985509
ummeanim -1.727146 -10.548345 1.6452949 4.158852 -5.534993 3.535755 4.747818 -3.6107874 5.5663 6.4907722
waṣítum -6.842778 7.942474 -11.328618 11.518349 -6.92781 0.6057656 2.9086785 7.755797 -0.09756873 2.2094789
ḫurama 4.2797036 1.5029062 4.483504 -0.5822859 0.93972963 0.4557136 -1.7439822 6.4166274 1.7333586 -1.4006262
liqéma 5.9496784 2.1013157 -3.0516057 3.240543 0.82468 -2.7049897 -0.5221483 0.05317437 3.571815 7.665074
etíiq 5.050799 -5.373813 1.0394173 -7.959273 -4.2761903 8.804211 -5.771133 0.04734556 7.8857403 2.7617128
izazu 4.145222 1.0499786 -2.4551167 -2.0299876 -1.7772686 -0.7952154 2.570369 -1.3452065 -6.2653303 3.6444342
diškur -4.8586082 3.3353531 2.1078994 1.1806452 -1.5674361 2.6862078 2.2654357 -3.1967847 0.04163012 3.198649
liqé 4.383422 0.8301718 -2.393074 4.3922944 3.0249014 -3.3794465 -2.806949 -0.007671919 1.9529706 3.1064272
ìlíištíkál -3.2240114 -1.0522977 -3.1715486 -1.7660981 -1.8765106 2.540956 -2.5428526 -0.71965605 3.2064345 -0.4980899
sàḫeertám -2.399712 1.7892822 3.029195 1.331493 -2.8567214 -0.806064 4.4571257 11.504325 1.4784881 -0.9273679
akum 1.7511408 7.5586863 1.1494602 14.666997 -1.6025914 1.4656298 -0.12741488 -0.935554 11.904255 -0.48577
kenim -0.78467476 -9.218897 2.6415489 -6.4392157 -6.762787 4.287168 5.9205413 -3.295715 4.256095 8.542756
iṣbutùniatíma 4.7387176 3.3478801 -2.4897478 -10.062028 0.13797718 1.5364794 -5.8536534 -8.165898 -3.5954149 -13.135026
meet 6.4901285 0.16218922 -3.1924272 2.7395303 2.6057014 -5.9646254 -0.9919858 0.81307405 -4.673882 -5.18237
šuqúul 2.4319868 -0.5197503 -3.5826538 -4.277632 5.581898 -5.485329 -4.064117 -8.377626 3.109743 4.1561966
buzazuma 5.523522 -0.08859617 2.3222947 2.0553308 2.1380773 -0.46580726 -3.8158004 -7.3097463 3.3529634 -9.115726
inaaḫdingir -2.3809578 -3.331436 1.8684427 -1.9077791 -0.43611377 -0.6944188 0.8801101 -3.3172596 3.213466 -4.4046154
italáak 4.293774 -6.1689205 1.8506278 -2.8246725 1.3862609 0.9446803 -3.5100856 1.874957 -1.1152068 3.1013267
úšínalam 11.276323 -0.9154116 -5.555893 -1.1954803 -6.93223 5.2353 -3.3814068 6.64272 -5.2250667 -8.713355
ibi -7.0766234 1.2856678 7.5156837 1.2198453 2.6569912 -1.8289089 3.156006 1.9901656 -0.99383944 1.2984527
awilam 0.46238312 -4.5465336 -0.39572647 4.0024343 3.5374336 -1.474844 -2.4805048 -4.0470896 -1.9817966 8.002267
úkuultí 2.7272856 -0.71517503 -0.6759047 0.91881394 -1.5442387 -2.888862 1.6675485 16.539442 -5.7965837 -0.93834615
liliik 1.6484076 -10.558405 2.9806564 -4.445044 3.5711317 -7.6441216 2.8351073 -0.78696156 1.8757043 2.6570792
zu -5.3757205 2.1578715 4.782979 0.4118442 1.6901033 -2.8213675 4.2244406 -1.5435812 -1.478711 0.55743337
gameer 5.966366 -1.7809855 -0.04353987 -3.8033369 1.577464 -0.658811 -3.2707093 3.9673607 -3.1078048 1.5776442
ṣúḫariim 0.28286263 -3.5003262 0.8749013 5.0291862 -3.0862844 1.0400482 2.7287836 3.9565818 -1.5178736 -0.29385656
awatí 1.2168957 -0.021310344 7.931632 4.019129 3.225417 1.9711095 -0.79114807 -4.046662 -3.677933 6.1560593
ummeanu 7.1523066 6.477344 -0.07989846 -6.1453786 -0.16337651 -1.212106 2.4385462 -12.052192 -8.179779 -0.24141276
awilu 0.30796614 0.605571 7.587553 -2.335291 2.5008523 2.2305896 0.6794945 -9.456294 -9.180736 3.9304547
pušukiin -1.5942713 -2.7376719 -0.91311353 1.0160911 -2.916038 7.379288 -5.094334 -1.9174265 4.693534 -0.07536446
alákàni 7.6205893 -1.0383117 9.218125 -2.2249632 0.12600866 -8.960123 11.400914 4.7680984 3.4683542 3.699167
ašùrlámasí -2.7819145 1.2310445 2.6940472 2.8605044 -2.2341232 4.3101673 -0.5617962 -1.3115144 -0.8391187 -6.427682
aḫukà 4.710718 -0.93601084 2.0442095 -1.2633619 2.8812907 -2.1950874 -0.8703823 -3.4567955 -2.6179311 1.8734615
ṣaláme 5.2232027 7.828777 0.014482749 -2.8005774 -7.869587 -0.19670746 6.6256638 9.955978 6.752054 -6.2659354
aluláa 4.284242 -3.5590878 -1.5601054 1.1535635 -4.191415 4.3715053 -2.3886755 -0.064782105 4.6684313 -4.4408765
meerešu -4.2910037 -10.982834 -1.8807565 0.44855836 -2.1823194 3.7837589 -1.9786962 0.0049034585 -12.931922 -2.0766904
síghia 6.465192 -2.7219222 -8.372855 -5.633788 -5.583116 -0.34725997 -0.25409168 6.481321 1.8201743 -2.7301257
šíimšu -0.47446972 -1.4127922 -4.1178265 6.5129075 0.44971594 -1.726269 -2.7166567 6.650702 1.7353835 0.0833079
qátatum -2.8040383 -3.2641244 -4.574533 -3.27468 0.7344831 0.27947676 -3.7633858 -0.8454992 -5.395456 -1.3137401
láliim -1.1997547 -1.8729141 -0.5558001 4.1372952 -2.7649868 5.45981 -3.0850263 -1.2897313 3.5875018 -1.7939944
irde 2.6670313 5.4635887 6.4503727 -4.2762637 0.28284943 -4.439667 4.6557164 7.20138 0.82453704 -8.11661
šuišḫara -4.2998157 -2.5242665 3.5602186 2.3756516 -0.5984529 1.5411652 0.25199062 -0.8189666 1.3726834 -4.810816
uktaal -7.7156763 -10.196772 -1.2928511 3.9887168 -6.139097 9.973057 -2.6985836 4.390569 -0.14104052 5.7608047
ṣíbatíšu -0.16511442 -2.8981616 -7.928182 -4.0486894 -2.1475341 2.6900015 -3.9354577 -5.315281 -1.3610152 2.8757787
šanatim 0.9980676 -0.3111916 1.2618394 -7.4692454 2.6389353 1.4342052 -4.3524265 2.1569545 -4.516375 5.2732525
anšehia 1.423248 4.4032164 -1.9417746 -2.7728417 -6.9474363 0.43034995 5.941823 8.440473 3.8695998 0.2273618
šuašùr -3.3103065 -0.2628463 1.4110917 -2.109394 -1.9513905 2.5168076 0.61750484 -3.259576 2.8566384 -1.6092737
qátíkà 5.2633395 6.631962 0.1344848 3.3358173 1.6636771 -0.9334283 -2.3506634 3.928971 3.316985 3.3716953
ilikàni 7.684483 -6.3572845 -1.1689682 -7.5403876 2.703569 -5.271763 -2.5637558 3.031795 1.510057 -1.8336473
ṣíim 8.912222 -6.3343363 -3.9304264 1.8412305 -2.1330261 -8.317645 7.3489375 0.6329534 -12.907242 -6.778271
ir -3.5065036 -1.6124572 0.6511204 -0.8146471 -0.9429639 -2.1252568 4.0624905 -1.5402651 0.17427696 0.21895662
libaam 1.0891097 -1.9635212 5.334403 5.5821533 3.1097753 0.07735411 -1.7094483 -0.6449485 6.509482 8.107133
hamuuštim -4.8082275 2.5358226 -4.127095 -22.631092 -2.6166232 9.63268 -9.958222 2.9456294 -8.038764 -2.8539138
beli -2.8666146 -2.239108 5.43134 6.9667506 3.8622696 -4.892599 3.3924286 -8.350389 4.2998004 4.2665324
béúláat -3.7038834 3.724149 -9.608199 -1.2731761 -10.655997 5.5729985 3.553136 2.719268 -3.9756677 -3.0291264
téertakunu -1.7002909 2.7908287 7.85845 4.0254297 -3.0767243 7.3726745 2.0485578 -0.18065667 9.955897 15.267989
ṭuppu 2.7389212 6.1088805 -1.7589562 -0.47369742 -2.648973 1.0520822 3.728135 -6.026707 -9.399642 2.6787777
išti -0.53284824 -0.712668 0.7546961 0.96225876 -1.4861326 0.33254656 1.0230709 5.199493 -1.272722 -1.4098653
ublunim 5.575229 -2.9653044 -3.6353254 -4.820432 -0.7656066 -3.682007 -0.77991426 4.868005 3.3961093 -3.7895975
maškim 5.790469 0.20904079 3.2102902 -2.9958892 -5.1996655 4.3990383 3.3391783 -3.8839045 -4.495585 -4.05025
péruwa -8.476215 -10.273863 4.9579935 -2.6658869 1.0183934 1.487021 -0.41426978 2.6536736 -9.661072 -0.9212765
wašaáb 5.4394407 -5.3584886 6.5223517 0.46110263 1.1710395 1.7973359 -2.4783099 3.1723473 1.6660472 0.09280699
taadnu 2.5389903 9.205583 -5.9328012 0.4499968 0.8400926 -4.5921593 -0.5334799 5.9574647 1.15342 3.605241
únuut -5.023294 4.58641 -8.514227 4.8460407 -10.379655 -0.84254915 9.555882 16.08463 -5.739392 3.768877
bealim -1.0461146 -1.9354172 -2.9958506 2.444764 -3.1620853 1.9248357 -1.318843 2.6635425 6.1193876 -2.2936766
idunu -1.2251076 -5.114719 -1.7146232 -1.9100696 0.5772294 -0.84867686 -0.9134205 3.7220662 -7.732974 2.5290604
nu -1.7127645 4.2369084 3.8223422 1.705441 1.8609413 -3.718889 4.102655 0.20376615 -3.018951 1.2957582
niišqúul -1.3814573 3.851527 -3.204954 1.612509 0.9647909 -2.264997 -0.8978194 6.4274487 -1.7061875 3.6077607
súkàlia -5.0597 0.42226925 -0.6096998 1.8039666 -2.2657895 8.226262 -6.0426793 -0.3649323 -0.42143783 -3.338165
mìišlam -0.36685032 -5.055394 -9.03029 -7.697287 1.6419233 -5.14709 -2.246192 6.4468617 -4.394817 10.758894
belánim -3.7219841 1.2737416 2.4305487 4.7909613 -3.4305387 1.7125291 3.918619 -1.5502222 2.2859657 -3.9701147
šeim -4.8126755 -3.7268786 -5.112061 5.698468 0.119311415 -2.1377141 -0.9707887 6.644032 -4.854976 1.4288633
kukulánim -3.117 -1.693691 2.1820843 2.627802 -3.5076933 6.3325744 -0.7904205 -3.7877722 1.7404217 -3.0985758
kària -5.7630587 -0.95102113 -3.3984354 -1.1286545 -4.219435 3.1749854 1.2040244 -1.5877962 -3.1096663 -1.9836468
ṭuppuú 6.8354383 4.6386223 -4.172288 -3.1974545 -4.90572 -1.7366862 6.4782 -6.8495774 -5.208443 -1.298387
satu -12.545556 4.483702 1.6232183 -0.09151634 -6.065019 9.775747 2.0773737 -5.9361134 4.369581 5.641801
luqútíkà 7.9521174 3.4645786 0.50959426 2.001191 -0.20277539 -1.9525659 -0.6263825 2.2094662 11.908198 2.1446555
dub 1.2112294 0.62997675 -6.4839783 -4.132693 -7.188079 3.2353444 3.574081 -4.7144103 -3.9989548 0.87225664
ṣúḫaria 2.0726173 -7.1263413 6.0131035 3.867696 -1.1074736 1.748431 0.78647244 3.9065335 7.230008 4.3752155
aniútum 4.0598693 -7.238961 3.0598438 0.25270185 -0.3171501 -2.0147443 4.952413 -10.805423 -15.224562 -3.2833562
lumuun -4.5198913 1.8110862 18.263124 7.943667 -0.50661695 5.5219426 6.9484935 -0.48135912 4.790937 12.95992
kàraam 6.5568213 1.6808888 8.778706 3.0798824 1.1069959 5.0734725 -1.8527061 -3.0052035 -4.0494294 2.9870946
šumabi -1.0777082 -2.0451827 1.9578214 2.5517828 -0.9636701 0.46537334 0.98122835 -0.6277791 0.98806363 -3.5879748
šíbutí 3.567684 2.4281664 1.4106935 7.6115537 -3.7331293 5.850423 -2.7536583 -0.7712757 -3.9200583 -13.493072
qátatim -0.8740387 -2.031835 0.44597405 -0.066140674 0.018421285 3.077636 -2.7248561 -3.374424 -2.95795 0.08865571
irišíim -6.7132926 -3.0614061 -5.551577 -0.01313701 -2.9255414 2.4485056 -0.6713809 -6.740152 -2.8355615 -1.609154
alákia 7.263751 -2.117201 3.8772385 0.51605964 2.6810265 -3.1064813 0.18016173 3.00793 -0.051641762 6.333714
ṭuppíšu 2.4452608 0.45391533 -7.257699 1.8472958 -2.7548118 3.3882177 -2.9929826 -5.9919147 1.571696 5.436952
lití -10.694784 -7.328417 -8.646444 -8.707498 -5.1795535 -5.4807634 7.45583 5.382734 -1.8930047 1.779004
ru -3.1185243 5.3921604 2.9987621 4.996893 6.335119 -8.507393 2.8025029 1.153754 -5.2833076 1.9701558
ḫarumutim 7.385105 2.4838982 -3.500399 0.43445554 -5.689186 2.1714392 4.6179986 -8.015302 -6.226332 2.8185942
iḫiid -0.045989096 -1.7440645 4.1065435 1.4269494 2.4257414 -3.1523468 2.6675518 -5.584328 4.118233 6.748481
ḫanunu -2.8381157 -6.508901 -0.11488323 1.6906068 -3.647577 0.82268965 3.122463 -3.3270712 0.40628633 -4.5283394
ašasú -1.1562867 -9.83743 0.77491266 0.9718455 -1.0240445 2.9318557 -2.5012107 4.0631814 -8.197246 -2.0303884
rabiṣúum 11.824901 -6.344416 -1.1876435 -4.214599 -4.0770574 1.4944936 -0.54542667 -2.0918567 -1.7472826 -6.3793926
ikribu 0.0023754635 3.0701318 -11.1531315 4.756638 -1.4257584 -7.308379 4.8385963 -7.6283073 -11.428835 -5.2158017
ummìani 4.174296 -1.7582797 -0.5809373 4.1167006 -2.542131 3.1805632 -0.7623222 -5.578904 1.6465359 -1.0513823
qáté -5.576662 4.1364284 1.7648363 -6.6743317 -1.1091666 7.20431 -4.2269444 -0.32452762 -7.2999463 -1.747734
adíma 0.46634868 1.534723 -1.5217184 -1.8373663 1.2114784 -2.2519667 -1.065564 4.269055 -0.15476055 0.9543312
itbaal -4.714878 7.813072 -6.6384835 3.6994781 -2.4581 -3.2736194 3.675196 7.974324 0.3710381 6.808997
úraa -4.4134283 1.9906961 1.4951134 -2.5200121 -2.547595 10.262094 -6.372313 -0.41623354 -4.800188 -3.5823214
libaa -1.4708946 3.887583 -0.56889266 -1.6251007 -2.998666 9.050652 -6.399681 -0.63898593 3.201863 -1.6356156
annakia 4.375756 2.5512173 -4.435656 0.0437887 0.7541044 -4.3253207 -0.28372175 3.0313275 9.04874 10.259862
ašurištíkál -2.9957871 -2.4984348 -1.7389128 -0.50983745 -1.6280109 5.3487906 -4.3793664 -5.9524536 2.808134 -0.29601234
maṣíìlí -3.5071366 -0.840207 -0.5615599 -0.49283156 -3.0156949 6.844575 -2.9775014 -4.664324 1.00858 -0.12853613
inaar -8.51665 -3.6746643 3.8384774 -1.2813374 -2.4459321 5.4895315 0.40412956 7.9557505 -13.753471 0.6273746
ištíin 0.008670855 5.903907 4.628316 -0.20381854 -0.54734415 0.7925073 3.6062768 4.215367 -1.3520358 8.643978
úšaqíil 4.4095354 -0.47860977 -6.3540115 -2.6030998 2.465987 -2.7818558 -5.2832823 -1.2548895 -5.5495234 -4.1465917
ilia -0.96162343 2.7088933 -3.0190518 0.3980236 -0.9103176 2.0404794 -2.5799384 -4.6499267 0.7414892 -3.127928
abikunu 5.7858353 1.2797631 -2.0176394 -2.8921459 -0.6113043 1.2702758 -0.02146541 -10.313245 -6.5290294 5.4893913
martubani -2.1469615 -0.5033713 0.83103514 2.0214953 -3.7399106 9.070168 -4.6792755 -1.7141224 -2.0224965 -5.791019
nada -7.057027 -2.9004915 -6.9030623 4.7704573 6.1693997 -4.5261436 -8.439944 -5.3180327 -4.9439526 -12.331502
eqlam 1.0465304 -6.504773 0.16789328 -1.7982141 -1.7442225 6.741003 -6.7159085 0.38067415 7.180565 3.025741
šéna -0.29094172 2.8169262 0.424331 1.169398 1.6145674 -0.9250282 0.094934605 -0.65044487 -1.8589531 4.9208484
inasúen -2.2530155 0.90120906 3.3393474 2.0372279 -1.0259842 3.6464171 -1.0445156 -1.6854134 2.4786026 -2.8083336
matim -1.5081298 0.037375644 2.3848186 1.5426134 4.9838624 -2.3290033 -5.2819166 8.379472 -0.5588176 -3.8589678
anitim 7.210597 2.619301 0.9903069 -1.3070076 -1.8838457 5.1053042 -3.2364097 1.5958195 0.32647192 4.5435867
damgàrruum -1.889138 -6.485807 -1.839129 -3.987985 0.12251579 5.8526797 -7.338896 -4.862812 -1.4266294 3.0793927
ṣalámaam 2.5422273 2.7950244 -1.1076326 0.6135113 -3.8070927 -1.8672118 2.3331237 9.240334 6.5181446 -7.4925675
úṣúuršaašùr -5.709632 -1.551825 -1.4312712 1.0286825 -0.6538443 2.1330285 -2.411979 -2.0384014 5.387273 -0.07540007
tadanam 7.4286013 -10.390063 -0.5389032 5.1946125 5.8552294 -3.7488813 -7.5941143 1.7107651 -0.71749467 0.9377488
kutanam 0.2901096 3.0852807 1.0569836 6.1685867 0.93583274 -2.079067 0.21093673 4.145722 2.896351 -1.3186307
dudu -5.663403 -5.1222816 -1.6979731 2.0672789 -1.6450627 1.4734836 -0.927313 3.7827563 0.8338445 0.006067809
túgḫitía 3.7690253 2.6835258 -1.5872597 3.0074353 -1.5139655 -2.4743211 2.9935732 3.0342019 6.933151 8.887971
rabiṣaam 8.986168 -7.422869 1.3595802 -8.152723 -0.018996922 -0.72603655 -0.3127234 -9.315558 -8.9924965 -4.018834
ašùrmutabi -2.9725025 -1.2973318 -9.802233 1.1905651 5.587392 -9.973274 -2.0138385 -12.1901455 -11.482747 -11.436968
úṣuršaašùr -4.2988067 -3.9912283 2.2364306 3.7764158 -0.38315883 0.41815448 0.5099047 -2.6370587 2.235332 -4.172373
kàṣari 1.2662855 6.430141 -4.8604465 2.9804277 -6.2025037 2.0534105 2.7537737 4.7892237 -0.98241806 -1.2037064
lamma -8.482778 0.25468692 7.2451377 8.351151 3.1674566 1.7136319 -1.8990403 5.0381327 13.083022 11.368837
iláakma 3.1430085 -1.6638024 0.22085883 -7.508971 1.3669218 6.602345 -9.405708 0.013389607 -2.8000758 4.599742
dumumí 1.5368613 -11.183652 -5.7690887 -1.4007956 -5.093194 -0.13228616 -0.02103835 1.3843849 -4.8393126 -12.199773
ašaqal 2.3570986 -2.9131446 -0.13163877 1.7831738 4.0617185 1.6924058 -8.139565 -1.6651199 -0.015721476 2.206219
túgkutanam 0.82848036 3.2272143 -1.0766827 1.9846076 -0.6176039 -0.053584132 -1.9275073 5.4994364 0.40524945 -6.993284
ìlíbani -4.1785374 -3.3809605 -2.029273 3.6122959 -0.40313023 2.8834178 -4.4550834 -1.8268971 3.4127197 -3.314987
erabi 1.359888 1.7939721 2.9175882 -4.118704 1.6968198 -0.06359321 -0.7561973 3.0155518 -1.2323152 5.2675548
iqábi 4.2858315 -6.224615 3.0041344 0.26421937 1.7906574 -3.7424247 1.6017973 -0.23019716 -1.8219554 0.028007992
enasúen -1.9682394 -0.015771182 -0.8353453 -0.61027277 -2.3411708 3.0938237 -1.3690785 -1.8890307 0.60956734 -4.720855
tù -3.7178867 1.3714287 8.595798 1.3457181 2.7105246 -3.643921 4.7760386 3.7197104 -0.47516003 2.9118347
eliani 5.280308 3.663016 -5.91871 -0.81121737 -5.7865896 5.0252085 -0.24331115 -3.176611 -6.4875774 -0.02974003
ḫa -3.9602 1.9888402 4.196816 2.9087603 1.8085465 -4.379517 5.311308 0.1804732 -2.987473 1.937669
nimarištar -5.6437926 -3.0212417 0.3387274 -1.9604163 -3.9057856 3.7469122 0.7311353 -0.71282065 2.4452062 -4.0559096
šalátùar 5.161888 1.1532406 2.2300115 -1.4816357 0.9214827 -1.4521865 -0.6898347 5.4510546 -0.048067074 -0.74382794
téinatim -10.638016 4.2259445 3.284547 -10.265947 1.692694 8.373668 -8.317775 -2.114744 -6.679205 -1.3573819
ašurreṣí -5.270518 -3.8196318 -2.2592793 -2.3375044 -0.80298245 -0.84263796 -0.038006004 -4.1221876 3.599752 -3.1353803
niatí 5.011643 1.4237405 1.9655445 -0.5659638 1.7887268 -2.0843606 0.68460333 -3.1743171 -3.3517375 0.8149137
aršatim -6.454421 -5.648542 -1.8318384 2.8952203 2.3691869 -3.130691 -2.1157255 10.006199 -4.4467163 1.451943
naášúnikum 6.597845 -0.688896 -4.684933 1.7141861 -1.6966517 -8.273001 5.555797 0.08712068 2.7874503 -5.7879105
adíinma 3.3577843 -2.8936977 0.88070816 0.9341941 -3.6436357 0.42824987 1.6318698 4.4238186 2.5024683 -7.6769404
úṣuršaištar -0.77475166 -1.0282985 -1.598543 -0.27163777 -2.6899574 3.0793939 -2.0942876 -2.6232538 5.252348 -4.783303
ašurdan -4.1997824 -0.23881154 -2.3850017 4.274791 -3.3615189 4.377912 -2.2735977 -2.4182417 0.85689425 -8.007305
emari 4.606537 -2.630352 2.8820798 -0.639358 -4.3750563 -2.0361204 5.9200788 13.329646 5.6150384 2.162131
zukua -5.5609097 -1.118125 0.6847052 -3.708777 -1.9399568 1.2874206 1.476784 -5.263109 7.527107 0.9968145
dingirma 0.3751522 0.43479383 9.878402 5.7447996 -0.8904363 7.104486 -1.5147333 -4.4704986 10.172908 2.207864
šíbe 7.8783007 -2.1121614 -2.7380745 -0.38496587 -3.53272 2.5535207 0.59566444 -6.088072 -0.85997885 4.5939918
tadínani 4.616444 4.053946 0.50880426 5.89751 3.6850202 -5.486381 0.06243245 0.3755691 1.2880734 0.6109511
zakutum 4.4437757 -3.759069 9.479164 -1.5706514 0.39718908 0.025962565 2.4623184 2.8531458 9.923014 9.963195
manaem -8.925224 5.8908806 -1.8741223 0.2121284 2.101056 3.602743 -5.351312 1.9045814 -5.500133 8.4270315
ḫabulákuni 2.904554 -0.18346845 -5.0480623 0.8597705 1.5902617 -3.36572 -1.7749774 -3.6779144 -0.07493738 0.679147
tappáini -6.3052115 2.9944794 3.1590908 -6.9749994 -2.078689 1.7277616 1.8662522 -6.4566865 -5.6907096 -13.618668
tamaláki 10.608847 5.1553736 0.3299861 1.5854317 -5.8582134 -3.0959551 10.146953 -8.454646 -1.5906224 -6.1066966
waášbu 7.7696295 -2.9023058 3.1277468 -1.4663457 -0.3902149 -1.2396203 1.8007821 0.7233433 -4.2105947 -0.5673742
niišqúl -1.099283 3.19388 -8.634305 4.5976295 2.2350416 -0.72792023 -7.7700047 5.3783374 0.45477626 2.7393744
iziizma 4.744766 -2.770278 3.8713558 -3.3113332 -1.4808873 -2.782748 7.5228806 -5.991079 -5.0895615 3.0157278
kùbabbarpía 1.6916007 1.0086205 -6.070221 0.040441163 -0.040851902 -1.9452219 -0.912678 0.8207692 2.3813555 9.839961
elá 1.6276428 3.0835764 -2.8461545 8.723679 0.1663142 -1.4365671 -1.3882933 1.5080568 2.9703841 -1.336591
ḫubuur -8.734331 7.698104 1.651694 -7.4416237 1.630485 10.962908 -10.9332695 -6.2894235 -7.216182 0.21404867
reeš 3.0307524 2.8399317 1.408877 3.5183098 -0.3833616 -1.6782221 3.3103836 2.435559 -3.754012 3.7661352
naášpéertám 7.191999 1.6398151 2.6326237 -1.4694357 -1.114655 -0.29085574 3.1516716 -9.094244 -2.2413607 -1.03671
mì -0.75727606 4.668105 0.2618946 0.72314346 3.3731627 -4.1580257 0.9259577 -0.93679476 -4.517657 2.8206532
ḫaranam 5.8890452 -1.3466077 6.7718515 1.6719191 3.0920177 -3.089509 1.1553615 0.8198705 2.0457816 3.0783358
ìlíalúm -4.5158005 1.8143461 -0.09432914 1.0583667 0.13627128 2.1415813 -2.6474116 1.5717263 2.7775762 0.22735627
baaam 12.747827 2.9323583 1.526438 -7.231026 6.626328 -7.3043666 -1.6196654 -11.770847 -9.030717 -1.7492523
ḫananariim -0.9585929 -1.9101425 4.0592813 4.9435678 1.790255 2.227658 -3.3847442 -1.6237525 2.0800917 -1.6516757
buṣía -5.235186 4.2433157 -0.40704265 1.317751 -0.3319116 4.2865534 -4.186856 -3.2601488 1.2456926 -4.3359866
makál -1.4556453 -0.021079905 13.296608 -0.8639462 0.1528965 -1.0396719 8.0742035 3.6887257 1.2075261 6.267096
ḫunia -3.6420264 -1.5401021 -0.26598644 1.2551799 -1.8946 4.4612756 -3.139662 -0.43888146 5.1123877 -1.3577942
ipáriid 8.269575 -5.1971793 5.09086 16.598463 2.6339388 -4.561736 0.8912508 4.326732 0.9759389 -1.3448474
šalimašurma 2.5815973 -1.5097545 -2.259758 -6.2329245 3.0224667 -1.3563675 -6.385098 -6.7089386 4.112277 -5.4808717
nuaim 2.3405259 -4.800333 -4.0652747 4.346052 -0.9079824 1.3277099 -3.2680242 3.274992 -4.4149003 0.9567942
gapim -4.7718754 2.958226 1.7424749 -0.16298579 0.74617064 -1.4503814 2.2534811 0.72074616 -1.9526304 0.3214349
izizama 7.4323745 -0.77708435 5.580263 -9.852116 -6.037449 -0.19885258 10.498137 -1.1695248 -4.7154083 1.211086
šaqíil 0.25476414 -1.4883802 7.391862 0.089918405 -0.181734 2.0112138 0.93459 4.907255 -0.5641014 -0.6852784
at -0.86629444 3.348735 6.412462 -3.6968865 1.4925873 -4.0069494 5.5958757 0.71426105 -2.0908494 0.34364486
gánlam 3.7737243 -1.893912 2.315518 -3.690973 -7.061197 13.952044 -5.4302964 -0.76501995 8.242724 4.3306513
dadanim -7.5641317 -0.8566909 -1.4707367 0.5420034 -4.0749984 6.072784 -2.7887795 4.4978704 4.877878 -2.5271807
kàṣaar -0.23849602 2.5775552 -1.1698414 -2.6532633 -3.159394 1.8998466 0.27717805 -1.0957574 1.0829611 -7.39147
isúriik 1.6389933 -5.2976284 -0.08201097 -0.04004248 0.26229194 4.5643554 -6.779314 -4.0380425 2.6146533 -2.9334505
ṣíibtum -1.1400305 0.3090997 -3.9446685 -0.58901143 5.118111 -2.8247297 -4.6656084 -3.1135368 -1.9351848 9.132866
šuum -0.1316961 0.03627108 -3.193614 7.7741733 1.7183768 -2.3510444 -2.4355402 -0.58115286 2.7096448 -1.636766
gaptim -3.6130521 5.2965217 4.0064783 -1.0730393 0.81129575 -2.4291248 4.9330096 0.32859805 -2.1339273 3.6744416
šalátùwaar 6.4903994 1.5373979 4.1041684 -1.4583907 0.02478315 1.8806148 -2.6601171 5.434772 4.648561 0.36041072
rubaum 2.491491 0.35042638 5.8762283 -1.4473133 2.5396364 0.69423324 -2.2477746 6.1217866 -4.9947605 -0.16789278
idíkubi -6.549836 2.4401693 11.958522 -5.123944 -6.303305 7.0495305 7.949497 1.2821729 7.255443 3.3005016
ašùrištíkál 2.0602505 1.9709315 -1.9177679 -0.24437766 -2.1668746 6.671516 -7.5041623 -2.3956122 7.2946825 -5.490016
iḫda 0.18626347 -3.8580475 7.7241516 -5.0899873 -2.4722655 2.237542 6.9533415 -6.534919 -3.7611866 9.601786
úšébalam 1.8249227 -2.3682964 -0.18327898 -1.7318757 0.34230584 1.7559439 -3.899206 5.2536645 2.6805723 3.6531827
kànéeš -0.42745864 3.4046326 1.3104688 -1.5874044 3.9756413 0.72684425 -5.684563 3.0320764 -4.593308 0.0671376
šamanim -0.11973775 2.118008 -3.2446325 -5.5221224 -3.6034477 -2.7055595 5.768082 5.515341 3.784893 10.590479
luqútía 6.293277 3.1904466 1.8588701 -1.5459555 -2.341705 0.97294724 1.4759351 4.1696234 3.887148 3.1510417
pániema 0.17417444 -3.2368436 4.2957716 1.3754497 -3.0869312 -3.4378455 8.740906 3.202213 11.423516 11.628617
ikunum -3.543376 2.088357 -1.5367936 -1.1273147 0.13062312 5.3668747 -7.0148387 -0.72470254 0.15628032 -3.1616316
šumìkà -0.07711063 0.91687423 -0.7918592 4.13273 3.4566696 1.7506033 -6.767885 1.0207219 0.20712118 5.02874
ṣúḫaruum -0.91071427 -2.8738678 2.3968344 0.04466276 -1.2935607 -1.7458333 3.867057 2.479569 1.5000018 0.22150274
alee -0.3462616 -5.1375556 -0.16296984 2.850747 6.855846 -7.192105 -2.5664551 0.14507793 -0.61251247 3.3308296
luublunim 4.2576704 -8.737755 1.9688123 -1.9458169 -5.748273 -1.5491071 7.738305 3.7235227 7.2589617 4.598203
aḫuur -0.26936218 1.0365945 -6.302072 0.28041315 0.16333416 -2.678244 -0.99478364 0.83241737 -0.77116656 1.9730253
gapni -2.5349615 4.614641 3.6800597 2.2462678 0.87691957 -1.5403004 4.0850368 -1.4843104 -5.0062103 1.9512048
alábiim -2.8236358 -6.944392 1.1105375 2.4230177 -3.7720773 4.544888 0.26403067 -2.0180237 -0.55899054 -2.9739263
šanim 1.3446119 -2.805717 2.0756662 3.2017343 3.1264906 -2.59604 -0.85779756 2.046906 -3.8704858 1.9940811
šumìabi -4.1111364 -0.6418443 1.3651257 1.4492941 1.3495088 -1.5681279 -0.43703282 -0.8152282 0.20605206 -5.9183435
aliki 3.6908104 -3.3360415 4.042644 -0.6584224 -2.657223 0.01918604 3.4798813 4.7425604 6.556232 3.6251698
ihdama 1.4130299 -2.0763621 3.7405434 -7.4796505 -5.127384 0.31264147 9.011788 -2.7711422 2.7697043 9.936377
ublákunutí 0.45359865 3.3748603 -7.224068 -12.206673 -5.7992315 -2.2092848 4.2844086 -0.9971765 8.656173 -0.35443956
úláma 4.1885147 0.5167812 3.9820821 -2.9409137 2.6704469 1.6720608 -6.4096293 8.197553 0.19076109 -2.437091
be -7.9437985 3.0201433 6.012256 3.4014885 3.7157264 -5.701512 5.710293 -0.42557305 -4.873602 1.5801415
hinaa 0.4472752 -0.8693856 -4.749043 2.240837 -2.621859 5.758182 -6.572099 0.042870462 4.6135097 -1.7649844
ápqíidma 7.2921295 1.614091 -2.0431945 -1.6513215 -12.636572 9.253857 2.508237 0.39354143 1.913791 -12.295305
tùkàal 4.810597 -2.5711865 -2.2730954 0.25626034 2.545658 -4.416225 0.22739191 -7.8205023 -5.413004 0.6383936
anakamma 3.0686142 2.216038 0.06402162 4.5387893 3.313141 -5.011022 -0.71298546 -1.4270921 6.2253695 -0.008422119
ištéet 6.222714 -1.1889828 2.8506637 3.80652 -0.6891335 -2.008712 2.991182 2.616357 -0.8528675 -0.47378075
dumusal -0.80968654 -7.825171 -1.8388444 -0.9927327 0.8268335 -4.7762685 1.0015724 -2.198377 -4.6530023 -8.843638
