1893 10
of 0.1146939 0.71094763 0.6047071 4.603319 -0.53503996 -0.9271332 2.8478405 -0.8328094 0.047052234 -1.8911476
the 0.6826322 1.0385728 -1.0169997 0.4199571 2.0619898 1.6695317 0.9777665 0.49632433 1.6467136 0.90487486
thisisanumber 0.5645683 -0.46938685 -3.1473505 5.3421216 0.64457494 -2.356193 1.9108872 0.7034784 -0.5966112 -2.8405497
and 1.1427865 -0.3103001 -0.12920853 -1.0212889 -0.07681683 0.73333085 0.7449764 -0.6438489 0.5074253 -0.035388652
to 1.0424544 -1.8945283 -0.7197052 -1.70196 0.4790531 -0.20530494 0.9233404 -1.0145435 0.36146462 0.5279645
silver -0.29438308 -1.8812964 -2.0307434 3.2049327 0.865348 -1.7334796 -0.41122794 2.055657 2.1935687 -1.0914675
you 1.9329249 -3.3179297 -1.8008302 -3.2480948 2.9591312 -0.36673722 -3.453232 1.5637165 0.5363359 1.5482783
for 0.046850473 2.0804877 -1.488371 0.43067792 -0.40727553 -1.0216515 0.0030188658 1.7797958 -1.2715359 -1.419437
son -1.1546464 -1.3360258 6.566748 5.5625553 -1.9980668 -1.8568029 4.6842775 -3.0083833 -1.4614747 -0.41846865
in 0.011551616 2.1541145 -0.9656331 -0.2128539 2.9921777 0.46339172 1.8472418 -0.076379836 1.6153581 1.1034782
shekels 0.39036763 -1.204997 -2.4351714 6.1612744 -0.14846537 -3.8764048 1.7853642 2.1891704 -0.3127401 -1.7241762
minas 0.9489885 0.26191738 -3.0522614 5.3442936 2.1550016 -0.9057561 2.7236044 -0.5050156 0.053293 -2.2767918
my 5.3110766 -0.94024765 -1.0063181 -1.797085 1.2115089 2.6314433 -2.685817 -0.308344 2.4031136 -0.9924408
gap 0.84112686 -0.638265 -1.3686435 0.84184825 0.22234182 0.4613658 0.708537 0.14537145 -0.3488277 -0.48741212
from 0.7410805 -0.3467066 -1.4953498 -0.14183377 0.78243643 0.8168834 2.2056725 -2.6600122 1.6862693 -2.0353436
me 1.355467 -4.049076 -2.6898742 -2.7641182 2.4866729 1.1305008 -3.458584 2.044029 0.3921287 1.2810013
he -4.0712166 -3.6302044 -1.3476412 -0.7811308 3.5693097 -1.5399708 -1.6770117 2.4505892 3.497473 1.3742527
by -1.0081046 -3.5114853 3.5244763 5.6438527 -0.7345206 3.9493515 1.2662241 -2.4547281 -4.9225545 -2.1055334
with 3.231567 1.2719812 -0.06542125 -1.7555269 -0.3494441 1.7300684 0.5757055 -0.1886035 2.5057054 0.37480438
that 1.4025624 -1.1563629 -0.8455459 -0.0938187 3.425055 0.3125849 -1.5272624 -0.15835533 0.35594705 0.3000174
your 3.8387296 0.9340038 -2.4176378 -1.8928924 3.4222465 3.5839126 -1.3506324 -0.9375408 2.0308619 -0.80138284
not -3.4169664 -2.193436 -1.2754927 -5.569865 2.5182886 -0.32162336 -5.1378226 3.2473702 4.2201242 -0.45726988
it 0.72403526 -2.178968 -2.573521 -2.2007482 1.8265649 0.32754245 -1.1354637 2.7423387 2.3051608 2.4091527
mina -0.8933851 -2.4763892 -2.4151537 5.4028554 0.05292745 -2.2669573 1.1513643 1.8742733 0.4339529 -1.7241995
as 1.1311388 0.29003003 -1.2452823 0.2782788 2.0567508 2.2417471 -1.3939258 0.79719365 -3.234547 -0.008776276
have -0.83896166 0.7270448 -1.3931088 -3.730016 4.7549477 1.1829591 -1.2698036 -1.1748128 -0.9648177 -0.052574076
is -2.110204 1.2142336 -0.2867844 0.4824237 -1.7483556 4.0935116 -0.21976422 -0.33294255 -2.1415167 -3.8067024
will -4.680194 0.06151686 -3.1240964 -1.5116128 -2.0805411 7.1603794 4.5852904 0.7774055 1.6951143 0.028606398
his 0.059330046 0.28350016 0.12907599 1.7482857 2.8265462 2.00943 -0.13509427 -0.5790585 2.2545211 -0.54735523
seal 5.321612 0.9072478 2.7502675 1.72383 -5.2391486 -1.982193 4.3285446 -1.652604 3.96033 -1.3770813
textiles 4.860325 0.9320581 -4.724139 0.40871793 2.256892 -2.3629072 1.994428 0.032491025 -1.9750401 -0.15646912
we 1.0809 0.022776598 -0.58104664 -1.50326 4.01236 -1.7072747 -0.5338691 1.6967411 -0.20821175 3.607238
tablet 2.7328985 -1.5923493 2.5036445 1.768022 3.596447 1.7212355 -1.8481827 1.0065405 4.1383305 3.036489
ennamaššur 1.8182778 -4.4199843 1.5257021 0.15680096 2.0325687 -2.890806 0.44194892 -3.2008188 1.7564851 -0.123011254
copper 2.0601983 1.0081834 -3.6262362 4.290476 3.4350421 2.1850753 2.1834373 -0.5737009 -0.931816 -1.1702318
him -0.85171974 -4.921027 -3.1632316 -1.2034419 0.8426455 0.7482051 -1.4379847 4.8408856 1.2614269 3.7161086
pay -5.141253 -2.5047538 -0.0011778456 -0.9249367 -2.6315084 -2.482271 -1.5939804 2.1104558 7.719127 -3.86478
they -0.23057249 -1.3090686 -1.9907243 -1.6894462 3.765327 0.37242252 -1.6745311 2.4759982 1.8262808 2.430835
tin 3.8143942 0.5340381 -4.5221996 2.7531784 2.085261 -2.2045627 1.8712081 2.0921059 1.0415883 0.65306664
has -4.324561 1.3292046 -1.3139181 -1.019146 6.2704144 1.3427911 0.9010386 -2.6409748 -0.3196574 -1.3182065
gave 0.9463424 5.191618 1.0590984 -0.73607266 -4.4024463 -3.2139142 4.742697 -0.4707354 -3.2586617 -1.2127502
if -4.008491 -0.65579176 -0.7106666 -3.7994668 0.605501 0.6940733 -1.6752567 0.02191766 2.9392328 -2.623477
send 3.078134 -0.63968265 -3.419203 -5.854938 -4.6855397 -1.4770018 -2.0871553 1.4541434 3.9823148 -4.0864882
aliahum 1.7267237 -4.8698854 0.8894062 -0.59277123 1.4005051 -1.092859 0.53550833 -2.898044 0.6011697 0.3030679
city -0.32043102 -0.5740723 1.6677253 -1.9743332 4.0425553 2.1179407 0.6126885 0.37364078 3.3220978 4.716349
paid -2.3927264 2.432388 -1.2356292 0.18154497 1.7265186 -3.8614564 0.8985534 -0.30533463 3.3860495 -3.2581272
our 4.696725 2.8358142 1.5471617 -0.12381003 2.8837187 5.185328 -0.55047834 -1.8521938 -2.5320055 0.44574094
on -2.1543791 4.8413405 -0.2692586 -0.6246581 2.012011 3.3131416 1.3055682 -1.192895 2.052973 -2.4331305
shekel -2.8547373 -2.4835575 -2.720991 5.207765 -2.0523448 -5.0770307 0.28091875 6.12283 -0.8021614 -0.8508351
give 0.42353138 0.893914 -0.34521833 -4.0756555 -5.2544065 -4.146804 -0.16834222 1.3129277 5.1453075 -3.225079
let 1.9478725 2.0271595 -2.5001233 -5.4728484 -5.5391726 8.92998 3.754313 0.61753106 -0.9118819 0.50413203
then -0.023375295 -1.4859698 -1.8130962 -3.6994543 -0.27712795 3.538887 -0.4831051 2.4227154 3.9401917 1.8932778
shall -0.8442802 -0.75040036 -4.3616357 -3.8165336 0.0925828 8.076191 1.8991357 0.8960866 0.92646235 1.1875479
said -1.7702439 -0.39588907 1.8573192 -5.091936 0.90422434 0.81585824 1.6757597 -2.9989703 -0.2257604 1.0231967
do -2.198977 -1.1582837 -2.1176267 -7.1771607 -0.93020886 7.759059 -3.825686 1.672445 0.3052567 -1.9908409
are 1.3738704 1.7894803 0.47811523 -1.3726197 -2.4586384 6.5929365 -1.4908913 -0.0878759 -5.011692 -2.4768891
here 0.26598957 -1.3432834 -0.90953475 -4.3943896 1.9906526 1.7498904 -0.8422821 0.36629745 -0.326033 2.1423512
them 2.5616875 -2.6287212 -3.1092706 -2.2618008 1.4455631 0.6975066 -1.2927471 4.1127014 -0.29599464 4.323125
us 0.256517 -2.1566541 1.9739245 -2.9143167 5.025403 0.45248052 -0.56219333 2.1892488 -0.22958829 7.663371
there 0.70276153 -1.8508077 -1.777324 -3.0100958 -1.4854243 2.7243898 -2.7091608 2.018935 0.7116665 -1.0204936
was -0.99635273 4.9564624 -0.058207743 0.18940665 3.3812065 1.3407584 1.9395282 -1.4964559 -3.9384463 -0.64150524
so 1.4387817 -0.58292085 -3.1736267 -4.4508786 -0.7480071 2.6187782 -2.7111816 4.513518 5.2150035 0.81330264
šalimaššur 0.039179653 -2.4395297 2.765145 -0.46758983 4.5994782 -0.08347153 0.24567814 -2.9637072 1.0574164 1.9015726
this 2.17281 -1.4560527 -1.5145512 -0.19738887 2.9671006 -0.005774449 -0.7616633 0.8292084 -5.4561725 2.2719285
owed -2.042947 -1.8565582 3.1008182 7.7546177 -2.1798577 -0.53185314 -2.2930477 -3.3446498 -0.5915192 -11.074681
refined -0.3415982 -3.849405 -0.48909754 8.640646 0.90367293 -2.7582798 1.3781314 -0.70805264 2.018326 -4.1435637
must -1.7393049 1.2985919 -3.0413468 -3.6926186 -2.519933 10.487714 3.8107145 -1.1722779 -0.64300317 -0.98833114
at -2.152874 4.360255 -5.541428 1.336406 1.7771826 3.207005 0.6111347 2.7567763 3.341021 -3.8141017
under 12.382671 0.13232759 -1.1943944 1.7961146 -4.9717855 -5.192061 1.7955796 1.2343118 3.915189 -0.62219954
when -1.77906 0.61633056 -2.5292497 -3.596841 2.6412323 -0.16732001 2.6655304 -0.49193996 -1.3835267 1.9175764
interest -4.221291 -4.646898 -1.7582157 4.0563664 2.4401746 -2.3964765 -2.489988 6.670096 8.051236 1.4266543
take 0.8988105 2.6023734 0.90157884 -4.039218 -2.656928 -3.8832293 -3.5764773 2.87455 8.74994 -3.3633082
all 2.2026699 3.2973914 1.6570227 1.4360018 -1.5764923 -5.7845387 -0.7997807 0.75557756 -1.5799874 -3.0114076
or -1.1868008 -0.20661435 -5.8664536 -3.4591508 3.354836 0.6825298 -1.9637642 0.6105868 2.6665707 -3.3027782
come -1.4706571 -0.90212375 2.8367038 -7.5637183 0.14420927 -0.36279446 -4.2628155 2.6233602 5.8071666 1.7593694
brother 2.946487 -4.723736 4.9546213 -1.5005497 -1.8771763 -2.3597016 -6.746199 2.2472003 2.687856 0.08003405
brought 2.6625233 5.4814324 0.18171234 -3.8964171 -2.781635 -4.816061 5.128783 -4.4480767 0.11021833 -3.4947672
father 3.699517 0.2332523 5.2319527 -0.7875229 2.026169 -1.2851125 -5.778777 1.23196 1.2280703 0.8142808
talents 2.6897225 1.5802776 -4.4864674 4.5114684 3.4160936 3.4813404 5.7776966 -4.1427217 -3.5503757 -2.5755374
house 1.2625068 4.4156876 2.6063724 -0.33901766 1.9377961 0.79447633 -1.1538534 0.23386705 1.7474616 -0.4165702
colony -0.4977322 2.5157244 1.683046 -0.4322085 3.4624765 1.6885602 3.1753676 2.7528534 2.40277 6.940883
concerning 2.493958 2.2911239 1.5018169 1.0357535 2.923097 3.4340632 1.0759618 -4.4848733 0.7597255 -2.4403422
dear 6.534271 -1.1708009 -2.457724 -4.2587256 -1.5284477 7.973851 -2.6745052 -3.4986541 3.028922 -5.912768
also 2.0895088 -1.4085659 -2.96032 -1.0077803 1.8229636 1.5730455 -1.9617907 0.63930094 1.0760348 -0.9673955
witnessed -2.6178539 -1.0857862 7.648029 3.2971594 -2.812175 2.873355 0.24512912 -3.1082125 -3.1043074 -3.0390952
been -1.026612 2.5211751 -0.58975685 -1.3266971 8.109851 -5.1075196 -3.325275 -0.6305982 1.5720468 -2.005662
month -8.295775 -2.5353568 0.39122337 5.7079334 0.49110436 5.29735 6.649049 1.3584679 0.20596136 2.1995103
which 0.03343107 0.018848531 0.7689801 1.4461392 4.4010925 -2.022045 -0.50557274 -1.2862867 -2.723521 0.14041387
goods 6.162253 -0.41728124 -2.2433882 -1.0183814 3.5672889 -0.3864864 -2.947908 1.9770344 1.8339661 1.7374558
its 0.1967773 -0.63137484 -5.3521156 3.8198965 2.3442464 -1.6701733 2.3076222 0.88056314 6.317052 -3.0058103
be 0.30882907 1.4000568 0.67466027 -2.8876836 0.33499077 -3.3761764 -6.3897443 6.9837933 5.035898 0.68036705
good 3.4282305 0.3254088 -5.951966 1.3020365 1.5497842 1.1648618 1.0481666 -1.7688107 -1.8636723 -4.7298837
one -0.85026187 0.40614274 -1.487922 0.042807236 -0.8255069 -1.4398586 -1.3434954 4.5895143 -1.1880529 0.7012315
per -5.6321774 0.79562545 -0.5279234 8.541902 -6.596957 1.6759939 1.6080244 7.993708 3.6922336 -4.033104
about 2.4110315 -0.15033698 0.5026477 -0.33750442 2.1572578 2.4312668 -2.001595 -2.0050967 0.47764063 -1.9618828
price 1.8549017 0.71675044 -2.1377041 4.440256 -0.2353376 -3.433124 -0.9256363 3.0167406 0.7007853 -2.6778824
an -1.2668173 -1.6341089 0.2848579 1.2233373 3.6544497 4.256659 -2.5907633 3.8155022 -0.443562 3.615439
left 4.0773234 3.1700835 -0.033434752 -2.685702 -1.0501649 -1.7199967 0.109254956 -2.7645648 -1.007714 -3.81026
sent 1.5423529 1.3943901 -0.74887913 -5.028104 -0.601161 -4.914215 0.8227733 -3.5755758 -0.05753729 -3.6874473
before 1.3269552 1.4524851 1.4098327 -2.6214633 0.89118874 4.2450366 1.4987326 -1.0741771 -3.8046818 2.5384526
tablets 6.3150015 0.88313544 1.3919244 -1.0782374 3.5837975 2.8992217 -2.7216115 0.080211 0.66287214 2.0681086
owes -3.861721 1.044418 0.07360792 2.5453298 -5.300571 -0.8453508 5.3935966 -4.0526686 3.1556811 -8.143088
should 1.0636375 1.1863725 -3.6254947 -3.7780426 -3.8841314 8.971162 3.1829207 -0.20530893 -1.676583 -0.8627505
what 0.054904614 -3.9648552 0.036265466 -1.6559093 3.6141236 -0.7263126 -4.296692 1.0259075 1.9981512 0.76882094
their 2.025798 2.7635908 -0.57482034 2.2937756 3.0694146 2.2687056 0.8570294 1.0551034 -4.120326 1.6431962
bring 1.5340492 2.6327374 0.12506095 -6.2785378 -7.0289054 -4.7633615 2.1062264 1.2532825 5.395984 -1.8337615
donkeys 4.630167 -0.16177565 -3.8382275 3.3004313 1.0900536 -2.3706276 0.40931562 3.4684653 -4.469961 1.2157831
make -2.971016 -0.062700026 -1.0628693 -3.1277192 -6.1719003 3.1522033 -0.42729446 3.6250594 3.2286758 -2.3342798
fathers 4.443314 3.429841 4.42871 -2.1395543 2.3041656 2.4620833 -6.2330017 1.4839747 3.90371 -0.8400124
belonging 4.7666087 0.6968003 -0.73942405 0.20497592 -0.38017678 -5.2891836 3.0095203 -5.1309466 -2.9119716 -4.344654
kanesh -0.6770863 0.781593 1.3580588 -0.97392356 0.9673252 1.4384228 2.8957317 1.356553 -0.13337971 4.678064
šuištar -1.1184961 -3.7353625 2.7662618 1.5413884 0.5997999 -2.9342213 1.8917979 -1.4807935 -0.96941745 1.4932485
but -1.3390485 0.5250139 -1.1166389 -5.211864 2.241899 0.277987 -2.013274 -0.23491858 -0.71257406 -0.90895975
took -1.8082162 6.5548644 -0.25783023 0.056813926 -0.3223033 -2.5159123 4.2971516 -1.953877 -0.20567098 -3.59906
answered -3.2853074 -0.58613455 1.201359 -3.7143078 0.9345721 2.5581937 1.0497037 -3.3159308 0.22124857 -1.1200033
brothers 4.9923406 -4.2890124 3.0852401 -1.3797069 -3.2129931 -1.9706188 -7.8517337 4.805361 3.4268355 -0.15141006
can 1.0435534 0.08990494 -2.0180378 -4.2352014 -5.939473 10.079553 -1.1319768 4.6476026 -0.90544087 0.023834007
received -1.2415308 0.59509313 -0.8009815 2.522394 1.8028415 -2.1625302 0.6967085 -2.778364 3.498325 -5.354209
accordance 5.252456 3.2059252 1.2225934 -1.5261545 0.8914019 3.2694955 3.7393112 -0.0019546147 6.6338224 4.029771
representatives 2.9045134 -0.9104972 2.6579473 -2.210063 0.45684573 -1.1727551 -2.6082995 0.031887706 4.0658836 0.33996728
go -0.57458735 -0.34250116 4.303421 -7.836704 -0.06834896 -2.6015933 -0.8766769 2.2884877 6.5329986 5.279711
seized -1.424262 2.2105556 5.314882 -4.645644 0.27425128 -1.414527 3.9553647 -4.7225947 -1.5948113 1.2850139
attorney 0.6698535 -2.276732 5.032431 -2.4650874 2.6441343 2.6023996 -0.81818795 0.3385304 3.015622 5.59228
say -4.4300976 -1.3082767 3.5130188 -5.69603 -5.6389813 -3.15414 2.3745773 -0.436603 -4.5644917 -0.1013169
entrusted 3.5377765 5.2835984 3.5602853 -2.9223974 -1.174211 -7.1653523 4.0025516 -4.801925 -1.3688805 -1.8478986
gold 0.78601456 -1.2057365 -1.4525484 4.703193 2.1278281 -3.8490465 -0.1025379 0.6266263 1.3198433 -2.0249186
textile 2.249842 -2.632342 -6.4986715 0.01885585 0.8502067 -4.9916067 1.6895872 1.2896215 -3.4951148 -0.6372702
elamma -3.8729143 -2.5677814 -0.13069016 1.7162521 1.8582976 -6.74576 4.330237 -0.5317046 0.22234683 1.3549442
these 3.846229 2.8433416 2.9303956 -2.4530392 2.7297843 0.87577754 1.9713625 0.79295874 -7.965499 7.141932
merchant 2.4396708 -1.9468576 -0.6402672 -0.31109414 4.13418 -2.1625087 0.07914915 -1.289868 2.9540834 1.2529416
amurištar 0.54523927 -2.636907 1.4721944 1.6638448 2.34802 -1.9987282 1.9204706 -3.55485 0.9672791 -0.6711698
eponymy -10.814214 -0.7709958 6.8403497 6.159364 -5.2069087 4.5755754 6.766892 0.9857693 3.3995972 -0.44733694
witnesses -0.04696243 -1.0305046 5.8137655 -1.7558386 0.99151015 1.9882543 -1.7928206 2.071161 -1.1626722 5.6289315
who -0.8847892 0.092639506 2.9250417 -1.2202815 1.8185241 -0.46477297 -2.6651757 1.30443 -1.0530711 1.3643844
sealed 3.7089424 2.7325838 4.1613283 2.9292784 1.368005 -0.2779786 -0.074191555 -4.961955 -1.8707463 -4.284963
against -7.0031075 2.2940652 7.7507544 -5.441924 -1.1137455 4.0282917 2.319423 -5.181205 1.5391815 -2.0577137
puzuraššur 2.2782073 -4.876289 0.69582725 0.59763056 1.7089471 -1.5799278 1.3959689 -1.7117684 -0.63273734 2.364103
her -0.36902937 -1.4233152 -1.269765 -2.7197995 -1.0439156 -2.5022435 -3.8480968 3.053043 -0.6057767 -1.6953988
transport 5.688403 0.5331289 -3.9848194 -0.74768937 3.5316916 -8.674927 -1.8050675 4.644601 6.386256 1.2975968
out 1.4622173 0.012753267 -2.2418792 -0.4717167 3.2397134 7.216852 0.23991829 1.2725824 -0.34095308 2.7661264
debt 0.4987974 0.75815743 3.2280405 4.8127046 4.6000113 -0.7514063 -1.982972 -0.46248165 4.9878297 -1.3799454
iddinabum -1.2345958 -3.469032 3.8615725 3.6028993 3.1564877 -2.7640932 1.0950696 -3.3776886 3.1497447 -1.1871203
seals 9.344275 6.438871 1.8433996 0.87889457 -4.042443 -3.6946225 3.1224253 -0.8347161 1.4554205 -2.1207254
had -3.1758683 4.6399484 -0.1035817 -2.4276607 5.998608 -0.70750237 2.5593474 -2.8405008 -4.6498113 0.23607266
wrote 3.1555147 -0.033538137 1.341842 -5.0755997 1.5921674 2.555579 -1.6447186 -3.100253 -3.5980945 -0.41138092
šubēlum -1.5885468 -1.7520818 3.3881984 0.54486835 3.4915247 -0.757876 1.3109559 -3.0365317 0.47630653 1.0703815
up -1.1356204 -1.6824863 -1.9310039 -3.7465189 3.7846284 2.7558763 -1.3623475 2.982166 1.8602008 4.209686
until 0.64910084 4.5834837 -4.3947997 -5.1721215 0.2285475 0.2271983 1.8226295 2.0804205 -0.7089916 0.42418313
ennasuen -1.2720777 -4.506323 3.295025 1.1195291 3.4882774 0.059663687 -0.15834738 -1.9797674 1.7094343 1.7339878
thus -3.5168343 -2.3595893 2.824549 -4.5984273 -5.497076 -4.7921352 4.4945116 -2.2220812 -9.294209 -0.57989043
day 4.270505 -0.20542833 2.4221423 -7.769331 -1.1583793 -4.835852 -4.9485545 2.4421635 -1.686199 1.6782664
presence -1.2296387 5.1027427 8.112435 2.165009 -4.464304 -6.005834 6.216806 0.91571546 0.6146339 3.042001
may 0.90304786 1.6295367 -1.5592498 -5.0030665 -5.393091 11.155735 2.5274029 0.6998402 0.18689023 -0.29171094
talent 0.8962185 0.98155123 -4.395207 5.1200285 0.957833 3.477294 4.664782 -0.98793703 -2.8789027 -2.2073214
word 4.9972534 -5.682667 -5.567585 -5.2037983 3.5977156 1.4566007 -6.0183334 2.8018863 1.1135021 0.52971345
claim -6.539138 -2.7701943 7.6352167 -1.3312536 2.1969817 -4.4769425 -6.2355814 1.7512282 5.0023565 -0.5366334
ennānum 0.89018154 -5.4772525 1.2803811 1.4116849 0.34484828 -0.7055887 2.1580484 -1.975686 1.5350369 1.2236083
did -2.5487945 0.41920596 -4.075683 -8.233721 0.29551798 6.8711543 2.3334322 -1.7888387 -3.8934402 -0.14599329
aššurimittī -0.5344191 -2.6816776 1.9403293 3.8764732 1.9892033 -1.2154832 2.3263104 -0.97549057 -0.9460123 1.7529142
add -8.066088 1.0842774 -0.8816002 1.5658569 -2.3570454 -1.3872045 1.6962754 4.9299207 10.273834 -3.3765328
were 0.74902225 5.781361 -0.6609991 0.014234668 4.7933817 0.3214736 1.7552468 -1.7706742 -5.8862567 -0.5459246
rest 3.456821 0.6501898 -2.5351684 2.006161 0.71979505 -2.3931828 -0.9119291 2.963457 3.7093298 -0.5826549
proceeds 6.581392 -1.5265362 -3.922508 1.87149 1.4778945 -1.2019947 0.009971783 0.863858 2.8409913 -0.1740603
care 7.2576766 -4.980672 -4.4305267 -1.8169734 -2.441892 11.106353 -0.2587765 1.8474913 -1.8529453 2.2369614
itūrilī 0.17113402 -3.1824894 0.3849887 1.2051271 2.8475902 -0.18752167 2.9401338 -3.3392549 2.1898453 0.6006628
no -1.1252812 -0.029845638 0.6396197 -5.8851457 -1.0021284 0.14385921 -5.6686563 1.7334906 0.6810692 -3.3204029
aššurṭāb -0.11683665 -1.4113927 2.883479 2.6251314 2.713771 -4.0306373 2.0578837 -1.792172 -1.4694825 1.6139699
within -11.329123 -1.9698751 -2.624701 -0.42404184 0.033111498 0.9063035 1.3068984 1.8763962 2.4351504 -3.866574
man -1.5945734 -3.708849 0.812756 0.0077564805 2.4026363 1.0663416 -4.7873626 4.058597 2.8310502 1.9208777
set -0.9597223 1.1708492 0.7137596 -3.3591595 4.240835 1.9479437 -3.9743183 1.7452363 3.8004508 0.55636245
investors 2.3243363 1.69441 3.649542 -0.009873092 4.77626 1.952297 -2.161065 -0.9178869 2.6413548 1.5013101
two -0.62181056 1.4897199 -1.921109 0.24893151 1.902958 1.2970585 -0.56507736 1.1865561 -3.4169233 -0.6799912
saying 2.041485 -2.8305776 -1.133576 -5.055424 3.7568636 0.4725105 -2.7656205 -1.9545673 0.17080438 0.023291599
letter 3.9410694 -0.76565635 3.822354 -4.3425045 1.4362458 -0.5000012 -2.0216317 0.4014219 -2.152094 4.648468
šukūbum -0.50361246 -2.9695952 3.1666417 2.2829525 1.1242112 -1.9531046 0.42993188 -0.8590841 1.7434291 0.7496462
lāqēp 0.83884174 -3.5202658 1.6558591 2.5515373 0.70817316 -0.9726014 1.9814745 -2.0162313 -1.0142686 0.64219725
brings 5.2001348 1.2296995 0.45400894 0.11455887 -8.146277 -2.036019 2.3408864 -3.3515158 -0.31004512 -7.392599
rate -2.3820643 1.1466863 -5.2855563 7.549517 1.8684795 0.15782076 0.6711423 8.676663 4.326832 -0.18526971
week -9.146495 -5.810055 0.4820568 4.6728325 2.354694 0.34387746 7.970039 -1.6566597 6.3129754 1.6574792
aššurmalik -1.2981354 -4.374061 3.1979814 2.4323144 2.3743348 0.653969 1.7372344 -2.9524212 -1.0115901 1.1981937
wool 5.107177 -1.7964826 -4.2573533 2.6504762 2.867787 3.2570326 2.0106366 -0.5346168 -2.0441642 1.1826376
due -3.331552 -0.25617933 0.9997243 6.6548553 0.42832673 0.27004698 0.6333384 -0.6491242 -0.43782696 -4.6829123
made -1.1811353 3.4459617 1.586742 -3.2065208 -0.4178713 2.353744 0.3623848 0.1516408 -2.8773456 0.29285312
further 2.3455894 -0.39476866 -2.3642704 3.7260604 1.9653889 -1.9690262 0.7358381 -0.9714287 0.6581821 -2.8485508
black 5.335524 4.764756 -2.9841568 4.9954557 -3.248187 -3.2899506 4.3433847 1.2749689 -7.3492227 -3.7489195
owe -2.4711282 0.48175657 0.38847446 -0.2308005 -3.294874 0.7702118 0.38096786 -2.7328362 2.0531406 -6.9340787
why 0.40726218 -3.0588121 -0.17551023 -6.4108343 1.238621 -2.670486 -4.7308145 -1.7899015 0.10964087 -3.4537225
caravan 0.8247554 -0.9836061 -1.2501123 0.35721117 0.8535628 -0.8669494 -0.73628163 3.0834613 2.1387167 1.848238
together 3.661603 1.893244 0.2425149 -2.250923 -1.4959959 3.198348 0.40718052 1.5394342 1.120636 1.7652353
clear 0.19485216 2.6211393 4.2158604 -5.094145 -2.8240373 1.8947117 -0.84203255 1.4081547 4.8154917 0.87964225
quality 4.287937 -0.08469938 -7.9553022 1.0136048 2.7906795 -1.0760264 1.5217042 -1.1840479 -2.9883838 -4.1841416
capital 1.0944893 2.1428154 4.4967437 7.6020937 -2.4615664 2.6473436 -1.1335776 3.6783006 3.654669 -1.4197962
sell 1.879355 2.7338214 -2.867864 -3.7719955 -3.674253 -3.6325278 -2.6355317 4.511519 1.947429 -2.9261897
own 3.1470804 0.50572497 1.4437813 0.8755273 -1.1447889 -1.7760546 -2.9869015 3.1256187 3.2976654 -0.29528058
dagger 1.8333812 -4.134661 13.669678 2.0077915 -4.2481565 -0.8796958 -2.6884565 4.0178804 -2.6030526 6.773457
am -0.4590067 -0.03976972 1.9602522 -3.4538808 -2.6146436 3.8981159 -3.6847665 2.426809 -7.3545356 -0.3164812
after -3.041248 1.6848552 -1.0744668 0.59954655 4.6066246 0.1903435 1.754795 -1.5717264 0.16349787 -0.71876633
thereof 3.7517219 1.2769506 -3.7322688 2.9927876 2.9110749 -5.5703945 2.9657464 -1.1167216 -1.8302037 -1.7544526
any -1.305874 -1.5958022 -3.122771 -3.1279151 4.70187 1.3711708 -4.5745525 1.8065975 3.663467 -1.2556728
testimony 7.219954 0.6148326 10.195042 1.3177165 -3.4211612 -3.31678 -0.54323244 6.380597 -3.2776036 9.0708275
name -2.517928 3.3990014 2.6294491 -0.22708182 0.9121743 -3.3399677 2.9973307 -0.96570736 6.6299987 -0.5669404
ikūnpīya -0.13353248 -6.052667 -0.1893729 1.519106 2.8542356 -1.5286331 0.9739107 -2.9470747 1.147428 -0.4650271
sold -1.2568643 4.754756 -3.1450927 -1.9055883 2.5677526 -4.6993947 0.6631271 -1.4109886 1.1435409 -5.4390655
added 1.7026312 -0.21745606 -1.9225653 2.9701586 2.08018 -13.173951 3.0887978 2.294978 6.984914 -0.85764176
available 1.2035826 -0.42976564 -1.0490376 -0.4179786 -0.35298812 -2.2048178 -3.6576786 2.7449684 -1.0066878 -1.9653777
since -2.1687682 0.07379543 1.0828998 -2.2689035 2.2868528 2.7675688 -3.1341982 0.4416145 -1.4505848 -0.5735176
matter -2.1892118 0.3621366 3.3478346 -0.66027415 3.7017834 1.4489825 -2.2522807 0.9183177 0.6303419 1.8959646
expenses -0.5873061 2.3083057 -2.307469 1.7345212 1.957122 -4.646841 0.17430994 4.697629 0.71882105 1.1017056
both 4.13143 1.9326185 -1.7022818 -0.94866335 0.11406287 -0.30707604 0.63341355 -0.06932714 0.9942062 -0.83322793
very 6.6561875 2.380234 -2.1515698 -7.050654 0.2741366 1.1868702 -2.5834107 2.588844 -2.0455594 1.930618
instructions 5.560281 -0.41507345 -2.2374537 -4.82842 3.2505374 0.3496689 0.41394487 -0.5331088 5.923564 2.7845626
keep -0.62613475 -0.6683881 4.0660076 -4.73488 -1.2224184 3.0655763 -4.3973155 -1.0822891 -3.7709508 -2.0080419
weeks -8.583511 -5.2093024 -2.9757595 2.9126527 2.6055112 -1.4950701 -0.24575715 2.390091 4.864507 -2.6641347
sons -3.3894768 -1.0293671 5.8405066 -0.61103517 1.8351641 -0.18936683 -1.6682608 -2.742592 4.322353 -1.8905572
aššurs 2.9787407 -3.6026862 11.593202 0.54977334 -2.673208 0.9923102 -2.9125814 4.257234 -4.2114267 7.317419
kuliya -3.3231559 -3.1526499 4.420131 0.73591477 -1.8238468 -2.7978384 0.1052138 3.587833 -2.245146 4.366184
buy 2.4972968 0.9790196 -6.2003126 -3.9900966 -6.1076145 -2.7075913 -0.050665136 4.3893332 2.9605742 -3.7960427
case -2.8082848 1.8173243 6.506043 -3.2796786 3.724886 -0.9520034 -3.4850693 2.6681547 1.455267 4.40021
aššur 3.7719252 -0.8623096 3.994179 2.4398377 1.9414909 -1.1430707 -2.6954951 0.9470815 0.19322172 1.8016124
possession 1.3242579 2.3247807 0.8468624 0.38877976 -0.018156022 -1.8229921 -1.239078 0.32164392 4.092192 -2.834078
iddinaššur -0.8726189 -3.4047022 1.7098956 3.3096566 2.0784683 -0.17180048 1.8077338 -2.3198953 -1.1618018 0.33187416
amuraššur -2.2175193 -4.4070196 2.4207273 2.7425058 1.4430299 -2.9276965 1.5131449 -1.1386579 0.62099874 0.9016653
certified 3.301474 0.118419975 2.0747755 2.714646 5.4640718 2.7894883 -1.3845174 -2.0686743 5.742854 -0.59919786
donkey 0.9221877 -0.54918724 -3.5176885 1.9536974 0.35789275 -5.109051 2.2138565 3.4784157 -4.2005696 1.9645504
outstanding 0.8902941 -0.10296613 -1.4804416 -2.4177413 0.3599002 5.5217705 -2.875411 -3.2065752 5.5832753 -7.373645
months -8.081934 -3.3667884 -3.1320689 -0.32084414 3.22755 1.2984236 1.1031852 1.9952391 -2.0923626 0.9487631
maid 1.1321747 -1.4408988 0.7128459 -1.181515 -0.23190862 -2.8473203 -3.4193153 1.7692459 1.9480498 -1.0289716
leave -0.4866004 -0.6983878 0.5337232 -6.633986 0.36333612 -3.9192874 -2.731518 1.6710981 2.9348183 0.8683512
lapis 0.97139436 1.8173133 -5.1489534 0.61227137 3.1592724 0.53454494 0.5998917 -1.7109698 9.8290415 -6.200347
bēlumbāni 0.9922986 -6.2540107 -1.7078888 2.5806334 0.8710798 -0.3965034 0.533577 -0.35594422 -2.541375 0.40389726
personally 0.3835861 -2.066008 -1.0103297 -1.9972512 2.1027062 -0.80908626 -1.3778133 0.5789786 3.493633 0.5862865
ilībāni -1.1868542 -2.3795087 1.5193573 1.672694 0.7366595 -2.4449742 3.2754614 -1.0325102 -1.3618451 2.0325625
hear 4.0511293 1.963587 2.5155554 -7.544945 -1.0710377 0.55281335 -2.1282704 -1.3581117 -1.1257074 0.042968374
write 2.0401542 -0.9233021 0.6972112 -3.2337213 -0.8169403 0.42697248 -3.3989882 1.6033009 2.3221998 -0.34021798
each -1.7594364 2.068901 -1.8807942 2.9530582 0.048775833 -0.7691555 -1.5314487 4.917384 0.043315075 -1.692061
assembly -0.12746671 2.141667 5.5211844 -4.549068 4.625259 2.545092 2.6546645 0.34896597 2.881353 8.573291
those 5.155934 2.4108357 -0.51466745 -0.7354287 4.589989 0.9274595 0.5135735 -0.48461977 -4.8113074 3.0302129
plus 3.7292652 1.5089442 -1.5720575 5.2719746 0.079960845 -0.8237579 -0.07305053 0.67163825 -0.62498313 -3.6379654
working 3.5879476 -3.1474705 1.7970545 9.722212 -3.2637556 2.0816207 -1.8051894 5.0901356 -0.3699858 -0.6336193
taken -2.6063144 4.5415273 1.1604888 -3.1598656 3.832465 -5.1919575 -0.68652004 -2.71197 2.6421263 -4.165039
aluwa 4.501286 -4.2832723 -3.2399273 -1.4670848 1.9852881 -0.22633874 -0.99227726 0.7737611 -1.1041474 2.0784087
back -4.1178293 -1.2379798 -1.3914015 -4.287548 1.2347561 1.9738103 0.5456752 2.2893126 -0.19973238 3.050377
men 1.5084141 0.15352528 3.2101917 -3.6014745 2.2921622 -1.1712022 -3.7898211 2.9213934 -2.050875 4.271614
grain 0.65433824 -2.8210363 -3.993597 0.655453 1.0477197 -0.584528 -3.6198108 1.9965535 2.4555647 -3.6262853
urgent 2.6674645 -0.77979285 -0.9969916 -4.1266227 -0.7683985 5.096102 -2.3611321 0.7284876 0.07709683 -0.39337784
claims 1.439801 -5.3795056 -0.96579546 2.1882505 5.92403 2.9214199 -8.4484625 4.220258 6.2813597 -0.13914567
pilahištar 0.6013556 -2.4718137 1.8763728 0.06804863 -0.26435837 -2.784716 1.4746085 -1.3727051 -1.3811709 1.0178138
lazuli 7.0425053 -3.989453 -6.3465266 3.8234215 6.3753834 2.7949765 -0.52710944 0.6266291 6.3899217 0.48217908
wife -1.4280422 -0.5933163 4.14602 2.3985403 0.91055465 -5.6325235 -1.2291534 -1.3995502 -0.4843728 -2.555741
aššurnādā -1.8576219 -2.9422724 2.6214433 2.2329235 0.6004277 -0.573581 3.385272 -1.1693417 -1.5880381 2.454747
single -2.7163742 0.2755245 -3.6755521 -1.7572857 -2.916359 2.4012785 -2.1909604 6.5567937 -1.2747746 -0.5332324
does -8.188689 -1.2777663 -4.444958 -3.6138415 -0.114598826 7.817559 2.6672292 -0.04155675 0.47680047 -2.5365782
purchases 0.48826492 -3.565714 -1.2729235 -0.78375536 1.4023634 -1.9059389 -0.41010824 3.9650106 0.4157543 4.982865
slave -0.44783637 0.5620299 1.5965512 0.5508741 0.7107088 -1.598949 -1.3012553 0.26066905 -1.0594943 -1.2090079
ennamsuen -2.7161405 -0.1068072 4.1430764 1.6185545 -0.5945609 -3.3666914 2.2853467 -0.32080987 -2.45799 1.1722542
reckoned -5.1811924 -4.469925 -1.543966 6.073761 2.1565747 2.1904054 6.1089597 -2.6269152 3.8659933 -1.9696584
well 3.3435156 -0.27350143 -0.14333402 -0.5265746 1.4519378 -0.21003394 -4.807146 2.4143429 -2.6821344 -0.6980386
given -2.815083 2.5527298 1.9440728 -2.7534816 0.43749112 -5.5584564 -0.8248123 -1.8879652 -0.3851749 -3.8288376
cost 2.6244376 4.263669 -4.070947 7.792385 -3.3200436 -3.8444781 4.1046596 5.685959 -2.855382 -2.8491774
sacks -0.53677636 -2.8899746 -3.7590246 4.0158515 -0.8143842 -0.89160097 -1.5099812 1.7119626 -2.8925974 -5.0775504
servants 4.7253833 0.60599726 -2.623865 -3.228406 -0.040881243 -1.3887511 -1.6478628 2.1290185 0.49146375 0.406833
adida 4.2311783 -5.2107973 1.6896998 -2.6628869 -0.6798881 -0.66738653 -0.22028215 -3.4892392 -0.6649725 -0.25158346
either 0.5870591 -1.3234706 -6.430304 -1.5375499 2.8075023 -0.9855284 -1.516323 2.4100854 1.5055567 -1.2728004
please 1.1031456 -0.08520383 1.8342605 -3.276089 -3.5954425 5.3742943 -2.3685975 -0.8536536 -0.55926967 -3.223588
abušalim -2.669631 -2.1032724 1.6825842 1.4418647 1.7533456 -2.45264 -0.45713878 0.05261163 -0.8145494 0.08337979
much 1.2793138 -1.6886611 -1.8542649 1.9308258 3.5563123 0.7624948 -7.3373613 5.055746 0.40587592 -1.4177315
where 1.5102773 1.4632912 -0.09360706 -2.8119578 1.7512681 2.1765943 -3.3574796 1.9222258 -0.4339603 0.33879575
durhumit 0.24787298 3.1053493 -0.33356392 0.106578186 1.0773758 0.24416833 4.1015935 1.4243819 -1.912698 3.8695984
servant 3.6122324 -0.2728098 -0.7071018 -1.0043002 -0.76645845 -0.3363769 0.47725287 3.026054 2.1080744 3.2894995
verdict -0.5845348 0.84544045 4.8447437 2.0556214 6.145672 1.5195242 1.8404652 1.0518819 5.9947386 6.1268992
over -3.679785 1.1666548 -0.5829047 -4.207825 -4.2935696 -0.5473884 -0.12804121 4.34173 -1.3812265 0.107711725
some 2.5299535 -0.5394538 -6.220537 0.23337093 1.8667176 0.10598994 -1.9182974 3.4626484 2.7656586 -1.4912262
written 2.7506535 -0.43277857 2.3229868 -6.6247044 3.7472353 -3.0448744 -3.3289714 -4.732694 1.3737086 -2.6012497
missive 5.103012 -1.2774628 2.2367136 -2.5225508 4.2605834 1.2288256 -1.1314429 -1.2177126 1.3190145 4.243237
every -1.2774545 -0.8946006 -1.332365 0.69542867 -3.7668943 -0.681782 -3.0022192 6.383626 -0.46652448 -0.7525268
first 9.631178 -2.7548208 -6.089641 -2.486043 -4.1030726 -1.2897952 -2.2966623 7.455523 3.1937969 2.2626016
down -2.4708247 -1.4597725 0.19594702 1.9730585 2.1603222 6.4130974 -0.8701685 2.5057967 -3.4909563 2.6567407
seize -0.58827 -0.31560892 -1.1574367 -4.454033 -3.4730294 -0.23527363 0.3434647 0.9266141 1.9836177 -1.3111191
deposited 0.5877045 5.2897496 -1.0641506 0.08527709 1.5048671 -3.276331 0.20591213 0.6511246 0.6117199 -2.791076
damiqpīaššur 4.0712886 -4.2269287 -0.033156812 -0.30801395 0.71159035 0.36063057 1.8916258 -2.34518 -2.0809653 1.8009516
manmahir 2.2101915 -4.2139506 -1.1934036 0.8542943 4.026039 -0.047453683 1.6315321 -4.001843 0.29325804 -0.42003703
remain 4.693521 1.1762031 -1.3090261 -3.2753165 -2.0158865 -6.8551526 -2.4922435 2.605842 7.502556 -2.1979513
proceedings 7.007975 5.854907 7.572428 -3.702759 -1.9465536 -6.977495 6.607911 8.67275 -9.396154 15.1111965
aššurtaklāku -0.51914054 -4.1834307 2.108931 4.220165 0.17632866 -1.2254742 0.73248965 -0.33461457 0.71325046 0.09695188
release -1.4287074 3.3581688 2.6637084 -5.786326 -1.9696219 -2.9244628 -1.3652248 1.6849706 6.015552 -0.95059675
year -7.5237756 -3.0646656 -1.8899162 2.286384 1.185051 2.9282126 -0.09364103 3.58048 -2.1586509 0.109373756
tariff 7.4783597 -2.4681587 -1.8503714 4.4108253 5.4234123 -9.029871 -1.1904844 2.439315 5.2269936 1.4090766
iron -2.208165 -0.12834282 -4.410682 0.26689628 6.0942407 -0.08088285 0.8613323 0.3880025 2.6610699 0.16692005
worth 3.8254592 -1.5995909 -3.8483126 2.7714434 -2.3564563 -2.9561677 -1.1131768 1.8090193 -1.0897413 -4.1696672
share -0.29822686 4.402105 -0.3680903 2.0439577 0.86190164 -0.2361473 -0.8696652 2.0101743 1.2182432 -2.6619492
amurrumbāni -0.70638955 -4.093069 5.295112 2.8018928 -0.004352687 1.5032461 1.5608582 -0.43097502 -1.3797152 3.6323965
duty 1.4522612 -0.94571006 -5.909425 5.4442897 6.0512733 -8.831948 3.815114 3.6725967 4.856878 1.1781093
import 1.3586012 -0.8543341 -4.6482635 5.064372 3.2354429 -7.5246553 5.423793 1.9327083 3.942333 0.86952686
raise -9.85615 0.8534316 9.810257 -5.6194773 1.7390345 -0.20591895 -2.2326403 -1.3814892 4.822429 -0.37875447
kuziziya 2.665063 -3.4961195 -0.6386412 1.6312537 2.9241335 -0.4364038 2.9055188 -3.728141 0.399461 0.24866958
message 2.4755785 -3.1196296 1.2801079 -4.332853 1.8892801 0.5598216 -1.6621238 0.14848156 2.9933364 3.3413408
small 7.8926215 -0.0064696497 -4.2154603 -0.9419166 -1.4884578 -6.20551 -3.063128 3.8089945 -3.8683383 -1.903799
settled -4.1251097 6.863848 6.158137 -1.6090007 2.7543218 2.8587825 3.468054 -2.8993628 -5.011114 1.4123092
aššurbāni 1.3012288 -4.8178473 2.1939573 3.3698442 1.6590295 -0.6649621 0.5516219 -2.4363613 -0.57738554 -0.01700076
god 2.810111 1.2080312 4.1487403 1.0352803 0.3587129 2.859131 -1.7956998 4.1291385 -1.1668166 5.2327685
šalimwardī 7.1179943 -3.7291498 -2.9178596 -1.9995197 -1.3315861 -0.8156942 1.3644395 -2.3409066 -1.8596975 -0.923094
lord 3.5878408 -2.478943 3.6859999 -3.3634944 -2.0513926 2.2210474 -5.316385 1.6647352 1.6979142 0.26677927
anything -3.8176057 -3.947765 -1.4894251 -3.4340882 4.2908907 -0.1391648 -4.3635592 1.3391901 0.9415984 -0.2997012
now -1.005926 -0.2819347 0.5879696 -3.2008421 2.5532188 0.12974152 -2.0061867 0.4543523 -1.5259562 1.1239395
heard 0.4548317 3.229319 6.7526126 -5.541805 1.0495107 -2.3684764 -1.8055447 -1.3814287 -3.013388 1.6464816
aššuršamšī -0.9442678 -4.0339656 2.4052806 0.7101686 0.3410937 -2.9281092 1.7411655 -0.06575586 -0.4001845 2.943231
specifically 2.3441072 -7.801027 1.9892368 -3.0268822 -2.4138632 -2.0250661 1.4867916 -5.97602 -1.4493058 -3.0686078
hold -0.8279105 0.47858176 1.2210169 -1.0108255 -0.029463073 2.054609 -1.3776904 1.1979132 4.7446504 -0.57041824
barley -3.9538028 -2.1052637 0.20342483 4.212051 -2.4597464 -3.6900766 -3.678201 3.4288924 -0.80777824 -6.1157136
get -0.45863447 1.1883864 0.70215726 -2.77334 -0.77000815 2.1603878 -3.4204228 3.79416 2.5909135 0.102857985
bringing 3.0241284 -0.074640125 2.78595 -0.70624584 -6.5087633 -2.9012144 -2.292922 -0.59704316 -1.0905973 -5.5825214
because -1.3207686 2.874708 2.5295322 -2.641588 1.5212994 -1.8374857 -1.6640202 -0.5883862 -2.3834038 -1.1234876
harness 6.199943 3.9281645 -1.241891 3.9562638 -0.9903209 -8.941532 -0.16330498 5.306802 -2.602861 -0.75116134
wahšušana 2.2433898 0.004416353 -2.552144 -2.1847718 2.337596 -1.8620183 0.49562556 0.82097733 -0.26811963 2.0060134
palace -0.17557193 2.5894496 -2.3421698 -0.11317719 4.9150224 0.41145268 1.6084213 1.6540972 -0.98300016 2.9324877
šuillil -0.28142425 -3.8081827 1.9733455 1.6973252 1.9365484 0.079957314 0.59841955 -1.7669775 0.59148437 1.0862867
merchandise 2.9870887 1.1253536 -0.105376974 -3.5673177 3.0315747 -3.3442624 -0.64239764 0.4064024 0.9920007 2.5117383
aliabum -2.5665421 -2.0016487 5.1879044 2.2054265 -2.4772694 -2.3388693 0.50516564 -0.33843562 0.18359956 -0.6025346
would -4.58496 2.988593 -2.0907815 -3.8741763 2.5370324 6.7068343 1.3326101 1.4329196 -1.9412858 1.2029972
she -1.3242835 -0.60781074 0.20090437 -3.0677218 1.4022983 -3.1242073 -3.790989 2.8313692 -0.4816938 0.047806375
promised -3.8483932 1.3328291 -2.2095017 -2.5119026 0.5200769 0.4807075 2.1078174 -1.5786629 -1.1524149 -2.5756972
washed 3.7423704 0.55408776 -3.998323 3.905608 1.5178185 4.3254843 3.5119529 -4.7970133 -2.4207447 -5.8012104
arrive 0.49358702 1.6741352 -2.0079653 -6.1044135 -0.058812432 -1.3982128 -1.6081961 4.088687 3.172654 1.651472
journey -0.820019 -1.3624606 1.0368549 -1.4612596 3.9506614 -1.9322166 -4.494765 4.2747226 -0.11520277 3.559409
puzurištar -1.407745 -3.5675695 3.9542422 4.0725107 0.30757013 -1.0903078 1.5697907 -2.1810658 1.6844872 -0.80896235
behalf -2.8821247 -2.618588 5.39536 3.5254424 3.8059416 -2.4843206 -2.1885884 0.8461065 3.2516484 1.639131
half -2.4007783 1.2083802 -1.3870094 1.9513668 -2.0246832 -1.2589269 -1.4792435 3.0059748 -0.19395994 -4.441228
iliya -0.45653912 -0.23293036 2.7969866 0.54702634 1.0744144 -3.991432 1.491448 -1.2584207 -1.1479931 0.8802392
myself -0.67784435 -0.3426015 -0.9090809 -1.7205505 1.9683269 -0.52896535 -0.3948289 2.33341 -1.7805611 2.9045663
šukkutum 0.025855416 -4.8306427 -0.52804744 2.4288888 1.9170927 -2.168695 -0.07657473 -0.89104885 1.5719359 -0.6084924
daughter -1.6949408 0.14427337 7.1671863 0.3851188 0.16230972 -3.883911 -1.9125725 -2.5438426 4.107687 -3.141119
stating -1.0213119 2.036969 3.464297 0.9709959 4.113629 3.0249772 0.15582253 -2.2584507 4.9336476 -0.55230343
receive -1.4124684 2.1064858 -0.9520201 -1.4117397 -1.4857211 -3.693489 0.3494073 2.5666964 5.188913 -1.3240167
time -5.767288 1.6210793 -2.055365 0.2647798 5.435451 -0.09703154 -2.191212 3.742114 2.8976815 -0.5991476
issuarik 0.8786246 -0.82526827 4.8451414 1.7481447 5.1528296 -3.7115085 0.42830074 -2.9250917 1.3942467 1.7101247
came -0.35027996 1.2946017 3.086273 -3.5976179 1.0353229 -0.0655898 0.21310827 -1.840004 -0.65335286 0.8551534
account 1.4416666 2.983323 1.6505166 2.0619886 2.7430477 -1.6790943 -1.6264408 2.9954758 1.3185966 1.4920725
away -1.4629247 -1.0069251 -0.9550764 -3.484457 3.2677724 -0.9026037 2.0020118 1.0162796 -2.1376104 4.925838
šalimaššurs 0.9236818 -1.6275731 3.1156096 0.07026974 5.0846148 2.57617 0.63560706 -3.4793704 4.505057 1.4258918
office -0.37110326 5.285359 -1.3314617 3.480179 3.539361 1.875225 4.38065 3.5277038 1.3683761 4.3210793
aššuridī -1.4410619 -2.405347 4.5012374 2.3197913 0.37206474 -1.6688068 1.5473903 -2.0021925 1.6610527 0.25868627
wheat -3.5480711 -2.3510935 -1.7757719 3.6877222 -2.322571 -5.04072 -4.0581856 4.077765 -3.055254 -6.93907
arrived 1.0732068 2.0411866 0.115821786 -5.1448493 3.2758565 -2.783765 -1.5290793 -0.18411689 1.3934143 0.8213142
days -5.5820904 -2.66534 -3.9139073 -2.2938378 0.6250235 0.7165642 -0.2554178 3.0465853 -1.4649782 0.29893255
into 2.801098 4.863474 -2.3524666 -6.663542 1.8085258 -1.6229485 2.6891036 0.7979272 2.8944685 2.604142
ataya -1.5796752 -4.751449 1.7469026 1.3926141 0.99143976 -3.3774855 1.9288815 -0.86375314 -3.0371916 2.1366048
follows -0.2780305 -3.510658 0.8733012 -2.5395312 2.8223655 -1.6194814 -2.5285463 -0.25850397 -3.805032 1.5381793
apart 2.130376 -0.8858122 -1.8891871 0.5996935 2.6984344 -0.4656046 -1.5220404 -1.0856612 0.16858809 -2.3744557
entrust 2.5721922 2.2697525 3.2530227 -5.3430676 -6.4107633 -5.095746 0.96277463 0.14967772 3.6483803 -1.3759857
šunūnu 6.201512 -4.246844 0.6617287 0.55046517 0.98355436 -1.8579025 0.44710344 -1.643275 -2.9824367 1.9780455
iddinsuen -2.2264314 -0.17905948 5.6013985 3.8766663 0.9604457 -3.9471614 3.3574271 -1.025303 -0.050809983 1.8356609
too 0.29444152 -0.83751494 0.31362838 -1.2162352 -0.19147353 1.0261791 -4.2865777 3.8305252 1.1028479 0.1808536
still -1.3133074 0.8619733 0.544851 0.65479857 0.43256313 2.5950441 -4.2513843 2.6462572 -1.6743346 -2.4666626
cleared -0.7272329 3.143297 0.17185578 -3.103914 1.7970214 -2.010698 -1.5846859 -0.63658464 -2.2488804 -2.5293865
šuaššur -0.69549584 -3.3680468 3.8776364 2.2594888 -1.3401484 -2.609013 0.88750327 -0.3782537 -1.9248072 0.7273762
šēpištar 6.8722186 -3.5457711 -0.70636404 0.33756375 -1.066375 1.9627666 0.015294034 -2.0137815 -2.0496933 -0.9282114
indeed -1.8745776 -1.6351994 1.8130479 -3.1246424 2.6846688 1.53689 -3.6554136 0.3647161 1.7280468 0.40467277
assist 0.82792777 -1.1553223 2.9236767 -5.4341125 -2.4960637 -1.5019608 -2.2208989 0.85279703 5.2187147 0.004449491
excise 0.745858 -0.600622 -2.6072772 3.3551283 0.8730336 -11.030688 1.8103259 4.234022 3.0762806 0.2353069
term -6.804653 -0.089351214 2.366201 1.8900778 2.279839 0.48422113 -5.4646735 4.5367255 5.554931 -2.6850147
aššurmālik -1.8417314 -0.8046505 3.5930777 2.8576834 -1.2525648 -4.2964253 4.7543206 0.04926609 -0.1582884 2.57369
respect 2.740264 -1.4141456 -0.70583045 -0.16240026 1.1674299 0.16596238 0.0025589925 0.12050521 0.6498457 1.3101009
gate 3.3503041 1.5822884 3.5160236 3.4448428 -0.21179219 6.10737 1.8393927 4.0791373 -2.9277108 6.875782
sister 1.3929114 0.92987233 3.7643604 -3.374281 0.4149797 -0.9623133 -2.8663852 0.10533175 3.6715512 -0.114844576
went -1.3575191 2.469806 2.3257363 -5.004909 -0.6396833 -1.1045727 2.8273096 0.752071 -0.5030207 3.9879425
know 2.3478384 3.0091789 1.6873878 -6.2143135 1.4965452 -0.5991578 -5.7680964 3.1988854 -2.3805025 0.87063813
inform 3.0899756 -2.2227292 -1.1076044 -7.144078 0.8438677 -0.60686255 -3.9476347 -1.7172945 0.3388619 -2.5476816
whether 0.8460386 -2.2041152 -3.7722788 -3.770303 2.9218237 -1.428248 -3.8617098 0.743753 1.7248306 -2.2780306
uṣuršaaššur -1.6373545 -0.58661616 3.814535 3.923245 3.070018 -4.9476647 2.4514728 -2.2138817 -1.7528619 0.3665175
današšur -0.22531006 -3.5126858 0.042814963 0.32591134 2.5774329 -1.2710563 1.1827369 -4.5740895 0.48278055 -2.6929617
bought -0.120856605 3.7061906 -0.9429005 -0.34188616 -0.6829439 -1.4999202 0.25774708 0.8763751 -1.2450271 -2.498627
puzuranna -1.5250151 -3.5487907 4.8042355 0.16906244 -0.30420235 -0.6991355 0.19556595 -1.0552926 0.9339725 1.6788242
hinnāya -2.2169282 -0.36436254 0.5063774 0.68149275 -0.15596935 -5.0648913 4.2589803 -1.1612629 -0.20123889 0.2546605
less -2.509434 -1.2063044 -2.2114675 4.8214073 0.029948609 -3.1123416 0.020084707 1.3002598 -1.9652941 -4.2944636
words 0.33093208 1.608049 3.2967484 -2.3248086 1.8637815 0.17379336 -2.056111 1.46127 -0.8292073 2.7407541
today -3.0336387 1.0042516 -2.065847 -6.2874722 2.3973432 2.093685 -2.9958255 2.6691692 -1.8497763 0.33674097
accounts -2.8278728 1.4060212 3.2322032 -0.8182119 4.698296 -1.5056778 2.4592712 0.032847673 -1.6846143 5.518133
kurubištar -2.1631732 -1.4554158 1.3920404 2.1474266 1.7096897 -2.4763625 2.0753145 -0.63379234 -1.3605742 1.0988894
affiliated 1.2709572 -2.5696733 3.7090673 -1.8093766 -7.241437 2.8353078 0.93834203 7.1166635 -3.7077966 7.1042557
šuanum -1.3523985 -4.0743074 4.3322954 3.5688138 -1.9086105 -0.38192225 1.0912637 -0.5097911 0.06207567 0.16332276
šusuen -0.77773255 -3.1353583 0.6939961 1.963837 1.3324089 -2.052142 0.8235278 0.16208974 0.23814498 1.3600985
purušhaddum 1.9337481 -2.6515532 -2.0436082 -2.4517136 1.3026305 -1.7619835 1.3663213 -0.2614369 2.151443 1.7995754
jar -0.50193596 -0.9189362 1.6074907 1.8082569 -6.966284 -5.482328 1.6782875 -0.850826 -3.1651354 -6.6539717
ištarlamassī 1.8997254 -4.620406 0.3915078 -1.2086427 -1.4132799 -3.675154 -1.9177256 -1.4506286 0.8929537 -2.672432
votive 6.837318 0.86868644 -0.32848024 6.844616 5.2483463 -0.79742116 -1.5073508 -0.8670244 6.194603 -3.0743651
how 2.8520846 -2.755691 -2.7859979 -0.57732046 5.3481336 5.699545 -5.6553874 0.66895586 -4.055113 -1.0038645
lords 5.6314483 -2.191603 4.8441625 -2.6431086 -4.497651 1.9402434 -5.9521093 2.5034745 3.0938258 -0.77539706
least 0.7813278 0.02636923 -4.290139 4.1387844 -1.6796801 2.4570992 -3.0425704 8.384352 2.4041648 -1.0220037
way -1.7632108 1.9059991 2.749941 -1.3297744 -0.5581334 -2.5465577 -3.4488177 2.8058524 -0.45237422 -0.8013967
without -0.09117866 3.140057 -2.1631224 -4.712975 3.3250663 0.5010386 -0.24250853 -0.4883595 -0.7101486 -0.23743975
aššurbēlawātim 0.47865567 -1.4741243 2.5508535 4.5027943 3.3514404 -3.0450644 2.180415 -3.753204 -0.1324232 -1.5409974
attention 3.069443 -3.3543928 -3.1199074 -3.235407 -0.9523315 7.8362584 -1.1985346 -0.33289725 2.0429041 -0.9180043
lead 2.9367836 1.4655164 1.4070884 -4.4185033 -3.951712 -2.8563108 -0.72201264 0.69326884 -0.724929 -0.64551544
fine 1.6048442 -0.45742932 -6.470843 -0.94458485 -1.362384 -2.2437127 0.97627103 1.0077107 -1.4991843 -3.8134773
other -0.8952445 3.4400036 0.8869138 -2.374459 0.49613166 1.2259154 -1.8743094 1.6724491 -0.6028939 -0.6828605
held -5.2346582 1.4937966 0.0007358476 -1.6435157 -0.04213048 -1.0592583 -1.2314963 0.69401693 -1.375488 -3.4862828
even -2.04102 0.9346132 -3.8677032 -5.3004527 0.19340947 0.59259766 -2.6666493 4.571633 -2.9020534 0.15623692
years -6.026093 0.5901585 -1.2539111 0.47982845 2.2708416 1.0896583 -0.9994607 2.2232401 -3.3187697 -1.1454623
trader -0.48136434 -2.78311 1.4671464 -0.55019516 -6.012975 0.46322605 -0.06437155 7.745742 -3.2861707 5.5228205
aššurištikal -2.2757258 -4.4501586 1.5698698 2.4807937 0.6655061 -1.3041221 2.042544 -1.7460926 0.043754216 0.06990706
representative 1.1918379 0.39760762 4.3175826 -0.9749084 1.1190569 -1.3353968 0.47841653 -3.3544676 2.607188 -0.57099295
šuhubur 1.0702026 -3.5049999 0.7904174 2.5868208 0.5314172 -0.19095686 1.0540979 -1.5099562 3.3184497 -0.7527901
lady 1.1039522 -2.5770338 -0.14944617 0.72900003 1.9315151 -2.5768158 -3.3994591 1.6631593 -0.7064679 -0.17591901
amuršamaš -1.2721763 -2.4891808 2.874541 4.942286 0.0083852615 -3.0835671 1.5263381 -1.2659976 -0.5916126 -1.6462891
aššurrēī 0.39283225 -0.8696778 1.5926243 2.9222777 -0.08140983 -4.436015 4.6384377 -1.7084198 -1.9098831 0.82544255
angry -2.1608214 -0.62745833 -0.981526 -4.3296385 -0.36542225 3.740893 -4.5852985 4.973837 -2.454246 0.22031537
amount -2.516222 -0.40934664 -1.7507333 1.1147822 0.03498795 0.6324542 -1.843729 3.0055048 2.868957 -2.0386958
aššurlamassī -0.6095178 0.21161598 3.3739915 0.8612314 -0.977553 -5.3238196 1.7877127 0.5733015 -1.7741641 1.5076175
balance -3.4135714 1.2932956 -0.23916978 1.2082701 0.09849529 -3.6879275 0.5147933 2.9760847 2.268595 -0.41804013
burušhaddum 1.589026 1.8822165 0.029381866 -1.4943018 2.4156828 0.24264173 3.3165085 -0.029417755 -0.15408154 4.1495852
thin 3.79057 -1.5468414 -6.8766513 -2.421864 -1.6592913 -3.280907 1.6879585 -0.65560496 -3.0169978 -4.112361
according -0.24306141 2.4482164 -2.1214576 0.35881197 1.890134 2.306699 3.0330951 0.8651879 3.1236894 1.3332962
oath -5.6459007 -0.33298987 8.173554 0.75852674 0.7783781 3.8429422 -2.0551019 4.229357 0.4100421 5.016259
act 1.8046124 1.0061358 2.1228688 -4.5426455 0.0559934 2.6928155 -4.8133683 3.6500723 4.853439 1.0892247
spent -0.45452434 4.877974 -2.3028336 0.7026618 3.8228436 -5.3865523 -1.0092293 1.4571328 -2.5483744 -3.3481977
dadiya -0.36389646 -0.60635996 -0.50171286 0.33885315 -1.7595035 -6.8754663 6.735155 -2.0795407 -3.4113014 0.06080551
order -0.78870463 1.4339762 2.319499 -2.1658382 0.69152826 2.3289735 1.3029089 1.0717046 1.8209285 3.5610385
ababa 2.405548 -1.7987204 4.758969 -1.4026418 2.0497987 1.0880868 0.0010741825 -2.574202 0.32964778 2.6702113
plenary 1.2519635 4.38309 3.8323104 0.38332507 4.6370416 0.43510616 6.3773527 0.82540613 -0.4788073 8.281023
placed 1.7049867 5.6249785 3.9178548 -0.26918122 2.134239 -2.1675682 -1.1113764 -0.5991465 -0.33799145 -0.9316898
fee 3.8377306 -1.2902502 -0.16149603 3.6904874 3.5419843 -11.195113 1.8095862 3.1777449 5.4399185 3.0125523
wrapping 5.797857 3.2807565 -3.2457585 4.637483 2.4909766 -6.7723107 4.052312 1.6977643 -2.881123 0.81627285
arrives 0.13192193 0.33538386 1.1533196 -5.461794 -2.5688038 1.3437529 0.5880791 -0.34515917 0.014605495 0.7230273
nothing -1.8600366 -0.949034 -0.31785768 -2.6075785 4.7524962 0.02755724 -3.294654 -0.13818464 -0.2846019 -0.80926955
including 5.3291526 3.7750266 -2.7094517 3.5410545 2.497518 -2.1089938 2.4224203 1.0189681 -1.8524048 0.11860391
annaanna 3.9963093 -3.568023 -0.5845033 -0.9122571 1.2515277 -2.8207147 0.12284164 -3.8408246 -2.021579 -2.1912997
irišum -1.6152004 -3.981927 0.0999182 3.9658272 3.1039915 -2.2541072 1.9871124 -1.4503987 -1.9488386 0.14673607
separately 0.67932916 1.644743 0.28054714 2.59114 -2.678632 -5.110457 2.6651118 2.1160254 -1.880328 -0.43908757
among 2.1490726 3.3938837 2.9644718 -3.0060759 -1.2429265 2.884593 -1.1843013 -0.8226897 -0.26284003 -1.1884032
ilīdan 0.5103985 -3.2680924 1.3087218 0.9095259 3.523957 0.6913154 0.82065207 -3.2965193 -0.38335696 0.5009077
terms -2.720329 -0.29513395 3.5104678 3.004996 1.8912843 1.8990682 -6.7310805 3.690689 0.1764448 -2.0083435
overland -2.0296679 0.5428794 0.022129983 -2.573366 0.50703394 -1.8063664 4.579878 1.1100526 8.717452 3.190167
partner -0.93625164 3.1703355 7.961909 0.53204757 2.0001955 -1.9533329 -4.1488504 -0.1302378 -1.5076255 -1.1861227
soon 3.0970783 -3.5384057 -0.55854166 -0.81958014 0.4718276 0.11240505 -5.4544005 5.632654 -3.5813875 2.7826822
ṭābṣillaššur 2.267174 -6.1957726 0.73071164 2.133447 -0.64637196 -0.7290229 -1.1558875 -0.86236346 -0.49548694 -0.8594242
while 0.65348953 1.5174639 2.4973872 -4.72275 -1.8349736 1.0123792 -5.009734 2.2868767 -2.8007073 -1.6975508
confirm -2.6454937 1.2841232 1.7090422 -5.339208 0.018145828 -2.5633755 1.0731221 -2.0669415 2.7299025 -0.9134429
three -1.7114847 -0.30245447 0.031540304 -2.1858628 0.8984268 -1.1199127 -1.8939701 1.275527 -3.8517325 0.14132234
affair -2.66032 4.2094994 6.2793117 -0.61102813 2.4885814 -1.0578673 -2.0576293 2.4369519 -1.553667 2.6576257
deducted -2.1616182 4.1178727 -2.1414409 1.8220476 2.84995 1.1330054 2.3619628 -0.8795078 1.3415434 -2.6948807
hahhum 1.6981775 -0.6778653 -2.6909842 0.26526496 2.3576696 -0.3345423 0.5399301 1.3095285 -1.710948 1.7910634
food -0.41051614 3.618433 1.1909523 1.0852559 -0.81257427 -3.24549 -0.16110444 5.2382994 -1.8183806 2.200843
died -0.93300086 4.523532 4.5042324 -2.9307718 3.0685875 -0.8725236 -1.6035993 -3.0644877 -0.9310731 -2.336294
lamassī 1.0893835 -3.6765087 1.7954249 -1.0829569 0.015791649 0.03599228 0.9726206 -3.4331596 -2.4215991 -0.3709065
favour -0.40629494 -1.9393663 1.5274539 -4.633753 -1.2538898 -1.4645045 -3.714392 1.9343959 0.055614717 0.097542025
return -2.9079194 -0.15498772 0.36769226 -3.5874 -0.033438463 -2.1062164 -1.7641377 0.35656673 5.4253063 -2.5535793
ahuwaqar -0.24053434 -2.8705337 4.4323554 2.8200443 -1.9297874 -2.8944979 2.4300535 -0.31424105 -1.9518597 1.7900747
swear -3.5892563 -2.2594063 6.2809963 -1.9118549 -2.7192402 0.19682159 -3.7425864 5.364765 -0.26450044 4.14461
annina 0.23353796 -4.687937 -0.07558047 1.3046476 2.3285995 -1.2426395 0.80117184 -1.7418127 -0.15806778 0.5007023
staying -0.39097026 0.846439 2.7088058 -4.183871 0.64103323 -3.3935359 -3.7621787 2.921936 -2.755681 1.4652679
lost -0.69289243 2.3960166 -0.35799918 -0.6106943 3.7014952 -0.07986357 -0.9816602 0.90465075 1.1411744 0.0954809
lāqēpum 1.1637756 -2.7994142 2.030133 0.80228317 1.3576838 -1.1794641 1.9097589 -1.4743009 -1.1229612 2.6578395
dark 3.9441104 4.2964177 -2.4147406 1.6643177 0.22098248 -6.203782 6.283207 -0.9467135 -5.04594 -0.62940466
bēlānum 1.452004 -3.1519694 2.7436037 0.78579575 -0.83238363 -4.7020397 3.319587 -0.24617818 -2.0243232 3.7776935
pūšukēn -0.9646682 -1.405455 3.1648664 2.2721286 0.9273153 -1.3701888 0.5957285 0.25984415 0.33929977 1.9321992
yourself 1.9392667 -1.9708235 -0.96999323 -3.3892813 1.6557028 0.79791516 -4.1114006 3.1266465 0.19959575 1.7215662
šalatuwar -0.33545646 0.9246679 -1.5413165 -1.58255 2.3019493 -0.22776958 0.101674676 1.2425629 -2.5373306 1.2912859
creditor -2.2084594 -2.7262437 1.841672 3.1851003 1.6488872 1.0096531 0.19967335 1.5839263 4.969385 1.7089307
enter 0.4764144 1.9185575 -1.0587816 -5.533087 -0.59866405 -2.8316019 -1.4946929 3.3379762 5.252088 0.57142264
open 1.3398308 3.2574184 2.4584355 -3.0427635 -0.59044504 2.164305 -2.0863156 0.81680065 1.6339675 -0.5680482
ikūnum -3.5542293 -3.900188 3.5412571 3.4037507 -0.5647098 -0.87286407 1.3192322 -0.14519621 -1.1771002 0.49387237
tax -3.2638605 1.5525223 -2.711528 1.6864059 1.498736 -3.1368423 2.8922698 3.6894717 0.25883183 1.5780059
hanu 2.0824916 -1.8968124 -0.87456137 -1.0283946 1.6305938 -2.043088 -0.37662414 -0.005853477 -0.9035538 1.1557755
whom 0.013887087 -2.8561056 1.8121941 -2.0835402 2.8600895 -0.00424541 -5.1534204 0.7119563 -0.9310274 0.14595333
customers 2.118439 0.72540987 3.2093906 -0.23842086 2.1324944 3.6543682 -2.130587 0.6875295 0.8375589 1.9993774
iramaššur -0.7988637 -1.5304004 2.4633758 0.67913914 -0.06086048 -2.3472795 3.1314309 -0.3511864 0.079563975 2.5923777
collect 0.85061246 0.4453626 -0.7638493 -1.5849491 -0.8086849 -0.03916903 -1.2783839 1.5439849 1.976582 -0.8339998
checked 3.4691532 5.3058615 0.63117945 0.22272836 -2.2256794 -0.5837768 3.9090562 -1.2131305 -1.7680539 -1.0530912
zukuwa 2.5650945 -4.748748 0.05394742 0.85396445 1.3904353 -1.2272506 1.486124 -3.644987 -0.5174886 -1.0115092
assets 4.4623995 1.8444785 1.0829666 -1.1737498 1.2988381 2.6579063 -1.038724 1.1053808 1.0165491 1.9902481
twice 1.4442595 -5.559543 -4.1816826 -5.662489 5.74135 -1.4965601 -4.0549746 -2.898157 -0.859322 -3.1416574
become -3.587185 1.1778924 0.795253 -1.0205219 -0.1592388 -2.0195827 -4.0835023 2.0549877 -1.0192908 -3.635805
lamassutum -2.9357812 -0.8970031 -0.28736115 2.366619 2.4559124 -4.916489 2.3337736 -1.5406384 -3.2967944 -1.7063059
mother 1.7375413 3.5273647 5.188464 -0.92062646 -1.1248682 -3.510383 -4.0793514 0.74968696 -2.3938835 -2.5662954
aššurrabi 0.16764402 -3.5736978 1.937751 2.0439603 -0.91968733 1.3226368 -0.6472163 -0.48273742 -0.77580816 -0.68119156
ready 1.1999694 -0.50534976 -1.3895385 -1.0048827 0.8140294 5.36369 -2.7329667 0.5369321 -1.4107156 -1.8714918
place 2.4960024 4.2317643 1.5820507 -2.033092 -2.601847 -0.4507402 -0.7155753 3.0436203 4.2871575 0.04257022
sworn -3.6954644 0.90988404 8.300771 0.2642122 6.2968183 3.8648121 -3.243323 -1.0757619 -1.6324165 2.5105972
listen 1.0011048 -0.47756612 1.9605825 -5.873115 -1.2411734 0.9133978 -2.6531484 -0.078760736 -1.5827092 -0.085319296
delayed -0.79459816 -0.08765739 0.48389077 -6.052536 -0.090253286 0.64004695 -3.8093975 1.0941709 -1.9415861 -1.1332294
agreement -1.3961302 0.9947327 3.7713885 -0.383306 1.3244195 4.718403 -1.2634759 4.6729307 2.3803515 5.247184
inahilī 2.2527556 -3.135774 2.436312 -3.426755 1.9562689 0.7680541 2.5144992 -5.3765163 0.53518504 0.8316866
deposit 0.37364587 0.9763938 0.73428464 -0.61130816 -0.033682093 -0.47533977 -1.5546906 1.7032437 2.143907 -0.32500467
earlier 1.558959 -0.19987215 -1.5107412 -1.3669059 2.7699406 -0.5208791 0.32720876 -0.86400926 -3.7980697 0.50841403
slavegirl -0.61302483 -1.8521177 -1.5615349 -0.2790934 1.600552 -1.7374036 -1.51374 0.83699095 -0.075250916 -0.9137827
satisfy -0.8379107 -0.24654162 1.7508856 -3.0917783 -0.60752225 -0.7784333 0.738557 1.8188453 4.006752 3.1713872
mannumkīaššur 1.2325926 -4.3616805 0.030727316 0.8230183 1.0016886 -0.51652616 -0.5490332 -1.942605 1.4217628 -1.4505755
rule -0.5248703 2.4167976 2.7248156 7.335416 -0.75006974 5.5038433 7.096202 5.8044343 7.4150467 6.718811
belongs -1.6613356 3.3767328 1.538032 -1.6877638 -1.1825122 -1.3712018 3.1206279 -2.1427143 -1.8567322 -1.4545835
elāli -0.5881966 -3.290055 3.6751568 0.5389333 0.017587911 0.7068527 -0.7162953 -1.1277362 -0.0070381747 0.5783256
absent 1.0042671 1.2384166 7.463553 1.2019958 2.3609118 -2.1368523 -3.5846615 -0.34726483 -0.7968623 0.20208102
once 3.4054797 -5.1458817 -3.3682382 -3.6224785 4.5717616 0.073304564 -3.627853 -3.0260491 -0.73730075 -3.0369856
questioned -0.38401812 -1.0835669 3.925094 -6.4594417 0.30326334 0.64500487 -0.22986539 -3.7526426 -1.1639159 0.38221183
satisfied -1.486729 3.9439507 1.9461708 -2.3624713 -0.258069 -0.34740952 1.0021961 -1.0535488 -1.060379 -1.3954939
uku 3.7932515 -3.462941 0.21977173 -1.097283 -1.666917 -1.7787439 2.4250264 -0.98009694 -0.13804857 1.8434571
šamašbāni 0.6263721 -0.6997344 -0.24400304 -0.15842684 -0.45329177 -1.627849 2.3813078 -2.1122313 -2.885161 -0.96977764
orders 3.3876936 0.20575842 0.2249427 -0.99152243 1.8558367 2.3077826 -1.5694176 1.3359649 3.39285 1.6386032
ask -0.01772527 -2.39321 -0.44948137 -2.8670235 -1.7651243 -1.6321034 -1.8762373 1.8851073 0.42974648 -0.009880651
messenger 0.74425524 2.142995 5.649875 -1.975885 -5.032188 0.47462252 0.7019874 3.0533004 -2.1920252 3.8064098
passed -5.3409114 3.470718 1.8808525 1.07368 5.073973 0.10452257 3.321434 -0.95745796 2.8813396 0.8512703
says -3.1961281 -1.0048283 3.3902054 -3.6856985 -3.546183 -0.6501218 -1.1982795 0.32406965 -4.124053 -1.308468
eponym -3.147956 -1.2289983 2.936547 0.023603618 -1.8731326 3.044534 1.1962045 1.051979 4.016054 1.1639014
inn 3.371638 4.670186 -2.2949262 3.3695316 0.28526592 -2.9182057 3.4617085 5.8008356 -2.371813 3.6591356
statement -2.3681395 -5.512054 6.5241632 -0.022203645 1.4375509 0.5593167 -3.786174 3.591048 -1.3393545 6.147295
addition 3.2840915 0.8490449 0.98936826 0.7498824 -1.1912398 -3.2061167 0.047232024 0.40636006 0.027327916 -0.56265056
entered 1.0108739 4.9103217 2.2416897 -3.4631011 1.1384695 -0.76747316 2.9845645 -1.8648025 1.4135953 0.9411275
ahšalim -0.7059088 -1.5603505 1.2015365 0.15330495 -0.555544 -2.6150753 1.3423088 -0.29245275 -1.9327508 0.7498765
behind 1.3401074 0.9222507 -0.257762 -2.0550075 3.7120101 -1.8966548 0.60467935 -1.7828254 -3.6046524 0.5147501
oil 4.7706327 -1.6799598 -3.623386 0.32659656 -4.085325 -1.0541613 -0.14563905 2.0985124 -4.842469 -2.1886067
payment -1.9230596 0.4226693 -2.395988 2.9800622 1.4499815 0.91682315 0.98464406 3.1378605 1.0047433 0.5739985
extra -1.4320517 1.8793191 -3.1210582 0.999877 0.80268985 -1.8166767 -0.4957244 3.3706913 2.5386207 -1.8856417
king -0.916446 -0.41337162 3.1796498 0.49028373 4.442202 0.89112175 0.43075165 -0.47423396 1.0134933 3.6818175
wages -0.47457188 1.5280248 0.36756262 3.2627978 -1.1850014 -4.9722085 0.095051534 4.6785617 1.2974886 0.31031618
alulaya 1.2543924 -1.475552 1.2907695 1.5724815 2.2128382 -0.90181506 0.701985 -1.8345246 -1.6686919 0.57319045
full -3.140955 0.45172527 -2.4782205 0.82530123 2.3738782 0.24934289 -0.6991946 2.648286 1.3160349 -0.8243274
only -2.766357 -0.49343786 -1.1614134 -1.713927 2.2863028 0.6940147 -3.1627793 1.3305886 -0.32786846 -1.8275529
jars -1.0254507 0.32384816 -1.978889 4.133401 -0.27310365 -4.4927692 -1.6209029 4.3101363 -3.3784895 -3.0570695
tumliya -2.0494354 -2.1333792 -2.0498912 3.6199548 2.025315 7.3925166 -0.98904747 1.149304 -2.1230948 -1.1354985
possible 1.8672781 -3.4679394 -1.767152 -0.49522588 -1.0426649 1.8981481 -3.917596 4.8990173 -3.5183682 1.3121983
ālṭāb -4.1865573 -2.1429105 2.458297 -0.4828167 1.0319996 -4.5691257 3.5801306 -0.9289752 -0.22818847 1.9106282
jointstock 1.4532237 0.6199782 2.1982217 5.8241205 1.5014621 5.637115 -2.7985816 3.923863 2.0643685 0.95856327
times 0.98768944 -0.6756417 -2.6179838 -6.3882117 4.0083985 -0.9815081 -2.9758673 -1.5275991 -3.7661562 -1.6215438
offerings 5.723107 1.9394243 -0.4083326 6.35064 3.5522454 0.30700296 -2.4098735 1.770855 2.6474152 -1.7360647
abiya 0.54668856 -2.0485375 2.8140712 0.407999 -2.622847 0.120029695 2.1441505 -1.2884499 0.25898585 0.4831619
sue -1.1935503 1.0866486 3.719161 -3.583783 -1.1096015 0.51708996 -1.5740776 1.4042146 1.0120325 1.7481308
wherever -2.2826498 -1.1624095 -1.627063 -2.6798544 -1.6553298 1.6711615 -0.18544343 2.5478191 -0.022815658 0.3646208
later -1.1759714 1.8522558 -0.5974125 -0.34514612 2.206877 0.37198249 -0.07666074 0.74539196 0.1865229 -0.09843026
stay 0.38011852 1.09653 -0.122673996 -4.4976697 -1.9084371 -1.946985 -2.493941 2.6473188 1.2213646 -0.8390558
hurama -0.42104587 1.9669183 -1.0295341 0.34719524 0.85836333 -2.3726153 2.6092353 3.628407 -1.2908639 3.734743
stand 0.56575364 0.81961215 2.0429616 -2.708743 -1.3713549 0.19076635 -1.6030381 0.42138052 2.834794 -0.99306095
yourselves 1.0988473 -2.5492847 -0.24968673 -2.0383937 -1.7526997 5.5305057 -0.91734797 2.2969599 3.3672442 1.3780802
yet -4.0165277 2.460035 -1.0162009 -3.302896 5.2379813 -0.3520128 -2.304485 0.5519208 -2.0603235 -1.3417156
agreed 0.06728083 -0.7559488 0.22475168 -0.22299486 1.1476629 3.1676338 -2.7394178 1.4868927 -1.0959189 -0.04671181
show -0.8266674 -0.0914408 1.4586567 -5.0854115 -0.22169197 3.478501 -4.4896603 1.3334326 2.3935192 -1.4394534
produce 1.2410576 0.065514594 1.902011 -2.2321954 -1.6761382 0.353057 -2.3861911 1.7959495 2.093223 0.16207315
see -0.13798182 0.86942405 2.2922113 -3.079871 -3.038751 1.2400198 -3.4265087 3.3944376 2.7378213 -0.6687787
along -0.4803402 -0.40382794 -1.0383757 -2.3507144 0.2402382 1.8387059 0.7027751 2.0024335 0.00700306 2.4476821
grains -0.3622606 0.19148353 -2.3946393 4.956028 -1.9144374 -1.4461272 2.2011037 3.5499952 -1.3121189 -0.8578796
kukuwa 0.58402526 -5.504928 1.613617 3.2137682 0.23643653 -0.45365673 -1.3931023 -0.6085463 1.4624264 -1.1126184
purchase 2.7201855 -1.2037252 -4.7516356 -1.189348 -2.4199228 1.5012586 0.3724015 3.6448562 2.7518907 -0.04576629
delay -3.2153385 -1.4308803 -1.3928995 -6.509071 -2.7734478 -1.2034616 -2.537841 3.57807 1.9017138 -1.1138625
kura -2.4008675 -2.041672 1.1165643 2.761771 1.5510743 -0.15805772 1.7341056 -0.45245212 -0.9856918 0.59818506
bad 0.6358933 2.1518621 -2.6256235 2.696377 1.6870419 2.3934922 1.045991 -1.497147 -3.0871444 -4.528457
kuburnat 0.8294386 -0.08403607 0.49829122 -0.52840835 1.1908107 -0.8166031 2.586978 0.49913755 -0.55431736 3.89257
credit 1.3689604 -0.862131 -0.7610848 -0.6295953 1.0732434 -3.1775632 -2.370185 2.7800577 0.2045918 1.0585477
ago -4.988339 -1.0567877 -1.3849908 -0.09885012 2.7714744 0.9063064 -0.8304639 2.0943 -4.7996864 0.89976627
scribe 1.2774283 0.24996893 2.5779605 1.2187573 -1.25899 -1.7401717 3.131277 0.23062886 -2.46915 2.861334
track 3.53545 3.3245244 -2.437942 -3.8485668 6.06893 2.875416 -3.4855695 0.85438025 1.4201599 0.11880454
narrow 1.5279746 -0.57985777 -2.8205247 -2.571155 5.090504 2.387975 -5.773456 3.56502 -1.0831598 0.96645826
hands 1.4575893 4.890316 0.6996513 -2.5004354 -0.8050331 -0.87419945 0.8322673 0.52504295 2.1296258 -0.8546081
second 0.4781184 2.457715 -1.4401798 2.6246502 0.78757375 -0.1753885 0.6185127 1.4088761 -0.73831975 -1.4600788
put 0.21467462 2.4417546 -0.7206385 -1.7568271 -0.9993796 -1.7670691 -0.4560888 1.6111491 0.35080478 -1.2196885
comes -4.6849732 -0.0055085146 -0.9686312 -5.0249524 -0.87253857 -1.3438925 3.4619818 0.8730419 2.8808024 1.4306735
value 0.2833337 2.0105858 -2.182616 3.5140986 0.20893793 -5.1887712 0.9139201 4.2192626 -0.13333526 -0.25545684
concluded -1.6305919 3.3740804 3.55468 -0.73988783 4.7924185 2.2754452 -0.7085528 -1.2264493 -3.8849673 0.62659794
lulu 1.3209416 -4.3608994 -0.123534836 2.0913563 1.005961 -1.5104207 -0.48319066 -1.1167483 0.6527477 -1.263307
sale 2.2192547 0.7285511 -2.9711733 0.3326401 0.8902686 -2.2726295 -1.6098866 2.992555 -1.2452347 -0.81101257
present -0.2784065 2.7813663 1.5856296 -2.86299 2.1260815 -0.36406094 -2.091096 -1.9741726 0.82322246 -3.1290805
loan -1.0846951 -1.6586903 2.8390405 4.1894717 2.2931604 -4.9932284 -0.87217104 1.897118 -2.562812 1.5263083
guarantor -1.5389028 -1.2798201 2.0430486 1.8428808 2.5417106 -0.58840615 -2.0478303 0.124115735 0.41607994 -0.60973316
ušinalam -0.07438545 -0.14396527 -1.1212354 -1.4740375 1.2369971 -0.77456033 3.2180967 0.6163355 -0.7104803 3.242573
reach -1.462102 -0.14264514 1.5813621 -2.2805426 -0.26139247 -0.3558793 -3.6893678 4.6423564 3.406825 1.2152599
akuza -0.39681008 -3.2103963 5.763875 4.9070797 -0.33685 0.74390954 0.8216634 -1.3683931 -0.28692266 -0.75390136
profit -3.3010147 0.63729674 -0.64372873 -0.81207174 -1.1344445 2.3950417 -1.3668407 5.814491 4.169099 0.9344335
answer -2.4582307 -1.074078 -0.29620373 -4.8743644 0.70085764 -2.7708974 -2.4541657 2.9130683 1.0898135 1.0726444
aliahums 2.9853714 1.6310959 0.25373796 -0.95920897 1.938024 0.3415541 1.8441935 -2.575657 1.1954554 -0.21718933
whatever -0.30618748 -2.3345187 -1.5552384 -0.98901933 0.31410778 2.3610084 -1.2957835 0.8773868 0.5899373 -0.45198432
became -2.9290538 1.1989063 -0.40382856 1.5447844 -0.59034395 -1.9672816 -0.71539605 3.5287724 -4.9860096 -0.7771393
led 1.9749354 4.406795 1.0084265 -3.903415 -0.26384136 -3.298947 2.1719391 -0.61273146 -0.5734161 1.0210776
borrowed -4.170715 2.7750192 -1.2472044 0.5365391 2.00856 -1.4646673 2.4381778 1.4064729 1.8907936 0.2837195
guard 3.8598359 2.7643344 -0.80173993 -1.9584684 -3.7872763 1.6694266 -2.7178383 2.9761329 0.90852416 -2.9936497
instruction 0.32362524 0.09445266 0.3987175 0.08983287 0.54973805 -0.92240673 2.134788 1.8960947 2.6670415 3.7738569
witness -0.06278357 -1.6738505 3.8351607 -1.1859004 -1.6367638 -0.38845932 -2.502452 2.4791539 -3.322242 2.353014
yes -1.0451555 -2.0717583 0.4594753 -2.903002 4.6888223 -2.5987232 0.9066192 -2.9439764 0.51648 1.3751309
anatolian -1.391594 2.505753 3.1326373 2.4239397 2.8345878 -0.7812279 -1.4851674 2.2063458 -0.13725679 1.2129431
girl 0.75765395 0.6966468 0.1463787 -0.5883548 3.1493785 -2.7691636 -2.1181102 0.20986189 -1.494157 -0.5800567
transported 1.7836852 0.80659086 2.3524125 -0.5297514 0.8561786 -1.524599 -0.8599449 -2.4037411 -2.5180736 -1.3663584
five -0.32425064 1.0208247 -2.104566 -5.5331054 2.778542 -2.616784 -2.0872748 -0.08527234 -4.069637 -1.4772204
hinnaya 1.6763896 -1.0492963 -2.0525813 1.542967 6.0489526 -0.14584522 0.82852226 -0.58153474 1.0182134 2.0569441
akkadian 3.7130668 -0.22064522 -4.647364 -0.66638684 -1.1738468 -2.742955 1.5592922 1.0954571 -3.6657333 -1.1374758
report 3.2485175 -3.7666805 -2.2310553 -2.4957628 -0.835663 3.511613 -1.9379873 3.1853054 2.5733628 2.1931825
being -1.0818098 2.9031034 1.3465369 3.8487177 0.0052976357 0.46729773 -0.2945798 -0.2594004 -1.8775971 -4.193721
obstruct -3.3007784 -1.4513173 3.7154462 -7.1085224 -0.7759339 1.3062329 -2.48532 0.1780044 1.9901783 0.40580636
hand 0.09604324 2.0106547 -0.9739176 0.14979956 -1.2414043 0.2536935 -0.2941707 2.7804224 -0.6892767 -0.6987764
missives 3.7572143 -1.1129389 2.795093 -1.5478531 1.1677742 0.15991196 -0.36577785 -1.2979252 2.4634511 1.9795598
importtax -0.03136767 4.1685743 -2.5116296 3.299325 3.374422 -4.0903444 2.8960981 3.8648942 -3.377003 2.0964978
ummīišhara -0.9711214 0.3724828 3.4648373 0.09961412 -1.9592854 -5.0757537 0.37513772 0.44451267 -1.6193577 -0.39882782
mind -1.1155931 -0.2606999 3.1818383 -3.726907 3.388824 0.9954231 -4.182793 1.3855503 -0.9566829 1.9296756
responsibility 3.0021987 0.007917237 -0.24595626 0.14870748 -1.1998607 2.451577 1.8262715 2.228201 0.5849998 3.3611205
travel -1.5985576 1.2196411 1.3860512 -1.7747668 0.19465038 -3.985504 -1.1006387 4.2664943 3.0662704 2.3890655
atata -0.23781216 -2.9537919 4.2613597 2.2754698 -1.0238913 -1.7977731 1.5684475 -1.9742818 -2.6561732 -0.047834497
fodder 1.9066554 2.492567 -1.3031697 2.7858791 -0.68133587 -2.8334591 -0.51561326 4.369521 -3.3464248 -0.70040935
safe 1.2063979 0.2762319 1.3256809 -0.48535356 1.0427351 0.62608004 -1.6895931 -1.0359054 0.14675966 -1.6591724
friend 0.7377379 -1.2367866 -0.19224456 -3.2717566 -0.35795376 0.99697673 -3.8660562 -0.25745022 -1.0038397 -3.4784303
plur 0.1407405 -1.7523134 1.4159232 -5.1059318 1.6862159 1.3336978 -3.4919698 -0.11018541 1.0059797 -0.00039717247
innaya -2.0596554 -2.253654 2.076494 1.4788768 -0.8423543 0.62918 3.1791043 -0.30590686 2.3151846 1.9063332
opened 0.9972519 5.407529 1.7737606 -2.7287128 0.20426807 0.49144682 0.16715035 0.19824006 -1.3088114 -0.50503683
karum 0.544292 2.459554 2.222979 1.4059634 -3.839928 -0.11673959 3.0951474 2.8642862 -0.006577579 2.0689354
paternal 0.010781819 5.0810075 3.4264746 -2.914736 -0.24016401 4.8974223 -1.6486639 1.1625845 1.9067382 -0.50182873
enahilī 0.7298845 -1.9490212 1.8920134 1.1917679 -0.30298483 0.8308109 1.7569667 -1.0871314 -1.9458374 1.3031652
bronze 6.2922783 1.0578085 -1.9068245 2.6099553 -3.7763605 -2.00385 -0.025567971 0.8701622 -1.4368043 -4.450128
container 5.240295 1.3804263 1.2227519 0.16897568 -1.7067004 -0.7986192 0.17275393 -0.32863253 -1.048464 -0.48555377
sheep -1.5497314 -0.19516294 -1.2276033 3.693095 -0.9022864 -1.7171359 -1.0166994 4.2341657 -3.139931 -1.6557547
favours -2.8173358 -0.6882288 1.533188 -2.271511 -0.57760835 1.3079512 -3.5803428 1.6452278 0.7966597 -2.0804057
anyone -2.1837666 -2.826337 1.5405545 -4.1612163 2.0744345 0.2626167 -3.5774584 1.8960316 0.6080207 1.8169302
ikūnpīaššur -0.84150535 -2.3449185 2.11561 1.224195 -0.6512185 -1.039983 1.7625681 -1.5751982 0.15680572 -0.30844
security -0.829554 -0.96539116 1.6569399 -0.41558576 1.9860979 -0.09711597 -1.9072274 -0.65027976 -2.8336449 -0.37178952
booked -0.69327486 2.6435144 2.020945 1.3780942 3.3436475 -2.5110369 -1.3687516 1.6579405 -2.2172925 0.77711487
mine 0.71178454 0.87095803 0.022614712 -1.1528479 -1.3022484 0.015100472 -0.63918453 1.2141565 -0.1081368 -0.6702818
alone 0.8118664 -2.7421415 1.059134 -3.4747396 -0.7259502 1.0672694 -4.4124746 1.3047693 -3.7208238 -0.4679928
sukkalliya -2.8119168 -2.2573295 2.2704701 4.201084 2.4876506 -2.4628172 2.5632043 -1.8349197 -0.043244924 -0.07900746
reason -1.553993 -0.038272638 -0.308912 -3.3199594 0.3173103 -0.10856999 -3.0295205 2.509051 -2.8235457 -0.24256232
truly 0.703024 -1.5112412 2.8078701 -4.1079483 -0.76125854 1.9940569 -5.330265 -1.501005 2.0181382 -4.6882453
many 2.9798887 -0.0047870814 1.4077848 -2.603347 1.5739353 0.5135659 -3.646451 -0.555598 -4.1885448 -1.0840389
turn -1.0274129 0.22370604 2.0834658 -4.1958265 -1.2703809 -0.9923494 -1.9093868 2.9449234 2.7009437 1.5306423
during -3.401437 4.557208 -1.7363144 1.2208666 2.3714302 -1.0267982 1.5435829 2.347507 0.5922616 -0.6745359
zuba 0.09366365 -1.401646 1.9644836 1.8516656 -1.3087176 -0.735999 3.3578143 0.11743159 0.74885845 1.9061899
returned -1.8002481 0.35165092 -2.0552366 -3.0552309 0.54892 -1.2079 3.4900365 -1.2680519 -3.2026465 0.3719412
iddinabums -0.32268307 1.8616139 3.8547947 0.1965861 4.3354893 1.0783582 -1.1677293 -2.972655 2.7778425 -1.8755583
šuli -2.930319 -0.9099045 3.5618367 1.6936934 0.58911544 -2.2198882 2.873742 -1.1856226 1.4968799 1.1578434
šumiabiya 1.6820772 -0.267302 3.0986192 1.0656763 -0.670422 -1.3301919 2.1360786 -0.71864545 0.8617348 1.6787181
lawsuit -4.4372387 -1.2504289 3.2202175 -2.292908 -0.27749464 3.503631 -2.003138 1.495932 -2.0019112 1.0060073
furthermore 1.2779975 -1.3015331 0.48986986 3.4740856 -0.80347216 -1.1001272 -0.88384116 1.3284453 -0.03697621 -1.1777697
ilīālum -1.7111194 0.23707902 2.3132324 2.5525153 -1.0714705 -1.7629876 2.915594 -0.28774902 0.016836133 0.026756192
uraya -1.1753768 -3.018424 6.0968018 1.7247044 -0.091671556 1.2575996 1.3143731 -1.3331738 -0.81577593 2.288319
court -2.833243 -0.53693664 2.9832852 -4.6910005 -0.15161866 2.2083018 -0.01537453 1.845132 -1.765761 4.1403046
refused -1.888488 -0.71129924 -0.21639298 -4.663631 0.04387201 2.303311 0.49349037 -1.2706639 0.67973775 -0.2670384
ilištikal -0.4136051 -2.7964852 0.29703546 0.93776524 -0.14053851 -0.7769192 1.262466 -2.3562467 -2.4031289 -1.8811704
copy 4.159148 -1.223731 3.2100224 -1.1696073 2.4356542 1.6607102 -2.042932 -0.77435106 -1.0838397 2.813852
indebted -4.27599 -1.6596351 -0.2444248 0.04892177 2.1629615 -2.7776115 -0.8973841 -0.2063279 -3.8875592 -1.7108049
decide 2.1444905 -1.2342182 0.63113415 -3.9477866 1.0099882 1.6636051 -6.509627 2.9536185 0.8259359 -0.918427
merchants 1.119784 1.6892093 -2.3987386 -0.20215106 2.774518 1.0622942 -0.43095785 3.0138366 2.6531634 1.3326402
worry -1.9297215 -1.2134862 -1.4921008 -0.57344925 0.65401846 0.896842 -6.2953625 5.170699 -1.4741124 -2.0734036
aššurennam -1.8452128 -1.8359241 2.801257 1.1695962 -3.2862465 -0.4267878 0.40427053 0.67000633 -2.1019416 -0.59264404
already -1.1831517 -0.22698347 -0.48305866 -3.0812001 5.46747 -1.6225287 -2.3145046 -0.17492162 -0.17955035 0.48132533
front 0.87144315 4.5669904 3.9319663 1.6166701 1.6649201 -0.93587005 -0.28498843 -0.6499875 -0.96501356 -1.0089065
remains 1.6044724 1.4919038 -1.6027691 0.24606343 0.45760688 0.5042305 -0.27191043 0.51874095 2.705205 -1.7273569
adadbāni -0.11461947 -0.65602535 1.6500025 0.89935946 -1.6752164 -1.9011462 3.6839342 -0.8375268 -2.6646187 1.2004143
jointly -1.8891906 0.6012339 1.5491333 0.47967345 -2.2364178 0.51865643 -3.8125281 2.565026 -1.8382926 -3.3195224
aššurrēṣī -1.9840281 -2.041871 -0.051732138 0.31394887 -0.53187793 -2.3961596 3.1886106 -0.67045736 -4.056353 0.33977428
reached -1.1393957 -0.09034459 1.4943805 -3.405671 1.1480228 1.6791694 -0.41988027 0.32112542 -0.016140407 2.1002262
released 0.4868551 2.6764662 1.2174191 -1.1515347 0.52155966 0.13432157 -1.2898186 -0.24782392 1.0102351 -2.237989
uzua -2.0213292 -0.8700396 4.5717196 4.152294 0.022613093 -3.0015793 1.409827 0.35159445 1.0809805 0.79929656
instead -1.4051548 -0.12298444 -1.4070975 -0.32994622 -0.33089483 0.5835972 -1.6478957 2.1359694 -3.6188242 -1.4720328
detain -1.4281791 2.5748298 2.0886695 -7.2635117 -1.2264287 1.1744605 -1.6328461 -0.78897023 -1.3173192 -1.4539119
total 2.6831841 3.6274664 -1.4102812 4.0370607 0.0053432286 0.32745248 0.9928712 1.8469176 2.7216022 -2.6493897
check 3.1796594 -0.0028457234 0.6892789 -2.7468126 -2.3950593 2.0374455 -1.4697742 -0.7552309 1.5002912 -2.4794683
extrafine 4.303994 -0.36092076 -5.545646 1.4342042 0.8386825 0.46201807 1.2384973 -1.0274215 -2.7866545 -3.9004447
azu 1.0341641 -2.9713416 0.4456787 -0.07841407 -0.6986078 -2.3684206 1.2407087 -0.50082153 0.22907068 0.5938874
kept -0.8707552 2.5567229 2.849556 -3.3051734 0.38262478 1.0795077 -1.7815349 0.18187876 -2.933602 -0.26529294
clothes 1.6667852 1.2093326 -1.6399083 1.4504102 -0.717934 -3.3840165 -2.6481373 4.301046 -1.1912462 -2.1183937
šalimbēlī 2.173506 -2.2998972 -1.5441855 -0.21372417 -2.111931 -2.4261494 0.90240425 1.3353403 -1.174886 0.46695957
salliya 0.9245238 -3.2988029 3.725366 0.5524681 2.014918 -0.366347 -1.0210403 -2.4064531 -2.008035 0.4846683
garment 0.6412978 0.98166203 -1.7426375 -2.9935195 -0.47159502 -2.857262 0.5443703 0.3203156 -1.5025569 -1.1071675
agent -0.9724905 -1.6690722 0.68357724 -0.6251157 1.3193873 0.5947391 -1.2052922 1.1982523 -1.7757741 1.5787157
iddiništar -1.5921329 -0.29738194 5.5535636 1.3853647 -1.54754 -2.2202382 2.240986 -1.2573712 -0.13713913 0.45088494
same 1.1381193 0.62221545 1.3052343 2.351091 2.13365 1.8253834 -1.5138403 1.0615025 -2.3391335 0.5180713
abarnian 1.4300046 1.0625663 -4.133129 0.7206195 -0.8200396 -2.405091 1.0805289 1.9537417 -4.996128 -2.3621316
asked -2.4223654 -0.23383 -1.1977106 -1.657695 0.42815846 -0.24086177 1.5201958 -1.131528 -3.0307996 -1.1109384
losses -0.40994138 2.609614 2.7842064 0.48859784 -0.4516402 0.43307444 -0.8640754 1.3715881 0.06795309 -0.0770765
offering 3.779116 1.5957706 0.46871242 4.1735926 2.8015206 1.1393734 -1.9557943 0.085343465 3.1022398 -2.5587738
hall -1.4834359 1.7021928 2.2447317 0.17776479 4.6946216 1.8692502 0.11360877 0.03183897 3.704386 1.8221563
sack -2.2404084 -0.9216136 -0.13828951 3.4044766 -0.80179995 -3.2287726 -1.3395392 2.6156013 -3.6268544 -2.6021452
shipment 3.261214 1.8303281 -1.8531157 0.16556816 0.32716203 -3.2209952 -0.8424474 1.9825975 0.52640814 -0.8772338
fem 3.6007879 -1.5384313 -1.5515547 -4.3244925 -0.8003474 -0.5046775 -1.4436363 -1.7201759 -0.16263992 -2.4720504
expense -0.3732443 4.430358 -0.8988197 2.697907 -0.15669994 -1.7291187 -0.8469383 5.5832763 0.85392493 -0.6383261
weight -0.24244769 4.11606 2.2291815 5.437414 1.1890957 -0.98587054 0.14991577 1.4474406 -0.37697944 -1.8965079
hire -2.0855064 0.8631272 1.6270006 -1.8598193 -0.20931166 -0.24459678 0.015106317 2.8189323 1.4017779 2.5523937
instructed 0.2617253 -0.78419954 1.0435103 -5.4125304 -1.8835752 -1.4733089 -1.7520869 0.028495656 -2.687322 -1.0425303
free -1.0853302 -1.3323008 -0.25847524 1.8277311 1.5149347 -1.581026 0.21365382 -0.6289131 -4.1647625 -0.862341
aššuremūqī -0.5340187 -2.6688802 2.6766522 0.28825828 0.23965418 -1.9579431 1.3673124 -0.5911572 -0.5148952 2.5068846
amuršarrassa 0.69764906 -2.4985306 -1.3228155 -2.174434 2.2758026 -1.9257629 1.3986899 -0.2098351 1.2965698 2.5986404
ewarimuša 5.1736994 -3.3882017 -1.61101 0.9606682 -1.156036 -1.5123461 0.25584695 -0.020640329 -0.1377363 -0.5127855
settle 0.048071634 3.2366393 2.9476452 -4.1141233 0.5426628 1.8464466 3.7359152 -1.3288016 -0.7862499 3.8192923
dadaya -0.9190551 -4.0965643 2.2886884 -0.12039475 -1.9934872 -0.23112603 0.9351997 -0.2570249 0.36623827 1.3430421
kutānutextiles 1.142087 0.50503665 -2.434739 1.8942996 2.1432261 -1.4858764 1.4653207 0.5560404 -2.466851 0.27115163
illilbāni 0.9650959 -3.9938438 2.9817936 3.936645 -1.865525 -2.2086842 0.9393384 -0.29745167 -0.4158339 -0.09456197
invested -0.78259754 0.11724026 0.89812165 2.1689703 1.6961067 -1.9926313 1.9517322 -3.2411602 0.60666084 -3.0859232
ilīašrannī 3.0015185 -0.71508366 1.4594886 1.9594818 0.8892389 -1.628084 1.2098597 -1.4709442 -2.277544 0.4572127
mannumkīiliya 2.5921779 -4.870359 0.839989 -0.25112915 -2.5601041 -2.1475074 -0.57320154 -0.33763537 0.43771237 -0.49245778
package 1.7699559 1.0456556 -1.4856806 0.9071912 1.1033014 0.16195683 1.9627792 -0.24508332 0.6107983 -0.034574658
cover -1.0006913 0.76667863 -0.3872413 2.2421503 4.8859754 -0.15482773 -1.5693129 -1.0820316 3.4321437 -2.903621
kūnilum -1.0695509 -0.08856794 0.33284914 1.6142327 0.87857944 -4.7522593 1.6101238 0.14450853 -1.1766028 -0.45254552
fees 1.0522712 0.38836822 -2.3745832 1.9248157 1.9620451 -2.1625347 0.6789599 2.310254 2.1011796 0.7544819
envoys 1.7036701 2.4518404 3.654865 0.23799926 3.8809395 -0.21413578 1.6965147 -0.029771423 -0.40352038 4.4618015
balanced -1.085413 2.780303 0.6775012 1.6896576 -2.5034835 -1.1512625 1.4582561 0.3801354 -1.8843255 -2.6886907
like 0.78176755 0.6219837 2.5027564 -3.0693474 -1.0448804 0.30457476 -5.6329045 3.1468127 -2.9947643 -1.0710319
ibniadad 1.118188 -3.3703878 0.022343487 3.6333625 -0.96875286 0.982946 0.18146326 0.8559177 -0.3210339 -0.09654221
slavegirls 1.0553683 0.52210695 -0.5667093 0.3376847 -0.87869054 2.2278674 -1.280158 2.499152 -0.122692704 -0.39722198
yours -0.75881404 -1.0263246 -0.631591 -1.449651 0.72746944 1.8039635 -1.0806153 0.28467754 0.2578335 -0.78036547
bags 2.069735 1.555745 -1.7272953 1.8495144 -2.0030553 -2.2558284 0.9386039 1.719353 -1.4501972 -1.9766902
ship 1.3921819 2.7095833 -1.4144776 -2.8203926 -2.6629255 -1.2939994 -1.6118618 2.844041 1.9528236 -2.7815912
obtain 0.11239536 1.2571654 -0.65659624 -1.830422 -1.6137408 1.4365982 0.28561622 2.665912 2.787541 1.1313719
belong 0.058637626 1.7672572 0.010429485 -0.8049993 -3.4499714 -1.5954525 1.4176798 -1.3653326 -1.0007946 -3.7953227
writing 0.3981605 -2.9311366 0.87978697 -3.4277604 2.1456087 1.0632062 -3.8263483 -1.0405369 -5.595579 -0.7742323
next 2.6672122 -0.14337175 -2.2650678 -1.9023937 -1.5910997 -0.78037345 -0.17500298 3.5555725 3.3247013 1.3955853
trip -0.22031231 -0.4647091 -1.7052913 -1.6242695 1.0241946 -0.096760415 0.34661326 2.7610548 -0.22453198 2.6878088
else -4.5442843 -1.2057604 -1.1968315 -4.575287 1.8133312 -0.31948653 -0.93014807 1.664124 1.435933 0.48967552
shipped 0.5650074 4.200844 0.1887403 -2.5180018 -1.3200105 -6.002231 3.7356956 -0.824877 -0.5702488 -1.125592
top 0.82206076 0.37675366 0.4701748 4.781934 1.4367517 0.774183 -1.0896319 2.7334492 2.6189713 0.13348356
bloodmoney -0.59086215 1.6432972 2.5550158 -2.9043324 2.1851103 3.507297 -0.13160804 -0.08884273 1.0869807 2.6204147
mamma -0.8157793 -0.27043366 -1.4859598 0.2675206 2.2490458 -0.8651358 2.50089 0.2773751 0.10226974 1.841683
funds 2.5866735 1.7947253 1.0390323 3.486782 -1.5880004 -2.6350782 -0.101962835 2.3486037 0.21428865 -1.0458649
long 0.2797088 1.7068915 0.86455303 -1.2903808 1.6112177 2.1408734 -3.637563 2.0046098 -1.8681954 -0.6211648
ušinalams 5.4154005 -1.5754488 -1.7043408 4.2324777 0.3566951 3.573664 5.0618343 -2.7334206 -0.5957049 -0.062297363
official -1.446427 1.4527072 -1.4478123 3.6485224 0.06840976 -0.16876847 2.3901982 3.1202652 -0.84849524 0.88756037
responsible -1.2063153 1.6284324 -0.31995797 0.2682771 -2.6868815 1.827467 -1.8066803 3.3250055 -0.65270203 -2.4303913
manana 0.24553172 -3.7062309 7.684069 3.6563542 -2.377377 0.3388032 1.7605078 -0.8125914 -1.8120666 1.8912835
swore -3.5133207 3.4654346 7.929066 1.7845935 1.4632745 2.6845515 -0.03857423 1.1204723 -1.1481323 2.28398
packet 0.03067634 4.7983217 -0.34653175 -0.17086129 0.27611673 -0.24745356 0.36823434 1.0995481 -0.41901785 -1.6332133
road -1.1817719 1.0616117 -2.0249586 -1.3918725 3.3059127 -0.41751644 -1.3196608 2.377613 0.48695135 0.67355466
šutammuzi 0.9124181 -4.9300685 3.4129343 -3.578145 -0.01975616 1.7108428 0.96705943 -4.052186 0.6170453 0.63582104
idnaya 3.4473238 -2.8998168 3.7004747 0.9465445 -0.4103154 0.25011995 -0.5840059 -1.7459276 -0.913997 0.3973397
dānaššur -0.62859076 -0.40767506 0.48835602 2.1035204 0.22576383 -4.7767787 2.0239506 0.8525682 -0.79227215 0.7285588
discuss -0.1680594 -0.40061447 3.9067369 -3.06721 -0.09956974 0.38080522 -1.0307244 1.5918351 4.021351 2.9506662
containers 4.599408 1.8443092 2.0721004 1.9332438 0.9415047 1.0761805 0.3492112 -1.5491054 -1.0935665 -0.6122508
harnessor -0.77364403 1.9638785 0.5266503 2.168796 2.2347372 -1.6545892 0.61518455 0.6452118 -1.7137359 0.022643104
elaya 1.2481699 -5.8971004 2.3353295 -3.716516 -0.62135726 1.2337182 1.1433179 -4.365627 -1.1812835 0.055058245
tūramilī -0.41602126 -1.1822076 2.6429782 2.2638843 0.887068 -1.666358 2.1730626 -2.411636 -0.30950683 -0.56148666
save 2.3417733 0.45462555 2.0954747 -2.5885065 -2.452577 3.603207 -4.469241 2.9240632 -0.55106837 -1.2995712
fact 0.47601378 1.2252364 0.5922835 -1.4063196 2.2859929 -2.2006161 -0.94102526 0.4255879 -1.4795401 0.60184145
four 2.5485494 1.6984137 1.4666233 -2.2183156 -0.3147907 -1.70387 -1.4261684 1.0612872 -2.506366 0.63052195
collected -1.653675 1.867936 -0.9195617 -0.9473505 -0.7021431 -1.4742659 1.926589 1.1099812 0.90809876 -0.008655682
lest -2.7321131 0.71306 -1.7765211 -4.623332 -1.6698084 2.1735327 -1.3050579 3.458274 1.0033275 -0.39705375
convert 2.5952 1.9326289 -1.5574931 -3.2123277 -0.9252482 -0.6229348 -0.6986245 1.372879 1.3443028 -0.86478305
clothing -0.05670176 4.8956685 2.8161924 5.2188916 0.72104836 -4.4401855 0.21386427 3.238216 -0.4141613 -0.65199715
šummalibbiaššur 1.516036 -4.0148783 -1.9347421 3.1717806 -1.713088 -1.2701023 2.4952188 1.4741498 1.1952282 0.5655503
lot -2.3161075 -0.62954444 0.6200496 -1.9846909 2.043105 -0.7544191 -2.4676213 1.3341879 1.1598699 -0.08771733
could -2.1093771 -0.56251067 -0.5995425 -1.8255116 -0.00837118 5.8964267 -1.048137 2.1572387 -1.0349675 0.9740595
making -2.001349 0.5957947 -1.3939784 -1.2050142 -2.9201612 -1.8402797 3.7949352 1.9220235 -2.733222 1.1725773
suennādā -0.059177887 -2.1885293 1.9689478 1.067651 1.7088885 -2.7916694 1.2216287 -1.7081214 -0.3005326 0.6280934
storeroom 5.460072 1.0947474 -0.03354303 -1.8767381 -0.6368186 -0.99568623 0.25501117 0.24829488 1.4610428 0.89005274
himself -4.44079 1.9942917 0.7625668 -0.6751816 -2.424205 -0.17333408 0.6616411 1.945625 0.36422408 -1.6021022
debtnote 1.1012046 0.799044 1.7530212 0.43518773 -1.0540469 0.37134245 -1.3587495 1.7004735 1.3751842 -0.05882391
pass -2.7321231 1.2215693 1.2367576 -2.5464985 -1.4823455 -4.143303 2.4626136 2.436225 7.9013367 1.2645156
tithe -1.9414685 2.078797 -0.90459776 2.1496916 2.6252387 0.079006106 2.8108902 2.5128984 2.3164632 2.5692477
loans 1.4624144 -2.4394515 -1.2111962 2.6690931 3.785121 1.916719 -5.386379 2.5706635 0.2966652 -0.9666094
assurmalik -1.159505 1.1907105 5.4166455 3.1769798 -0.94950604 -2.8325622 1.8937851 2.252933 -0.034715686 3.175141
gods -0.22316365 2.9393642 4.1973677 2.095689 0.44914228 -0.74386686 -1.478849 2.112987 -0.8584259 0.225142
copies 4.5519037 1.2565528 2.7138999 1.1360437 1.0516808 3.900394 -0.78404886 -0.048073724 1.2795104 1.2471004
look 1.3590496 0.32165322 -0.83975655 -0.40704167 0.95243746 -0.017959308 -3.0775545 3.2519505 0.9112017 0.030165289
abaya 1.4701176 -2.2414172 0.28812253 -0.29041198 -1.425112 -0.9252545 -0.55401456 0.53666055 -1.5980046 -0.18260874
overdue -5.8006167 -1.2016813 1.163715 2.4225898 2.0356374 3.3705237 -3.454498 0.11793494 -0.7643371 -4.7038813
šalimahum -1.5868477 -1.5738773 1.9274563 1.6034477 2.0989752 1.0021708 2.4870274 -2.6292324 -0.74213105 0.56123734
holds -1.4192547 0.51377964 1.7096211 -0.7123186 0.52653193 1.0055085 -0.13816114 -2.1369288 0.0040051774 -2.255478
alive 0.7029936 2.244332 2.7424505 -1.3547655 1.6256416 -0.79028034 -3.9168284 0.4598063 -1.7559565 -1.9140356
meet -0.9061137 -1.2214147 -0.13409665 -2.8361883 -0.7420593 0.6835242 0.45710197 1.2731764 0.145196 1.8359599
express 3.4486897 -1.0304132 -1.6399317 -0.23003222 -0.7706711 1.2850038 -3.0437748 5.2564464 2.0370944 1.3849292
wašhaniya 0.08915624 1.8712932 0.4434948 -0.6030884 3.2110994 -1.7356461 0.099422716 1.089933 -2.1546295 2.1859908
pins 5.189768 -0.83234257 -2.1642509 2.916338 -4.6065073 -0.7074262 0.5014341 1.3618957 -2.905741 -3.7359989
memoranda 2.6782887 -1.808815 2.6637492 0.08387348 2.3094425 2.0187683 -1.0485077 -0.866626 0.027129736 2.0144818
memorandum 1.252152 1.0663424 0.6544282 -0.5823766 2.7104695 0.3855906 -0.8180056 0.3940497 1.8836004 0.98880196
šulaban 2.0693326 -0.61316115 4.069428 1.208215 1.760979 -2.1704886 1.2509861 -2.6961577 0.9164127 0.7283792
aššurdan 0.91954327 -3.1656432 4.0079527 1.1840938 -0.9001306 -1.0659423 2.084924 -3.2978818 -1.1551726 -0.2695805
ṣilliya 2.74372 -0.8458769 1.5387506 -0.05685344 1.3799331 0.324278 1.1395957 -2.6431947 0.749752 -0.07405331
amounted -0.5534772 3.049817 -2.8046908 3.9746325 -1.4407662 -1.0397315 3.535121 4.5425296 -0.40586826 0.44988015
breads -2.8889318 -2.103168 1.3946655 2.5442276 -2.6909914 -3.9459293 6.5339875 -1.5554186 -2.7721884 -0.563661
idnāya 0.13062733 -0.1442258 1.1741586 2.4360597 -0.84863085 -0.23475188 1.8169007 -0.6233028 0.36215 -0.7608726
question -1.5517234 -1.0398903 2.1362436 -3.801073 0.8863526 0.40712774 -1.1761441 0.75256526 2.7125885 1.6144142
ennamaššurs -0.56243145 -1.5284854 0.3780662 -0.4267211 3.3340511 -0.11211157 -0.4995472 -1.8157635 2.4350505 -0.69499886
acorns 2.6202807 0.73707604 0.10134763 0.7326786 -3.3544173 -2.0611634 -2.316067 2.0460868 1.1080245 -3.2000709
shoes 2.3194175 -2.4668782 -4.8610067 -0.7511833 -3.6629353 0.9121096 -0.32601643 2.1224751 -4.1341276 -2.7660377
kudātum 1.4910891 -3.2589645 0.48350602 -0.5892836 1.1453139 -0.54712784 2.1004186 -3.2273023 0.47014543 0.21139692
investment -3.3829324 0.46772522 1.4347712 3.068304 3.6262517 -0.41194916 -1.0579886 2.4390323 0.33438656 1.2292597
produced 0.15762152 0.76630265 1.6147759 0.051369708 0.21779476 0.32533675 -0.26786193 -0.7427673 0.40821317 -0.7842739
testament 3.777045 0.5316346 3.3210905 -0.025739184 2.6749945 2.5310128 -0.7939603 -1.2030143 0.71833295 1.8994397
damqaya 2.3552632 -3.8718443 0.09237667 -0.3410087 0.002765412 -0.12719393 -0.28824487 -1.7018054 0.041990437 -0.40018088
zalpa 1.640008 -0.21491535 -0.8832627 -1.2418131 0.34707692 -0.26669517 2.4334118 0.29191655 0.3741264 2.5282702
colonial -2.478317 6.28427 -2.029221 2.3097944 2.8668885 -0.6750507 4.8519683 2.3320265 -0.37105376 1.2062275
tuhpiya -1.7802864 2.069241 1.0877181 0.99255955 -0.11167056 -2.68882 1.2576365 2.3634398 -1.7401484 1.2485381
carry 0.332092 1.2407604 -1.2625633 -3.504204 -0.41719458 -2.1422045 -0.44892448 1.6531034 2.6719527 -0.30876982
refuses -2.3486123 -2.0485063 -0.31870148 -2.5167248 -1.2616398 2.9737222 0.87762326 0.055289645 0.42808843 0.2327241
missing 1.1834985 1.8822073 -0.5571817 2.1087284 1.6954477 -1.079093 0.1914926 0.914703 0.27287892 -0.27311465
hearing 0.34344274 -1.0763835 1.2475488 -3.8891468 1.7474715 3.0270293 -2.6950276 -1.3273642 -3.8936455 -0.6804015
burušhattum -1.1096808 2.2800636 -2.3259997 -0.47016498 0.7446124 -2.823516 2.4663424 2.703632 0.058651906 1.4557956
garments 1.6035748 0.3903643 -3.3570888 -1.2289778 -1.1150749 -2.7170842 1.275862 2.3034043 -4.1010175 0.2873231
approach -0.7645378 -0.65363836 2.8386383 -3.5714989 -1.0655189 -0.11880102 0.1473311 -1.1635336 -0.56023365 0.49281383
šātanna 1.5794417 -4.8577547 -0.1617791 1.67072 1.935241 -3.432502 0.047563255 -0.745788 -1.1628214 0.6187687
assurtaklaku 2.760625 -0.91715264 5.7273903 2.108061 -0.8077802 -0.09551927 0.23014429 -0.39576006 0.39052498 1.968867
levied 0.35328376 2.5979075 -0.12647434 0.26899675 -2.20882 -1.6923927 5.2124577 1.7830293 -0.9464977 2.8197196
baziya -1.8562973 -1.9676919 3.8350997 2.8230395 -1.5630068 -0.2890129 2.7648263 -0.48181394 -0.26732585 0.9335114
accrued -1.7673748 -0.92010754 -1.7187552 0.97898847 -0.92289734 1.7448485 1.2240247 2.4005754 4.8443 -0.24477775
disposal 0.8054287 2.1342804 -0.42813185 1.7820331 -0.8389618 -3.7812984 -1.1995096 4.7402534 -0.4040706 0.080795735
letters 1.1331155 0.4162344 2.467696 -1.6449119 0.83582187 -0.5913159 -0.63112175 -0.418315 -3.7175515 1.3922852
obtained -1.1845596 2.105332 1.2383983 -1.5748259 2.2594132 0.8660585 0.7802488 -0.7137675 -0.5809685 0.92979664
erišum 0.6693781 -2.5371878 1.5263132 -0.62149054 1.0039995 1.6563878 -0.68669856 -1.9476067 1.5453095 -0.70234257
aššurṣulūlī -0.5820844 0.21934347 -0.14373913 2.461871 0.42660335 -3.471301 3.7432299 0.97033465 -2.9336553 1.6696657
aššurmūtappil 0.6252176 -0.44462398 -2.5225267 0.7405867 1.587336 -4.5023437 2.2173803 1.1477095 -2.623555 1.1712627
timelkiya 0.9448839 -0.06026894 -1.5802064 -1.8165381 2.034839 -1.7151378 2.5763676 -0.64234686 1.2207907 1.641511
declared -0.72446686 2.9507554 0.3704966 -0.036936298 1.5175421 -2.0160475 3.0405407 -0.463795 -0.22067873 0.7475848
ṣilulu 0.74342626 -4.0262523 2.2084277 -0.2455972 -0.62903845 -0.19175738 0.5051584 -1.6992626 -1.1155103 0.4382091
ennambēlum 0.2889484 -1.3292356 0.47390616 1.8668163 0.7793073 1.3361787 1.3738225 -0.3079436 2.067102 0.4393377
uzuwa -0.5169625 -1.7050314 1.9793627 1.4515915 -0.26056203 -0.682482 3.1931255 -1.8646725 -0.5804278 0.6615469
asānum -0.36163715 -0.013867815 2.001769 0.21466348 -0.68266386 -0.13702428 -0.46407378 -0.15932027 -2.3621933 -0.84847486
basis 0.31019586 0.79156524 4.2187395 -0.4610242 1.5100985 0.11918657 -1.6950629 1.8161634 1.3957859 2.5832217
again -0.9060829 1.6513408 -1.0164069 -4.4103465 0.011627779 0.89947754 0.8023189 0.562763 1.6075989 0.39692765
therefore -0.016496308 2.0032685 0.81591696 -1.1296958 1.2638704 0.56823224 -0.58236253 0.9664132 -0.23726633 0.61152476
things 2.9968061 0.28344613 1.3411491 -2.2368517 2.6209157 0.4065468 -4.1368074 -0.5423345 -2.4921005 -1.1201669
lives 0.7139068 1.9900391 3.1349308 -1.4254135 -0.6006324 0.9240543 -0.8903546 -0.4530661 -0.76721245 -0.2547311
final 4.170959 -2.116247 -0.2559697 -2.496412 -1.2655785 1.6523826 -0.99827725 0.8697448 2.375422 1.0121857
observe 0.10485566 0.5338258 -0.3781393 -2.7834442 -0.22393039 1.4227802 -2.415016 0.82156664 0.42929944 -1.9349273
amriya -1.221116 -2.7325017 3.152639 4.509006 -0.47088176 0.44691062 2.0139744 -0.659641 0.6891758 0.43311617
packets 2.2479177 3.2398286 -0.30868205 0.6695967 0.61939955 -3.2914205 0.76166904 1.7402616 -1.8232332 0.55794036
conclude -1.6167122 1.9168004 3.0694475 -2.9891608 2.618726 3.4014812 -1.6225393 2.0596855 -0.2125266 3.0797963
submit 0.60493904 -1.9485908 6.3355045 -1.962165 0.012191851 2.8921247 0.7773695 -1.7534709 2.739302 3.0244308
adada -0.17113483 -1.2271426 3.876752 2.410991 1.1878507 -1.8830345 0.6377423 -1.2602022 -2.4641142 0.69356084
wait -1.5311202 0.7607617 1.257491 -3.152265 -0.74459994 0.82348734 -0.996531 0.9129925 0.5045001 -0.1716947
little -0.29753044 1.9326429 -1.6571754 -0.43699363 -1.0862507 0.063780524 -0.47990143 2.8507652 0.7258998 -0.5990597
ones 2.9341881 1.6709555 -4.1686835 -0.83070326 -0.45925868 -0.74432397 1.1190525 1.2812698 -4.002932 -1.446689
acquire -0.8827983 1.6356145 1.2933046 -1.7458816 -1.1896145 0.65386724 -1.6691917 2.5697165 1.3550965 0.23548327
successor -3.4048953 -0.35447344 3.611837 3.769657 -1.6915644 1.5240529 4.058546 1.3208098 -0.12215378 1.7457188
firm 1.0288035 0.6918227 3.4175305 -0.10699719 2.6034987 0.9845601 -0.8831254 -2.3748026 0.38061848 -0.5686007
treated -0.1833978 0.42933944 -0.3914744 -3.9782867 0.76703316 -0.4438945 -3.7430909 1.1473452 -4.7038097 -1.6703187
converted 2.8961318 1.9826788 -2.1476998 -1.9408904 0.63687664 -1.4984605 -0.26861385 -0.055714276 0.38949385 -1.4947006
third -3.024878 4.302664 0.6617141 1.3472909 -2.5895143 2.8148537 0.9988141 4.200826 -1.387811 -0.9063974
got -0.19544983 3.0153062 -1.3966999 -0.025950843 2.055408 2.648334 2.378707 0.3391187 2.22985 0.46768358
matters 1.328621 0.5783623 2.5476925 -2.3577566 -0.0066028796 0.12566265 -1.2556604 1.212845 -3.229245 2.349746
kurara -3.2135303 0.30209136 4.3369055 1.6828828 -2.026186 -1.7429512 2.8137403 0.6366751 1.0928409 1.1292555
ulama 0.04357436 -0.92064375 -0.010714793 -1.4295129 0.5516562 -1.9845014 2.6595802 0.3250444 -0.7385582 3.0140228
traders 1.5385332 -1.9602977 2.8391933 0.19934401 -1.7209357 -0.017791849 -1.1602299 4.1026654 -3.7414143 5.073518
great 0.7432444 1.1369816 1.1012079 -0.7319131 0.8237119 0.9661261 -3.4747615 2.2060592 -1.0856943 -0.38222054
returns -4.648318 -2.2180893 -1.4454969 -1.0506014 0.7887905 -1.0654091 2.585702 0.8411893 0.9899639 1.2835314
decision 1.8297565 0.21675037 0.72561604 0.40617383 1.7090006 2.7868538 -0.94955534 1.6700834 -0.7833522 2.571598
anahili -1.2473378 0.08637136 2.5522156 1.4394095 1.2110614 -2.2634225 0.29286382 0.7158687 1.0900571 1.3845536
cannot -3.1076756 -0.17482881 -1.5628842 -3.3752916 -1.8888899 2.2209494 0.7904623 2.5608563 -1.7669734 0.92221004
safely 1.3317187 2.2164705 -1.7962065 -3.4373658 2.819987 -0.11247683 2.1413627 -0.4899603 1.949182 1.6403178
firewood -1.4007132 -0.7879829 -2.7460892 1.293596 -0.8604893 -2.851437 -0.7007817 4.4078155 -1.7133582 -1.0864872
assur -1.2971402 0.6071531 0.7508214 -1.6758231 0.12043217 -1.1248049 2.253671 0.3877426 0.35442427 2.3616254
imdīilum -3.2360358 -1.7336566 0.6355365 1.069715 0.10564586 -3.1186924 2.836876 0.33669236 0.8357567 0.93823624
following -0.26494148 2.6318953 1.1894132 -0.3687157 1.4253387 2.0011814 2.643804 0.888099 1.0358523 3.320768
measure -3.2984068 -0.045736127 0.67367357 0.59128714 -1.1064651 -0.64095104 -1.867657 0.12669434 -0.07763809 -4.3472943
spoke -1.4358184 -0.13770463 3.3177183 -1.948369 0.004026149 -0.32409906 -0.37611333 0.018729996 -0.19160663 1.4510128
export -0.33543226 0.02653774 -2.6860032 4.3928356 0.8727678 -5.7077165 1.4216932 3.7844133 -1.4388402 -0.12492703
abšalim -0.1541152 -2.2986135 0.59464735 2.2804952 -0.28366813 -2.9576502 0.41167724 -1.0388508 -0.8952968 -1.8655806
reliable -0.058792777 -2.5293396 0.48001745 -0.11665953 -2.438615 0.24855715 0.6302615 2.9820728 -0.83057725 2.8706088
able -2.1053882 -0.4584703 -0.8922376 -1.5299406 2.5307305 3.5781193 -2.1165683 0.7778749 -0.9920928 -0.49489012
going 0.15498863 -1.7528281 0.45746565 -1.935026 1.3079547 1.1969857 -1.1330851 -0.17870373 -2.3061688 0.99802446
just -0.77464527 0.7516463 -0.9508336 -1.0015477 1.0223246 -0.38867062 -2.0799935 1.8304304 -0.9844526 -1.2971705
nabsuen 0.62507755 -2.241708 0.63136387 2.456044 -2.5737588 -1.57488 2.4184022 -0.99108076 -1.4696027 -1.6661689
appear -1.7603998 -0.57418036 3.792092 -2.5303614 -0.34769604 0.04269001 -1.5545288 3.4637356 -1.1673487 4.2400465
smuggling 2.2914042 1.6343273 -1.4713492 -1.7839932 -0.30438596 -2.1844547 -0.16280319 3.2435534 0.46252128 1.545873
agents 1.110234 2.950429 1.3165287 -0.8823998 0.36744493 1.9857876 -0.55167335 0.9959028 -1.4244325 0.46681976
encourage 0.7354648 -0.27868885 -0.73261195 -4.8482733 -1.3164439 0.315937 -1.8110468 1.4750723 -0.25710708 -0.11185949
aššurnimrī -0.017768398 -1.9132714 1.4362733 -1.3185744 -0.59692603 -1.4463531 1.0689576 -1.3032384 -0.8720086 0.41871724
confront 0.8675338 2.248716 1.7953035 -3.4795055 0.84427005 3.2770073 1.2649742 1.7846437 1.5491661 4.6603923
goes -4.47268 -0.15997049 -0.08843663 -1.9743778 0.858581 0.3325093 1.8836687 -0.17117746 0.49158165 0.6035323
certify 1.0504832 1.3543905 2.4931746 -0.4632643 -0.9950739 0.7989584 0.08012431 0.9831671 2.5115001 1.0310491
dont -0.15306923 0.36405268 -1.5369033 -3.6778264 -0.28182775 4.909108 -3.0555184 0.90438086 -1.8237591 -2.6750405
šikkucopper 2.2156184 1.5170851 -2.8043633 1.7665186 0.1982389 0.6791474 2.468612 -0.99444336 -1.5111759 -2.4651642
offered 0.47268787 1.2938344 -0.6395277 0.14235 -0.8238973 -0.46806479 0.6526137 0.6838798 -3.432844 -0.5914801
envoy -0.28556496 -1.1994727 1.4027075 0.4686375 0.124201216 3.3295438 3.1703908 0.7872933 0.6841624 4.489806
agiya -0.5098669 -2.605718 1.8604431 0.9259785 3.1050727 -0.41513854 -1.5614276 -1.0428551 -1.2688565 0.11974812
būrsuen 1.4269139 0.61466604 1.1366559 1.3023412 -1.2537596 -1.1406728 1.8378413 0.127049 0.026795149 0.24913919
unhappy 0.34601483 -0.041183308 0.29625726 -1.6838074 -0.6283295 0.8799095 -1.2990783 1.8975537 -0.13659652 0.670134
ordered -3.73429 0.17100184 -2.8701625 -0.93135196 2.658887 0.4876749 -0.6259241 1.0929285 -1.8747877 -1.6606587
cheat -2.2821517 -0.46998015 -0.030890493 -5.484279 -1.1621891 1.9006691 -1.4264505 1.1883947 1.6740149 -0.6488681
affairs 2.0962203 2.0775907 2.2049184 -1.4337381 -0.019294363 2.6207488 -1.378456 1.003834 1.8032805 0.6572415
harnessors 2.2376168 0.03949457 -0.33309278 3.3020818 1.2380394 -0.84246904 -0.6500212 1.5072314 -1.101449 -0.27120867
leads 1.6124308 -0.37337142 0.3809362 -0.83146954 -2.4935303 -1.2976711 1.8254495 -1.6645178 -2.154443 -1.1270515
ikuppiya 2.6714103 1.174196 4.389643 4.777559 -1.7182609 -1.7670029 2.3218641 -0.19818754 0.19924203 0.18355787
ennumassur 0.70433885 0.4850685 2.8096166 3.6746056 -1.1804084 -0.2735834 0.5791953 1.2715973 0.61203516 0.09268303
investor -2.3882608 -1.3944085 2.0965269 0.5374175 1.6500756 1.1100754 -0.98659074 0.29628724 1.9163854 0.5253631
yield 1.1359718 0.62064016 -1.5111521 0.17612639 -1.0759829 0.4261679 0.49786472 0.47676885 -0.63487554 -1.2773057
iddinkūbum 0.005167693 -1.9960566 0.74444944 1.4062326 0.8920421 0.45945 1.1941264 -1.0496883 0.75517666 0.3327519
roadtax -0.843684 2.882608 -1.287923 2.253412 -0.8151461 -2.1147003 0.98665744 4.9106297 -1.0311445 0.79651785
puzuršamaš 0.1342132 -2.301954 -0.047335684 -2.4555006 0.7365142 -2.9176276 -0.45868295 -1.3645784 1.33986 -0.7401321
carnelian 1.7376597 1.425447 -1.067367 2.2449949 -1.6517771 0.21622713 0.5378845 0.3599708 -0.97626734 -2.6527429
stones 0.04637232 0.18749309 0.15309688 1.906546 0.4331425 0.15234075 -0.2309253 0.9030752 0.27112284 -0.802524
beads 0.3018378 -2.536221 -1.002713 4.473668 0.33902365 -0.5874121 1.1062225 -0.50831676 -1.3176341 -2.1255426
sadaya -1.0915529 -0.8350118 3.4523416 0.058193203 1.5499047 -0.2626703 1.418009 -2.0800707 0.18197802 1.3900319
raises -6.6892705 -0.7966699 4.0548787 -3.2722726 2.0169134 2.1123726 0.6202888 -2.2261698 -0.39087307 -0.58725107
particular -2.434112 0.0756903 2.5565424 0.18839024 -2.210521 -1.6072016 3.3930464 -1.5775292 -3.9106677 -0.7979903
fail -2.018913 -1.1075485 -1.427872 -2.905671 -1.374462 1.273564 -0.3507995 3.2058902 -0.24390398 1.1745499
aššurmuttabbil -2.2094214 -3.1166203 1.850373 -0.085906416 -0.5194528 -0.5028119 -0.4107434 -0.9675104 -0.8507335 -1.2485898
dead -1.5418248 1.0359281 0.20738322 -0.4723129 2.5324543 0.75736815 -0.87539124 0.29620147 -0.9146647 -0.10736753
eyes 1.2593771 0.30743665 1.0426565 -1.8364601 -0.44804877 2.2545753 -2.5188572 2.5226374 0.39495477 1.0679032
gone -1.8702807 1.4521519 1.0561429 -2.7779305 2.4612815 -0.79408014 -1.3857796 -0.04039565 0.9578442 0.17696215
someone -1.2084198 -2.165642 -0.5472894 -2.1188107 -0.0852594 1.99967 -0.4926779 3.4559932 2.1218755 3.304938
invalid -1.7083707 0.024876053 3.7597156 -1.2031133 -0.38431594 0.86918116 -1.8428494 1.7045683 1.278939 1.3958093
bread -1.3565613 -1.6590676 -0.58098763 1.2071979 -0.94213647 -0.7923876 -1.1404943 2.515283 -2.2952795 -0.5373627
waldiilum -0.85147685 -3.026277 0.8047822 2.325632 -0.30730975 0.56324947 -1.0005033 1.1762561 -3.050417 -0.29086113
additions -0.17709339 -0.38479546 -1.4827782 3.5329776 0.5829825 -3.7719114 1.4808956 1.7540035 -1.1858797 -0.379706
sickles 3.4935384 -0.5901501 -1.1888459 3.042265 -2.7252316 -2.0045266 1.0958776 0.9560748 -0.2607009 -2.0953503
keeps -0.2980354 -0.97554815 2.2562315 -1.4852782 0.6285643 0.77669805 -0.59417725 -1.1012648 1.1464784 0.2149105
šaradad 1.8735969 -1.4403589 0.8636959 1.1611434 1.7375035 -1.0074137 1.4979751 -2.2377589 -2.3638153 0.05408412
bundle 1.1914004 1.3860723 -0.6779913 1.0610535 -0.16959478 -1.7727633 2.2156327 -0.25469905 -0.56745076 -0.9333443
property -0.5191169 1.2539209 0.73344105 1.0291201 -0.89049184 -0.033079762 -1.0676455 2.4607804 0.04874246 -0.45757037
hanunu -0.866048 -2.4690955 1.4276952 0.62237877 -0.8808292 -0.22655596 2.2856195 -1.1284676 -1.3664111 0.5075726
zikiki 1.1477784 -1.9517407 0.8551969 -0.1467357 -1.993059 0.038539037 0.4419445 -1.743801 -2.035331 -1.9627591
